0.4348025124699242,0.09636791130671427,0.6323377903331682,0.5361577715850185,-1.334255422076036,0.0797517019016759,-0.8303825327347352,-0.1663887872332634,-0.95257998814806,1.2816115979246,-0.8867560828088022,-0.9258716459289968,0.17658984108506337,-1.0351513414157865,-0.32400117380325855,-0.7646422188184352,1.4161764438479765,0.804989342883068,-0.23089986623920983,-0.5219964939954044,0.8346230110674019,0.20493632654178068,0.552228722004596,0.03624424938949403,-1.6627336912389923,0.08286587892830695,-0.507163827143801,0.6690297646746737
0.9900994647546241,-0.6948183545297877,0.5777151019195577,1.751840588553045,-0.5885428841475926,1.6969161582084058,-0.9122572361951831,-0.094188515364654,-0.12617236285757372,-0.1184558660043751,-0.8726765766577831,-0.627371864447342,-0.6133893175442694,0.406770637778423,0.3918226915964488,2.198685890508899,1.3646270987922067,-0.5086995485450275,0.1544473437207441,0.9719737274300614,-0.15915395121180154,-0.26796968437453567,0.11946544246525573,0.9072447340973004,-0.7394063538479988,-0.14449255903411257,0.4990565372417373,0.3433627327035953
0.3252489695505425,-0.29154569891304877,0.983685565722906,2.1350573681082006,0.4780174161874463,-0.13028821008748118,0.856996167023586,-0.4313528007914903,-0.7934724031090328,-0.09399008155369884,-2.5547620582238673,-1.1350232601618393,-0.43078802885695666,-1.3972606248532777,-1.138067670707365,-0.5532144229276424,-1.7149756085568197,-0.6032917247497391,-0.28754583174347487,0.41511310764385057,1.235751259090775,0.33224324157232066,-0.14848721547381385,-0.06624799263854844,0.08328244863762867,-1.0799126282809415,0.00953740969922104,0.4196810664336058
-1.3507611400379813,0.9133210261337212,1.0861611345714213,-0.6239187999796882,-0.16857029245488822,-0.8444343295048743,0.7921114185933805,-1.002949450622129,-0.33113370364891465,-0.9529569018488102,0.03264024239008484,-1.7757917971070407,1.286657636559285,-1.0339961541320175,-0.17379663091208336,-0.37194532998826957,-0.9050787471575242,-1.0629106223331346,1.0650500169911725,-0.28894549720553586,0.38980848542995067,-0.7173989381374454,-0.7290160849779518,0.34450225664695594,0.8727474882785053,-0.3216481080105311,-1.3930345558270376,2.0034936463665622
-0.7024999507981673,-1.4945061995847955,2.594963606608127,-0.394551891147732,-1.4742168372276077,-0.6103369797525756,0.3900065890164494,0.24312123490020882,-0.7866603991165156,1.7997474297771956,-0.6293563947302234,-1.2302450194525307,0.8804944600135474,1.2543353403122552,-0.7747350183653035,-1.231503384064932,1.0863484695768442,-1.8927203807498172,-1.3028632417745527,0.8053222353701688,0.10074876527656547,-0.1443595361764804,0.3017000537777409,-0.20075291096802003,-1.2783763502897454,1.2370701420242791,1.396509335184588,0.47768862667117856
0.3093155187198519,2.3503276513900624,-0.2733716833080593,-0.2502386335727273,0.47784246985068635,1.4812688644911554,1.5913259702105906,-0.21596933482207897,0.2919684885360038,-1.3376973525959943,-0.25679638098490754,-0.713864072195425,-0.908531679708849,1.5773177466468316,-0.874949454242889,-0.6965259473448415,0.3273859262946586,1.275155732400705,0.4204054705081619,2.7361367959866523,0.024717226848448848,0.34897501923525126,0.26859587890376174,1.4022374828837507,0.574240936080839,-0.053703733500366405,-0.7767827483709899,0.5175771928085227
1.4644453938923345,-0.15171427273245536,0.47873913992780504,0.1802419451630563,0.8725780233359924,-0.7787096920924788,2.4094399048602746,-1.3410552614255429,-0.502245607973047,0.9493019812555021,0.39832578511297106,0.8734752246935238,-0.39965057761366246,-0.017112106013362605,-0.031593156984762845,1.4978338944900056,0.8185635569672328,0.8702956282439644,-0.7591605184730642,0.876527679426469,0.7194859730228592,1.5406411811373433,2.0225663880506017,0.12216754323531438,-0.5472556123371056,-0.9522766116976437,-0.08324747643596023,-0.3022901635290914
0.5989409548090706,0.14919215046951304,-0.43448471122400184,1.0322778384716538,-0.8961703283248804,0.4870295393646126,-0.5745046184674949,0.5733553856465773,1.3724058651917714,-0.44746214067705603,0.5335890820168524,0.4033585943811908,-0.8466071422242127,0.08502340534671411,0.22599318676155775,0.3879508391887788,-0.15970762763378313,0.22244797143410028,-1.2875275461287117,-0.35216244668832974,0.9346045728313528,1.151054355545454,0.08790468275429532,0.47720109621579865,0.08177708676205778,0.09911013091202203,0.6242721031788461,-1.8081600677966625
-0.2815799651509548,0.0330163595459935,-1.116557146674152,1.653414688451993,0.28614166494432025,1.5437909606586342,-0.8948972673438148,-1.012690933058768,0.3599529485566151,-1.746987134195586,0.255061342465473,0.13894767037984107,0.8308026826250536,0.6147782409310044,-0.42898542525576894,-1.0642624727216088,1.80225740108043,-0.83224618269384,-0.923630192583074,-1.0912313775939935,1.087139106795906,-0.3559019643232944,-0.5143429792771257,0.3872034912383667,-0.4062296454684452,-0.797488183816491,0.6427861127236526,1.0181151927480798
0.8813216500046924,0.6366550982659037,0.11696288340378883,-1.796974358101555,1.657999815422565,0.4099961586802245,0.5579825993898284,1.097213158461844,1.4482569542073833,0.3085378487269952,0.3825705176283641,-0.6639704209615128,-0.04298756816780975,-0.8950759811431193,-0.683103973109091,-0.8991824092015722,-0.09683469725205214,1.0273893113148032,3.0188408442018657,0.4574325645939814,-1.2861869991834767,1.253781264909724,0.029346611436800937,-0.40761616934356465,0.07839612149084318,-1.2733433735281008,0.06981181834528456,-0.2626817734127052
0.07278831083031988,0.3653902537141222,0.0697113099471494,0.09288233820662348,0.18676802223792124,0.4080775045743338,-1.2254638591164209,-1.51614621114404,-0.2481041717757079,-1.514291938763483,0.32576919099234924,0.9637694335678116,0.6373029800834226,-1.073086642692902,-1.097636144713483,0.28400277375034716,-0.3140335110174153,-0.257331589311965,0.4750116616943432,-1.0040727341011735,-0.3060020532993568,-0.7238712759518375,-0.9739228414766763,-0.8043355814871551,0.7832892722586112,0.1151039596437216,-0.7968615534688099,-0.08635907686122643
-1.6424748646280876,-0.7581890172410354,2.1567080842004986,0.005591959465462611,0.571208095213679,-0.10283408791962308,0.01128285424561081,0.4419321509865533,-1.1702714740093507,-0.15489414410591268,1.4900487864405951,-0.42136685501869253,-0.492248175728134,-0.287437850167089,0.4649024688569291,0.5348715878205049,1.3394991126916571,0.4756714458441266,-0.16877753757194783,1.268001924612667,0.7563327203992993,-1.4414281792226995,2.5332028829216338,1.7082830833738176,-0.1747467790957266,0.43499918424721623,1.3562677582522324,-0.0301254975825702
0.7476435563124724,1.1061763287659208,-0.988195780431885,-0.5540180194664338,1.083195503622883,0.6782518052588635,0.982260367455538,-0.315078985335926,-0.4215422183389699,-2.0183901179431185,-1.0648292033056879,0.2376251555485322,1.0671747341188733,0.8263353645324265,-0.11909952134726429,-0.2918969908525837,0.17641944918542418,0.1102067207045619,1.3740747522401535,0.1902815536277696,-1.3999582839307978,-1.2246985278621152,1.4782827710979316,-1.218337212082368,0.8015060273340763,-0.2245248784234188,0.02500838988327986,0.07452875561433116
1.23259142078432,-0.19173969434234112,-0.0027257829198798576,-1.4766371592375076,0.5659940221289173,0.8506137959767632,0.12782495754444695,1.4906743795381399,0.029882997447919214,0.1476446982161471,1.5795299611948146,-1.3051053814687934,-0.315723080431123,1.631052473479947,0.8520460135874569,0.6422073220518586,0.8505194237512153,0.28353609705047544,1.7562636321089657,0.4787159017876536,0.12844494685125146,0.059292563349566244,0.023512276996192967,-1.2229574162853563,0.8191341685858011,-0.12107933532364022,1.848764673710893,0.12482473113590588
0.43096656206546674,0.25140781537843604,-0.7320217786623632,0.929909293914903,1.9375103036052144,-0.018490376593760023,-0.2234084660828162,-0.2148936821383171,-1.9818160423320321,-0.11076956052788238,0.19722868696321413,1.0147570769315073,1.1401865108135738,-0.1679738647316118,-0.2761381954010106,1.2173774699043538,-0.33449847646044395,-0.7387608083119087,1.2667408318436046,0.9187230848811012,-0.002312722913310999,-0.647007038385385,-2.0327907433197225,0.43246643651297423,-0.8737309627839666,-1.9610498085318642,1.6093194810250615,0.6559489035678062
-1.1403212529458493,-1.2032965763966128,0.7856770937041324,-0.9587977696299935,1.2843705582179186,0.7058177237507104,0.6915002065578998,0.5679678219714296,0.19445108382138485,0.8248906061007946,-0.4666479574106928,-0.03889019230514634,0.9241764315235463,0.7338533356212958,-1.191340023729794,-0.5686504515647338,0.059109372869715106,-0.6500504561859374,1.6852753169453096,-0.4197333190803962,-0.14577278058800516,0.9873688463378992,0.3228319548718167,-0.3017063778293128,-0.76424019061801,0.32651012252257505,1.0728632007040828,0.4916575708801586
-0.8635258933415816,1.7303453158686777,-1.424352151088833,-1.5841009216799904,0.9699643504233386,0.2965467232768934,-0.5709031798425638,-1.0335016837005724,2.3784858245809843,0.12462973949160555,0.48975540492844666,0.2793105815598253,0.42650405630820093,0.578605305136862,0.6522236775081429,-0.3900375243709798,-0.43378036632747563,-1.7732601519581852,-0.8379408544459842,0.4545093473380177,1.0671195704844965,0.5430103111353202,-0.23792940672125107,-1.1791710422687098,-2.77437841280173,1.226463508741635,-0.30366748071659294,-0.08583152759642221
-0.0022963918281595176,-1.4394938579576586,-0.1962648333509677,1.9812497454671383,0.5118645086736913,0.4289102437356267,-1.4842404556066937,2.2475466957939836,-1.4443790903630296,1.8462774867632106,-2.059923945849918,1.3860317470462555,1.5585173143059867,-0.7878291524549804,0.3040507266492034,0.4923121982838698,-0.9034933108972276,-1.6022133173858546,-1.3614990173413866,0.7662316624147677,-0.17837231369405596,-0.5939573915773027,1.1533679744632679,0.6965151870485912,-0.6949379750288124,-1.1661019986314418,0.7933215941346706,-0.20145104062679167
0.051543610252362086,1.5761594845627924,0.2626910179828696,-1.0553125676582287,-0.1695189813554617,-1.2028111118512057,1.5612170359434647,-0.598820375678989,0.08612280123919391,0.3866981250367119,0.21360876567754689,-1.8915929076304334,-1.3480451392357986,-0.35961038458971684,0.2249054496599587,-0.18940743412027042,-0.9450295261431114,-1.2955178120865518,-0.4404583629962057,-0.5199039345490033,0.7810601314490786,-0.2720622702806024,0.8214830759487434,-0.3394193901877806,-0.6318193059120445,-0.7004737751495262,-0.7750178975525887,0.6397123200798474
-0.8457859745814519,-0.5883963926020735,-0.3756581772749813,-1.3738948301910148,-0.6176360080707773,-0.8545737316849628,-0.43379347737000595,0.04535450053291509,-0.7366575180348991,-0.22800602388747132,1.2983096362198314,0.016860359332107604,1.0625650248063725,0.2548718545332075,0.6599390861637203,-0.8014185907917744,-0.04133898835752998,0.04085913431140979,-0.6191258166401492,-0.8377882673451982,-1.4165812940179154,1.3930088784762555,-0.7959944657045144,1.4361077177444155,-0.7932411730319328,-1.0586700617619411,0.6207789543566208,-0.6353679444123603
0.6510222223567214,-0.2558612708246386,0.5270592303879388,-0.9485004741906052,0.7095186833191481,0.32284649659181963,-0.9256178682379408,2.7436696822976296,0.6904232696339165,2.2482829674923024,1.5338804383716242,-0.08759920531275624,-0.43881199816490174,-0.4989010643484811,-1.7962441455250016,-0.7435425699147177,0.22927560349765655,1.5054949637106894,-0.6523445598884132,1.0075718728045222,-1.1203226995268645,-0.2957029407155749,-0.3370429156392742,0.6319540510917552,0.33017208195935005,0.8935002060115799,0.9064103703225798,0.4714312185627167
0.4885984973145805,1.606623024817014,-0.48370502677292004,0.8372347352557901,-1.8237560003021294,0.19240641846322964,-0.545965025690568,-0.04248489721410165,1.1210537768921287,0.48320825355300584,0.8883437698662112,1.6492239849072547,0.3174725382502593,1.1267372820391375,-0.397911767553782,0.04326637297271607,-0.6508556883764715,0.928971068571694,0.5729835286366962,-0.3013246145366741,0.6057756616525576,1.2351017646686806,0.14847921210582044,-0.8272872139232401,-0.02215571342445985,-1.9971949440920889,0.9052564196529029,-0.20658425823482082
-0.39808229990697835,0.9157793037500795,-1.327721469184192,1.9838006891736821,-0.6199346093051795,-0.6950773581291486,0.8778403755049081,0.5664274894503376,2.440808341529576,0.06327620915604147,0.018683144786863122,-1.4386835920512904,-0.32722808195094755,-0.7590936477599414,-0.5012982017597134,-1.7527452765453073,1.4910212269936578,-1.421244288400466,-2.7877006775337305,-1.2563337067221831,-0.6938971994965335,-1.1783491881377384,1.0493194178119094,-0.3384511131396764,0.20733358101101512,0.737687496623447,0.3325700801538853,1.0066201103392292
-1.0773738521244394,-0.48877059717178817,0.7861121498709618,-2.5339996869310792,-1.4102909863313993,0.39270947813765766,-0.717910792618846,0.7215777851677958,0.9952303956317847,-1.0936443983736244,0.4491389553079303,1.1723630992056282,0.05071048088177058,-1.0263477044434952,0.7693600575644277,0.5580433657697492,0.34011755688297135,0.6016813396211309,-2.987424071679972,0.9818207400777226,1.8804502019108045,0.5449416232553128,-0.010207801217864087,0.549164046933819,0.5216683907992298,0.780267897620438,0.05540571712937464,-0.7377465898566302
-0.9543941596639349,-0.9489060536804074,-1.3147647466153736,-0.9722024887525694,1.790982193932104,0.8719552408355857,-0.7721641409356446,-0.5340558768405481,0.3600015607846043,-0.48844575243227306,0.12392463496004787,0.8491131595025022,0.16221507662447188,0.4655339025129456,0.9305607763608831,-0.3322172667266619,0.32896601757244603,-0.26436050529506455,0.017565603083925213,-0.37309709619563597,-0.7475586913630801,-0.14592861230559923,0.44386957961495166,-0.02236264551410562,0.33727734662896364,-0.852281339965823,-1.211455300022456,0.4048716867317838
0.7663839997096517,0.1701840602030136,1.4008278053012917,1.0263821691239237,2.70029187358659,-0.024050157918361893,-1.0880084991441576,-0.8690144799259704,-0.405344378697879,0.5968546650665557,-2.131143350448603,1.2264698380684707,-0.03440139316952596,-0.1199562911254134,-1.1842304026648611,-0.2287747001700959,0.13861785369422946,-0.08955384371686832,0.3982172192036877,-0.5875759779903496,-1.0152292618207177,0.3393945685678256,-0.06465443063286147,0.06406936829546016,0.9809488781048756,-1.1078838931604,-0.8682127459868016,1.2508315391407656
-1.4681607693325744,-1.289418666293273,0.8674217594194578,0.3187262353195981,0.31058044411298513,0.09738611495726493,0.2291282288104965,0.0530142202810285,1.3478738001799944,-0.31592173826464626,-0.11037727290467787,1.6908098085733647,0.27708547892954716,2.2185153306922087,0.002854168670190856,1.4012155744878445,-1.6847416212071906,0.21558114447271523,-1.5739394395531865,0.9000488115772374,-1.232917549887923,0.2814696150905754,-0.28146238041583505,-1.1498439751235416,-1.5979689482891246,-0.39307079026145547,1.7372283259379495,-0.3189833111859103
0.9555812714711275,0.02240426904991874,0.9214938876954512,-1.8187133800548383,-0.24209634257791673,1.0337370883523191,-0.021530383488054035,0.049896270145445454,-0.4262399698968585,1.1324660356605023,0.35505142110718046,0.08659102159890403,0.7707610478631463,0.726816773616248,0.39402297848700973,1.5547382142287798,-0.002244252321492595,0.30188541894684123,-0.568923767039557,0.28663539392249826,1.588694868291101,-0.6604989356308575,-1.1310571302514574,1.0125891109094023,-0.008240340570075406,0.23683145402757375,-0.07165628503738836,0.053410203316636685
