1.763612744335735,0.39722407146431327,0.9729806119613804,2.2402713202461975,1.875229778664379,-0.9405510523022812,0.9804459348518657,-0.0810356728379317,-0.17018147039162723,0.3508146425328415,0.21983004241107018,1.4641859268333235,0.8157045103087663,0.2138261999647176,0.38411318977145253,0.2581733576637429,1.5023566639775867,-0.1745069602607868,0.3063073874269185,-0.8625879277994843,-2.5531850016683024,0.6790138297496041,0.921114416762693,-0.6646014525579474,2.269327227276603,-1.4563428857029999,0.07707111025653056,-0.15693371519366814
1.5321111418779823,1.4686842443897314,0.1411447665905463,0.367065701264471,-0.8463331619548508,-1.974682111973702,-0.2798315511420895,0.22886945001993833,1.2032616826376623,1.1777770543592074,-0.31418891485736955,-0.24137363080586502,-1.0195207600870306,-1.406258601238437,-1.7208392021054506,1.9428455111753744,-0.4650348478232335,-0.390381645776003,-1.2491842021016404,0.770902733092646,-1.5978103931242449,-0.18640557893207393,-0.8349044430695427,0.4851910656215402,-0.5170436748343613,-1.1833915013591827,0.0031781539572799658,0.45476467346264093
-0.04539583207777756,0.19771146557115768,-0.6213116582266847,-0.3458349118379378,-0.6973423994016383,-0.39575426079179066,-0.8853880470563958,-1.7471311852949571,0.18035717634526466,-0.4080398283852268,-1.6310944301386767,0.4085481390566441,-0.8924540318377685,0.0971303662100621,0.7152173650058211,0.0421738556792834,1.118408663322104,-1.3104828655930354,0.4368716882099231,-0.681502647998009,-0.9549126219360761,-0.6878726885128305,-0.4972874093998048,-0.14673932438044468,-1.1648150260286882,0.8958088268432364,0.3952917052437189,-1.5507854295775167
1.4672412241949857,1.8860289302817628,1.185683523683112,-0.16322565772085396,-1.0924380158202773,1.0452750873087056,-0.5024353210630387,1.1769438057812178,0.20470691349211545,0.9709458835548265,0.2929615793750965,0.6630856018344846,0.007366427721762452,1.8020407382107062,0.05394511505681732,0.3620758961468304,1.7807451568977537,-1.3518805370221065,-1.2349248922106835,0.9742795352250846,-1.21266151368871,1.9241052961894094,-0.570122333880548,-0.868195926349272,1.9223429270605457,1.4774957947006957,1.8595002983229596,0.8635247581996014
-0.8558100096178108,1.9109644396094196,-0.24615803323532434,0.8186462677486628,0.9693764664865835,-0.1377374936623267,0.6353989461965626,0.9496042961740957,0.22851749092425616,-1.1641480713396768,0.05167962790421345,1.1748295734665763,-0.7565735614049606,-0.22347089124212977,-0.5838690229385188,1.7536529585234288,0.5171664427544159,0.25165145673923767,-0.7818753398950025,0.5530992392431825,-0.6296332727336448,0.09863300243108246,-0.6727790755665433,0.6445972945685468,0.6398142073602561,-0.12593500460832155,0.4698036948225522,-1.059111171719502
-1.4892817089555215,0.4520913628981315,0.19535160131869683,0.65910956157397,2.397278060533415,0.9582712350103882,-0.8871054910730289,1.131976086817115,-1.3956732168111043,-0.5747935546234406,-0.2974042330342104,1.5819355692726107,-0.7662714902005063,-0.8680577090948511,-0.21972101485930967,-0.7125182083056676,0.9797564531318395,-1.1499368254614577,-1.2020529791928942,-0.4231682170451461,-0.43084499990667097,1.9610771074128939,0.9384398331668796,0.08659259288606075,-1.172766943943339,0.8930861350250968,-0.9545172219274751,-1.5247996383834437
1.195051344074765,0.3374941191604301,0.833158961181902,0.15897864327905095,0.9058832165428233,-0.5656840929670394,-1.0705212102915536,0.5457333360959917,-0.9311960260958545,-0.7454539688361768,-0.5332759550406002,-0.0477510346147363,-0.3296505217280082,-1.3190064637431644,-0.5224784314055774,-2.1893165953811904,0.6338565344848343,-1.6153562629003357,-1.0182220603413794,0.12654355507267526,-0.7707842478229731,1.502807306730652,-1.2835190829465786,0.2287923301257378,0.18071461677276227,-1.1189324996705479,0.5879328054302299,-0.0907402456441481
0.7868232295149471,0.8363627400044484,2.159803673870436,1.3004465282245812,-0.2573769747251623,-0.12422066878492902,1.0507440525337466,0.46233250519356006,0.45864440890072106,-1.6230014423451387,-0.049626993123197155,-0.7350967887340484,0.26567160807891854,0.007386660095242502,0.9524332501465745,0.39653940985202146,0.7950944991684844,-0.41011741824217024,-0.9554752772672559,-0.2800225705562747,-0.07317620594774268,0.3653526959974242,2.2224286710041095,-0.07361672362746094,-0.8700693114662469,-0.1475029537025283,-0.3972989193785593,0.5530336192474956
-1.5160427443014244,0.19731215405304403,0.16573007314052285,0.20845591816449863,-0.7216843698103202,-0.42528640481127483,-1.42985039547976,-0.5165181701530719,-0.4825990871875984,0.42719100779356695,-1.160656455313778,0.8099701028436168,1.5367983088726112,-1.9817025089724958,0.46657489846216094,0.662416712771991,-0.5622834372147694,-0.2059323457223981,0.0006761586055254788,-0.13519567911739927,-0.010638723976691859,-1.5717963340202896,1.1719594932370199,1.0760508271376212,-0.8797533923779883,-1.464699447315918,0.5516254806112475,-0.5288425122612883
0.2741889871612528,-0.1914318010052689,0.6930534910757942,0.7005283932705353,-0.8538586232719729,-1.4236736459956887,-1.6215448105159367,0.6092269569102248,-1.1833722482478501,-0.4349764863168441,-0.5281885781221838,0.024662972637024994,-1.8545069679131556,0.27586163951737913,0.558486786608025,0.12672532311818752,-0.24681363550084812,0.23448006544431016,0.5295848087013353,-2.8206777299294097,1.9438854210776446,0.6028970955436912,-0.6068877002587649,-0.3570586013774888,0.4694352317624561,-0.21237653563841213,-2.0165098388649563,2.0648327501713144
0.02027207308570558,1.0767433010078316,-0.7488978922876011,1.5060313915781376,0.11365489434253725,0.4420431988851306,-1.0896062838479406,1.184832672445959,0.9136970836109226,1.4508635975557018,-0.6636694522789012,-0.5379560052489832,2.3383691278291283,-0.9434350781878915,-0.0010367953242595336,1.1943362960600101,0.07273340326821501,0.528973193017533,-0.3561881530821738,0.3867016473974114,-1.2939610215365653,1.6864935942812482,-0.07236696026401143,-0.7120648145577111,0.5765209214635183,-0.5988934504411144,-1.348576884550862,-1.3682135480835438
0.7721368407470783,-0.029407602203986864,-0.22283852706601984,1.041764544184027,-1.1965378573896723,-0.8956070428322789,-0.4643535671862859,0.03236509507805964,0.19468937139281453,-0.04578515805863978,-0.08024876821545962,-0.09147530430467343,-0.6318570154449351,-0.7451860817594156,0.37807384872155375,-0.8867045257384035,-1.1468322302749439,-0.317387816965362,-0.14791607147733796,2.2714710219044667,-0.6511891000720736,0.9747879193162279,0.7286860328785764,-1.2561904458272228,0.7039834416775292,-1.2200433804808546,-2.656521405881792,0.51005391862891
-1.7722946987208184,0.3342554618548434,-0.6445880169505049,1.6811418012147952,1.0672814762661909,-0.4386543041934706,-0.629116120636669,-1.1662915900765314,-0.5505650231277736,-0.3760884039501794,-0.3598600305051315,0.21546095381864316,0.5272212154587103,0.2676226743703469,-0.696290168493591,-1.4249007651199048,1.3900699981521751,-0.7082664496672402,-0.5122025449827289,-0.26754444861588755,-2.0004295105315677,-0.6657992189516944,-0.5085382452914496,0.5756969538514065,0.5830528309113674,-0.18864247658428934,0.8710522116978855,0.23042080638870474
-0.1534583441660246,0.029796510835357032,-0.12736912436597506,-0.3421025411643744,-0.2785038622178324,-1.1382806884803975,0.42778603050812614,-0.9214268593723838,0.791266064729431,-0.3750674177621011,0.07513248572034194,0.5824695537030208,0.7163043019003066,-1.5206759763489428,-0.10781528754780367,0.9321752534616485,-1.652057065325196,0.3787369920369363,-2.182311723044292,-0.7881208977320292,-0.14153656502933198,-1.7528836261037963,-0.984534870104828,-1.467881721986708,1.6244115386494975,-0.03157840583344055,0.4668786794458334,-0.3372148092208012
-0.23678159058718115,-1.5956734457725246,-0.327861266919798,-0.7845110848799539,0.8173034717426306,1.144893548477633,1.4906476117267846,0.9144808080139246,-0.6161031966562156,-1.0703962361468886,0.6432237007473566,0.2916301369772512,-1.7417209316189113,0.371818637976638,0.8234998887034342,0.13678615820817022,-0.1375251836865404,-0.7281608693654112,-1.5027489548028774,0.8532987348144557,-0.5403028308489524,-0.463316925992803,1.7151881441736352,0.459953171046354,0.3503389809264655,0.13148502166246379,1.497391616406939,1.701627962788393
0.9857059823869736,0.6640069492720807,-2.09491185871356,0.06652851735039275,-0.22734906880282998,-0.004621118407069616,1.01242590298016,-2.734158985420544,-0.6184990971200763,0.27620521346531085,-0.5067787580874393,-1.4157841623516298,0.8920286273296603,0.358689466091214,-0.9317230464973829,0.33034226008975376,0.8955812490514297,0.09651844741861955,0.775007922412338,0.18897917771665435,-0.6071666375462467,-1.2966300841187954,-0.33220279054710544,-0.09115209153113855,0.8789135854256408,-0.1391875570544392,0.34156476764015553,-1.0239137078529028
-0.6598668114326179,0.088196309060321,-1.0699773675731465,0.8046268166837478,0.5965583478272832,0.4126632284511019,0.28659256624960444,2.0095639617635825,-0.525867455891544,-2.195849626763381,0.17337936549024635,-0.09720940163690107,-0.6445969004375423,-1.0137525508812413,-0.4219236594878486,0.16609169384857325,-0.5474357515931403,2.3963908055231875,-1.0173338483901044,-0.8277226868090127,-2.30405790687415,0.17001040664727254,-2.018108631888719,-0.6060445081257795,-0.20785806437476492,-0.6595630623885751,1.7405974982004402,0.9995301104353542
1.3665969279412389,-0.775216871637968,1.1182213783863455,0.4934147418834698,0.8941437497714189,1.0834883465724754,-0.9890686355791859,-0.4805531789387964,0.7656965373860724,-2.688422513855998,1.4955127642311254,0.4911861575740624,-0.18137227088812358,0.13308393052224698,-1.0683691826928923,-0.41692549005337837,1.0806502650728156,1.2774779976350694,2.683343129896711,-0.014243308657003797,-0.7891803419863924,-0.6131867843453206,-1.0730660822247005,-0.19077900943140208,0.4535972827890767,0.05349201635143198,1.1027391890838654,-0.21843379970483426
-0.27524453959360495,-0.5206833302180145,-1.6274931787420137,-1.5665823260104086,-1.2799686512714916,1.2364954672716475,0.8669657905851282,1.3080753730158567,-1.3197668941590235,-1.9828222924763093,-0.6343808738190571,0.23455307078899104,0.35681390102276933,0.9155704792081061,0.17093317961074547,1.632251067100027,-0.2877316708567889,-0.9818038871811237,-1.763688129655797,-1.0231293933855297,0.254917322589084,-0.8946620904372389,0.9088608818996036,1.402469844919318,-2.369174267920113,0.9198783094939393,-2.2472113190646534,0.3004667096177508
1.2489480858718824,0.1544367707552081,-1.265188093578671,-0.5026825639982121,-0.49370284188788816,-0.3952124620127981,-0.30845447352805644,-0.13438332781992549,0.026630345757330334,-1.303056491617836,-0.2498610057992642,1.513268431012428,-0.5154277841317224,-0.5887186800981911,1.0358714950911827,-2.5920055518523317,1.3051652318664113,-0.6087873439398981,0.05154927229171774,-0.05023814192136293,0.9791168012262672,-0.2305541376736178,-0.7760749198192034,1.2809182632288634,-2.366666195838274,0.11133128918845056,-1.3659952433016491,-0.8262800085788544
2.0165138991135905,0.02666348906293573,0.10868138230385563,-1.7968064009528475,-0.6819514287463848,0.227651292650112,0.35650559732315507,0.6002721134986858,-0.12169955035999926,0.4263577860517984,0.4018097139220164,-1.8854407853546458,0.11163180886164009,0.7628342609297931,0.5946628796362161,-0.3143310778913427,-0.8563387208338054,-1.2015543146165253,-0.2833116680700334,1.1291743821462394,-1.9510396492559263,-0.6694509200277188,-1.0502689362265745,0.8377614840061338,-0.6077148663613352,-0.5271434174796576,-0.27647475879237443,0.3925221142877708
-0.33327931272728195,-3.045496857644607,0.4884178693807494,0.35336782003103057,-0.09574471817436464,-1.076642832574412,0.40556554469317424,0.44273980336582197,-0.5768545978234829,-0.32657837668561623,-1.0365913767211732,-0.27872428586961573,-1.5996927352868986,0.3756741875011793,-0.9280834652230625,0.24176155853798273,-1.4773432792907715,-0.6691335639006323,-0.23633389030992702,-1.6701484034437015,0.09774573846456862,-0.36833183008246473,-1.7285389291523807,-1.2465012886231417,0.5838270826684248,0.8734605702670009,-0.19189435588891732,0.3517740409383083
0.1774264791043756,0.28083621482676147,1.2623670565862486,-1.5340016572086173,0.745643017247004,-0.30328278598676656,-0.24624494077490947,-0.39227705301156673,-0.33308944147777675,-1.2474806267168432,0.18614334591690512,1.6457154851791786,0.06054580139583152,0.11254267854654222,-0.6992782197078478,-0.1822794393671272,0.41604626577777193,-0.32316383276883576,-0.37108693424815564,0.4540741848719425,-0.9131907217028332,0.1699759598759962,0.7845201298508776,1.3439177833773763,-0.10568386841301765,1.3653222769412265,1.0302142858380963,-1.0008207503525788
-1.232774406105994,-0.35487103727503755,0.9911835449738802,-0.20604502053438126,-0.5403591150613941,1.5499229741353295,0.26157756800076565,-2.3176694928838217,0.31985023396605095,0.5171497622067729,0.15770981007499688,0.4045891272396224,0.0787709942493751,-1.2832359446346706,-0.37591887593645007,-1.0407270953174559,-0.961595081296274,-1.274031158513061,0.4555797633467324,0.1303515760931733,-0.5106979226090578,-0.7394427464928008,-0.11687086827045363,1.0396794308743413,-2.0010541496609675,0.3667370309576501,-0.5535599099322909,-1.8855210449644386
-1.9464530503768052,-0.9176169255835718,0.4042476022534563,0.5628048789253733,-0.8921720388531301,1.0562918724063393,1.4143763492617594,0.39383731251344506,-0.5931367004479697,1.1031444085014803,0.7519009120630323,0.8456913928001673,-0.6438556353953019,-2.810501423968919,2.111166923421041,-1.7062287292751488,-0.15047586017045983,2.3807224956435826,0.27532395220180733,0.929152180669053,-1.5177005786427222,-1.7944217053226565,-0.6355869622905104,1.0411158249083488,-0.401384734460667,-0.8283739905335052,0.21188017676815055,1.0870959929738377
-1.4468697999293973,-1.2134613718852039,-0.6624093228144113,1.166570047391664,0.305693086139306,2.1316034691680157,0.9497045562484676,-0.0658710437909541,1.2421800157696696,0.18814114006854618,-0.7053325233159675,0.620557430696237,-0.7392291255846873,-0.3177875079360989,1.2762403633681054,-0.34509300456350417,-0.8599735151972242,-0.5626762888747385,0.9896183517797895,-0.5211296089565282,-0.47524487284541456,-0.5963470250011441,0.05121144961478238,-0.506161699161432,-1.6103336878991186,-0.917425928966876,-0.9254588332690473,1.247368419876613
0.8101869689971647,0.584189858376036,-0.5008231458142441,-0.8111897204609192,-0.5540186722446853,-1.077979772462352,2.485111614017778,-2.2421394158642585,0.5883343649240068,-1.2761597116308632,-0.07230726199516593,-0.9650254857416071,-1.167981402146602,-1.123981359653377,1.7791648189572415,-0.18505809924334787,-0.682948320785469,0.6358455912217,0.023251574642078245,0.7197372894651738,-1.829156427520694,0.3033400629567707,0.8138876806744653,-1.6537546399239915,0.44977966977257333,1.6958227796471954,0.018611663961618695,0.8398345264268788
0.6675696536674603,-0.7110708538363774,0.04609394946423976,-1.566091609151066,-0.49680058567420654,0.2131035808001838,0.7484227263171115,0.047067998443036926,0.7585211210646235,-1.093198812824448,-0.08643037403020609,0.05384569895431605,1.8711707746801634,-0.19670134481225826,-0.5619731069092766,-0.03707433747691318,-0.8691104613832857,0.29839319101358813,-0.3750837646205961,-1.7946905952506378,-0.06730371452572911,-0.32641071601520294,-1.6197701342515578,-0.00377634749710963,1.4892551381229957,0.5209813315738612,0.6360829882109407,-1.3333312467357021
