0.7930035318685644,-0.894619948065152,-1.0258388102699116,0.05203164935937578,-1.6102576931621009,-1.3807044120043286,1.867305946982958,0.7621274038296748,-0.27365287237528635,1.1594929884138059,-1.0540651030469814,-0.3286944830973486,0.6547503899123434,0.9114337025681065,0.5943428638855722,-2.5482535378922395,-0.9562946685847861,0.4994772010082107,-0.39335192212192305,2.5390631776280963,0.8670265860752145,0.4662212055917844,-1.106909100979106,-0.006915876586396278,0.1761604606654758,1.1040430597426847,0.8687890011636313,1.0231645855766545
-0.9731981340373957,1.3891132878195003,-1.3880966804369805,-0.5620381893224121,0.40447745456365247,-0.18157545924738894,-1.0042831141341233,-0.8154296716376107,-1.5736151731979444,0.30303328131241364,1.2554424347014579,-0.11839900351865298,-0.3622578555161975,-1.4606394714969717,0.971170756635605,2.218362036985724,-1.8082375010279825,-1.0630381781205458,-0.6926360313900539,-0.5987385846330833,0.12032874539044885,1.5957509609705545,1.0190729713857294,0.5482408740638687,-0.7652539906392021,-1.1428816343789538,-0.8107937771645856,1.5439768186257392
-0.11105217407453712,-0.4877035684030932,-0.2328733260163433,0.7971822903064572,-1.3271790778791108,1.4045262044544096,0.028179698163324933,-0.34888216595302435,0.3777147715989059,0.1519220511282456,-0.24588340413001805,-0.11844229738206435,-0.9126320082291944,0.6363430764758431,-0.5504159656569672,-0.9865542194484068,0.17271705791359826,1.331703508732563,0.37430589357712996,-0.249944566863231,0.5358404988708269,1.9492807790583309,-1.4441437086762074,0.3993617685230321,0.3738475214703513,1.2199657590619737,1.0316909836235253,-0.09135063786696462
-1.6908788265534098,0.7793349169411852,-0.8633274751099602,-0.968072816760487,1.1350443820055027,-0.922614530672369,1.3875935576710314,0.19446748753181714,0.24663002810880943,0.24250333151159723,-1.674454794653531,-1.7811749234850829,0.1858213658470676,0.5327060857403328,-0.035217991137756886,-0.8881720686049015,0.06340819294112286,-0.06425542625833039,-0.72132631085624,1.1399104190082856,-1.6320981750123162,0.6391485735806016,0.3574221947315438,0.9989943020110235,-0.9104488683165708,0.2716041972755383,2.1756332046824536,0.7239196110645642
0.10519041019043698,0.5439134525035736,0.20342618763424208,2.1960033678367634,1.005984091695833,-0.023342653284849146,0.304527644031285,-0.36278336494090674,1.1930124200628622,-1.4985148902911323,-1.6164965971937337,1.5038615117627623,2.168527345623696,0.45948674411050294,0.16864111991964173,0.7241823700953505,-0.5352847438221398,0.32420475657233383,0.013176141475336033,0.6708875476563192,-1.4860013468759647,-0.4838921946810439,0.9163992277300975,-0.5930499402222831,-0.9301263042073324,2.0472806495034077,0.05488957377078726,-0.5696923108753781
-1.692307506749508,0.7332924515887714,0.7726312647918167,-0.21043961801673006,-1.0759796858428778,0.04353076415115424,-0.8191382300712018,-0.9338560173023502,-0.17057049316243444,-1.1999036046481233,0.4559536412803194,0.7450595890527156,-0.7709111127955799,-1.2723851001302109,1.5748625763146342,-0.913968320483491,-0.6468228035016382,0.31091008123097785,0.6221806863952459,-0.21935239222942313,0.46453002786782616,-0.37529961264715483,-0.9160349404397855,1.4508721891441791,2.4867605978815734,1.7083682532288669,0.16219178270843462,1.835205921724249
0.30977106613724587,-0.5235942142170344,0.42082010348819704,-0.1480831326975018,-0.8220863937046341,-0.7110220934991953,0.7739142629458604,-1.8967669496193649,0.6650925983009295,-1.7119672998419535,-2.1295808927547792,-1.803895678014512,1.8929525376753593,-0.2581115687339582,-0.001815984108501441,1.31255998788015,0.9184677134634472,-1.3017822529757659,0.8376399095526159,0.1572768021547591,-0.2827989336344909,0.14073380862148424,1.3305118700471266,-0.810011397526223,0.3769896223274586,-0.018478119776723447,-1.7781001576354325,-0.7218190206771519
0.14346630614152317,1.2855956564580329,0.9696319476549271,0.5371423401879932,-0.6017660593593903,1.8939163099455278,0.13661630228470095,-1.0449685150215084,-0.11853703993155687,0.9548149768158036,0.027148615162372394,0.855004113405033,1.0139070169338416,0.31410477057874076,-0.8671478388899965,0.06504255363300046,0.060035064824775816,1.835369098218899,-1.5868340460096755,-0.15513233850534378,-0.4970859768909641,0.45942124281408875,-2.4634129483004505,1.1874345161653688,-0.01623851885766008,-1.846946444423091,-0.2543272036113391,0.6984604197391641
-1.5758764362441806,0.1043106828156537,-1.0287986112954852,-0.48901249042579104,-0.03443383605087066,0.15928785858374883,-0.27273664908845624,0.5091987665546204,0.8853865288512605,-0.29889037748075753,1.391621101575594,1.4818473587489884,-0.44904930271208754,-0.6665643578015967,-1.6318317854365085,-0.07466525217384577,-0.42901716410154234,0.6542013674213135,-1.4733085537963528,-0.3956029764541861,0.9934802618815702,-0.8433118774120469,-0.5506877080473138,-1.3447661429672726,2.6305670367576264,-0.725760172838984,-1.2962300575684575,-0.7724495729074851
-0.7137956932372708,-0.17572658448637837,0.8686955814057248,-0.2130432466767781,-0.9900400138359441,-1.500260805330282,0.33030771054601615,0.29345001143416216,1.5322170351603717,0.19818669015330947,-0.15919471346173653,-1.0831830776372076,-0.2864254976542434,-0.5427017194013225,-0.41689180216289956,-0.8858562127536102,0.49191137958991366,-0.19608261978067731,-0.1874949896842074,-1.7224850246451582,0.5480542694896915,0.4609799369446619,-0.579693413159877,1.1552708806562297,-1.3629611846202083,0.042528398550300404,-0.21770591303249168,-1.3086974991643594
0.2485423032290107,1.7098876102665885,0.01835568517484597,-0.5198092548755053,0.7158407600147263,0.4433006355056304,-0.0017434003073837805,-0.4265196628877803,1.3415494303545492,0.4034836302479814,-0.4163329195216258,-0.08394654116644047,-0.701830998097941,-0.6257372597330317,-0.5328573170062808,-1.0098632321433172,0.8016405906246097,-0.21942926460145679,0.5492442286537016,-0.7295351727124529,0.07235309504117118,-0.5327857929505109,0.8203044256482809,-0.01690031331980025,-0.7183285291163092,-1.6684658739293108,0.2438773834205889,-0.7367148514659827
0.04437867686938582,-0.4436739104606878,0.9358338480392612,0.5229835597978051,0.6988387385587923,-0.3850415529749079,0.5036008543860653,1.7483242044032503,-0.8924768846372808,0.10734016007564974,-1.5659594258747582,1.4103085643887823,-0.3394468887372637,0.8276780053488667,-1.5957674857302244,1.8504517439690722,-0.17037941522199054,0.5904725261785142,-0.0005960154784989102,-0.345890104835298,1.6961010881321952,-1.5753220633887233,0.445825381605738,1.0059410525292893,0.0039374231447076,-0.09715602789953108,-0.17631631083534524,-1.2403458092362023
-0.029401566580239787,0.4624002544000461,0.11260841902768297,-0.23204978869253598,-0.4170051425145692,-0.17716360434735606,1.2203567553869734,-2.095608169489202,-0.011038308946923021,-0.42003268445751213,1.4612315510219616,0.10715552224380252,1.4522337714932165,-2.224003314307488,0.5699333641400209,0.4199873560031824,1.370062121288291,-1.6437784574250223,-0.23944143133433338,0.03278830930503422,-0.4978100187400524,1.1902672999912087,-0.34187511551998634,2.0311246239796885,1.1466445286365108,1.0619874150283377,0.5852189240413017,-1.0395545905188657
-0.4897975917774708,0.5250379245548087,0.7110090696030821,1.3179821986731393,-0.3979695068776661,-0.7996704897699217,0.8153412373297643,-0.8338275617090022,0.8878248595153774,1.149514456263148,0.448395904430435,-0.29684846443280966,0.021635155180700492,0.599815628747512,0.09839069050507893,2.2082230451761395,-1.0000405894726019,-1.0229783047102656,-1.0000794483892608,-0.5036946665009574,-2.3175149381028413,-0.7084194301051469,-0.657651143545383,0.03213759164417968,0.6097639824662451,-1.1746290625292255,0.9177048850423389,1.8081605914317003
-0.25034282205437647,1.5703989822763722,0.1359835191658655,1.9938914726130479,1.1335497707897058,-1.5885571125973128,0.06401744851915861,1.0594244761397413,0.2743713988048406,0.11426554181302598,1.3043930055891206,-0.4840528979054289,-0.003059773707224026,0.3243087479614407,-0.4568592161031193,-0.16291328509616834,0.7101484992722824,0.4045721159209166,-0.683783473396741,-1.0605349309830248,-0.9056195395535741,-0.22049334619541083,-0.3642542224012654,-0.9176330679259318,-0.5394175007485531,-1.5206101419132574,0.4284026151181574,-0.03222469863293771
-1.271755097409083,-0.015731099662930355,1.3292901054685733,-0.7870774897953061,1.3366669995152898,-0.2702986511893666,0.2647390649848668,0.19011109817253893,1.5141264342319187,0.2781608833350079,-1.1170311997401798,-1.2781579329822623,-1.6595199412320527,-1.7428199142609395,-0.09392727509429638,-0.9960249102148498,-0.16405601236019884,-0.7268196377432681,-0.6768139447198139,-0.34579661007053797,0.5652732291163974,0.8196311730607087,0.1911930183165759,-1.060455672046454,0.6970121337878857,0.7434496167483182,0.2850433581372991,-0.6020551131944376
0.7662249741465471,0.49924755743483135,-3.115786978427279,0.7830559305276793,-1.933883685461353,0.6462003698202748,0.18774940128661383,1.3427213618017808,0.19658561504532449,-0.7020307303268679,-0.07214248869843512,1.1595988407341074,-0.01954955703267599,-0.13456527537379814,0.7321383362519747,0.26910783466408883,0.027362992670083894,1.3787046130670833,1.5927519840239825,0.6039436323332555,-0.19695240921165005,1.5304283351418047,1.1667940264115488,0.7417351188993636,-1.2131725191250669,0.24804315918755487,-0.7527410604824798,-0.17027320571071708
0.3269237318294402,0.19416394058825628,-0.3191526354508626,1.3340642742662476,-1.732865163663448,0.7135292111084433,-1.8149255067552565,0.6628542705905641,-0.6295046056713006,0.9690212285258111,0.12634993151028992,0.324114907251669,-1.071264755880913,-0.749334491952638,0.24703486392271962,0.6530879226574205,2.933802404799177,0.22688386195098992,1.020825019287232,-1.4967886244040953,-1.2748370869509127,-0.21914849437068415,-1.2088519646739073,1.4975467150026398,-0.3201516133550211,1.4040428400386917,1.4885064985322884,0.036668177144066456
0.3877874700223041,-0.1982559559911103,0.5203077655770445,0.482735658070801,-0.04326886651381906,0.572479619107347,1.756126468657384,0.7782890592173716,0.288979002508092,0.09882130259332529,-1.0732390536165952,-1.0358515042409508,0.36470891637491487,-1.411704720759535,-0.8453516774236239,1.295803459303369,1.951632182670263,-1.5839494632056133,1.658635426767924,-0.1421125214791654,0.19321907171974897,-0.0060833958339582385,1.1571942295156974,-1.6483608482611607,0.5507294383809919,-0.8779968637540584,0.6443658362477293,1.5615287785370264
-0.13634474550869016,0.24964974755743627,0.3697825743405209,-0.7813447354700322,1.5145659169274404,1.7277795447932771,0.7526462336662858,0.16784723142474833,-0.43816318118742587,-0.558755222212488,1.6252184974510915,1.3576628609570387,-0.05964788639297693,-1.5793831521489063,-2.9505565242907985,-1.0830681305819212,0.03663334119072263,1.4623682047934417,-0.6426029556506637,0.5460332775672039,1.3281253663088943,0.21836379140624987,0.058173661582425,-1.3052059677390002,-1.1730941370333274,0.5267329207244565,-0.10336889488782262,0.22061654318870422
0.013596941377567872,0.7054007054448376,-0.759896507438722,-0.2695299744689667,1.8786902376867354,-0.8870247966470235,-0.36843985508937527,-0.6237557518865908,0.5645068309246318,1.0998495125680081,-0.48117287201161185,-0.43770023906832406,-0.2637497513248465,0.4945086865291579,-0.7332114517607334,-0.31683036822588223,-2.3800683537564122,-1.4188476866237996,-0.1988714155095404,0.8080889469069928,0.48216061372276503,-1.0009101283901862,-1.389046489071879,0.06618858575002314,-1.6599787286708985,1.144725184519305,-0.01660102102802927,-1.615495110428349
-0.9385054661100158,-0.6866366461383792,-0.7459783568193301,-1.4825518923300622,-0.9526332455237844,-0.7891840976786685,-0.7660060453317721,1.1149858941057396,0.16806018488138466,-0.9444450957185977,-0.29552919418151247,-0.8148268133699967,-0.2693008168720156,0.8891720508712354,0.2640160170821283,2.2697824654987464,0.4085413863432868,-0.8792737702625145,0.7445019027432407,1.0056822468461715,1.1621077184070496,-0.9917634331234946,-0.269758085892278,1.0750984255805975,-1.6776160074094069,-0.35851438318861256,-1.4362893678512432,-0.9653884203667351
-1.020960622376784,1.2445281037428988,-0.2802118627622722,-0.9020193515604024,-0.9938158369221884,0.25725331624393216,-0.10534549149755239,1.3073125209232246,0.4933380112742741,-1.4044307600436672,-0.5937950269342277,1.1177460180727037,-0.5997682321576892,1.7276504274028737,-1.0287244139350065,0.6162286628462103,-0.7885861383405652,-0.38995265001739987,1.0926757659862292,-0.12876845521333313,0.9479297784329427,0.6734506144435549,0.8269453631433324,-0.7911709060828805,-0.18527642203890327,0.4530598649046331,-0.8203571604912958,1.6391890422355733
-0.7890966526842093,-0.318168673883384,-1.0274645204735038,-2.150916632727687,1.8114358038796599,-0.11716791469632193,-0.5203716485792271,-0.27587308954575923,1.4426518847020953,-0.8968568921086483,0.7617332093650022,-0.42846718605160716,-0.5877192407228052,0.5391629797038302,1.0480539765747996,-0.4394422610033739,-0.6714504902682945,-1.126587333167236,1.0933947411942209,-0.5403598809950256,-1.8391155499991423,1.4713084399852332,-1.3131267036578294,0.8596736326826453,0.21952871304905283,0.31999064303947244,-0.5399089405682895,0.4166721856325295
-1.6518415808278217,0.671494837187423,1.585275430005561,0.9582231172882724,-2.010284453663104,-0.9304841605482655,-0.3207916647553907,0.37020392796260665,-0.1187331652626485,-0.48532362076557667,0.5499344393575692,1.1397861746903997,-0.20791528426750508,0.8018545292724073,-2.5100599934253136,-0.9098089168025443,-0.1141799185255119,-0.2935458139329598,0.3836256392463388,1.0277009599912394,0.5164908864135928,-0.6024630177117054,-1.5023848720792143,0.5936966380472383,-1.8322184481668313,0.6601759708547948,-0.18969511731124744,-1.1776567893065317
0.3941349490339096,0.11548124786990867,0.13652536325158893,0.08735441933058717,0.5128783573690445,0.968098631312008,0.3955361620842265,0.9413669654559823,-0.03603941304743892,1.6154826260245212,0.5085070321511921,-0.573197167440348,-1.0865054995201964,0.2942776927435445,-1.2303593743983843,-0.9273354723000172,0.45729439309371245,-0.4400222228813933,-0.9311202862798663,0.0168552609880943,0.10250625340388748,-0.18537215761122133,-0.3251200893357393,0.8871711836395161,0.3519633239628131,-0.21716101814632247,2.4642362936791233,0.19037333743925774
1.1379330301077428,-0.5485889271758386,-1.3853248154373161,-0.8459231222598956,-0.2469928689517612,-0.48027025380257277,1.3877842634402018,0.06296968545839214,0.4545953933458252,-0.06887866728847208,-0.42942879689938435,0.04537097400502044,1.7122740833900751,-0.8119049447338907,0.8214603900926624,-1.0117202633609363,-0.43539871051296936,0.03854508457230498,0.44542081139408113,1.5050621290325668,0.054918762274186426,-0.7872374870924082,0.6750424479311964,-0.33344067538510663,0.2777331883006145,-0.07374352906593547,-1.9441720521304933,0.5051439347458816
0.5960757648543243,0.9347922092648956,1.7900599432624338,-1.2241778467669986,0.5418326151802141,0.4336835667287363,-0.2375320605411397,0.5467182833293295,0.4856060087789497,-1.2517617184326415,0.261093846923349,-0.9386690719200586,-0.6677402506627823,-1.740212894286717,-0.46681166417508274,-0.18297044316802905,0.5620593742587742,0.0057619164053861836,-1.517441284973879,0.9273399432738857,-0.020628079123825232,0.5659540303347211,0.979994855522057,1.4300253048922722,1.964536832526018,-0.02841357448177713,0.3070242856062666,-1.0804533646843988
