1.114156570708912,-1.1408668779545381,-1.8242211104297092,0.7271556814472471,-0.585078420349134,0.7451742911636785,0.3762349994005605,-1.6387365887634096,-2.718385542042693,-1.0749006507008374,-0.007689874865769011,-1.2343237002940763,-0.41489103446821995,-1.3870088407886876,0.3443868774374723,0.2684041557303926,-0.3764098913857984,1.4364808917977,1.3330594355841434,0.11053445436580188,-1.8370616156212631,-1.23262850081585,0.38400906047367933,-0.660716028944747,-0.39447117291296824,0.9584398611868838,0.5763204500505995,1.3354321299424674
-0.31137046096799365,1.4064420145954653,-0.6885155027869151,1.4653291157185475,0.03744163781899459,-0.9008548351024173,-1.6383957010619092,-0.35627361728513096,-0.19425928822918492,0.9195902740723617,-0.1518870450972947,-0.48615425845610527,1.201675769295647,0.06758854059505093,-0.4296796708749737,0.72436825278094,-0.35201591560236767,0.7253918437878131,-0.86045737708266,-0.5981645029759259,-0.1897639032835356,-0.6636409241973553,-0.03373334709718156,0.7944105647858255,0.5140713887346382,0.576277416342286,-0.5781642652871752,0.897471115901365
0.6458634406742307,0.9890214587710037,-1.003704506037534,-0.6271708446298222,0.625783250514473,-0.6518882565656008,-0.4181229250449399,1.9270935643868299,1.9442252422491577,1.1899902555906667,0.7122297996041145,-1.2006268439025998,0.3342856731417452,-0.478683413961194,-1.0759891631944958,-0.5200502588450414,-0.15037519936899302,-0.7277170039130231,-0.6887905342077414,0.6304339677016877,0.24832026693291784,0.31373378245202055,-0.13516531155045497,-0.8169008754432424,-1.2692809626541952,0.6500422572431891,-0.5417252041644309,-2.013213690345291
-0.43178264239182557,-1.1097705795966792,0.2927786977573335,0.05611343857278947,0.48447954988737824,-0.7191620139411631,0.6306477749518391,0.1218259544185939,-0.5235917912683087,-0.5638315388382531,0.681785740686069,-0.7868469071749377,0.1996847307988348,0.9549640316438283,1.8111337829553171,1.6443435085874452,0.7442488604289815,-1.4884195541230718,-0.7330435982174073,-0.6043612913411214,1.6529244510409842,-0.6937644992698278,0.19688063450391857,-0.10471711601378106,-0.7409188746905007,0.7064534674431499,0.36801453461188044,-1.2659453728127368
1.2459865565221016,-2.0829985950689784,-0.8312600607667032,0.8052535266338737,-1.1361683906038165,0.5155917323502743,-1.3050661183947372,-0.12073986156548966,-2.3065298175147197,-0.8990840975265194,-1.6078616221927795,-0.7545949519924313,-0.31835345176038177,-0.6470019077629174,0.906610407513454,-0.7705040393690998,0.5701092866876317,1.4691775481602645,0.24815029321307872,-0.7659955788063499,-1.2653657088405215,-0.6825317401006555,0.7241277100947632,0.24975207637153302,1.017924288047717,0.8267893346427727,0.07842153876264332,0.41995384361565175
1.8648716017833975,1.4351635385559136,-0.6138391047414871,0.8527764928814398,0.6999133695936226,1.1616714709093487,0.6807339459052292,-1.032009332114776,-1.626231081823884,0.38437336344851836,1.7904399824010204,-0.9590575379925111,-0.143150415810638,-1.0819695165998782,1.2466071548664204,-2.2747660873705957,-2.2476822400829675,0.46394924761560585,0.139889428111652,-0.2732284957518875,-0.2273548441298727,0.6537092085855397,-0.2104336494711174,-1.0529960293863854,-0.861201741860033,0.8985016522869163,-0.5935470262795728,-1.4036550790905429
0.07691810383373218,0.4893912270187839,1.2886081878581048,-0.03359913725158392,-0.7303494603903701,0.39929320694981285,0.8378853081208315,0.07971279454556547,-0.015957890290403426,0.39199653437648535,-0.11738728251563017,0.31217077763863044,-1.0507483948852179,-1.162411733477906,-0.8108590019450945,0.7076855837762349,0.18937572876966355,1.0439316563896122,-0.16977367868749363,-1.119455762683646,1.2180065331611405,0.17547955366104676,1.4079466512093557,0.9130470663229817,2.248704416094447,0.10671493464921233,0.875255544970006,0.8646648016109545
-0.5846959907955718,-0.21105977058921063,-1.4977805149352401,-1.5873112183295832,0.07897415070643804,0.8118725139418129,0.8101168330990772,0.46925226067801246,0.7929451134517379,-0.35409760911731186,-0.35939892483146246,0.7760945218319004,0.22902552219859057,-0.19560513249300227,1.4354161032260124,-1.2841994047872212,-0.5696356767206304,-0.19603548023733997,0.8652438793840809,0.02854410402949622,-1.0628633406641905,0.749106115172665,1.1626653692618767,1.0477322846954755,0.9069110476534129,-1.8454061583031955,-0.949113962335422,0.4088480634517044
0.29930887451688426,0.7688909456025436,-1.1711831153568286,0.26189678908463637,-1.4083127521511278,-1.9799802089965688,0.176989403968996,0.757269587104475,0.46480032542595034,0.1605794268857133,-1.6103337305707799,0.9657124564237775,0.33976577750869164,2.0651165856337235,1.1926230614661297,-1.9729819470111933,0.6350340272974182,-1.6170704024450528,-0.8496823960367028,-0.3561987125016192,-0.05191964324697333,0.41659865658962436,-1.012561936317413,-1.0671826517767282,0.6131303744739011,0.037446463321715584,0.21169420186445234,-2.1963986543842258
0.17953626889010948,-0.6907231785450876,-0.7343751232990696,1.0712934302693304,-1.088161520543739,-1.0962028238444719,-0.5707482477731538,0.23203976227093834,-0.6882343195589528,1.1945773904811943,1.470218839993866,-0.7213421567899722,0.20587987146121572,-0.38109171768483524,-1.618074158407846,0.4369966351677441,0.6004966544937687,2.026772754127278,-1.0850811305045385,1.259079582616286,1.4134696658884156,0.07080999707365758,0.6975061516150985,0.9791251078090817,1.991375306160851,0.5518044071043916,0.009706074104587677,-0.8584578635071026
0.4488379934088082,1.0893761301673939,0.2108445220009496,-0.8600796266318308,-0.08746251858874067,-0.26935988190945925,0.6724173221354444,-1.600043293252792,0.7628788503244036,0.8731135281386737,0.5585399774890762,0.13215690464304167,-1.8668232619021976,-0.016367787288051824,1.1425628445980558,-0.8606785775164016,-1.9652508677834388,-1.611630902712057,0.5262810923361858,0.5550878142121943,0.8595828157075497,-0.15306787796462448,-1.5092423888282311,-0.8294536986080406,0.7201515349624859,-0.016519468985292322,0.5665172683210761,0.3130881035753481
-0.0678982381904906,-0.03378896417482745,1.86214551091724,0.32856266424534336,-0.26719723132549544,0.3817474856089928,0.45410145775529687,-2.197955251521845,0.8157193498927935,1.7794291380463325,-0.5403415476174487,1.4428117476943583,-0.2207341949035293,0.39371033503452574,1.1493299421724643,-0.901783303309688,1.1449811754116865,-1.3725889095002275,-0.8585266126058384,-0.5031759919486232,0.5681602249588498,-0.433304411109181,-1.514778713604061,-0.24883914334954613,-0.8973013717370706,0.6254344130869266,-0.494146872655716,-0.08794514407733445
-0.4921454403093912,0.3542186930969842,-0.38391276191161317,0.15612502280978063,-2.605100959024645,0.3457817235940426,0.15170956758950085,-0.3263388347686418,0.7604213949117586,0.8711865129480876,1.2548505498970448,0.24268538939239448,-1.9844736640067524,-2.2859864816828583,-1.6581862051991871,-0.1705818208180445,-0.1781026911716328,0.27741834785012726,-0.7937809890390779,-0.7789726585786942,0.19580719733635554,0.39624910343649483,-0.38848122301532356,-0.20670980336009695,0.5215672593724985,0.5958201623476745,-1.2301290773775533,-0.8685753077891473
-1.2592128602110373,-0.5942009941965861,0.7387688083793794,0.38795352607197725,-0.9793408226331372,0.7555154982424873,-0.14013130088297132,-0.6053746075836803,-1.457611501250333,-0.012189332180106515,0.6904374147321846,-2.0706418390401766,-0.33010406535566666,2.249478314179594,0.49697114092758554,0.1413005072752952,-0.7432785335215403,-0.6319400317083678,-0.29422650891518515,1.5280959068872046,0.36538443512028573,-1.1349553396140961,1.0994071920637922,-0.36545358811406004,1.7217221063678882,-0.5008847142764778,-1.1053117017250524,-0.08454018257467669
0.9936554229175883,1.0605950650847091,0.30188843570397916,-0.9477780330229102,-0.8080109819709206,-2.0211048146924995,-1.1027445456356337,-0.4664690217763659,0.2907383181879415,-0.30693344840894027,0.07445693025788692,-0.2573827650078612,0.8318274935785415,-0.7679347328662105,0.8631919838509878,2.0156540914875607,0.45816201713909627,-0.6478633789919608,-0.7334607837404294,1.0955031966274824,-1.0703818437106185,-0.983870575922502,-1.197822972096931,-1.2565215470122548,-1.0620159156994984,0.8167594863913932,1.125836499746851,-0.7128900292946214
0.2439601982915388,0.7894200680957248,0.21722081330993878,-0.9120765200015782,-1.5375825265437704,0.8505848531660231,0.08901849116172937,0.290802101515706,-1.2172068167794123,0.26890705590975733,0.8544205382774346,0.4223493042840696,-0.5848090790913681,1.1459600084479942,-1.6069130949647414,0.8334868212424452,0.9647627769190188,1.5661352438394749,-0.46359637343884635,-1.283294973727671,0.7782884300137985,-0.8446092274144897,0.017855731049673595,-0.32996603656009627,-0.9280709497850568,0.2536239510032125,-1.42234699661029,0.5923598152185254
-0.9206965210544551,-1.7184743690741362,-0.03911807596807293,0.4617045673325617,0.9580738580935086,1.0006597363629195,-2.3495772724024007,-1.0544486170851732,0.13175148791893496,1.61543799979202,0.8131798446491001,1.9673075891204068,-0.4861107121799118,0.4042472246152879,-0.9146566014347149,-0.4054691763467815,-0.6528988689072729,-0.5931209103495545,-0.7720200724273406,-0.411047144446907,0.03809694526773942,0.6303114207287688,0.22380920445351465,-0.09858658606004281,-0.6453279765485954,-0.4255967058510955,-0.24666376426971603,0.6430423367957733
0.9258439558649331,1.3053577205630738,-0.8099101416247338,0.5398397550058576,-1.2637820990850979,0.783907290868145,1.062877443822511,-0.24955353821430432,1.0481216470561456,-1.0793943108925812,-0.993153992876755,-0.2461889268199735,1.1168183738031834,-0.31446075346807817,-0.4264907837957801,-0.9911841725948431,0.24163887830802452,1.323441529395709,0.6154437012537647,0.39109568650803045,-0.07868308538597912,-0.4838762670970346,0.7570600516074649,0.17224740859922527,-0.3417971171354666,0.8985395207920318,0.031379193404534794,-0.7213956243572384
0.9787619827129378,0.2175286276520636,-0.9821438586720198,-1.0888048509888688,-0.21389056978671597,2.3529716873381403,-0.590537250297796,-0.39719711350245357,1.4629589022318568,-0.0365435384493699,-1.5266704998440683,-1.6069235875871464,1.0606789727741042,0.4933196530450746,0.8710485291431497,-0.16268188328334396,-0.7334753885504858,-0.15210634106926907,-0.11866183838603525,-0.9827788414934372,0.6567698140513695,-1.195197857640882,-0.2195199739974,-0.1185032794976753,-0.10914942616280195,-2.2033833397322136,0.628767016560975,-0.6259082043737016
1.361573868875781,-0.21842976425006297,-0.42734126125810834,0.19783595644658722,0.8838393278251742,-0.8374811773086107,1.0762060782399172,1.4312353311869401,0.8914849650523042,1.52472445726233,1.2707082444388051,1.5914748957352685,1.5978932015242702,0.1908183021152068,-0.5271589932383135,-2.2338862707450677,-1.251670888602299,-0.5162541842400455,-0.5300571320355357,-0.5220288846257654,-0.7845439736673983,-1.5595416860453575,0.171401420544139,-0.008963243646404601,-0.40047278558634347,-0.3062316394566246,-0.8455499651765386,-0.21449176540435158
-0.9369654736451056,1.214564612839826,0.39414607089965253,-0.9197743919358699,-0.2466134592210319,-1.1720888696985445,1.0509894997786378,1.4669417408205405,1.2992107235546513,-1.053191997501486,-0.23485066242136673,-0.39641545578978793,0.7221270786588873,-0.9375462751615774,-0.6735387010149381,-0.35151212930613085,0.19200229705457128,0.6680385478216045,-0.25810672782093247,0.74875198399027,0.9594372102141756,-0.13063295847625933,-1.223273604995583,-1.1064439521228713,0.7511179703417717,-0.3332643709656275,-1.7237461183426674,0.6027091941082997
-0.026616385356994756,-1.43843310046228,1.2273682772208416,0.9257262495770437,0.19714473307365188,-1.2628553886765181,-1.4313895169123787,-0.3479656765005468,-1.6191881480473458,0.3825899356926278,-1.451190078804161,0.35391619409807673,-0.1195707894224063,0.856317366849702,-0.9001577229894681,0.2389315740422342,-1.500402123545762,0.7830165952070404,-0.02532626767763048,0.5879993575051946,-1.4103956213703683,0.6025801135407712,0.3109149292134545,0.4344304340176295,0.5364567977690513,-0.0043542208619080786,1.2470676068162452,-0.18047100580119782
-0.7190806112179671,-0.010313508973019504,-0.9184888632213629,-0.3905322413150277,0.051521459415948725,-0.17548384183374155,0.14015011029002508,1.9382013765117414,0.8028022899455466,1.2040401078755958,-0.4746119967192374,-0.42668861495485383,-0.3232336208196314,0.8340824007711325,-2.1604190059280795,-1.061777269933115,0.2502273189949358,0.18376527448191,1.9664425823214444,0.24402719954081903,-0.6152298818488271,-1.592487940026193,-0.37151782218043566,-1.3554336550946826,0.2496447101187887,-0.06800591550885583,-0.1578637808358438,2.050902114487208
-0.8911641627862243,-0.15290966696450567,-1.1940429664833123,0.009243967824365314,1.6064038276525991,0.6689614535554008,-0.1769547861010415,0.1844758953666598,-1.0832894420673742,-0.18826188180679018,0.31218003756247914,0.26542830109294063,-1.5092836692093632,0.590574754720961,0.24536596294500945,-0.46047915008281964,0.3873667395835787,-1.242498284659653,-1.623593602996129,-0.07941691912213153,-0.6279819099244348,0.02870467755957537,0.8388119650600315,-0.23287482380737978,-2.8159197231044435,-0.373522291966167,-0.8245155654049237,-0.6504992914303098
0.8917925536563535,-1.5824469108395327,0.06982634431729333,1.541739943233972,-0.6389819152780883,0.5352889726709019,1.0272972205552922,0.26525948902349045,-0.8959912952400638,-0.9383356108071567,0.6786561028225787,0.6212925510983843,-0.7650056776374781,-1.2453906269231845,-1.2705422247168838,1.6945783796498888,-0.04115867579585708,2.390074973562991,0.4790343429857761,0.43264784144273744,0.23644834412436164,0.9647055630204565,-1.0406476651213834,2.157491310187775,-0.34452095471057764,-0.8571137173981795,0.32450216910527274,1.101225006005542
-1.017297611965825,0.556316537113006,-0.8266214309073515,-0.6503266180001558,-0.5072198501191268,0.7829771515044323,-1.0708665413042318,0.3211306903071684,-0.47421187040619545,-0.9686626518391054,-1.2126451461468106,-1.1698677017676447,-1.6053396085220073,0.8737062279373294,-0.15899691686104617,0.33247795000186164,1.1609988486643108,-1.2203357424899084,-0.9767765578526573,0.20360213356408868,-1.8772192599913973,-0.7100620447545319,-1.0085527951236277,0.17265624625437742,-0.6306126223284771,1.990049364057792,0.9491120817561195,-0.842484206477032
-0.3350001282238362,-0.2935529568519544,3.307456486954769,-1.4789926042272414,0.3144782465068915,-2.078615995126242,-0.20136541656764997,1.8870333363464042,-0.6483447492134704,1.0471972182867164,-0.05828026222202412,-0.38912333421686224,-0.10157824580061661,-0.4653405570756523,-0.49311530796394987,-1.2693831071454407,1.5262532143072145,-0.16824096031107436,-0.039373995347539666,-1.0577118267280212,1.1419767872835476,-0.27037959978971393,-0.07947438544982212,-1.8268092345852902,0.3692497787189942,1.8062291991288852,-0.77062818125515,-0.3018713565938773
-1.117900800078447,0.18889192980958158,0.2369281430137815,0.8112979520249938,0.6390090171448921,-0.7484920804446966,0.03637858665037985,-0.48817065998950854,-1.1650502589348637,-0.36755031976587704,3.805167053998339,2.310879775779018,0.22238512009365366,1.762813320132097,0.10157815837385688,0.06417314678213898,-1.9181551859086394,-0.8629340871448128,-0.995862855493878,-0.29290740177298286,0.03334925086748476,-0.581403416708026,-0.5767225991865557,-0.149670484188528,-1.3866399289177265,-0.6430521290651041,-0.215789004368508,-1.1964329886547183
