-0.3645318810221755,-0.8552181102802164,1.2183996039235616,-0.3002894389893003,-0.2502153355054148,0.3770253235963443,0.6381134187149239,-1.7239796621113954,-0.42020238054893655,-0.9382506229923763,-0.2193121508564768,-0.5972832325737314,0.2421016167350713,-0.9400230935237395,-0.37568198819228793,-0.3971498499372306,1.1175483751948916,0.44886713836764613,0.39127323833084815,-0.2591617091625197,-0.291852516798365,0.6347967047723634,0.8561936363149986,0.1612510345945857,1.145584110070372,1.2773883753638506,-1.6813554803350563,0.32222855322097516
-0.08040376149216669,0.3559662462988091,1.0953669012928067,-0.9488640162777903,-1.6294613058711525,1.0838987015261354,-0.9522721708974861,-0.6142989593148453,0.16195374682844474,-0.7233961363349322,-1.6158819558369188,-0.03293929226031432,-0.7283531067434265,0.6626813010418134,-0.3071249615126252,-0.5091289662674049,-0.11628105917661477,1.0912361613104566,0.9104072619342367,-1.0664737093171575,2.800949043525283,-0.24688442811556258,-1.0959403086973758,0.9563236750713029,-0.35198107522227917,2.1543081981507517,0.7796284575900764,-0.31652124405889603
1.573761273949195,0.8445428193601167,-1.2022862360705069,0.9326509507661691,-0.48951360832382024,-0.04668821043118295,-0.049781065901139135,-0.9701173448334426,-1.3808841730708383,0.20241831190666867,-1.4849559651306672,-2.59665273760074,-0.7882527874737397,0.42939177929545647,-0.020977804732842463,1.3303695342387107,0.249434697462265,-0.7859777400183536,-0.3430005390338794,-1.4675502080536391,1.090365982755762,-1.3737890023760029,-0.8452240938764487,-0.03057338734733595,0.0006359409802143543,-1.5061825826780255,-0.9859883072671259,0.08954437267084879
1.1266046840099089,0.341010263636085,0.06680429937283643,-1.548413060893354,-0.5896469596777276,0.5440744381732027,1.0118084003901724,0.8042409030843813,-0.03403871198925283,1.1591778578048026,2.877237262324038,-0.8435200149278217,-0.6553625193917756,1.5310415627396545,0.4373132271053698,0.3313539207857991,0.4376907113536242,-0.6583502831904041,-0.9680148742057341,-0.7241628622464652,1.2455177711925838,-1.4241876046771675,0.5760257342307584,-0.464782936181826,-0.35751186288912695,0.735104810313727,0.7385817327694209,0.1724392624470964
-1.8602477040420065,1.5928303783961097,1.3052441039371785,0.07190343375868748,0.19967141067673022,1.8203483606788053,1.099868256523176,0.31201941068450384,-0.22253160477800504,-0.11786473662056683,1.231689175247526,1.097733232207018,-1.690810319898384,0.4882686006613491,1.0001220750004798,-1.4894391655045014,0.04741650180191994,-1.766095374513658,0.09764147192018313,-2.0752670884718967,-0.6856959385569052,-0.6337471774583067,-0.7321198167035743,1.4501450551742001,0.5218457180278296,-0.4239776329026035,-0.9061286305304356,-0.18585905656595328
-0.9708186503135425,1.0318394117716922,1.9957543836823912,1.0475756323162795,0.48974822251662586,0.006747296296673832,-0.049563869308783676,1.7785975060379775,-0.5241471499991439,1.5724749235493234,-0.9913358553442984,-0.17243134456574433,-1.7393034753545689,0.21151655311363715,-1.1584049592583912,1.6918484621742473,0.4329049308325113,0.5585827315558567,0.2759961394343114,-1.1142597458655026,0.17975181815712343,1.8434375596561074,0.0013994284239497669,-1.030575239477918,-1.8870602955938596,-0.7389679678326705,-1.752896181447554,0.8603151864202435
0.8156657781089988,-0.8459160333071227,0.6518492231424866,-0.5434288473256718,0.17798986444382642,0.5589217922445682,-0.420766420601611,0.46558896375376635,-1.7373794977997208,0.33778408915421665,0.14651221847302423,-2.017689106154591,-1.8647138546456834,-1.9195877999050046,0.33917380110791034,0.03278393398526299,0.18853129950990447,-1.37175473504909,1.1326136106619273,0.9733693001358645,-0.6237758824089012,1.232628961393547,-0.30874679168496844,-1.7832932384008822,-1.6438149960492392,0.7167295353189654,-0.08109956467125334,0.8906003849080082
-0.03075493289691481,0.31927878429578843,2.126480324907507,1.4075623305878449,-0.23772075726918998,0.5476694510080983,0.5275299400329602,0.7896509555527782,0.26533496447680177,-0.33327365293092925,0.15268411662047474,-0.33437773024117,1.696543379240268,1.271522341589693,-0.27774066295723865,0.33828005371908676,-0.2239076750884263,1.1882418578530576,1.0348592613422603,0.5458967446340843,0.9445644387996659,0.7762282650681621,1.1509813647878417,0.48605781200557596,0.1332300971325902,-0.5931291502341209,-1.5787141232826358,-0.0066438926401157184
-0.6829874112180864,0.15608222668095018,1.1404029573396637,0.18253663990735924,-0.6772012771331684,-1.0309131999042094,-1.2867228786333291,1.3577465473966517,-1.6039661938238672,-0.8667557398780218,-2.368560352683318,-0.21080507974960597,-0.4252846288054072,-0.4076125414070639,-0.1573296963258858,-0.8854627890247061,-0.8451294629607463,1.8174889285697138,-0.06909126891196768,1.0035018745958815,-0.8783818404806087,1.6127548155558815,1.532038897939002,0.33487166497853765,-1.064925742008912,0.2074254201163507,0.03617417849229073,0.2339995417135087
-0.9368401144565165,-1.5056590780872037,0.158614850497474,-0.005363770672157598,-0.32020689239429484,0.928120012204982,-1.3651273876969097,1.0723697095283347,-0.6059213301164765,-0.32405828196218567,-0.7299466260034873,0.22199149146632727,-1.9286485404926779,-0.5197508077227089,-0.5567581924177291,1.2321019135430058,0.17446588399686236,0.6828057887358989,0.241222210687206,-0.9789422220983901,0.9262601051415873,-0.8516904755439442,-0.4459310299346243,0.2789676658277543,0.9890923307410052,-0.10720777845844442,1.507712829405552,-0.5747386045285078
0.6074653352408018,-0.07902831935753574,1.564562137157076,0.3254639846976592,-1.8587937460969495,1.2085672106269814,-0.13263789123956304,-0.5801221656398613,1.3161541441417832,-0.05527566192656728,0.4811965717125488,-0.9946735778772441,-0.818623243139359,1.8099831795819863,-0.6976653169853725,-0.53184514342779,-1.7156957742900958,1.6432675689361163,0.5598736706488315,0.4186850452530205,1.0191483272724748,-1.268922424965717,-0.29881749138540187,0.12348382941690407,-1.5501948697347585,1.2817612411408996,-0.1016802752979014,-0.3918913227739743
0.15235042908887242,-0.8056503314147192,0.14997720739236095,3.428044708919286,0.8024765353075416,1.7192889042960906,-0.40880391942842376,-0.8001537337231173,0.5670359967875926,-1.0562939944905758,-2.427677396249656,0.5707647573733298,0.6253504578306133,0.8301244448570637,0.12468298305218539,1.9829713623278231,0.02591185750282653,-0.4906732844709215,-2.941622489342794,0.12652027392691534,0.8722059639814718,0.13561068418583958,1.2083783438626383,2.3026613486445386,-0.2604858164197165,1.2040806614317865,-1.5991887811155856,1.0011830363913437
0.1576052309070088,-0.13870910684851634,0.03865236223684892,0.041987351817735,-0.2745971723900418,0.2640002329649055,-0.22355276004400063,-1.257404934421356,0.3668460093322957,-0.7053090090582642,0.9653494860613395,-0.26989686917965144,0.06374714267449728,-1.9284888031072533,-1.4151867556238806,0.9003170857994697,-0.7463885699595848,-0.4835117766358788,-0.2501673202662307,1.3515777470842263,0.4833095760127234,1.3419467615038638,-0.34248664822979835,0.14198627849796822,-1.0484002792480573,1.2616926622432596,-0.004875047406802066,-0.06509338880631527
0.4273630600452266,1.4651202855307632,-0.006863624372665128,1.689115363828526,-0.8366046354913822,0.4604557377354408,2.0103563077929203,-0.46502437674660485,0.239832316128337,0.8725576931039262,-0.3920666709314116,-1.5966826979541728,-1.0941634376362668,0.5807609867074963,0.8034249614553199,0.7054161707648761,1.1405910546814793,0.12043828412523606,0.20320366981357402,-1.5686162239185613,0.41983859772136883,0.7033026513977494,-0.6608203618458569,0.5799593735398125,-1.7534106939777245,0.9152157900946681,0.19812612784681105,2.1039800378272595
1.424276358887378,1.5144838929435531,0.815998094777071,0.6442549509092288,-1.171543009011539,-0.2713386141519438,1.8114482226746789,-1.5747543374519621,-0.6336842738811159,-1.5983832847428023,1.4819032134631955,-0.37163545989183183,1.5584962739823185,-0.26308991762592376,-0.5139902484294128,1.273471919907164,0.9308541644524394,-2.74608519591049,0.48336738394737505,0.6103091843288725,0.04707448671046783,-0.7602897509791926,-0.030322951875673146,-0.4460827122892191,0.3711655189750999,-0.030897017915594575,-0.5235820957998479,0.29013592880851885
0.8323170746042202,0.3347004927254632,-0.562638561785138,0.3393598511253723,1.0960623595092482,1.6079976215030183,1.1488256471569673,0.4354469919652808,-1.1620993657757344,-1.4037041934127579,0.06479810959742431,-1.226004551540291,-0.6171391720451838,0.020615031933249598,-0.506128414507072,-0.3398156421460002,-1.3291065019631327,0.25880915669032906,1.0250071893990698,-0.5353422192737923,0.6137318550581536,2.6598629064209782,-0.18924012291224568,0.6177347943514605,0.36038182686510495,1.0444238256833902,-1.6884240169142637,-0.9970057349718663
0.35002766382199935,0.9904077175075438,0.2081594015617843,-1.6752788186153733,-0.8473751640491602,-0.7985448280737155,0.6562450173374309,-0.538785547701251,-0.635005297193843,1.0787993957624178,1.3270185747253567,-0.49052258917570013,0.43639000973399805,-1.8639827845519605,0.21863611009722145,1.1932192473932266,0.5327243633696623,0.09152901483306908,-0.3147316251473887,-0.6234944707803091,-0.20723592069907243,-1.6059370372488082,1.5970771692064885,0.47969573544902466,-0.10938426648432792,-0.6495858433145033,0.011190814581661618,0.848164877421116
1.0965066982791825,-0.7877153877940332,-0.9598975748273356,2.0849134208763145,1.1435487152836257,0.7729201487520245,0.17805466452436453,1.0703381042243567,-1.2033794906013824,1.534777168329733,-0.12944633826306828,0.7553247065960587,0.6282656871651074,-0.1431650867630356,-0.1608948506118889,1.2305710665283824,1.0282419009728185,-1.7080407893813065,-1.633327977528468,-0.9646698433870536,-0.9217873239345724,-1.1712217432079766,0.11851249164005534,-0.5710012705256359,1.200620464332471,1.4470816792385264,0.0590157881486615,1.6950467116235672
-0.015286561864761976,-0.469361427160017,-0.03958860034730584,0.897211129987739,-1.594593813078076,-0.1871821419773115,0.6176808348033126,0.6377237871151841,-0.25245910881055755,0.45696594985218486,0.38995418189330044,-0.46692523163976324,2.177740509388455,0.3840350734470025,-0.24836015853855387,-0.48379790228643255,1.0132116280581502,0.05425183848274267,2.5507326279180367,-0.39058822395050324,-1.1961710167774127,-0.0044790160530014155,-0.027050904877232537,-2.1008877346969723,-0.25662756346370985,-0.3197143392866838,-0.4470524433640327,-0.692735195643964
-1.3530027269516787,0.7379657250676965,-0.6664103038263441,-1.0572326524896423,-0.7330543718110745,-0.4839729257640052,0.43073546860335105,0.8939943031639983,-0.924377141471499,-0.5779366765295668,-1.3538118259810938,-3.326940316863319,0.020687215357858196,1.5014067504796555,0.5554444049661624,-0.4815451401614268,0.056865379390461906,-1.0535218741869994,0.01246482564533142,-0.27619433293630774,-0.8298664671737088,0.42238100423809466,2.5951435830454597,1.6390882948229706,-0.022957737000966177,0.908582827853517,0.8195447066867505,-0.7024452681713951
0.5718749816090474,-1.4603032210903955,-0.7845801819303114,0.3062126032825892,-0.42894776170060867,1.7576098757042806,0.5894074806742501,-0.48875683085689275,-0.42144644033562745,0.30224380531125794,-1.0393211946477217,0.662770540651303,-1.2397572504068877,0.7098887070416009,-0.09152217025785046,0.48016835575516564,-1.064549256825905,0.16763776136109984,2.4101679914038674,-0.32355678653076164,0.3313265460707887,1.5076543469286514,0.7948593207673241,0.47526083190627383,-1.0414601937195853,-1.3057882166487815,-0.002890556358346496,-0.5073986877769624
-0.1231641399661424,0.10504386775623543,-0.6480478901793967,0.5322535853940692,1.858551651406663,-0.9991439770502876,-0.5843175040290751,-0.15509023933349014,1.1834140563703321,-1.21327738432544,-1.0350023358477491,-2.1853590091526383,-0.26362779912140116,0.741827184743805,1.0953260698424478,0.40098533614696363,-0.6515840487701748,0.638197543340807,0.16563284548072357,-1.9285849249160547,-1.1953224136188754,1.5125807416887271,0.3762373036348143,-1.3681753905736869,0.7310437189319919,1.011129842478774,-0.4852928313221563,0.6202875661199446
-3.7404059412541075,0.904921433291426,1.1855604544860512,-1.0870327454560809,0.34764080021282096,-0.2582122332924868,-0.011807963698406183,-0.3577221068115273,-1.3052269899844835,1.8807205045485924,-0.27341224101230754,0.11754310408386624,-0.8981737362280618,-0.948438030616213,0.4035028299245442,0.5254659851089949,0.8261960139788554,1.0720905275362749,-0.08383152591583898,-0.34336180322955495,0.79175698107718,-0.5593492595420638,0.8747093806500509,0.36582445768280475,1.1236903470308082,0.6182656044973474,-1.0547055174036806,-0.8698259372055334
0.6401479918971058,1.894202193547508,-1.307297144108348,0.044133916085890935,0.3527502470470099,-1.5102771227475145,0.5727986801623569,-0.004536687745908641,-2.0576742442574902,1.6109656243543784,-0.8482169356875693,-1.242451782773213,0.5224664357639719,0.6221144888978751,0.7347022373285822,-0.36195732247775314,-0.1310134383424938,-0.7708655733045788,-1.2813445987686392,1.1226669592499976,-0.01685758152989723,-0.08625743832123994,-2.002445746523292,-0.203653063654147,-0.8758085375699699,-0.2413923868918644,-0.21703112261295915,-0.44823171999080536
0.9974129737079294,0.5512019894008668,1.173068442709771,-1.2909109619045958,-0.6838384783478183,-0.11488169533048263,-0.402169919806176,-0.11517188085510117,-1.1796989595478107,-0.706726578799853,-1.5973858902746487,-0.8845140276776411,0.6871931439924271,-0.22836402677390982,1.500751188150962,-0.6735110090574802,-0.012889561302482653,-1.2505283615845348,2.6010867671351914,-0.171800449617671,0.8149372435439403,0.3838212800448723,-0.6275749262544983,-1.3524318794027779,0.1990428273237428,-0.5257686147784126,-0.1755697221745523,0.6384289898490295
0.2083032012122069,0.4878438001785822,0.2813964469773815,-1.4461933212366602,1.382568448055846,1.1582340903201442,-1.16512308348422,0.5000216674968975,-0.6746271109691726,-0.7538577119288962,0.032163283462039546,1.7443160593234637,1.0468091992460342,0.5912622286899734,-1.17575419233455,2.5512994375088467,0.7941495364435253,-2.3571439003179657,0.4152158844472005,-0.4421869395024006,0.3969406041514478,0.38802086322000834,-0.9555837441683931,1.8205087678107505,0.24392912530325445,0.9611438866425133,1.3470061388826633,-0.7515219060243399
-0.9295659027675798,1.1090168711289747,1.4065405976132406,-1.3620356829510483,2.01089660962491,-0.24097777029312073,0.5828155522639986,0.44539981917543947,-0.949709724901965,-0.8397462968110114,-2.067486075270969,-1.110509909807739,-1.5485947662156492,0.04923383125692595,1.36862359667791,-0.036927187381652515,0.382520919408098,0.793580559197475,0.6993350550858316,-0.3690593690627654,-1.4514479871819044,-0.3843047029192289,-0.028346277039922006,-0.9130228598015832,0.3133533997043707,-0.3432129100880932,0.5921900791918889,-0.8273762747962555
-0.9395077880184056,1.7700038883267406,0.09241271677992058,0.5983809115849236,-1.105298519667779,-0.3828684251872978,0.5630012904484436,1.5368116310339397,-0.7037946135441504,-0.781877177638758,0.04702372266458376,-1.51598011848116,-0.07689230200562824,-0.08752922432041553,0.7239116116871597,1.4145020906114265,0.6057128831355363,0.7620011891145893,0.06739209832997681,-0.37004353125034567,-1.9961835180352399,-0.8688510598448068,0.13026028391716138,-1.6574916050985475,0.1910176056607053,-0.4472218861816706,-1.0390722235402183,-0.5049652129688779
