1.77595515137025,0.4919479571734459,1.0998450243291733,2.2540320170565655,1.868920467472463,-0.9764192173499102,0.8548613394427597,-0.3526301653094469,0.024512411810570876,0.5210277773776586,-0.09967719420216566,1.405819602243454,0.6546644362068876,-0.060948963955948135,0.43125372787444666,0.27287680299593564,1.5083168555441377,-0.13363629197007906,0.40502512594953105,-0.8161963712142284,-2.5417951011369406,0.7152845837176205,0.8612684895880227,-0.7530861858199182,2.266777671497303,-1.4683661601332145,-0.03309515176786798,-0.2636432308423732
1.551051840142775,1.4897880318659011,0.4335705716250168,0.618620612089038,-0.8882396892059866,-1.982941279619869,-0.523508351841722,-0.03630497795085123,1.2679309633143376,1.2381446021571803,-0.58946211610894,-0.5285882633358443,-1.0956085165042886,-1.451067401000331,-1.6961055495358357,1.9398175127906174,-0.46536989678331675,-0.3815429888077537,-1.2244520900929596,0.8285883024409949,-1.577873495458905,-0.13986587497570438,-0.9204836479775422,0.37466183569490913,-0.5636479727459601,-1.2009911735163683,-0.1052655766629777,0.36348809223750184
0.07957129461841607,0.31722426892568817,-0.45837960331659583,-0.14226477818851505,-0.7128199471625785,-0.3995496650422494,-0.7734581966946821,-1.7155597846413986,0.16158310983586535,-0.4332786247651979,-1.5761139155191655,0.5585484253475953,-1.0771102956131975,-0.24271699481768047,0.7083928505424272,0.13866130811003743,1.0920926964646496,-1.2664884233235403,0.6425186457649377,-0.3693251509256788,-0.7791816761036047,-0.48357571939045163,-0.10504882674133399,0.2906901203777985,-1.216077839545997,0.816344474035462,0.39410316528305905,-1.5553701865360372
1.4905454269050913,1.8973873080917183,1.2548426887238227,0.055620556905508454,-1.1080755815144634,1.0606991945706228,-0.38137393973608397,1.247547236752222,0.08724405274531385,0.9432612251783037,0.43765470530391937,0.7794677392027215,-0.24577846731003575,1.7750462453144822,0.18051225193375997,0.4219040761319914,1.8943436429127307,-1.3533001755774463,-1.1955286499133395,1.110317839156816,-1.1744128889393861,1.9579220622000788,-0.24484014825352035,-0.5711177433055766,1.90702291367765,1.448822542684267,1.8579288498089066,0.8640122088798449
-0.8788956082947611,1.9087483985231548,-0.3038200092962031,0.7860147480097018,0.9187848920093414,-0.22954682123404724,0.6279478104044537,0.9347874248661461,0.24892322768975628,-1.1605541174828822,-0.0998417287507438,1.2559192261498622,-1.004851185953446,-0.5089616086790106,-0.3329908722486233,1.8483679757623532,0.601345171640324,0.41535212865060356,-0.7936392146680791,0.5718231815907713,-0.7345058901237764,-0.13425975390241743,-0.8964929294839923,0.36598977418445255,0.4521025780949446,-0.3494692478703221,0.18788845465239662,-1.1777573816574864
-1.4974240162167967,0.4264220686402617,0.15154094040681917,0.6001530234591275,2.379387410065136,0.9099633962300354,-0.9218316058460744,1.090725147102325,-1.309571930907581,-0.6729387929140105,-0.3892471110838021,1.737215468813025,-1.0049172490782323,-1.0396878852590752,-0.04863958612868729,-0.6539010634355494,1.1767348018584196,-1.121379552631337,-1.0228339194483616,-0.42966410794251486,-0.58499898430592,1.8339250057484644,0.727207282724557,-0.32702801562305567,-1.3031750761253402,0.7957268163908854,-1.095572727764847,-1.581519425045344
1.2114942343255954,0.3811416319610909,0.9964579376698195,0.41426409029928674,0.9549994342030512,-0.4905751065060329,-1.1064330005353396,0.5816685381765702,-0.7422997608143846,-0.7871177812176959,-0.4053828551256759,-0.0009403870532733587,-0.5717543384165175,-1.5335935895818973,-0.7002965617620411,-2.285560983710543,0.6335465622381683,-1.5299604334880827,-1.1143143941884335,0.08060668302860846,-0.6787438656195673,1.605310958795593,-1.3715377300429603,-0.16543888990774658,-0.09284643062926154,-1.2075910548513282,0.4320545037140893,-0.27174673495288054
0.8149619094302132,0.8607182621749068,2.173093877145615,1.3558678787134557,-0.19451471468660794,-0.0762890639937969,1.1007200960731964,0.5492780690437538,0.738090158746697,-1.6156453070086774,0.013750906534238204,-0.7467587763160074,0.02903658028964541,-0.3175371658364949,0.9321775799484971,0.29944200431671547,0.8177648087454469,-0.4345289308283689,-0.9121632787749984,-0.4938232752115035,-0.012089566057941124,0.4250891302102528,2.168235337024467,-0.5102009897346346,-1.04080525661681,-0.4971158768227216,-0.56890831600505,0.40793938447661926
-1.55030702497956,0.03817479718879389,0.029693698813898068,0.17197882347722496,-0.6012506008484063,-0.2143021400184766,-1.4264315790650919,-0.6480519398877194,-0.7094096309743598,0.18315567811990474,-1.1847773248438684,0.862851662788649,1.5445185631998644,-2.043752554222123,0.5528561078167459,0.7295944761046639,-0.9185463899082638,-0.41254025704618835,-0.2133191652539576,-0.3963398554202776,-0.43669213518613975,-1.7008497627372288,1.0301935162759477,1.0934370076865527,-0.7660407097141068,-1.452635762592636,0.6316926316403377,-0.4878960297124257
0.11779193236992187,-0.355208303636316,0.6079385738613052,0.6358332003060322,-0.7037379736542978,-1.3363547626916397,-1.4879693805545147,0.4609180339935715,-1.078603518321939,-0.7645862808399841,-0.4969428534916336,0.07081714094724385,-2.0535411048104537,0.20394274370657348,0.4717648948933611,0.10046743083054857,-0.34923127454203806,0.14175332041907038,0.18221070721000437,-2.6412062659410394,1.9435527590114892,0.28816620881799687,-0.8370693911075999,-0.5647314777563073,0.538916651865747,-0.1244283667039449,-2.019784453412723,2.0739843485031355
0.04269708351397074,1.0857146386676846,-0.38194680588740804,1.587395681007895,0.39878285984465894,0.738999733228731,-1.114392620219929,1.2351564913654463,0.5732373254743832,1.244945927811644,-0.7003948805789171,-0.5656177043857238,2.212038980506685,-1.0723311422583457,-0.21147892623167108,1.1465264473395977,0.177704674825438,0.7433360459121748,-0.2533317758911138,0.5793830857263456,-1.1386687666896729,1.7754560221889455,-0.5195787335565025,-0.9417074568772444,0.6450288813283772,-0.5409857348259192,-1.3530678111709409,-1.3551457000105052
0.7936253539075736,-0.004667092310513507,0.27990867511070777,1.2125163768046003,-1.138318056434896,-0.7326029343522973,-0.3646535796286915,0.2346694151144251,-0.22331478739018276,-0.5452994847902531,-0.13565555537443139,-0.2968617325559705,-0.6860266371133958,-0.7443481611602648,0.18266353018660778,-0.9256388181791035,-1.1020353010820834,-0.27785333350783264,-0.1079526161771335,2.346168714937742,-0.2630735837779432,1.268806375425634,0.4719289196178345,-1.3595983339942284,0.7573217321275514,-1.2151418944650325,-2.6716547938215864,0.6316034181609282
-1.7592332239174084,0.4846699671266462,-0.7816888841114812,1.620400528680926,1.0167259235982924,-0.6513668042351423,-0.6720846184657825,-1.2976464829930328,-0.5056756882536179,-0.5112192136070968,-0.4918878913278174,0.12218395298090771,0.4707472524169039,0.4324327891427978,-0.7720157528511223,-1.4652554254002987,1.3457599347372267,-0.8221681358022788,-0.7661743787720974,-0.5691541292139376,-1.8445046898095763,-0.4557387039314335,-0.5871721024036486,0.5556620266241297,0.6057496995728552,-0.1968470642354568,0.9939338143123607,0.43630026178454256
0.02427697632064113,0.20446134072754574,-0.3343099710779516,-0.5365669981248226,-0.47998358447650713,-1.1892181572274363,0.2942533947670604,-1.0421759769524848,0.8684925666955148,-0.4215857522204948,0.08841286897633162,0.554086671156526,0.5038340616515729,-1.6308326571728922,-0.3290689560273077,0.7757136586309157,-1.8703600905175586,0.3403473619153064,-2.294318127720749,-1.0043616924221554,-0.25307178910082584,-1.5408910029396756,-1.0864325686810183,-1.5418072333536597,1.6418722196802336,0.04626796360016834,0.6372220906380162,-0.13015854032439766
-0.47435092189748546,-1.6441299363128827,-0.43503004354817715,-0.8276701439698614,0.8074834817309654,1.1230547620325038,1.4308150897615577,0.6635058417813271,-0.7812797686518983,-1.1299683196390808,0.8942888388193353,0.4141088478852394,-1.7117885368794221,0.4073030683297169,0.5978821595421213,0.012057904669586382,-0.3360811140341359,-1.0614146098075188,-1.3533024233990383,0.962756976112124,-0.37431847271851376,-0.28600383172377025,1.7900841885348597,0.7414912457772918,0.3444409005315726,0.11539926095929268,1.4734172411114903,1.6829744884953501
0.8718225546671691,0.49821110802797913,-2.11023180484354,0.01904912847526158,-0.239103247447647,-0.028013123261860645,1.0066967320463929,-2.8593699841411637,-0.6703724309487235,0.231048872246686,-0.37422582945282334,-1.410813375154241,0.9592874979871261,0.35028301290395764,-1.0958512649649557,0.36560152108932015,0.8016409356977552,0.1187823577568993,0.9037583412286363,0.18424549165743767,-0.4856438661513893,-1.3228209907947612,0.06765889597395126,0.2619441730593679,0.8746619731791802,-0.1570450064970648,0.1883718674518756,-1.1125666438406632
-0.8124783168537224,-0.17701515650708347,-0.9273316153658738,1.0191797171970982,0.6652708168652386,0.4962774489672354,0.3363872976899722,2.037440664146219,-0.753935038683443,-2.2011247426742915,-0.0006993820538277731,-0.25933846303966684,-0.5700338030428482,-1.051076135650864,-0.3966762285212177,0.2779673555330751,-0.24639168055679755,2.3353472257189107,-0.797848916009242,-0.5185493372739209,-2.301400192151734,0.5804858750811209,-1.934893007164701,-0.2822731179448939,-0.0997337740839244,-0.4998482193486216,1.7671556517844254,1.050420232745321
1.3080514756405672,-0.9133503601704185,1.21259130371106,0.7331176919457096,0.857966739451609,1.0377824138730791,-0.8096966094496063,-0.39934322278628925,0.5768965309026628,-2.7091477011099228,1.4567208157837916,0.4410164799282775,-0.2954685422110839,-0.012554669506907186,-1.0612129898592415,-0.29065615861831906,1.0174411155210406,1.3004176937519687,2.6899949845341444,0.23467078898870886,-0.43834860621833094,-0.32255125252624867,-0.8733336235137219,0.21674162648035908,0.5734568340276356,0.3139658854514505,1.135634182502313,-0.10684248446947925
-0.4475534442042628,-0.6704522579371742,-1.6192276917620751,-1.5973736866704227,-0.9904719624239523,1.3680898492959699,1.028219223968596,1.349532705781084,-1.3772189454801558,-2.0195896723742544,-0.472118465150896,0.07684080209821875,0.6108878370510944,1.1795951833375526,0.1776897604018886,1.7902332858435885,0.026605500320648286,-0.8075618750368858,-1.6663237272653557,-1.019273785619315,0.07123726248658178,-1.0014166576626637,1.070583066737082,1.506020596383253,-2.393226351342858,0.7516071986486782,-2.2251854661239463,0.5563052684538428
1.194422286116554,-0.04726474052799372,-1.2769363474551212,-0.620011308975065,0.1724168558884024,0.08598414193902257,-0.06330031766514789,0.015932882761112592,0.24493725183579346,-1.2219147577105516,-0.25681573945745967,1.6056148962575854,-0.3686963623605366,-0.42949265772133316,1.1967186126688525,-2.60243146952162,1.219382593280587,-0.6200511104939803,0.15236323598490467,-0.15643274204738708,0.9760699810945065,-0.33386357887758894,-0.3594576498390282,1.4343907500017246,-2.3543438815839846,-0.18938263114798173,-1.2836896234155535,-0.6422901994622066
2.008423717516431,-0.08852528707548325,0.2823389784892032,-1.7333025323297668,-0.5927867005739357,0.5335800380850397,0.7503443769922614,0.9087754915116594,0.28427304782981283,0.7882683362317315,0.5616028705607716,-1.9162625628535743,0.00822770755797142,0.5838994288424588,0.41905508216010573,-0.5134632344501776,-0.7518445181407133,-0.9729641473661049,0.09885495653696696,1.2919709337209238,-1.9140668883001293,-0.5336251792372749,-0.9328719788147546,1.1302856188681436,-0.745679632507018,-0.7134584024794388,-0.3340959998108817,0.31306501276024823
-0.43067106396599886,-3.0422941780768458,0.5773714925135233,0.5072949449211857,0.02544429078527329,-0.9563928617144468,0.6662252260309284,0.6601324790849955,-0.1782149077464906,0.1486660409679487,-0.9760683450942005,-0.1994441864395634,-1.5724866549265915,0.2852468289253694,-1.122263626712788,0.09183797514675053,-1.3091247485761837,-0.502554886759775,0.14244829620512275,-1.6424177815095649,0.37231074976223705,-0.2054702885323838,-1.6830121816340344,-1.1342459107003091,0.39346247959617725,0.7033344426254764,-0.2617606579123958,0.26651461998061765
-0.09332890751785712,0.02341409048253233,1.213217326443287,-1.559225693715859,0.5506664318464554,-0.5881604233834108,-0.1868332241349037,-0.25126169251459934,-0.4434812420793397,-1.2336288724089153,0.027659649243151452,1.619512721708985,-0.20089285115668404,-0.2604591549961115,-0.764233256383613,-0.30762180969216746,0.4469210211760856,-0.3595688960387259,-0.11096748162070463,0.7336572556252142,-1.0497415497213456,0.006962564335278699,0.8952903615286885,1.4392683069401107,-0.45796665991151303,1.2562455820894491,0.9351155247273262,-1.089692420223739
-1.3087429891735,-0.5797480936821954,0.9236131679078528,-0.32170165793986644,-0.7147326150239595,1.5500319364577886,0.4244019975413394,-2.4145950417335666,0.29718017577110184,0.5125358290634321,0.08393379977365624,0.3497717234384127,-0.3348465681420679,-1.397381485550417,-0.46912501825378344,-0.9954647621689828,-0.9527569502045068,-1.2826544763491285,0.6641827560782005,0.45331132130621987,-0.7053826721724291,-0.857911139304744,0.09543988066425922,1.1877489324082564,-2.0382623969567346,0.008143014463802946,-0.7073021049745364,-1.9047848272283352
-1.9221036646755962,-0.7627591901300566,0.2042630406402672,0.37184311593391556,-0.869566081174439,1.0708906882381284,1.312297225372846,0.04759165011669359,-0.4405914608398797,1.1260308656382745,0.6905839121969477,0.7696619749373018,-0.6199189963070841,-2.8033029429185494,2.212497806981663,-1.6167079297465183,0.16427621185040808,2.3759915989935165,0.6403331933337502,0.9732119851593221,-1.4667650053079684,-1.756640147462301,-0.7977380221236282,0.9220434636324412,-0.2735966070543483,-0.7512755901050139,0.04991328212893622,1.0262067553918597
-1.3831866730452755,-1.1159154703458405,-0.8055759688707836,1.0962138869424765,0.3791097004861285,2.1456496280269164,0.7314368714093852,-0.34778114908410246,1.288916577154304,0.3043172903928477,-0.8145162294829085,0.6042520399658307,-0.6243183844253172,-0.14181549641692856,1.239490139683011,-0.2013929143294802,-0.7176814015365187,-0.2690123627672585,1.10163282454438,-0.4116075054464388,-0.14403171371467258,-0.24258575367589374,-0.2015044924458221,-0.6885651777727034,-1.5872382092709176,-0.8455318296134279,-1.0006836599717661,1.2009190583053713
0.7996581452466076,0.5704195962070652,-0.48449150871379565,-0.7993016227880285,-0.48885168010134566,-1.040026600555152,2.4931196552848887,-2.237205733146483,0.6011266574974222,-1.2616702498710182,-0.10542631265922378,-1.033463094097176,-1.1420191502299797,-1.1399589262631364,1.8124515856182564,-0.05394153872034643,-0.8203955664929851,0.506783031488492,0.23780258633379903,0.9104771089874913,-1.7997317959135601,0.4942653596845274,0.5994825462989201,-1.6974728211815915,0.28623635423814503,1.6728282712772742,-0.07702212520222837,0.7881336725998148
0.6550749384293929,-0.7248988598549253,0.07080093809036446,-1.5627089086673265,-0.42598068898052777,0.3004956720612837,0.7058206242636791,-0.013000917500281527,0.7347022671449669,-1.1026337197747598,-0.10396575244363856,0.04738754754232907,1.8341860146148565,-0.1890860756283377,-0.47028780681978133,0.06227301790054341,-0.9416671968054611,0.15307508327601968,-0.14714271188875894,-1.7654536103531313,0.14322629678193166,-0.12044421973438692,-1.6693526066555189,-0.33258066843502226,1.4550543485221241,0.3716209803394135,0.5699398086847823,-1.3563143985490493
