0.0067033387341171626,0.007043118999500485,0.005398445911125598,0.005399173528039617,0.0021248851803723247,0.0021233775301970083,0.0031242433414350157,0.0029320972077485122,0.0073642792443060255,0.007563703969894167,0.011889233750722981,0.0119560900393729,0.011327871639755993,0.011228935886900167,0.00924229692169281,0.009041687747958589,0.009715368957324633,0.009951911633068323,0.012039339517426187,0.012057427196995573,0.013388166051946428,0.013270875026983422,0.011597134246962511,0.011700345400841758,0.009904614122498975,0.009867194992819198,0.011600660236658254,0.012481251347470832
0.005306374879183705,0.0053050329769979854,0.003005967299413026,0.003006680537606588,-0.0019866127835804154,-0.0020706790801649096,0.0003143425585109279,0.00037994843240645294,0.008253801551241885,0.008083409641543473,0.015845540273059434,0.01754780575766177,0.015470675458959523,0.015259364476642976,0.014290733534571219,0.01487130428925147,0.013932493380960828,0.011227935081999315,0.014791735401227562,0.015219477145633277,0.018742551882500257,0.018191071270666416,0.012926986645009865,0.013310731084566157,0.011123876708532604,0.011030982701955355,0.012762067637025457,0.012858061424569299
0.0004043720535255328,0.0008165599421725003,-0.00711932991183003,-0.007184113630602503,-0.002084595984076404,-0.0022459680232019535,0.0116052744635171,0.010423483977157044,0.01956818713133559,0.019472078396512164,0.018272465331498452,0.01843380075496058,0.005752970652923637,0.004331011338382375,-0.0013616235014921865,-0.0017917483206015639,0.017854511532623723,0.01985311448080838,0.03394989183264416,0.03521443978507051,0.02545004363570649,0.02528430262167502,0.0014514282468046837,0.0013205144056626847,-0.010869606202605865,-0.010412070592291487,0.00738859122417865,0.00718290310668019
0.0004107431406440917,0.0008371801337278661,-0.007124339172767624,-0.007218474125161708,-0.0023865746492488767,-0.003336982038750398,0.008634210922205107,0.0068317692023304386,0.013324223988747804,0.012431911243361168,0.010042252106668611,0.010138143286877042,-0.005138620614729121,-0.004784139171250618,-0.01751915346313628,-0.015544986705896017,-0.00524639817645249,0.010255785926159583,0.023347197128029,0.03211899892198861,0.01864384740590052,0.019896289629368413,-0.004244356978739685,-0.0005107707118413972,-0.012527307067292758,-0.010873638661078346,0.007688643066676145,0.00743178098768532
0.0033473929872304504,0.003652279856078983,0.006994036610279178,0.006728628595662674,0.020483636061737705,0.01975992150213534,0.04250664883543202,0.04072369427134315,0.053792568291119176,0.054382221028449786,0.046030360033071024,0.04034453041150848,0.030658218948005272,0.024238303554669813,0.013503696618863614,0.011545682815491407,-0.0019135761360559306,0.005237349217761974,0.007826408350511125,0.005621919283983286,0.004559341440975658,0.01017575503371308,0.008792159481272406,0.01454080393994028,-0.005449621515137111,-0.008157049819367207,0.006572606712135972,0.0050107797843781665
0.003388570786561792,0.0037309880636976346,0.007143067872458989,0.0062152141901833146,0.02135229176132282,0.021368461463006267,0.04298920898225105,0.0397558300718186,0.04925646856713888,0.04938807984841664,0.035589084291166306,0.04021005162979847,0.03489722073493176,0.035481521155143664,0.012928664951000755,0.023996629330292413,0.01061420695166734,0.006934192844692937,0.005933572853509956,0.007670676852623837,-0.013397595373631879,-0.002248694468269005,0.005140634315146178,0.008994843392764686,-0.006093700668375823,-0.0071865333053738965,0.0051106775822820335,0.00503682054874922
0.010638563345230626,0.010240731662662211,0.015045737064547041,0.015600315792261735,0.02261723506805949,0.025254115942865696,0.0414590912556751,0.03908523506722611,0.03501964506087711,0.023387373636627358,0.006075480224607856,0.002702079631909521,-0.00731282824347829,-0.01905402338536805,-0.016794637772640862,-0.02208846240671201,-0.021989463735187755,-0.03133611741515434,-0.026660937538342224,-0.029536955661020853,-0.018550597729560147,-0.019160691109909665,0.022403155273002687,0.020920356903161574,0.014179843629147006,0.008401468863526364,0.008779341727010576,0.009316445325279685
0.010578911062875233,0.01000546616035593,0.014411908186975736,0.014754403713667775,0.021947432120170345,0.024155502188997376,0.047157032763983156,0.040535357659540465,0.027379217235744293,0.02933368542721802,0.010504367202011252,0.014574417878940591,-0.0034130043220514552,-0.0013275625230664049,-0.02226678252926188,-0.01855586175751281,-0.022159135164460282,-0.00869640455754865,-0.020641872254735752,-0.018972882318622944,-0.0057544334612836074,-0.009880465446466714,0.011349062903331418,0.011220924022681206,0.010831014754946123,0.007893714184674923,0.00894515732687401,0.009343646038009737
0.014038467893964388,0.012914849844813945,0.013957070543665205,0.01360473654107736,0.045812738503661375,0.042946507155650945,0.04542946785423265,0.037695632002756524,0.0076128951955025765,0.012013385777100623,-0.011320331711449009,-0.01334282516167414,-0.023171161300214613,-0.03286116043410181,-0.008428323403528597,-0.017015015559651774,0.021526605639497976,0.013257470230441227,0.02888227264220312,0.028707388685898557,0.030142040497391522,0.03520117432640442,0.021443237264235162,0.010731131701495412,-0.0022544172746292584,-0.0034803635384062608,-0.004588664297965963,-0.004645247432012275
0.014115542979858566,0.012734238964090325,0.01425077337849353,0.013647116246767382,0.045193323044982435,0.04307017213880988,0.04710836295829598,0.03540530163613921,0.03073571269268069,0.021912906158803442,0.019380389946986973,0.0012698662375963297,-0.013346941258192843,-0.014592572179751961,0.015517598846839845,0.0049618302756854245,0.01323272933190634,0.01484834353075072,0.030847894735212232,0.009131605950967155,0.014868398890075164,0.026536034018072953,0.024732309800513483,0.014619144952740165,0.0010278027609338047,-0.003940684212545195,-0.0039213426453579975,-0.004589993192907862
0.01183165919805511,0.010783366391323393,0.02687523641852859,0.027584473336658404,0.06909495898939089,0.06153025002152408,0.05879426331602637,0.04303518177444875,0.034633921425602225,0.05300276793310888,0.05847834766701164,0.04566313168925983,0.012269093418719072,0.032864818459154135,0.00428152648376902,-0.004604185000647054,0.03164383227042746,0.025285621520933017,0.060681371519295646,0.061761072808436776,0.04106336160216397,0.046273668206553736,0.03849069367586674,0.039007779127347285,0.013778165911507807,0.006512992880115263,0.010011613597589088,0.010025626536248678
0.011864879979006792,0.010410855801514442,0.02806345544450135,0.028123091152725314,0.07261017855283143,0.0623582792299009,0.06683200508002816,0.040146917342949597,0.043511069875124445,0.06997154117327405,0.06496420739837883,0.023504669239412523,0.010690995024922592,0.012033551599503717,0.0034404220783118846,0.0017023741587865026,0.048863010712170495,0.04848907490338652,0.05690430569140301,0.061624960336023465,0.04116998221550589,0.03006821035926496,0.02982153788618311,0.029275001182022586,0.010413916447305901,0.007699649840721883,0.009065275649563912,0.009829841159269773
0.01469808928873346,0.014468058699535675,0.02066825239325589,0.02613476442769622,0.03409316160869639,0.029839417062889357,0.03583412988235455,0.04695660062759687,0.05506118895091315,0.04600475230547903,0.056119664939787636,0.04698789641909297,0.027244116220715084,0.038932278950229986,0.0070193741190642854,0.0191349531525929,0.01446956976220884,0.030573190021461392,0.02737524309936927,0.04942920846021341,0.03943975975560337,0.030553769520129632,0.023781219851076268,0.016496474648278657,-0.000717865179815091,0.0047617505256518766,0.0033350861333625316,0.003011564474819449
0.014760517516776898,0.014098394109565163,0.0203228692270931,0.026798119280036566,0.02938682576683294,0.026827115102901856,0.050650426691391186,0.04569498416538685,0.05938842106659381,0.07995911117937489,0.07304928076633717,0.05015072037371535,0.01252942354749242,-0.005450130508548065,0.0151241524375064,0.022021846614028492,0.011202414898808757,0.019791385641294384,0.01482563021509223,0.03497337900099569,0.012077186233592803,0.015140293242392336,0.029812828256491095,0.01408252356466645,-0.003477222515278493,0.0014868685121099076,0.002654952115020205,0.002313275704554546
0.004238159661432253,0.004454830241560131,-0.005580761396645867,-0.002642021078417875,0.011231208186520174,0.012363939443648895,0.01841904744668988,0.03775095245217526,0.0411379950442588,0.03704849397665876,0.030627030030358843,0.027622249641917965,-0.015574699280712062,-0.021999472976943813,0.0003086368228476428,-0.02899788789005388,-0.019262713115724018,0.0010135980366552382,0.002270391813751221,-0.022754948372528814,-0.01335608912449954,-0.007170551097531634,0.004507606449699421,0.004665030050362165,-0.0025219642442315332,-0.0002916943874899686,0.005051453175476362,0.004489851270704523
0.00407098123910718,0.004453811831127565,-0.004862344308873046,-0.007990730905840028,-0.0009446554347671261,-0.0005244667053595612,0.010637506033761063,0.0063374039408025,0.021886210557765212,0.0309295982600769,0.037735505614473544,0.017842425075727815,-0.004559547275797257,0.013494146226079938,-0.013245339484021177,-0.01880726310341425,-0.006768127058615106,0.004145371612272345,0.01395729534259828,-0.01609504006360436,-0.027971643981988915,-0.01601461406134564,-0.010092097442616927,0.0012331331822882444,-0.002494158624437114,-0.0008548848595215104,0.003940043527558477,0.004409859700346404
0.0029032982026614973,0.0031209025645476383,-0.01103484904658554,-0.012142860010088642,-0.011740840338631067,-0.008362616632869366,-0.005373945335110281,-0.0016322900774911027,0.004434179619752045,-0.018725367703852316,-0.022123329351130688,-0.008998989575044605,-0.005757421361300505,-0.023423896042075416,-0.021795872768802304,-0.010427725292458175,-0.010753153452260654,-0.0003817228431714175,-0.011872159368032785,-0.008680259167567882,0.0016730307553296552,0.0037022857206077137,0.016080571007111525,0.013628984326072593,0.013955434360797093,0.013868324908602235,0.014382907250164983,0.014203014886562086
0.0029396669375893877,0.0030230912134442717,-0.014479691057177942,-0.011213633010812204,-0.008195271120106401,-0.0016989837601607994,0.01096147174491524,-0.007102810644432418,-0.009066910355081946,0.007593803397141166,-0.005627283845745646,0.006338410941272488,0.006184048555739609,-0.01126452205729603,-0.034791241103200865,-0.005799761405125273,-0.016792031375032563,0.005574870803365852,-0.0014989575147101408,-0.007961406534401453,0.0032997142897882997,0.01071268276931883,0.012833126826273585,0.01615957688614815,0.01775208766141938,0.016476282672183682,0.01495928026379635,0.013949525845691655
0.014061880880983257,0.013602656408642827,0.004135872832762135,-0.0018300744852309024,-0.02265710445439991,-0.008936568957569951,0.029126130028973494,0.01036340103298412,0.06790512015620376,0.04956184425706736,0.015511802846792629,0.02337266636236393,0.04009948723277394,0.02623286340771976,0.014873891739719649,0.002170644435102864,-0.014489633121404997,-0.0031548106764915864,0.014563211141972177,0.012922263465692242,0.014107294583068468,0.029321312024845406,0.017664134063545972,0.023465305041711803,0.015352951069951657,0.016179795204455744,0.0028447021981408867,0.0013999967765099452
0.013924995778883837,0.013628631604362578,0.0025623683426049524,-0.002120135459763647,-0.0192111397454368,-0.013280811607191379,0.003167243929986352,0.00032337799149711197,0.04489168628255255,0.014692984270438676,-0.0051237184740244215,0.01150579771631026,0.03146036614687866,0.013659370720877844,0.018664391271366737,0.02085179647263954,-0.000833274457544748,0.0011255667927680553,0.0244470584137657,0.023157632769099122,0.01481115799698245,0.022264368200561584,0.0166677672601486,0.02441792882351846,0.013080658755666006,0.014746198293971972,0.002852319370798101,0.0009808897290047172
0.015195052635843143,0.014043158823633939,0.005509009083631637,0.001339607767292916,-0.016002545320070845,-0.003724537794759818,0.02688385591713064,0.03882236971440364,0.08062922596968702,0.05023163212432813,0.033821636310608603,0.0302492824356818,0.03309494943978693,0.02348558097864724,0.006290286342478139,-0.004057978151994124,-0.018823261045728054,-0.0015730486049815356,0.009033961602561749,0.017548072977706927,-0.006765820358783596,-0.011571297812081825,-0.01331876293939124,-0.01726406787621574,-0.001187956427074663,-0.0011468889742990423,0.006080900234121198,0.005633902659755459
0.015021084855514488,0.014233799774912742,0.004427852416067729,0.0022892265219023,-0.012686700244533562,-0.004407756756865239,0.017561213536336925,0.023153215416368698,0.0866320030147149,0.02717233870851667,0.023118920299080793,0.03210252006639379,0.016299072944545846,0.022057578935369068,0.0038763503074954377,0.0005117050781682097,-0.004562588766076155,-0.0070607021263156084,0.014109451882732119,0.018081899898639297,-0.005187265977062734,-0.014451636238890769,-0.01896445935790486,-0.01818945905452154,-0.0006776308115637716,-0.0015187208022231576,0.006097534894377132,0.005726705955304139
0.014976293692723597,0.014370009286044736,0.01982613959080762,0.01933320776823817,0.03027813811657873,0.028911025752531166,0.03137148877671673,0.042674392831461495,0.06645830810239081,0.04040801423047206,0.028425223644027175,0.024111308133931947,-0.009016725285356495,-0.011077517232099534,-0.019367144047571044,-0.011660187979060972,-0.013667592214253113,-0.0028105197405433563,-0.003798663339458896,-0.014086012800108667,-0.02733239249556587,-0.023927651754813567,-0.009586444280369855,-0.015417322494592257,0.008415894243267903,0.009038247556400304,0.018575845123347843,0.01825720827781262
0.015064326677151416,0.014656257454119376,0.019693931412165327,0.021637324739438895,0.028033443835173453,0.024050796600782923,0.025799652255170714,0.029301768822712394,0.05825279116604034,0.05195174345233836,0.027146473915585022,0.015120691723141932,-0.010153148776751294,0.001854216394877618,-0.0008892467148880503,0.0038173792363523635,-0.0010577919604226641,0.0062039960271273896,-0.009271531499529225,-0.022438059972650453,-0.033554990449434954,-0.030652317744792996,-0.013402934096463585,-0.015532757198961593,0.009072923190854041,0.010350274144604087,0.018512798066259013,0.01827803271405539
0.015502680660086716,0.01491189191445117,0.027933933132241465,0.027505311020100356,0.031079429913564542,0.0287670253073331,0.020680241135455774,0.020464531915247126,0.012870432738408098,0.01537027726508978,-0.010292540846527268,-0.007516662922873309,0.00018736492998229544,0.009051265376798298,0.008735005687855355,0.017628854292319886,0.02347241740531766,0.024578928525649586,0.0029024904169257775,-0.005000489802386663,0.003717382701964959,-0.0011066399670699861,0.021503430082404903,0.021912594354306,0.02870718955243016,0.029037636488992387,0.017402952602997287,0.01751351274357189
0.01546504890826589,0.014960123542735716,0.02876988974245025,0.0283940785975027,0.032507358834860084,0.03182064479924438,0.020172534159159494,0.02329227445177401,0.021746195505647044,0.02153185965660971,0.006162667152592593,0.009733046515377057,0.019709743522973534,0.019183436635721165,0.023304340106768115,0.028554585849141244,0.0224040388472402,0.01900255828234436,-0.002268556394065914,-0.00920663172442211,-0.0017208060709770566,-0.003864231296864448,0.02083181753336963,0.02275512214994503,0.02912879495500452,0.029239737055532865,0.017289662678017282,0.01752936672150366
0.01333685808198865,0.012017724332125765,0.013116049489339273,0.012965960790798418,0.013134646065994694,0.015319672136491554,0.016585066454656204,0.01747780202930348,0.016880884932242612,0.014890025183265246,0.020202386609375313,0.012560554970297615,0.0100595267072137,0.01625351170732173,0.019326464109805534,0.014439690663780159,0.011438809134620625,0.013492949834459698,0.013428836947836,0.012507359976883738,0.020596117372003026,0.020057841227815367,0.020650366848788904,0.020194539445800495,0.014307079034542923,0.014258836005631211,0.009683910836871418,0.009541329016510744
0.011928112425814319,0.01113784981459851,0.012150779037218454,0.012308202322283286,0.012499044737641941,0.013456416602910063,0.018075962476921947,0.01881528670748775,0.02108311437944283,0.019857338731907842,0.016473819501928534,0.018347487535857045,0.012868354337449496,0.01735404823343419,0.018321885378995092,0.016307567668176513,0.015284344102268647,0.016645840731624346,0.017021926751924998,0.015703098874188075,0.01672475796679469,0.016250743478435255,0.017119652811129225,0.016660200204918447,0.01280501978972395,0.012811632657931869,0.009920999564319057,0.009606180412830722
