0.5007910450564714,0.17752050377015527,0.44912357451327134,0.33502529594883285,-1.4070448649235736,-0.23407224805498886,-0.7423029663509213,-0.0227286665827303,-0.8236248207659695,1.3527927193526703,-0.8204181910047086,-0.8640939306151013,0.08046604136474894,-1.0678790016151363,-0.5779191003436961,-0.9283386097187173,1.4307070387564862,0.8391218049546612,0.059950969802970114,-0.28429049862314976,0.8959180208064061,0.3283109929001043,0.47709209776044914,-0.05487721350081477,-1.690688982078697,-0.13051136334133467,-0.5446990936344782,0.6347865396500817
1.0240816372994346,-0.638211069497718,0.38470469258728557,1.7240430631464836,-0.7911616762027552,1.6561637140889844,-0.834281634573243,0.04672475868467018,0.14182520580629104,0.16277782654630507,-0.7975538634967332,-0.5321716440243065,-0.6725545852787712,0.31359034827413135,0.13692615236559177,2.2180970292378555,1.397160353833019,-0.4368515265788597,0.41622057615123675,1.047642202768047,-0.059036694329612914,-0.15858367453356537,0.02172979642454021,0.8523372838822996,-0.8578382252262958,-0.3422674780333527,0.4582217964154761,0.29754402115667
0.2999293622209817,-0.3127851876460695,0.9285918673732781,2.1285091037716968,0.4255343769548968,-0.17563412207517265,0.8358962479658246,-0.42786250475258414,-0.7252657402926344,0.043318945576287994,-2.624898902702625,-1.1293686572953023,-0.3723632988658635,-1.3333902989275057,-1.0276903763864826,-0.4461638702730673,-1.6780589143854612,-0.41918733785780754,-0.4932738873378802,0.07345213934891756,1.232827804327588,0.3965148961290772,-0.02973079539316698,0.039583299734180746,0.16901956506923616,-1.04365871355211,-0.15682805174137124,0.2696710629428142
-1.3560320606803595,0.8977757025734879,1.0444740658904856,-0.6996284732294445,-0.22379566309614274,-0.8682292090813468,0.7761577115780343,-0.987601243120372,-0.2310545915944428,-0.8543598481741136,0.11435395416924686,-1.7846103796282164,1.3304814166483767,-0.9401675194926511,0.012837262739627337,-0.23416211536070292,-0.730015876909595,-0.8895983713151523,0.9596930626860094,-0.5063547210700925,0.4640912010086216,-0.6644388756573203,-0.6848514073526888,0.4207589055529659,0.8983646054869965,-0.23727384003789592,-1.4323149314389456,1.9949789754188394
-0.8236152771591707,-1.5318618876803836,2.5966974307050976,-0.31653699516030837,-1.468078954358973,-0.7302236959767692,0.33674542504302896,0.16434016540830812,-0.7880505214274025,1.8359524162668897,-0.44529213241267,-1.1523588941276286,1.0346448592543624,1.363541506053836,-0.8225402018675846,-1.3912301254018922,1.0579386674315026,-1.9810415816683802,-1.2220861628657345,0.9358415550205436,0.11589912417427294,-0.10385644396170514,0.41127366752136535,-0.04678788852520181,-1.3026482746529822,1.257750903562332,1.3395881972189838,0.2540911647253815
0.10978777023182162,2.341823267934727,-0.17744993906480197,-0.16626333831384785,0.30483240686819774,1.4649641325879417,1.592301402413409,-0.2945423240448734,0.4364932073296644,-1.3570863739897392,-0.29883396438694587,-0.865582844204634,-0.9548689407384424,1.7104208054316088,-0.7778511784613834,-0.4579878759418437,0.3710064103428227,1.3323910696187435,0.500429651891987,2.758693304052788,0.05874244814409969,0.39731968115991306,0.28473217024290637,1.4336593914216769,0.4436505449086075,-0.19777869230421424,-0.9327034509449892,0.29228013697308997
1.3946007251995234,-0.4352316076027824,0.700654066613659,0.4530583110850323,0.8681893277276748,-0.8519669626000587,2.3555017124299757,-1.335804615897076,-0.4670368858038275,0.8800375545083189,0.30771104882405836,0.8412846924796957,-0.37191673044988516,-0.001236776772652965,0.10505007631670062,1.6146078701821858,0.6933197036289986,0.7900853254112354,-0.6110346021545737,0.944129423310052,0.10788320830497912,1.3396526883853055,2.003053735671348,-0.33383106339615315,-0.31884296543129653,-0.819446104061892,-0.20367151575123452,-0.4467359306770284
0.3359945497382613,-0.1734583761340737,-0.13744104355039968,1.1412924760911074,-0.9760803626365128,0.4619711556203029,-0.41242965185425995,0.8125243099984267,1.3923852692223486,-0.3769224573103917,0.4196939503369696,0.12505905390928923,-0.7268545517523288,0.2315731120593754,0.34245081514471826,0.4379193818419359,-0.15920857724601856,0.10603922688588031,-1.044819497366729,-0.2937037102885276,0.48571048443073683,0.8206556908873144,-0.3986339276649079,0.1035850462415154,0.30642889616329844,0.2939139158825475,0.4927041378594623,-1.831499051035503
-0.03463134342808075,0.2554701435927346,-0.9404519666309854,1.6929400501942058,0.16341120002393264,1.565434197220726,-0.9340203778744994,-0.997225824846197,0.2557282106429996,-1.6455531385670983,0.1830280133531555,0.10253795126321855,0.9559507241859377,0.6915314852514055,-0.2616937902911984,-0.9843502518001609,1.7082769486289289,-0.8126794986734637,-0.9835189416378197,-1.099519287489723,1.125658305894622,-0.5575460627389723,-0.7208950316304991,0.21402784419384885,-0.18523955172246437,-0.71256609414666,0.7474589147314357,1.0617575736356135
0.9937776837642871,0.7780535267407369,0.5131346348878019,-1.7694731588234165,1.6778143996579558,0.3275971628742436,0.5565239087038698,1.0289172141059642,1.47243878798865,0.32508331767699017,0.34720903847300455,-0.547154150141119,0.03959906101049994,-0.8180344333415056,-0.5807562662279232,-0.740020279675731,-0.1476106990954528,1.1058275409097336,3.1933344613838317,0.19849199433232254,-1.3092343405111986,1.299193775271231,-0.24713837165863967,-0.6513684246039705,0.2299751937792255,-1.2730859204509002,0.2113136686098449,-0.10773340603694939
0.1639563964523953,0.44426136712620723,0.09730541934542977,0.04996145886545077,0.4081532015670366,0.5025448025784034,-0.954124594218921,-1.3531198886188196,0.09227873927317203,-1.2515007910957798,0.10157064494714833,0.958614725657701,0.6452354069056938,-0.9774969871619676,-0.9115707368793687,0.32948667259555564,-0.3813862005611884,-0.3506586154138139,0.7174630635227733,-0.8633846244419737,-0.5022450608858623,-0.8709123381548405,-1.1187279284789695,-0.9837581844942802,0.6990946737798248,0.021421510907385023,-0.9011800871268515,-0.2363840316372642
-1.6305150484488284,-0.6913998414216366,2.14875161374681,-0.04581249791223667,0.8376841020638731,0.048863148745289416,0.48186249942419696,0.7529927578367857,-0.8714339564488867,0.10887999520660287,1.615066221178223,-0.8205555116348593,-0.46771459191798087,-0.2968720642613652,0.24035522274342994,0.5425750817858901,1.2476404287545246,0.4626310774557886,0.14420588949630855,1.3127832165989775,0.5889827356072872,-1.5258558917844889,2.5220116816123026,1.733915882196834,-0.2305193271419917,0.3148018056732171,1.3298432391110981,-0.1857650170575948
0.742849222564465,1.113668772051759,-1.0716673398848335,-0.6843324328789893,0.9582460547662303,0.5102588084604691,0.9595892535911545,0.0700064283956843,-0.12292394065169222,-1.9054864245355163,-1.0853744964895742,0.1182510294689158,0.8198195094531352,0.520789303936796,-0.1451589197706357,-0.28334951887770626,0.20694166150815785,-0.007843266769357782,1.4314652934646483,0.12689292636840713,-1.4112518087577477,-1.2709404569000036,1.5058247920027479,-1.293361559665184,0.7378110176258849,-0.3260820055315454,0.0678321649124018,0.10160725967277463
1.2246838636476927,-0.1752364080267128,-0.155935471014961,-1.5562148776718572,0.2465619731864028,0.5497202748123754,0.40211969683622895,1.3635338960854717,0.17020323194926262,0.4403216351003519,1.650502917157415,-1.5562823876591187,-0.529917777111367,1.3986135714625019,0.9696667099865466,0.7095424220961019,0.7918192709147469,0.2614037465537852,1.6431027134383636,0.41527856290515924,0.30268879431045764,0.23717812023284765,0.06969598854724787,-1.2754224248379513,0.7406656563443561,-0.2463476157137282,1.844652455032754,0.1599091351598197
0.302248701896261,0.11321919807278531,-0.6417690929109644,0.954193899733825,1.92695845263208,0.1807977465224676,-0.43072347186094506,-0.43031532528412514,-1.9429171468523398,-0.02965880366573928,0.1676458647355453,0.9985638227162885,0.9276421994961863,-0.5332501970387286,-0.2734981063336489,1.1494192811727328,-0.24511610609210968,-0.5788881519115286,1.4006825112818126,1.0572914032339515,0.032527363037246605,-0.598976556930355,-2.0093449101538705,0.4745645151370873,-0.9038392885019549,-1.9599914685381552,1.5889568282924749,0.6605200355014132
-1.1812900017332844,-1.2496320654155362,0.8300825167456544,-0.8647838613242714,1.3367975172582496,0.7290657142061521,0.4835729160766993,0.30634008717778344,0.14959495741597492,0.900632957326856,-0.6521927912364883,-0.07946763215238876,0.7188974643646369,0.49361910017911503,-1.1341971933017183,-0.5078055288197858,0.21019563653006065,-0.47413501401263725,1.7572057463320392,-0.36261170918224644,-0.1787816193863517,0.7754347910756958,0.20195778836056086,-0.3466691488175383,-0.7261397967219517,0.33505998249347124,1.05173229160764,0.4921990938616609
-0.8619029807840751,1.7224279277209544,-1.4564386656747004,-1.5827989646750793,0.918483751841841,0.28341813108367037,-0.5732770568078478,-1.1432350556253894,2.188346863509786,-0.0526308015355929,0.5889012333826292,0.45378059984158803,0.5366179764811866,0.6273659301299441,0.6882940972311313,-0.416163071348499,-0.30584405183539803,-1.7609960184712865,-0.6572365921793432,0.44965868454737834,1.0665423069801914,0.5811265070232057,-0.19901881668763186,-1.1833253663134184,-2.7702967153997182,1.2204222099472917,-0.6246617904362879,-0.4976485932229093
-0.014144574002093794,-1.4450183516626345,-0.3844363132543125,2.0023951403301474,0.530700203060229,0.37441716119497054,-1.6126873514825943,2.2188272724895906,-1.4721272132545453,1.8554527590580165,-2.0794609966299724,1.404249161585214,1.6966929082488669,-0.7349223852530925,0.41051014628128357,0.5909386632375073,-0.8815166440009147,-1.473877095407454,-1.2993852954017446,0.659967214437077,-0.08470157832133413,-0.660599738605278,1.0234363153076753,0.6517331417144332,-0.6211653933122012,-1.1203336532810215,0.4730564126232751,-0.5802537520468454
0.04043276914344331,1.5678655451553805,0.505021953937739,-0.8578570723565884,0.1879893619422821,-0.954802186237899,1.5154795239303975,-0.5286991873102216,0.08935359315570165,0.28774556579862015,0.07442618039096904,-2.07949297335783,-1.4173900309848828,-0.36768439785389595,0.3739543041826882,-0.08414344891637945,-1.036611529653492,-1.4024122901442901,-0.3852664844626398,-0.4779539428036617,0.6486227156806511,-0.2273075521704969,0.820383844930526,-0.2736501898327691,-0.19579822551213819,-0.34036317013557704,-0.7795682160125421,0.630329967366841
-0.8463559682277226,-0.5635356336871777,-0.07035471741693203,-1.2992886987808334,-0.2838731537890707,-0.6900045084327543,-0.22931199978030448,0.07538435358861237,-0.7763641563248123,-0.21727451329651043,1.2832485182462505,-0.0035293226698736757,1.199090952360476,0.4770089167925899,0.8246884359446566,-0.7300197137783895,0.05514177660311506,0.10749767248880839,-0.5964384959208602,-0.8319566793957134,-1.4122606612548154,1.5477372201710753,-0.7591409659241299,1.4240866731999688,-0.4425665092713298,-0.8652546825375779,0.612046168983061,-0.6226200344764944
0.5265165212365418,-0.38429800809139725,0.30789470356356063,-1.0248354270907178,0.8590437312933562,0.5114193945777574,-0.7970167055882809,2.5933815153241286,0.586660092904959,2.3454529791816743,1.5748128981142913,-0.2688444213507374,-0.4523913082318222,-0.3881510540000249,-1.7584193230684602,-0.6818374436561307,0.3759307552516882,1.5534523554293596,-0.8092663263928841,0.885448036320248,-1.145407949867801,-0.48033840173234893,-0.4395095822760934,0.39839278998756483,0.4517600637291611,0.9515635647709311,0.8025556223015408,0.28620387528322455
0.34252335321294564,1.5780999893431649,-0.6616443479607034,0.6249304274185785,-1.7992271354426068,0.4721467556729042,-0.42680334688815463,0.12391156989247515,1.111848062712295,0.13991855706649708,0.8125211563949665,1.4482112067776247,0.37445858452686165,1.1591599318639991,-0.2722941216090548,0.0831574457756299,-0.38207782399109064,1.162624099442919,0.44396901758577173,-0.5708014812062931,0.22167163387663016,1.0884810017338744,-0.03887437150034591,-0.9782243105125485,0.12261200372131088,-1.9649144014688296,0.7978601608785579,-0.38981725976965953
-0.3739834412504767,0.9339982560909674,-1.3846238529908355,1.9409469997263775,-0.49905926725162203,-0.5586457846151569,1.0814108242327296,0.788815282149137,2.419240522185238,-0.23198928974999522,-0.08356241781599644,-1.4784593264446781,-0.3751588037088379,-0.7229688567997858,-0.4745384726849665,-1.7217205403210967,1.6600618680937023,-1.3630899547070658,-2.7483451352905788,-1.1740801134442986,-0.534634352749536,-1.1088642450089565,1.1016322582201812,-0.13808899244994755,0.16420178538883135,0.7084131725961836,0.2574449008268106,0.9634657271097213
-1.0681574818197823,-0.45843837986225344,0.6110244087032344,-2.535882917464273,-1.3836201054997612,0.46278334949339145,-0.38961201780005333,0.9922202373454979,0.7566486486935886,-1.1884371873937383,0.4684546337908021,1.2263311447580647,0.10183560457776861,-0.9668927538365311,0.863331291384095,0.6494993960341869,0.5418990542730466,0.7068522068455175,-3.007259792202626,0.9404630724092128,1.829980614648341,0.5367873266717295,0.19955213331395816,0.7038893381213365,0.45914087952914245,0.7428909972549141,-0.033455384932112815,-0.7883209976504029
-0.973982917641305,-0.9680240667410335,-1.3639935995102783,-1.0464381966170646,1.7559337841328047,0.8635239749191862,-0.6544346215534999,-0.4181494765214232,0.03754669949055027,-0.7345394713781256,0.13744999753970058,0.8197350817539907,-0.004159190976248439,0.39307457075878255,0.935203301214321,-0.2493132894835043,0.2669927565678454,-0.2629310972945367,-0.028617002035210278,-0.33484972665250556,-0.5386830579103895,0.16395685351271588,0.682113926328665,0.3031114695497162,0.5256973555405854,-0.7200867343791982,-1.1792835386376264,0.478711967249204
0.7335532853457659,0.12229835422239933,1.343594500255878,0.9151856308112735,2.6671159944380114,0.005308376186026652,-1.0162096604941353,-0.7632225324583556,-0.6551872760640931,0.3979219933721808,-2.1165753973911223,1.341903791267711,-0.16395169789286418,-0.17181226074608344,-1.0809350042851606,-0.050097249158446884,0.0713875049666282,-0.0419895721398234,0.3443386262436889,-0.5638738955905742,-0.9121469130590315,0.5368414145114755,0.25999227545821757,0.3507488199161892,1.0691691851411802,-1.0111736456128981,-0.8139027795266217,1.277498541628794
-1.4783157094839658,-1.3033092669125235,0.8552018652536084,0.30384439370585054,0.13158352026918294,-0.043345230918703986,0.1369943310061818,0.02282057034898932,1.3469164081060199,-0.4262097212332794,-0.20103874131313054,1.782472213765507,0.060363097244606596,2.255293639785039,-0.1443611514370841,1.3606206616954382,-1.689830149551931,0.08026000103571516,-1.5982000746987246,0.8527948404413253,-1.2147262092381141,0.2868895313353704,-0.19244606299668626,-1.1318400000611897,-1.6237605326213382,-0.5229372107804902,1.737366626925634,-0.3186292388791003
0.9290915298517924,-0.03233981033524046,0.9116039116390829,-1.8198819208683474,-0.38880502263041256,0.9537119482626869,-0.05528222998834277,0.018544852890760473,-0.4472098040133451,1.1322619247785357,0.19823890481724463,-0.08286507271986905,0.6741296728390271,0.5803418750392378,0.14932326337469007,1.5727238151094964,-0.15847476562540383,0.17450583416818294,-0.6349990167389772,0.15367612626795435,1.585679657956616,-0.6699305533419606,-1.1013493138005568,1.0333491406570532,-0.1632971744551771,0.0814398859109681,-0.07239529492954362,0.05193737028737006
