0.7142408571273425,0.8736209424658528,-1.9439842688042273,-0.235489605410351,1.0279498736496329,-0.014854970521349103,-0.1026949137239609,-1.5313494711599696,-0.2763907080503294,1.85170985740152,-0.8591804545253353,-1.4601350865248597,-0.09896822592162763,0.6382337889357407,1.2484373609646513,-0.39047252311153924,0.3248383310455111,0.6269535226603528,0.7686654040674644,-0.39422826868320976,1.6572137113799434,-0.7756535272538696,0.5968658658262885,-0.1863927330543161,-0.6992516017225883,-0.7475570138017841,-0.7192436360627888,-0.5990364591310599
-1.0304065189181237,0.6823378626180573,-0.7599847288219571,-0.6776702790943323,0.6769837976047237,0.13702084266947925,-1.4594559923831467,-1.0273881809180032,0.043301838680589316,-0.3944561166852193,0.6474413280010167,-0.8508846159966883,-1.0761033445652193,-1.1139454345045248,0.49619469309513775,0.5965351718591112,-1.6393173349227435,0.6738063381170587,0.9599903114046265,-1.618603270589697,-0.7942040060611116,1.3984656210245412,0.9376541315870851,-0.1416194126374513,0.3732339375359966,2.102461179768637,0.3438725155288685,-1.276325872473017
1.3312687631360265,-0.9419722500684049,0.964995703808291,0.6121854850429889,0.9095265361739698,1.543819581543224,-1.44250097514319,0.019676238463621314,1.980135074348474,1.1421982547270664,0.2928501903774654,-0.972022015859629,-0.18045053993141108,-1.0548761684528591,-1.637620147020535,0.4749103339024076,0.31603337145689586,-0.6294307112345137,0.6057199530563584,-0.26769154029780967,1.7934025638213646,0.060290657877166455,1.5715944622443512,-0.8129081925584096,0.6522516027714539,1.8449229506419003,-0.0038527743603742827,1.0336995130741344
-1.7547842138242284,0.6101094398332294,-0.04412907761352676,0.725458647614677,0.900495192510432,-2.2381093086481414,-0.3666571628368069,-0.6059945678958364,0.45880840994757066,-1.8938545880735422,-1.0437536496745987,1.0166102106860593,-0.10406706273953023,-1.248473779941393,-0.36838502683132746,1.0895705075690703,-1.8489318586024301,-0.015663596606109075,-0.056355875637236666,0.39469784173967454,0.5988178252256218,1.9305489325708995,0.5551739380628709,-0.6083221769967543,1.2528640932172888,-0.8556536343539641,0.1911018855473477,1.5250777427074846
1.0560814278876596,0.7828026042187577,-2.2255239596445553,-0.023722581475461732,-0.791647443985932,1.263327466695577,0.7466995209195685,0.1744826911104197,0.6319100139214457,-0.8129993605524396,0.6281636541454866,0.17868019491917003,-1.7970250693556684,0.21404760001661483,0.8056761745301723,1.2646413641656509,0.4683841551082004,0.912891151491246,-1.7016964929560263,-0.35993423684551323,-0.040502669521476166,-0.22036548768776984,-0.3401533056756428,-0.7388577687703933,0.8884804609770779,-0.9045258469717579,-0.0791737260279717,-0.13113584316720098
0.08418585471804187,-0.9785969215773364,1.4250434713195896,-0.14578233937499815,-1.473787603048677,0.649208459564091,-0.22286270769707817,-0.2912062759502581,-0.3821488548470109,0.09435827128051408,0.008810493331860708,-0.6818372305785065,-1.4709258571309838,0.3021810389545896,-1.5128643873186969,1.175601202601675,-1.0613121767431342,-0.9456948820071837,-0.9981484934046511,-1.4477398712224625,-0.6038406951764027,-0.1307481888435602,-2.3219293951712143,-2.400701912569361,-0.5768470623276912,0.9855234372729031,-1.334373487482307,-0.2841060222614773
1.4278800438206978,-1.3240610734374691,-0.6278247749840102,-0.8925194247230114,0.6181773241742186,0.01198416970272632,0.7976412848738155,2.497013521012732,1.562038382433997,-0.5007254995935185,-0.4750625131124461,-1.4940211429919503,-1.7242127475867843,-0.27640777234884684,-1.4285604085124595,0.5465345978145018,-0.8563827459279969,-0.6164902548417639,-1.4960247176355164,2.1260883895567075,0.835986055095214,-0.44120115954751904,0.3581863961708827,1.3897768252294087,-0.8372719863701024,1.9163220793850464,-1.0331525405152586,-0.15115759968070794
-1.6527525600301332,-2.533761808081172,0.8992959988621602,-0.2005210986590189,-1.7947780103827853,-1.7332162158597286,1.207127953755175,0.09197864289792795,1.362176120639983,0.5050342581872681,-0.3743356338641492,-0.2984892426472052,-0.7405312931195405,-0.06277959593060262,-0.19677229566908022,0.9107756230244115,-0.24160494107754468,0.835750050836268,1.003052307121666,0.3445510625239368,-1.3675605124295236,-0.13756507100634202,-1.866679098416746,-1.1652956060842834,0.8447455413939822,0.6580918717432415,0.03714694912526995,-0.27028934439090824
-0.7923770877684294,-0.5726180592729861,0.7420606933956798,0.099320861667901,-1.3765621635969327,-0.007724858530760244,0.04860421211439099,1.6353342025594977,-1.733735511607304,-0.7047543663047515,0.8954727988806499,-1.1658254387535427,2.3981883158374546,-1.1406738315416598,-0.025696353268629374,0.5592425138541173,0.8857462315762265,0.756967790374746,-0.44606371295336605,1.0122742998686458,-0.6847658321010514,-0.35446151221161126,0.2603316832800338,1.483258211600554,-0.23583513574936166,-0.9907250920922877,1.2677105538623998,-1.2224694294859666
1.8308443258276355,-1.015088114137009,0.29339546031292363,0.7586257783480596,0.6498904509898961,0.009563032603784946,-0.04423104702058931,-1.6365795869287845,-0.8015856949818331,0.6274134691130955,0.49610540402527153,-1.0318864991376249,0.24927552573212122,0.10741998599611964,1.6294525691876771,-0.43172362505059614,-0.45352256556218495,-0.782180717948521,-0.8989690107299854,0.36803299255371846,-0.7389438814113781,1.018554462009023,-0.7566394384732449,1.4592666899697826,0.5416697312627985,0.25795061591050616,-1.081642144423127,0.48681836145131807
-0.08802955255023454,0.5462587640901395,-0.5456891119150409,-1.4319694820898696,0.27271378314489236,0.015676096321289808,0.2333802673180044,0.951306238305668,-0.8789943785745704,-2.275346816604112,0.2737878049378373,0.1956866651621246,-0.6346141489919744,0.0013758121555153648,-1.1294898541623752,-2.21208272470845,-1.559353301018794,-0.057785089516770485,1.3402602773130003,-0.6463740326931858,0.6597613096055559,-0.7813325817457087,0.2233177529735975,1.0010435596445788,0.20587076005047486,-0.4979891081013385,-0.9344802656067881,-0.2087532513540769
1.1399290873535046,-1.589822139667989,0.8235565436916183,0.27910036325035004,-1.013399922230988,-0.14079240404874746,-0.23265472608897367,-1.030758726687669,-0.4421944146644681,-1.2211243197345563,-2.125873872207844,-0.05137420478275939,0.9642385033201395,1.6079277935607557,-1.0741915681836651,2.1643606902233365,1.528304379330894,1.5115993224831856,-1.0175226740811236,-0.6938525532607518,-2.004434461300601,0.09628729511078887,-0.0557904846351633,0.5093313992321891,-0.8338931881421447,0.6955028168532761,0.24517671648995265,-1.1823477405476088
0.014903591217344941,0.3540428888342128,2.0042279611395672,0.01575570352498607,-1.1425306227651912,-0.7624796659271188,-0.19840577999371456,-0.20893664909548168,-1.8704068672126004,-0.49398118645846306,-0.6490050270589702,-0.33295100420355855,2.1345515300397757,-0.998466834449701,1.2867496472812894,1.140855949693325,0.8259353386021268,0.15960391064060828,0.5863024174344506,-0.5122745036481163,-0.6751784781230404,-0.8595407738079505,-0.3221941268313388,-0.7559025508938765,-0.7089307554640972,1.3434861102783395,-0.6724037555060209,0.7666711801941305
-0.4818739490726031,-1.5855652694060363,-1.4735255492505654,-0.5710850447501142,0.3093446101990191,0.24635716509083935,-0.46845134873047495,0.575685013381613,0.2717106453036403,-0.28479248314332506,0.7945629924163997,1.0451027400154713,0.8352716767795549,-0.43955441262994405,0.36080452324906365,-2.2648399746354086,0.3531948975402995,0.6317904814349866,0.12063314261811313,-0.2726462370704124,1.1858110959919728,-0.361911156701713,-0.5373426544582361,-0.6806212429280083,0.909264276563364,-0.7598404647132609,-0.8213318350010811,-0.0654434829718633
1.7277446858164296,-0.14655984629786267,0.39205160050442606,-0.5298661069791363,-0.645176935721298,-0.8375922750400376,-1.2997131186211397,-0.19578493937314803,0.5811064083495082,1.4807813561116903,0.5530152445677612,-0.816754573813069,0.6017954747765246,0.25378172400219967,1.2814526714771566,2.0621500479645287,1.316987960808343,-0.20425192462294428,0.14101703838166554,1.354793993676032,-0.2377819319124127,0.13171550689244535,0.41774172384519154,0.9399930981695396,0.5195903717357356,-2.926853460248447,0.4180520297887687,-0.2293600835494922
-0.9026061838097131,0.17554562810645094,0.9776194673280831,-1.242187477088228,1.5303161995300776,0.8337842820341541,0.9576869378068809,-0.879582512898092,-0.32356855828234493,-0.3824335334962517,0.13885323988238857,-0.09862075166325583,-0.5616846619827074,-0.3493139802687381,-0.38314209760933055,0.19686710900534835,-1.543277813727022,0.6205529986752327,1.7084859418543548,1.159616902467996,-0.6900084379892075,1.1912141496779372,2.2657491808285926,-0.5253601592875282,0.9105329965051963,2.282237220150183,1.069501834399623,1.557021780086857
-1.0831109457885952,0.2875805236583307,0.06387043428895244,0.35451948042473125,0.5160289879229726,0.00985331614468454,-1.465873549457579,0.8709233259863702,0.29423761328706766,-1.2285845670454298,0.5739758212605471,0.39765715483111536,0.6921240105038522,-0.1169534598059764,1.5221180765638784,0.5501405472191616,-0.8942319434439198,-1.5660951796877554,-0.7800545261487737,-2.2966307965848,-0.17065779954334293,0.07112875031283047,-1.3177416156113015,-0.5641581827312494,1.7125432873419182,0.7597588763263279,1.551567515910533,0.03962351764701196
-0.14387902994942328,-2.201448116110623,0.508959021753765,0.9760890678968219,-0.6769488324468623,-0.5371033942963727,0.6517035006581348,-0.8786457459370888,-0.8652169944077914,0.21092694507850981,-0.7528276966717727,0.4707729804321973,-0.8593957030795458,1.604201161544369,0.6648592928678103,0.028009048058738432,-1.1038886441773121,-1.1454105644703199,-0.9210730053269753,-1.5700592033699612,1.4184710551396533,0.3412777916149666,1.0957943613144638,1.74581475592122,1.5359798821684418,0.9515969830776789,-0.2066961084176203,0.8673124153823452
0.20065639345178166,-0.2957964483510183,-0.37966960983986175,1.1849056488890024,1.4130129021046773,-0.3125633109737901,-0.6231711838309324,0.5626733944926716,-0.5566486445692138,0.47969616155702804,1.6576056185045418,-0.316618886529665,0.21934222973083475,2.0027468326115963,-0.4648625150979692,0.274278004814122,-0.7149172943874587,-0.577763322279019,-1.224559371988042,3.0890641290401035,0.07377007296680035,-0.6546119343901899,-1.0548406542081257,-1.747738137250509,0.3203672788270354,-0.10330759081527974,0.5775761215782353,0.7364390942836553
1.0095067736393144,-0.06768418781321676,0.7433603629409271,-0.18101860331842703,-0.9455968839777205,-0.46741750322725917,0.5371995717526419,0.49430362871540234,0.08964535218990653,0.27903128064636973,1.5207681783272402,-1.7813238395362654,-1.1420112447261763,0.22162593873263794,0.7769335613953238,-0.18428396839673233,0.9544082400680691,-3.06318675107992,-2.4835992629693115,-0.7632574504250618,2.708718078515518,-0.6014000221728699,-2.1435758564497664,-0.5314113942872785,0.7042982808188697,1.0691230699752696,0.541207989612629,-0.18574589954685922
0.6058613310108932,1.1117993915381537,-0.8805329535896029,-0.5459637259907174,0.11928744169260712,-1.5329273608527207,-1.174523885197961,-2.2849321115736063,-0.06056976262928856,-0.2881107222812672,-0.23753815337044815,-0.06512920048907171,0.6143155963494825,-0.6158318454739786,1.122708263583114,-1.50892346464317,0.28828814965730093,0.10134875322538031,0.7433876327479306,-0.51041075883394,0.9790315134160071,-0.30446218530783825,0.03716299405017083,-0.036545752352242195,0.6870646145480782,0.8749109295189417,-0.5241093318369362,-1.3862862211722595
-1.0336946181436424,0.054101537682450546,-0.4980535210895021,-0.2961318478356828,-0.5380011153244525,0.83963723327502,-0.07267662103709692,-1.6003230542085394,0.011318952511807659,0.5708305206216531,0.1483301902121391,0.13860719874584296,0.22266064586907264,-1.0735633989669198,1.5548331038396035,-0.3570710781907123,1.462666153037355,-0.3804742173387017,0.712546067497449,-0.011807671948101511,-0.034385302087788075,-1.007053193103262,1.2771615569167443,0.5937046687535777,-0.12360272822826437,1.2225783159341823,0.20090214860525213,2.216689655086924
1.07330333401024,-0.2154698857410798,1.3727081036132287,0.05256456642805916,2.0101205550253765,-0.2130914939589595,-0.18987515768357988,-0.03115705371764123,0.16212051881502973,1.441668278831002,0.3162470981836748,-0.140686419680261,-0.5335570280990326,0.6894701946443216,-0.4310003018330864,-1.0939562116962684,-0.9536084327777565,-0.5366652581168236,-0.15774321635846714,0.9297925220722211,-0.6920289969985769,1.1816855019385506,-1.5534838777357625,2.6731985679887935,-1.5791748245473674,0.3725417281765661,0.07684203298496775,-0.5986839335590541
0.7654253778965343,1.112508070325737,-0.19587570313184202,1.1971924805308896,-0.27576680876606585,-1.2115748891202638,-0.1446554368706439,-0.6378360373964858,0.21078516886175036,-0.524301750145328,-0.09081538633151018,-1.1660275558326785,0.9908435186199062,-0.49443928995993447,-1.0286803936268132,2.6151996144108836,-1.4442633668530105,0.45593669336304016,-2.2151013344113317,0.109428760219675,0.08753507508172018,-0.2863948737481208,-1.223342518748663,-0.5829309999894969,-0.7091556828625328,-1.122101558215454,-0.8053288305144416,1.493283511034695
0.40662127793570985,1.3367618753889399,-1.0064871388408887,-0.47514449361595873,-1.7381407155214232,-1.2313265452370399,-0.293935931366494,-0.4402446676322008,1.759277556159163,-0.08685899339087358,-0.4669925389240713,0.19957911558120361,-0.1391860832295747,-1.0688222058215495,-0.6001568753222403,1.4642413729534045,1.3677250510720587,0.21654728286795247,1.2304202324785936,1.802452143371288,-0.3211247563244938,0.4053634147909868,0.04675681088112334,-0.9158110854678383,0.24915618271236592,-1.2196013781838042,0.12111225540734316,-0.2554510879372429
0.44449600297542674,-1.3518985243064892,-0.5387339184725394,1.887609778350268,-0.2193892065190859,-0.03250592770235414,-0.6803604712391622,0.07398716006516863,0.18398438840642578,-0.6312846875697641,-0.5250192969599838,-0.46967122116368054,0.17891229684663315,1.1963266505573662,-0.6673216312139777,0.8089000045979413,0.9334269839898004,0.38094587752095427,1.2889955478736408,0.4675977109952291,0.2800123114496595,0.016988602516664102,-0.48823047131053554,-0.4146804722394693,-1.8827865203148186,0.43396717551389985,-0.3124364445117353,-1.4654813918657683
1.0269038427585584,-0.9158465164114811,0.869162375324492,-0.7449406248741116,0.8417357087198001,1.8743963773137842,-1.5929706574226925,-0.2906016937107983,1.0927008493716415,0.5183178549907279,0.4506521198322264,1.04420464962784,-0.8598574956995819,-1.3390677193788723,-0.7492934667801608,1.343722174112225,-0.8947550361722847,-1.584294842543512,1.1991768843693749,-0.46406732394701106,-0.16569913360505012,-1.314941119172929,0.4047920215162685,0.4408145952170144,-0.5494760835842171,-1.1932638967398184,-1.8886995650037184,0.5980764525029264
2.5994126317818647,0.514157940360031,0.620261119319711,0.15874404705897005,0.12399287505713523,-0.451206708148224,0.266527558666418,-0.824671984542565,-1.1287466463815856,0.399580713954056,0.2366145602500867,-1.1142342893475303,-0.6229723927807794,-0.4560127369563628,0.7085020916003112,0.1370765082932301,-0.4022610456446737,-1.6272891493961488,0.3813040394868957,0.6225260617181273,2.2123418968043076,0.7082707095809566,0.8468144958217012,0.8488824309035016,-1.8115820880509075,-0.11632603150814128,-0.13211157385207126,-0.4293359958640092
