0.010224040840019514,0.01016827474263424,0.01112788740822711,0.011126529402632205,0.011334177873205155,0.011342201950490296,0.009187647694313555,0.009197612599948342,0.0063112398100260885,0.0066003456871192474,0.0044021834040762625,0.004065543644266667,0.0042005791797718045,0.004214825071314268,0.005400093675707727,0.005709048666880411,0.0060486167484509155,0.0057705077845230995,0.005863540573468638,0.006130881499073541,0.006168833318301547,0.006201238813182951,0.007319060334949127,0.007316307582845168,0.010628620364578923,0.010432008336635623,0.010384471699063912,0.010428036366789193
0.010289694903332033,0.010116361170808812,0.01076595237415516,0.010755030468765924,0.010755299699167414,0.010641073128439486,0.009341569061479768,0.009306163776611467,0.00768068290104469,0.007331513096677031,0.006304538720150795,0.005388683896647106,0.006377435804466729,0.006215312400977761,0.007751804607428705,0.0073851007153718775,0.007429857467288146,0.007691678467430917,0.007069771150222889,0.007422333145225306,0.008343012797602927,0.007769257617468751,0.008673778972869913,0.008672162844871602,0.010290768957504946,0.010239576174573951,0.010271964958452652,0.010326613513065658
0.009091508104581624,0.009501193477240398,0.009183934688525814,0.009229445711311273,0.008012418808785154,0.007729960517147317,0.006386228697213664,0.005338062751471126,0.0053606598847505925,0.006445728374549129,0.006179649326756338,0.010182299843392577,0.006466892840289258,0.002869616347824402,0.0006024707942315039,0.007121852423235411,0.013018517674174244,0.0054349464082637045,0.008609271278732806,0.011694804841366747,0.009418343514544812,0.010015912322495407,0.015206639156635983,0.011381364991695621,0.011239625250725657,0.01117158722150427,0.01002142501666656,0.009944671349170502
0.009091856514257623,0.009502268502620061,0.0092377413772758,0.00911222532605869,0.008029592897334285,0.007448922066424264,0.005473171940688859,0.0071631815764321245,0.008824002954724611,0.007194226386892923,0.01011506835626936,0.006651336940442138,0.002706970026047509,0.010509128777275577,-0.0008389157411588538,0.010194672574423367,-0.00013492393138990648,0.0055984595004723876,0.0025578978060005163,0.005945595653726984,0.0045649600556403,0.008810127299314387,0.008277016137000836,0.01329335220140045,0.010957994602693219,0.010485573241150745,0.010180689894305577,0.00996434776100261
0.006967626173687946,0.008724989152598065,0.006954021928358475,0.007065958747764609,0.0034112084439155417,0.004003191959478927,0.002343772561546758,0.005359809128768213,0.008004426870244549,-0.012352237660589705,0.005007176394836671,0.003917261535482882,-0.01004842802584026,-0.015048170285250479,-0.02631315034841968,0.028055472747648608,0.032748596234490515,-0.0027658112354573485,-0.0006444990236798867,-0.036419389966274626,0.011601098808547832,-0.001310311324558956,0.014449169069500731,0.030504680756967745,0.020687715952553868,0.012280685227330574,0.01060810859688691,0.009754939889807005
0.006971091693809933,0.008740166437102867,0.007218188103173675,0.006995543188920065,0.0036330945666724307,0.004721697320502911,-0.0006662181877652489,-0.0025954853885801227,0.008179277388354046,-0.005741498803573216,-0.03674798623909967,-0.03392336207438539,-0.03770135162964527,-0.019866301685449214,-0.0330047073573859,-0.017160918807304474,-0.014169048731511395,-0.00811328640976283,0.014994450542256413,-0.02670405093362303,-0.008561161723476235,0.000642276369820317,0.009748877210849246,0.010531721249575968,0.015475525860855774,0.01367765615778077,0.010670322372479368,0.009634370099374127
0.006790244159635465,0.008913411476929676,0.006313835980669542,0.006532238156690361,0.000888255475415665,-0.005881038348786184,0.0006546650674894993,-0.00802315869270851,-0.029018432380873444,-0.015164360700507475,-0.05041175247734635,-0.03389523434988495,-0.05110948034511251,-0.056293279112770954,-0.07099640513422098,-0.00796449844461637,-0.00737856400043316,-0.02650847999520189,-0.012629665146088367,-0.028868920804292625,-0.016485972094928872,-0.02135850186562366,0.010025308852074746,0.009153845163654936,0.028172889490531837,0.010605717709194138,0.005679778952363873,0.008801955894914398
0.0067992745174519035,0.008907701004959209,0.006521170028355024,0.006045933055780522,0.0003795732891857354,0.006802875475908393,-0.003904722691628487,-0.002788451166611816,-0.012452999382477997,-0.0048222898714802625,-0.023513243307517414,-0.07703465923334755,-0.041210695424430455,-0.029258541269096865,-0.00234293149535396,-0.0010547547589317811,-0.047016173285235094,-0.03810529524900161,0.007910781388194827,-0.005737597903976266,-0.00946106668121328,0.006325804411306957,0.001941874652671109,0.013213427712060908,0.026444020769472366,0.0161781947997917,0.006055078582285645,0.009472953246854465
0.00868278682697149,0.00989405150685933,0.0079589161590697,0.007485863982689112,-0.00500633822378521,-1.9006141207983248e-05,0.011525294915895419,0.013799301586283296,0.0034872640054112356,-0.04895536372127638,-0.028360979460599338,-0.01456990857412629,0.019701677667579454,-0.01637296952060856,-0.055793729950348335,0.020263052365517273,-0.0666924196891643,-0.03205968149118133,-0.043146272127715386,-0.019745624500449525,0.0016704527887077957,-0.005967080519771698,0.013238704446559111,0.006006899015238915,0.014339499045365734,0.004436261968453322,0.006944013713287711,0.009591536184679688
0.00867333019203887,0.009885201317079104,0.007668486789094185,0.006873333902976515,0.003167884274102638,0.003138727553511754,0.003818872423703098,-0.010608253800967176,0.024603657408517027,-0.0192857306705461,-0.024502360892319466,-0.02934619944700349,-0.010319379184491875,-0.0028525131951608255,-0.031785939744055566,0.0019959221571215265,-0.04333256027997191,0.02561556161910528,-0.0018608717787748795,-0.007777406386327105,-0.021757947194471893,-0.023183687380320082,-0.005967913016941624,0.022037900256769917,0.020241471992051036,0.003572582146655121,0.009436522330485194,0.008290771799299095
0.008100255397029464,0.009215329127432422,0.0064283177589713,0.005681444561176417,0.0008928057614811993,0.00992885525766894,0.02023993654935646,-0.004072077221711194,0.03421539312821341,-0.018168887093692975,-0.0145622967735723,-0.007738188296994992,-0.012460885999372895,-0.02526450144256316,-0.0375803021490108,0.04551978178387899,-0.00870518318335614,-0.028274029861059043,0.045158524722804176,0.011044311171515298,0.021229680781673452,-0.026807710717716017,0.0063781805355192876,0.025027023218496522,0.012959671441808162,0.0072634249911427435,0.009422138137308484,0.009460641392697523
0.00808541024967006,0.009175868956526341,0.006443506260108307,0.004718080404188416,-0.000814397460908316,0.003540902180322479,0.019035469377412458,0.012744604492085468,-0.0007310534970870369,-0.01132280665921032,0.013637273337752262,-0.03732665978173978,0.006755382150479007,0.01766733697855328,-0.002519270331918825,0.025262992597630964,-0.023297736386762326,0.027452019285732456,0.016950445106213744,0.018968984510458538,0.0047925377301101454,-0.006063481081413313,0.013158657487853869,0.0011389248691329858,-0.001279603709608648,0.009493680405476733,0.008641209590852234,0.00955260570195039
0.008426685760848141,0.009380262123067525,0.008258971796395537,0.006157636451691771,0.0037423762679761824,-0.0009459815536955143,0.0023400056220032922,-0.016345600656950444,0.01313558945359563,-0.002350371925951547,-0.039723474439182456,-0.034803900758465206,-0.018593791901907842,0.00524162275980329,0.023878526316022962,0.01781704416569166,-0.004514207404573515,0.02153547596357078,-0.01555331941246395,0.02530195251154424,-0.015289800488039356,0.013289138086612952,0.007496341897653998,0.0204590623568719,0.008399251447193262,0.013998006440030603,0.009005081287837197,0.007059949958288559
0.008462938164511175,0.0095007345597556,0.007880114059646512,0.007582044955524096,0.00226232257553505,0.006563292264109421,-8.993929334674881e-05,-0.00417506096665426,-0.010815882582383697,-0.016573955563960945,-0.03548608898636974,-0.06326720409787834,-0.010987329729309438,0.014590386892241805,0.029190612750945328,0.002260440733126464,0.003870514159013668,0.016810853386761505,-0.02710587353447543,0.0011471105617668126,0.01180550157069793,0.006019820023409691,0.005026137594541682,0.014013601052596462,0.006550096638305319,0.009410302166838193,0.007979134868061807,0.006855568396158087
0.012526007514051859,0.010931772832087185,0.011360148159775808,0.013130968839663281,0.010723918111650693,0.016600513755351917,0.01874164551374136,-0.024022850584695592,0.012726428999049274,-0.018881820697161707,0.02688065331184496,-0.022868554271637018,0.004567751057025917,0.009677726457908155,0.00827322788994124,-0.004072258344679079,-0.008227898091143791,-0.021438482905334396,-0.013158157180360402,-0.01366213145142955,-0.006884106393342746,0.010741828415546686,0.0016046041638588641,0.004008617831060231,0.00735617561234263,0.007899327638841293,0.0070538035304835095,0.006964446677787344
0.012536373667625944,0.010950437090058806,0.010547697204681808,0.009109892057246664,0.005676359048459256,0.007199676085522651,0.026011634809140226,-0.0015803486323264988,0.024754690562128003,-0.008541070815666487,0.016397220956998915,0.018070124061009572,-0.025188584006501476,-0.012389178808475466,0.025983196832314138,0.00029550630345139716,0.016672610836432337,0.009399640500928943,-0.007272832034423364,-0.011434657636563516,-0.02532409458599747,0.0008485271324033016,-6.446829787545891e-05,0.008847004391839724,0.006068750011996693,0.013148649402911987,0.007525097741766208,0.007551813041614868
0.013345247461970553,0.011320174788337767,0.011647744734301182,0.012072614822961122,0.023125941693640132,0.0049999778183891916,0.008774147918058696,0.04159903185643928,0.024507443406886324,-0.011228204445693956,0.026072437944014253,-0.0258346242056631,-0.031008950628831848,-0.0285010022835103,0.019869905756608616,0.019423847575726187,-0.017225226237175862,-0.027019462624389628,-0.003284506588259194,-0.012220532144908326,-0.00979649755669052,0.005763002664542697,-0.009503233064274802,0.011960904722133316,0.0033184173208653084,0.008097330812892253,0.007887496954073018,0.008623775112264354
0.013346691087842467,0.01127197134397892,0.010266692938826216,0.009527866517701884,0.019128265044136717,0.0035770629794321528,0.01297302685105273,-0.0007571548941375127,-0.016548611065051563,-0.003137095953627011,-0.0044709645512251385,-0.037189120263878064,-0.013570195279681408,-0.014464296482798004,-0.0008255094721237287,0.02991993756669042,0.010471669815797028,0.009147991653108393,-0.017259564774286903,-0.011361574911633187,0.022053105630467872,0.00016624613268556942,0.0023043448052208447,0.006974576886778978,0.006417305424175354,0.009573180408736254,0.009106351014500717,0.00848061025906373
0.011058358227314788,0.010392078418652608,0.009882934770965515,0.01153440013960888,0.013752962782290134,0.013400357332608874,0.014032556567912252,0.018517533961436468,0.00563947352924557,0.0031265898799995523,0.008206313409386948,0.015605343607507146,0.006384579459930373,0.011611950724132418,0.019857295754285912,0.021714951699193557,0.0322199478795035,-0.0011143918365035038,-0.009608767826024477,-0.03548201715545445,-0.0032495132239528284,0.0009033339409830559,0.010319086549587617,-0.005592429591108609,0.007942268847231612,0.00706635883547952,0.008907778603346761,0.010227528666576547
0.01108309648220325,0.010439087696539024,0.0086326564067597,0.01111572863573861,0.014244196677494146,-0.0003689669447258322,0.017406509189009503,0.007538348883392929,-0.022373215714298452,0.012783389118499725,0.023398861567472732,-0.0008543981152969482,0.011875504813975183,-0.0011166082014578552,-0.00018185337257965433,0.03771036627623581,-0.00208142525218346,0.01205873496336204,-0.01649565395075919,0.002544706917775728,-0.01577773387170475,-0.014127610508605632,-0.0019862850595573273,0.0045230865845745875,0.007071842313645396,0.01034200180608972,0.009835766606309375,0.010072837623165857
0.00842602274224019,0.009328395392169245,0.005844256360318372,0.0056755470088006126,0.008719742388878224,0.002343682169476731,0.024893566981587924,-0.012085561045943258,0.011402115107215187,-0.0163794817925716,-0.007981262265398007,-0.04100158588500629,0.005480656183921081,0.02380300935275159,0.0323911374884406,0.029784766157484786,0.03124505816424687,-0.015399841321022071,-0.02331204131627458,-0.032284784093192805,-0.013925611017355592,0.015434935288189325,0.01898678865064072,0.01461132127410852,0.009315229046359614,0.011023666900793,0.010295896761959768,0.010756208179966732
0.008409295625668096,0.009275675660269123,0.005800831760657727,0.003646063336242577,-0.0007625318120909977,0.003989520237871306,0.0074429578646776785,-0.0047690296307682095,-0.012398958274385394,-0.01578865260570201,-0.02416077217357683,-0.0256588523812055,0.035239223099639165,0.012322849381631817,0.012807488082726835,0.03370217999012435,-0.019520543535450543,0.001688425616467174,0.01037244378547325,0.014703272528007683,-0.005573237859064086,0.002258750723674216,-0.005569590071555209,0.01572764838903882,0.009223285996634328,0.012129402601060078,0.0102605458241555,0.010749581300013349
0.007454072131440091,0.00909996440181443,0.006500521301071284,0.005669145702958779,0.002264511470309606,0.0072383423335505275,-0.006643839342458998,-0.028774953485795576,-0.019349408051214278,-0.04102823731705445,-0.051768431083375616,-0.026445277334738275,-0.011118332620257925,0.0017933872450288041,-0.011173551572836006,-0.0047855718375906285,-0.010518168730190906,-0.008813091863110786,0.01824634964269364,-0.007309720803210227,-0.002789639580831135,0.018042032650599883,0.007901747702419457,0.009909143995410498,0.009820112569433445,0.012007566878747001,0.010146296302727368,0.010295967028579557
0.007496364219535274,0.008917817670767264,0.006713099282852839,0.00622941968032589,0.004134471073423498,-0.00979551480619894,-0.012729586681906732,-0.006750230500551438,-0.0012554117519252418,-0.010582339551930924,-0.0336548276696121,-0.014776034333449315,-0.014161296125338233,0.035105630812174146,-0.002629555674862189,0.015078385951816368,0.01165176210420022,0.045539100341229925,0.014799616013916609,-0.012413057580423825,0.00610291977725124,0.010662089410206473,0.005457159113091968,0.007698811329477319,0.01040161674767156,0.012815915214949215,0.010211601594525154,0.010301218862142848
0.008108618763437898,0.008868629212634824,0.0078023315568532155,0.008072226685256503,0.009664107539125468,0.00684047407834757,0.003554430816774041,0.004886226188214539,-0.00031571149930324555,0.0009418503028178522,-0.004221895858395264,-0.01971397660570722,0.02840923930361511,-0.009989945225544654,-0.0011473081985636133,0.007145797325327614,0.01947421438232099,0.0073301594634275855,0.01302992699708263,0.002738166387561059,0.007245476983299199,0.009532286878028852,0.00907010538854107,0.009460099437735587,0.010747332770786126,0.010813239438332909,0.010091621956402399,0.010230501845879692
0.0081017461570362,0.008836042220282619,0.007571766871026187,0.007807992866729921,0.00697121607498511,0.006174856820771773,0.0019200363591211262,0.005999757274950263,0.010300462378686216,0.005969511655869357,-0.020777248282205042,-0.007050389519904947,-0.0033220328433511996,0.028825795073957158,0.016219385442714528,-0.00017634240572409347,0.0050136062592064075,0.007560892920796662,0.013236087614087512,0.003476827395270603,0.0009407554775356672,0.005390760317699618,0.009699899820494068,0.010188967228979882,0.010911491605499231,0.010808987713703692,0.010088105955159727,0.010241528845656562
0.00976023921785979,0.00973018533484487,0.009394396164899132,0.009399376099897569,0.007986114569861534,0.008266189360410589,0.007005410770045826,0.010673722614513648,0.014695080952869618,0.008512544541908936,0.0035504637727672857,0.0033554274416084887,0.004388726239884544,0.0061940742303328794,0.0020266194148566177,0.012214782320584889,0.0001241925079561528,0.006989788195675434,0.0063125761534578596,0.004915784285876974,0.008016004562994046,0.008145067415185128,0.008623609627568118,0.009040465152677674,0.010820512107282864,0.01079179964741512,0.010533089460434478,0.011300171078998826
0.009811463985336591,0.009731549507961942,0.00976439463808258,0.00969087816837671,0.008208112505839967,0.00931329896212119,0.008990114960991356,0.009480222837821854,0.008919707643380102,0.011479631684416276,0.0004209113050049282,0.00664983632748492,0.011267535511726538,0.004300376357529537,0.004158031896741921,0.008524463420115595,0.0035178483956559924,0.004973681885502032,0.005479837509164252,0.0059535687487752105,0.00782279719522391,0.007678280389876555,0.008681878823892814,0.00848213697261729,0.010825942632594648,0.010977804748113088,0.010786089216736404,0.012124460905806123
