0.7538471099321309,-0.9319096998565933,-1.0636137695601602,-0.04121846641658629,-1.624916661038454,-1.4006366523503637,1.890683575025996,0.9060567553275984,0.35767968545099027,1.3388881872619587,-1.0656403029429826,-0.3801638373624363,0.6649810601750477,0.9129962261252057,0.4131170725734257,-2.5473617981755514,-0.9082490532275701,0.5797356556217437,-0.5583372113616437,2.5316213891413,0.8785032527886609,0.4701454355272701,-1.1800797279873745,-0.22995794874094916,0.32011655107216613,1.1570919382739306,0.9399915298784931,1.080114144920844
-1.0063924248088612,1.3734452439398155,-1.4086275686836962,-0.6313789148262612,0.330384900473956,-0.27026071910167493,-0.8893062104296157,-0.6660467663301344,-1.495162105271784,0.7984091984691354,1.2391325402390998,-0.17055897782821364,-0.3727042173158305,-1.4703581948157134,0.8580059336902178,2.2078237324643024,-1.7732832411579247,-1.000450326186677,-0.798629481987043,-0.7111852610518498,0.13956028228066855,1.5694176081651667,0.9183460067008339,0.374304996602173,-0.6719384424810774,-1.0898796376790283,-0.7281235884387655,1.5684441608031559
-0.1414926445258677,-0.5151525009175327,0.04749095038456325,0.947207090812964,-1.2358051306783377,1.4882281221394447,0.49296701064206616,0.11644800124194779,0.7927821794841697,0.6393031575769934,-0.08390732304348651,0.05385144378629478,-0.931746744976533,0.5382095473333549,-0.4994056306943227,-0.9528200570793522,-0.013151795731993697,1.2458455636668235,-0.26356949905698684,-0.7255154423095569,0.29840612391457944,1.9534627601637633,-1.4484765367698795,0.4268279134660256,-0.04245783906443922,1.073189961065501,0.984362442417749,-0.1960516091579496
-1.694692830729901,0.7656360454762257,-0.7082928056863566,-0.8378651337839759,1.2497449457196999,-0.7507385135297184,1.4854646140582555,0.5991350813621676,0.706171505516503,0.7301309880896857,-1.5564513430816007,-1.6895570821032029,0.06794707054996664,0.45918315014806027,0.024067689548311844,-0.8783807427576893,-0.18987751359905364,-0.29064951776116343,-1.041180910351737,0.916774300464768,-1.7413755240931605,0.4886818305883716,0.4044885100760604,1.0184255931706798,-1.1014201694563435,-0.13568848256112756,2.1720241046901956,0.6601635393869686
0.414287090075969,0.7687007111587726,0.3377216217311027,2.2090860644069643,1.1161837725402688,0.2081521422579898,0.37978063842977444,-0.3477557978001435,1.2824511834787589,-1.3719524297154129,-1.5363101249179278,1.568397189159005,2.13376908964436,0.2889268476173537,0.02215365932033885,0.6301088531435909,-0.7218836433558224,0.0743282475296017,0.5988325651976861,1.1015517772593617,-1.5930749230993275,-0.7563384156361461,0.8488188357590688,-0.716048409312568,-1.041539209015623,2.0183097960887126,-0.03155723309971696,-0.6238996974983657
-1.6489018837792375,0.914225339484557,0.8627365044055204,-0.0876237143683159,-1.0014351970399593,0.3012513971810764,-0.8002229988738622,-0.955327555016837,-0.1559196647117186,-1.1702486252738438,0.13916111770288733,0.3775086558176898,-0.8093487683532812,-1.2484243441284797,1.5915586630339615,-0.9086780261746981,-0.8102713857269408,0.06967812422864791,0.9396376351995211,0.19557889275791285,0.2983344394354705,-0.6867319594744177,-1.0040449918826293,1.4318885911023405,2.469766278217194,1.67113130146395,0.09838563638926717,1.8093248371726935
0.4934363964443804,-0.3634176410575383,0.3793354288468894,-0.26139614358946156,-0.9673656125202509,-0.8845472609320493,0.9789294281882948,-1.847788709340674,0.8614659567749168,-1.6406600532285192,-2.0964864946121127,-1.8430162096176061,1.9854154789084648,-0.0910759835944718,0.3211956564011573,1.6190061478358577,0.8109308220188397,-1.3901594338902126,0.9429631930042578,0.2126528172569477,-0.5638088833599375,-0.19017394443411156,1.4199794436956337,-0.6163078190152654,0.6430117537018659,0.316112178516843,-1.7940258244843255,-0.8152007948972062
0.3385566636560866,1.3466500347780475,0.9556345650167425,0.49538915106606823,-0.8169133845245402,1.7758655503187204,0.34052073252257126,-0.982287881770354,-0.14275371110281096,0.8916848821724217,0.03735460474699118,0.8996342668065325,1.119624847130117,0.41773301242608746,-0.7760266609989086,0.35950812925797265,-0.014481064451855548,1.8812735298863545,-1.642337979560592,-0.21784145985988335,-0.752801014813054,0.10650609798588322,-2.4296214073523927,1.3356370778313396,0.3055738352568182,-1.8241020087638118,-0.3472328329122887,0.6033260478947434
-1.577160205971696,0.08390045678672049,-1.0291122384495925,-0.5046940823395163,-0.24193989765166096,-0.057677152204041814,-0.514453480867477,0.27108702604392965,0.7755816701881016,-0.574005290734375,1.3411221874155954,1.2812263756604165,-0.4724013036037915,-0.6443419138095031,-1.7124663418733976,-0.1696838977234041,-0.30282417210583246,0.8629633159560004,-1.4395946923103968,-0.18485671350085847,1.1505564001720812,-0.4753190891588901,-0.7693408314067766,-1.466935157339398,2.658484845398276,-0.7586325261362468,-1.3112604679830602,-0.824114952625277
-0.7208241340349544,-0.1938721550183424,0.9216995503827088,-0.20131539390992093,-1.0491246472755662,-1.5251870418538895,-0.017161036242118028,0.051306057890454324,1.513187836058889,-0.2757660163192715,-0.1999894197061662,-1.043778455515505,-0.39765575141011844,-0.5018922131880081,-0.479883903087009,-1.0198275108289878,0.6255345025390172,0.003139770803804642,-0.09243206562888467,-1.7326438104390744,0.7710298938481991,0.8852160651144904,-0.8720338225612158,0.9935223507600756,-1.3902172317543344,0.0321359598867621,-0.29219809124644863,-1.3248980574292795
0.2742172229831522,1.7055927347495186,0.328881747655037,-0.2917760373416967,0.3452571666123456,-0.09711157780161943,0.2636989911043508,-0.3929230664294571,1.5818315860258536,0.33649455809229134,-0.19754682915061733,0.0971685221012687,-0.7304855091926309,-0.5962186703260298,-0.7418940098713128,-1.1920516827793406,0.9537037667772061,0.07978152656160797,0.9322987235043427,-0.22468621599212993,0.22637049011966748,-0.5721912865765663,1.0430751050786549,0.17479382958087475,-0.442955252047248,-1.567011331119708,0.39147776529783873,-0.6517906812472587
0.07367900748071742,-0.43132044507937606,1.1111362401241418,0.7060059525653123,0.27082891250893926,-0.776845773813082,0.8097198652523246,1.8502663318752854,-0.9835022608369347,0.19641668810432683,-1.5734806123951335,1.6197120438771635,-0.2456788483405233,0.9365463654274301,-1.7677150351441522,1.778037843691712,-0.04029894733067774,0.8027983008471655,0.49021995564001025,0.25828989120880097,1.841485520752047,-1.618071963560708,0.7713480136526594,1.031834409597705,0.3788228178135875,0.33465088043668306,-0.04275775552488008,-1.2000113851005314
0.009671696401806453,0.48952928418819747,0.09069676482204686,-0.3254993780604463,-0.689396403560031,-0.4595618471979026,1.2086917948188043,-2.110703385466457,-0.24255212919544059,-0.4077684522294972,1.4863955752020008,0.16087103860045548,1.5749916468217384,-2.138600408974807,0.5895614132087543,0.3656256038898977,1.3987923440783636,-1.669900964649506,-0.07661035535125982,0.13960148972577732,-0.5960769798611477,1.2761548479359184,0.0010904308078531154,1.925160901624914,1.1041767605217714,0.9736118004488695,0.5180423978003278,-1.0863140476587339
-0.46338244409638124,0.5503204061217478,0.6878818278458544,1.3314944878377193,-0.718816898023001,-0.9433919788900605,0.6524739035490289,-0.9295426392974648,0.8386370861868079,1.1489045945684877,0.5231723218868372,-0.21271109624503312,0.24778897160176952,0.5435296905150053,0.1835114770116802,2.2548297015232985,-1.0811394784318822,-1.1153208179737435,-0.9973494134036933,-0.5876946556302941,-2.162569836550826,-0.6568853270931336,-0.5495346062057374,0.1977486751699346,0.44560617155069526,-1.260497540718711,0.8718531595367365,1.800344217966429
-0.42558037044246916,1.5412873088661914,0.13823490457465734,1.9677117360867324,1.0909532679304232,-1.5551971417335966,0.26289418128437436,1.1042575509423254,0.11330533643813823,0.1548136435097755,1.4088510143840907,-0.6412500770844829,0.1599346200983995,0.284786254670315,-0.5452681664411504,-0.34823568656386467,0.7899517547627248,0.37321365826807806,-0.9387381910377538,-1.2302783093712801,-0.9545615808974542,-0.2814850459054155,0.17203166901099712,-0.6948905984588529,-0.6559019963556714,-1.5252945812352656,0.546818599863755,0.07673991015747854
-1.3202825485497804,-0.20239210474243297,1.326990701172662,-0.8071119419798289,1.2262831232502533,-0.4365992544769665,0.4333372025997789,0.3393190926647101,1.5137094256725514,0.30471655839326284,-1.1726616677099198,-1.3322964135459248,-1.528260109596198,-1.7218834037460191,-0.15048651908987012,-1.0043277981182321,-0.16150434852912862,-0.6705886152920266,-0.97279684770129,-0.7472414765389361,0.48081824737773066,0.7070887239852117,0.6776544487264768,-0.9221737405302596,0.6104714858729009,0.7153674657282573,0.40060836544544204,-0.5337361584561431
0.6648154211637042,0.3579130061536959,-3.1163085416230754,0.7197552166699247,-1.8888306644265094,0.5804631872909282,0.06058351662209879,1.2607193190041046,-0.40633444538586616,-1.023154525379125,0.11617778038462524,1.2556834058354587,-0.08145270791577014,-0.25552472031746215,0.766728924539751,0.0729869473998105,-0.0772338849165969,1.434446429263015,1.4792153820346554,0.6464981522815956,-0.4296930188726449,1.366420451917793,1.3519669212555327,0.9712394947096125,-1.0951343911683133,0.4823832258938245,-0.6377584542232662,0.05934340444706577
0.16837544865129847,0.00841604291176309,-0.4505632502235493,1.3580654209349254,-1.6643300889631483,0.7377777445777015,-1.8504936832376608,0.5926330040765566,-1.0517562561910927,0.8068423908978758,0.24717352477434673,0.3076092741931624,-1.0523171424523416,-0.7373650717887584,0.23677547135167243,0.41844048278878615,3.006938471316422,0.24030244280256624,1.0137896525252854,-1.6052563891722171,-1.3571260717137137,-0.45792305887251256,-1.1029876436631647,1.6088920360870773,-0.12567702255689592,1.4892328532625518,1.524245988622404,0.2515347726962711
0.4468516856960667,-0.14702582015570992,0.5203299386902048,0.3632742634954532,-0.5371661646974505,0.13322453168194037,1.5592804969667136,0.6745829507140082,0.20325003995313914,0.11267662415628985,-1.1123743080024011,-0.9909200199913705,0.1595173940016776,-1.4164020337130967,-0.7693127409621076,1.158627760871412,1.8832296321218134,-1.7416977366438466,1.530011015210079,-0.4333371895285904,-0.15678255319213696,-0.26233941700318364,1.2261560923298014,-1.5455797373303044,0.8240094271654252,-0.6508836347659499,0.6862784217843901,1.5678989478927263
-0.0763573618690913,0.29952096966773734,0.34210417420128614,-0.8971834236869359,1.3938044968119871,1.638760828217368,0.5647513787815243,0.038501115833608025,-0.464945979679924,-0.5400764540449576,1.6428008973370352,1.3946882533254634,-0.38160418486376463,-1.645992163955503,-2.7994688862531327,-1.1121570605594056,-0.4051072465958213,1.2710400933137918,-0.8612800772831964,0.3433691560365508,1.2525260050020957,0.009724111470353163,0.23112850908120763,-1.2155716569622732,-1.005692095852045,0.7704476205143385,-0.06256245081734427,0.2411057100035663
-0.093181681596181,0.6286330765904152,-0.7873592307018501,-0.44969281753870466,1.9280289850111954,-0.7983346840162656,-0.6484421522735044,-0.9546586875284515,0.4397084808976559,0.9395929563968141,-0.532787536083433,-0.5421552970656874,-0.3294871573635027,0.4902784343311166,-0.7872018735887291,-0.58523135343285,-2.4160161432179734,-1.4555485993797967,0.0706854470619128,1.0303256221854475,0.05802738597443882,-1.1701864378550144,-1.2977006320973574,0.6407703362636793,-1.610012007826543,1.1737498360831982,-0.24347491577631294,-1.65417127055858
-0.9900100644401884,-0.7624163397972201,-0.7672500682645288,-1.511546448098619,-0.8853868999719964,-0.7126744337984207,-0.9500407098588896,0.9657356709966614,0.0012666803275312665,-1.0470826806385454,-0.33671189158895043,-0.9298457775670936,-0.3025025299880073,0.906195825603451,0.14383390943919225,2.240556820091301,0.15498475235683365,-1.06451135321596,1.0434192320609537,1.2206695612357503,0.8760684458303702,-1.2123455344454286,0.2929056188939052,1.2780712602849187,-1.6366829727780452,-0.25412789206448916,-1.4943645695554493,-1.0648030992343023
-1.024624103811282,1.245923756030003,0.022939000259946475,-0.6852383193821138,-0.9651018658564261,0.3792408219091435,0.165457653637591,1.40452893133664,0.6627143951477052,-1.4029095737458184,-0.5932259976549744,1.074300728917417,-0.5406834408171034,1.7362533289101492,-1.1182844489965216,0.6221174601638296,-0.6956375307933689,-0.284179644065232,1.046294842729174,-0.2344137232490329,0.6438276308417578,0.15778534311415876,0.9349276868138071,-0.7265428814062929,0.012974726634842539,0.6076971698923407,-0.866320189689929,1.6257593680223918
-0.7933299391418741,-0.3275346889965532,-0.8911529288380289,-2.125605644841448,1.8395340815554284,-0.026051219241456303,-0.3399794930245094,-0.019479079552853197,1.4869631526636533,-0.9963220152662533,0.7952593120626292,-0.37266803226066,-0.5433411881793894,0.6439855464246583,1.0343523541874733,-0.4100072654446877,-0.6177683807258918,-1.082523973598774,1.1361942357545551,-0.6713692946024575,-1.886769940905269,1.3169350873293937,-1.2781814248279861,0.9242392427771454,0.41622454553056976,0.4978342531178345,-0.604041219214897,0.3561946519011953
-1.673685598750761,0.5609623885331841,1.5421062053810417,0.875401799952906,-2.013937592787968,-0.9289326358874215,0.05199930227069741,0.6425009352267786,0.0887858371127266,-0.32361932977689284,0.7677846508105903,1.3100522259971978,-0.02323105257624048,0.7266441125312911,-2.575141992919578,-0.8930893718025351,-0.5046432700158235,-0.6682246602168534,0.5425393448340382,1.1974671876725014,0.5904333764408386,-0.5743080222761392,-1.4644835065963526,0.7634603286328823,-1.8588788255942152,0.4884238693869858,-0.2683824853165919,-1.2030569060664849
0.24977134057140435,-0.04499144754134167,-0.06470912110804594,-0.10610358352656275,0.47512873483866586,0.927754294495567,0.6216566194305001,1.0736749558337548,0.20764426307354789,1.6819347679650116,0.7340644973252685,-0.2815897672208327,-1.0409420409466654,0.09464243002697237,-1.2750825158030736,-0.9772790215485189,0.12513551517355603,-0.765584338047101,-0.7653086552700479,0.2648718690262445,0.13100664027247413,-0.12597248360518645,-0.09887650726221425,0.9952431109883745,0.13332736219458485,-0.4344726753399688,2.4628541785920914,0.11194506474844834
1.128951535479366,-0.5702091109474685,-1.3615088295465378,-0.7877334222067034,-0.2060576747174485,-0.43548710572627986,1.3646310133046444,-0.01658277491979274,0.4576394544440072,-0.07037978877240783,-0.43142997607475897,0.11499432502617134,1.6973583045746967,-0.5532514493657499,0.7482619923084696,-1.0762312050629583,-0.5433127732682371,-0.08127576809867282,0.32238318328113685,1.4794535244349332,-0.009923465607120919,-0.8357478861229384,0.6874733315000648,-0.3324040191203708,0.3577542191891918,0.007627537720596499,-1.9521805593677892,0.42073599510012716
0.5773401987657285,0.9226958788212105,1.8011046593223956,-1.1936267632343964,0.56644128697474,0.4651321215068814,-0.3313072060871376,0.49315364171855974,0.49049483553386813,-1.2330041942916978,0.23939222718150516,-0.9247489079477823,-0.42948891391211647,-1.7589883537440583,-0.6042605445107491,-0.34671510678860135,0.505150978811644,-0.05739640150645618,-1.5327383109028796,0.8479790323272725,-0.1048763397434141,0.5100539445632886,0.9831993265535295,1.427986599916324,1.9715967260212464,0.050861427477627494,0.20913740063369748,-1.1187822334017785
