0.7231880580641934,0.8809501021312249,-1.9347101275870582,-0.1218341695125346,0.9472629299364871,-0.19484566367334705,0.006457408924034435,-1.5048800198809926,-0.5029409590698178,1.8296447033306233,-0.8953116176642676,-1.4707951389926182,0.14424066090851814,0.7898487557193629,1.1146289148300874,-0.6833326632374253,0.19346801612745787,0.519078180874893,0.6461119918017235,-0.5475947163786683,1.7151322099720907,-0.6833027509457595,0.7629284787386872,0.07045872070653778,-0.5239845689716941,-0.5834545676004247,-0.5890203029968286,-0.4498462546907475
-1.0228232450036556,0.6914982780858753,-0.6854418854653312,-0.5954984043195021,0.5425982399790097,-0.04555727612557994,-1.433960954050381,-0.9884534082278311,-0.21782651239505574,-0.5886075132890337,0.6006632352006572,-0.8851074234842717,-0.9704816853175643,-1.0168469809904288,0.16752491411994389,0.25830632661195624,-1.7001122839384222,0.6138024895182279,0.881216395445972,-1.7133999263665116,-0.6878884546406301,1.4245575304915774,1.0413897823624532,0.11424341162709539,0.5647468657179976,2.1164121440210284,0.5011381067138373,-1.2218458032684631
1.3587721564224153,-0.88477521278702,0.9722919276862142,0.6211101207157458,0.8856345727210942,1.5382812517499431,-1.4757438817271558,-0.2074339863471922,1.944565952063083,0.9583071518385977,0.07037360076663629,-1.0911609576689263,-0.039071944666028945,-0.9638750613482571,-1.4929321416110146,0.49048532152456675,0.13533318477087125,-0.7404005175047191,0.3798501273716198,-0.5117994800163574,1.810545390879523,-0.05965953971437413,1.563204992570055,-0.827121337170392,0.6328265971867064,1.8477529738118723,0.34036891158528537,1.1617067983450131
-1.7414444578003117,0.6897043679032261,-0.026075639277106887,0.7308219134555609,0.8484989161567447,-2.23520855185875,-0.6016972462148117,-0.7897236947901264,0.06144733839522224,-1.9704805946470096,-1.117925148658328,0.9297372337577693,0.02650862988297822,-1.1199458558876207,-0.41856337602434895,1.052956207797231,-1.756474623891575,-0.2861353559355099,-0.2516805390978623,0.13452242587720736,0.4856546500100854,1.9406665422452478,0.5249207508551462,-0.6224901132218625,1.2587580969030847,-0.8513386558389666,0.49496499129094196,1.5831122010328644
1.0456233955648253,0.7650883627338676,-2.2359780506905365,-0.26287238602779917,-0.523858446200545,1.3454204870879798,0.8651788425430402,0.33790867327193946,0.8372038036768982,-0.6244146438514089,0.560274730782894,0.09581592130456723,-1.565149902044133,0.31492956631386637,0.5861334271647034,1.1791808889824333,0.46071315745864805,0.9351966821567016,-1.7191893974292558,-0.33736181717199554,-0.2791602680952358,-0.45702177573041275,0.10914346182153307,-0.4223567117875036,0.7036214113365327,-1.0178071882515658,0.05894717712603938,0.011239328940812516
0.06263637749323238,-0.9842872183625324,1.3592484396645408,-0.3836463946044746,-1.4313564928910212,0.8478799281062784,0.0010152480224294932,-0.08791250210261718,-0.00840278518418188,0.45307676047887385,-0.057615005947280966,-0.7575621247704637,-1.361542909075667,0.22614661971049205,-1.5717073016880676,1.1118879402371717,-0.9653103825020237,-0.9375210436582644,-0.9404723271036824,-1.3230506154399813,-0.8291145545213411,-0.4072811511226094,-2.2934151265156837,-2.425527146291758,-0.7613035821490459,0.8568797874320079,-1.3192465146364771,-0.13599648980481682
1.4007058350582036,-1.3539738037944402,-0.5695830436712647,-0.8342369598222739,0.7789409251133007,0.297329403484497,0.7239605291593002,2.5104682398374534,1.635659926705542,-0.21402861704268772,-0.04366805971318722,-1.328184826707056,-1.6046759734645357,0.017082765181626478,-1.2803827161658807,0.7199501379338751,-0.6980185661429539,-0.5234436435511977,-1.5316689558147352,2.0774111186548785,0.7680592911032209,-0.666682004560165,0.1813668372251033,1.3716449201792706,-0.915320562635341,1.9270488606187393,-1.0693941749016582,-0.24374733473649876
-1.6662093092464803,-2.538614976611254,0.9265212480247365,-0.0880406244249816,-1.764014803209915,-1.7066222472419104,1.1991495824157559,-0.05796802689704728,1.3846947423351283,0.47934533207862956,-0.0573982273733476,-0.07119276370448918,-0.4308364744303926,0.23862231216731497,-0.006812647743779592,0.8868630520343512,-0.05476607052337081,0.8461486838124923,0.9085406607599249,0.15423929038714207,-1.3153994360175563,-0.19535365956189302,-1.871509898996479,-1.1827587645311846,0.7475862429338449,0.5168217254203353,-0.08112690217254409,-0.36594936736894734
-0.6844540222866311,-0.4374545142727555,0.9918932658196717,0.5191378829671669,-1.4182377144513514,0.0808248568562638,0.17517740757494243,1.6939214389577653,-1.7041324193436793,-0.816520961886616,0.7880738119527738,-1.246872702271227,2.386755928274248,-1.186318740393345,0.06705892943428124,0.6124924083082299,0.9562131296379748,0.6922901864780864,-0.45095008214514526,0.8859904044529664,-0.7319500033875134,-0.4789064696517863,0.5321854418717267,1.5156405172979133,-0.24668551698831068,-0.8659920892889625,1.1986181383281855,-1.2856218391823584
1.8473213743282648,-0.94208400989536,0.6846229974417232,0.9528011324059419,0.7334172005866236,0.09301402722439737,0.059865492481079974,-1.6726586720135548,-0.7760509544859018,0.7626099957832525,0.4187002169482887,-1.2236790488539442,0.35461557440169794,0.22061781482049164,1.8027775705821298,-0.3491093032676031,-0.5379870448032725,-1.0103821178723729,-1.0576621684741772,0.3103111212071864,-0.6785479833698951,1.0075576565338038,-0.6014393102025365,1.6079053938948822,0.4270189194547131,0.28842795100676083,-1.1721805425521084,0.26823230829631767
0.1133527634169675,0.674211522381684,-0.343475053948455,-1.3786329468431515,0.33432401271748996,0.22711225539232602,0.2874449900385242,1.009836352712108,-0.7669275000908208,-2.1666493491921157,0.46964892112711204,0.4367295003543724,-0.6276204711350772,0.07793091104891788,-0.9863071298344259,-2.0923253536469315,-1.640168317011985,0.10785257441349391,1.4480995850418552,-0.35891116746707513,0.6884914388083065,-0.7475729931125303,-0.18812533383615362,0.7814488311652495,0.12028535195329286,-0.5615673563628347,-0.8964913571355637,-0.13081191929218816
1.2040234312173772,-1.5555809291607776,0.9544013705483918,0.4230825542977713,-0.9490839953117495,0.05717668419421629,-0.17379278816582938,-0.9663224359631175,-0.5150491880722685,-1.253650207108947,-2.057709757074208,0.18723435073157618,0.9934746540601288,1.5452416764398735,-1.0530691632612477,2.083653728743845,1.5466355617000993,1.445942720198168,-0.7585160615185543,-0.4968158719967562,-1.956141640440188,-0.009667445662620141,-0.5071785693635021,0.10089130901533894,-0.8501236816417682,0.6470379268487291,0.3051809086265511,-1.1602853934334059
0.12944902583420195,0.4422123011723253,2.015237782081247,0.17634204978350065,-0.8965832136614446,-0.2668015309473603,0.07876334853914803,-0.11144100519972971,-1.8544653647028493,-0.33261427849500885,-0.6945731922034502,-0.3223814360534699,1.9984555881239698,-0.8382248465998765,1.464162440472052,1.134364244309564,0.6420672226530094,-0.07099111827089212,0.6367561708286114,-0.5232972300157672,-0.760942030389351,-0.8927215957539705,0.22748306217902778,-0.3043317535644034,-0.27520407223833987,1.4207503033087763,-0.6679978882056921,0.7691843503009518
-0.37905845936444194,-1.5665476653762658,-1.391370998756677,-0.41728614244003265,0.7151811135272034,0.7243157293040797,-0.23886635575814225,0.5880497941053454,0.13159479001406454,-0.10982915793432435,0.896248499489993,1.110114087601513,0.9049845308579265,-0.3839539558923651,0.5663232357929395,-2.122163502910935,0.14820200045151416,0.3228223266424724,0.12123254211080584,-0.28232302097216905,1.2941900624238967,-0.32032981343406763,-0.180749716974354,-0.31017839989434776,0.9993599050942606,-0.3336309174181665,-0.8106050639364247,-0.05150879088784753
1.7060895966818377,-0.3191333584370704,0.5605482051301826,-0.37146353270641047,-0.08739485610688408,-0.3998752605220464,-1.267786152732328,-0.22908883148747555,0.8278550469106392,1.6378018234245282,0.41148413047313065,-0.8342894811587904,0.6681620975398908,0.39392316314427,1.3452185432512231,2.0177271274598017,1.2081324364768335,-0.3377752182953868,-0.17433473309771352,1.1189392577217219,-0.23813902823081748,0.19873602163700702,0.610283766422141,1.0164172986351523,0.07699368195978515,-2.892502756385442,0.4306466650429208,-0.20304576826534362
-0.986883041501467,0.003994707611196172,1.1020162422248514,-1.1559203178736197,1.618264359234222,1.0631878024384787,0.8860848713362507,-0.9525429668845765,-0.21202740988559055,-0.34305982136919927,-0.1936039029194878,-0.2223951094499535,-0.4716882701234343,-0.26873739698959764,-0.2905014549012785,0.20520778772554876,-1.610734035995298,0.5021271860604787,1.6043633193080598,1.006504186001243,-0.7773347872389303,1.1742004503631185,2.2641952030201615,-0.23134934133203375,0.618507522066263,2.299890163568717,1.0816782642279825,1.5655201430153662
-1.1189688686575348,0.18001485735121037,0.3081892020139543,0.5513446812260857,0.8093223388829895,0.18683479153435506,-1.316657433841394,1.1445511497067713,0.3969231020477814,-1.1542952949965823,0.7094424331875324,0.47301608005249285,0.3024854741016829,-0.439206196237532,1.5899644544923954,0.5223719911436893,-0.8297542861137222,-1.5874742888310682,-0.6498835580834004,-2.4217914241066527,-0.20176737866736666,0.24508541228453373,-1.278877130868002,-0.6810949124004736,1.5136385314013543,-0.025957260331136378,1.559559683782857,-0.10435275501572144
-0.24197503961635825,-2.2014103508079725,0.6593931698930154,1.0595764029126205,-0.3816051636678368,-0.30275496572258875,0.8952199072988164,-0.6679967907647937,-0.8779864265369897,0.19519194747687602,-0.5378716898255129,0.6145322547187428,-1.0101874962821413,1.4813792567185664,0.5570592886679034,0.034354952610946454,-0.9011816619845893,-1.0837478664884532,-0.7548691835023731,-1.4742135017391746,1.3829460668529066,0.41271249271749283,0.9576235581137442,1.6482805135679588,1.2792078270346665,0.31469473123282055,-0.3442286494681169,0.8058331366138028
0.23033999204539685,-0.238217694394645,-0.5416674819415845,1.0747172863006769,1.4357303879922831,-0.3088455922200986,-0.8248999003919247,0.4455866185591477,-0.9091788723152902,0.28299197113900193,1.736815225782941,-0.34199492201412063,0.14969491491349635,2.0132547794690763,-0.37085889290563007,0.2149856233532774,-0.9433707522251265,-0.7002619811510341,-1.4058691031473873,2.894897549692554,0.49103583213971363,-0.1566159980968682,-1.0158859195160783,-1.822124251523275,0.16201316687488704,-0.2553614806785141,0.5329414143374491,0.7173635126480024
1.022479206601741,-0.019055326933122455,0.5766200184746242,-0.4341350122512994,-0.8944645134002436,-0.33927087321396343,0.4225075135223475,0.3143808777351849,-0.3575985256267087,0.1048896074243247,1.6155039397603335,-1.7464075992358514,-1.2310286571687763,0.027401958092341774,0.6736247117220681,-0.1684988570516466,0.9074484919783962,-3.004617110536195,-2.3764928445956968,-0.6203804807419595,2.696938568884903,-0.1496935108508736,-2.2460520665504617,-0.31236799443061275,0.5543656818742979,0.906407067698405,0.4992597204806033,-0.19975557896225404
0.5352554321343188,1.0832545033378456,-0.7446766486891337,-0.363788412151298,0.10227625231451136,-1.6921499504504678,-1.1534198926154469,-2.2682673582361144,0.372578005981455,0.0027993050795082053,-0.39596342215634706,-0.13283878267229873,0.4757612910143607,-0.6730943281416434,1.1568932741687288,-1.576136959663198,0.11215865954239185,0.04055904734486757,0.9077497510855984,-0.4323695615209968,1.1132002183980978,-0.16069894416363747,-0.15674337089493737,-0.18272337165145985,0.693167294083316,0.8399823185916392,-0.7092106302884928,-1.4408917516641477
-1.0631926603165929,-0.04745607888863573,-0.2848846351946109,-0.10586166442868654,-0.5876355698710115,0.9209346654221954,0.07557058087876072,-1.5470753946362086,0.4508509736052757,0.7608876248079879,0.03830918430313779,-0.015557655481887372,0.2009574867880559,-1.1561674619316713,1.5713147780670458,-0.3913123887918722,1.5681465446932699,-0.42342632513725,1.0594634224552046,0.32674076909896266,0.15786437350631863,-0.9242013054391585,1.2072185379278242,0.40595167367668555,-0.10896328547592062,1.1899783638101848,-0.07071651406753675,2.2014273565076183
1.0061055334405768,-0.3521639143628019,1.3379215892974246,-0.04495499575973185,2.0198390907002,0.0893033897593065,-0.23257608937382168,-0.037870535248930574,0.38872645188554306,1.606526215699669,0.37087081220946577,-0.05585299023030899,-0.3866758685656259,0.819133739967754,-0.5362639173539105,-1.162598502231768,-0.9441967597004922,-0.46603259281551074,-0.018822424065821988,1.1311221959641165,-0.6174414442979262,1.176900740763246,-1.6161805261574167,2.6318391218653883,-1.5884923057146583,0.16941221599538647,-0.23531804900432277,-0.7949542027405733
0.6592728799655148,1.0467093673400159,-0.2671719571754089,1.1824224739990354,0.06665792464006118,-1.0842917323416987,-0.24670439313483147,-0.6724792801924463,0.4458123133369461,-0.4522777550903455,0.008641831978153658,-1.099464104239303,1.1299838623474288,-0.29620979848340956,-1.0579309537297317,2.6369174871518775,-1.3916598547742898,0.5187356802583303,-2.129171326424856,0.4398364317324592,0.1595921133507458,-0.2817580040680615,-1.330844719073679,-0.7898913711526824,-0.821232368199335,-1.1845909676348798,-0.9564007242509313,1.4323604495153095
0.4235310962714935,1.3398120216103613,-0.9802791965773107,-0.3989814396040279,-1.7449627319547092,-1.2083598030369012,-0.212658354823792,-0.36220718312427963,1.7673864896683322,0.08777378213642689,-0.32372573734479837,0.3932028458735182,0.008383393100195778,-1.0921180294310742,-0.6226101673834816,1.4014463566648254,1.3151607431472152,0.2896490964171996,1.0560901250924395,1.6662183731486149,-0.39686191757239875,0.2545083787598901,0.2819600819251381,-0.7975040169881961,0.47605923854042176,-1.1332209764645904,0.06126075907909722,-0.3073856828245394
0.4601460155137843,-1.3464150357145743,-0.4960231828655063,1.8801567674023043,-0.13268017723987566,0.05620416150711064,-0.6651117666738608,0.13631951225680192,0.40021976715671326,-0.4222516524205939,-0.27134663053342695,-0.18633699090214084,0.2595063769540679,1.1334013349208487,-0.6192248543456821,0.8207289604875463,0.8295266232498534,0.2743102931380033,1.061935336609736,0.03992132424757853,0.19198162301957306,-0.07907641640166527,-0.2121738231581097,-0.14626823394409355,-1.8582111515204969,0.6245507181971709,-0.35912118842563284,-1.4774169832867867
0.9495160542933376,-0.9957070598337077,0.9260532431669829,-0.6612987462745177,0.9481909081887633,1.8943999430877723,-1.5903801009664296,-0.2465224785692728,0.8837455656616514,0.1261385347900415,0.3409198975232579,0.9446921274615627,-0.8524142340412674,-1.317686220621482,-0.7457255712304603,1.3199042811262427,-0.6759085645598165,-1.5056145565557795,1.1556366582186972,-0.4809634960372352,-0.3871542132428914,-1.373741698608164,0.5001053749904129,0.5366048682163673,-0.5502224559737479,-1.1939362664721536,-1.8894314118249764,0.5907932330302644
2.595463807338647,0.3640305088767235,0.696078095356228,0.27054617128267006,0.3395636871583364,-0.2426776262059285,0.28713616754277815,-0.8103006960356803,-1.2841795281458075,-0.04682462513495526,0.17243358419853758,-1.1505415770276297,-0.6212470289391289,-0.43644745734539564,0.688672975529394,0.1412822052898284,-0.045694643860332264,-1.5699579609009795,0.284739875709507,0.5545842502906441,2.1982621742848685,0.505799076665767,0.9043791707600216,0.9152960946042336,-1.81256359855487,-0.1224587313460667,-0.13988646962955592,-0.4351674687508027
