1.0367397735949047,-1.204952286578926,-1.812930626042846,0.7904092793571226,-0.6029728458132754,0.7154066800266483,0.3286401171679676,-1.641271249199606,-2.7232183339799647,-1.154738490555794,0.07361868078785296,-1.2038169472399263,-0.6563624430442065,-1.4600049638942914,0.1310812935318253,0.056454874651933766,-0.4754838845301602,1.3876841704865177,1.4561394251944655,0.42650601240084834,-1.7857775700783811,-1.0561556189258585,0.38807673368032264,-0.645766796874118,-0.5711672624717558,0.845251252923435,0.46973242171904556,1.30094887495661
-0.48260091525681253,1.3605128018242385,-0.6100093281432722,1.4860092742624418,0.0005791560000085075,-0.9148696938493773,-1.647044651812225,-0.39909393048695657,-0.38025503013426526,0.7770260983881949,-0.05402122652468399,-0.39486857293399336,1.085316019040061,-0.18701451955229487,-0.6054340778658474,0.5857503862662237,-0.4743193557744103,0.6618271317821285,-0.7006820691808284,-0.36241317548647445,0.2760437242946151,-0.2612881192833269,-0.038408335833914446,0.8025466684127995,0.31760724269968177,0.3927235761940656,-0.6705425193822834,0.8253389442398962
0.5656080835181031,0.9389598154096089,-0.6446920585209498,-0.047522440772873126,0.6800234552773918,-0.5644062018893022,-0.33832571607240025,1.9290791132035197,1.9248308415500741,1.1852855545147667,0.7897981785715509,-1.0900288456143834,0.5185599764236135,-0.3891379993855728,-1.0824685465189896,-0.6336155087998152,-0.03464806856733881,-0.6590425114173244,-0.40790476261228775,0.8376462431992374,0.06678231091386642,0.16709371818699015,0.29280647984485814,-0.548467332415459,-1.3901717312877893,0.21469608377927643,-0.5259216618148724,-2.012485308541978
-0.516978824768645,-1.1452077807734793,0.7756428893861202,0.6155362949511428,0.5513622906980775,-0.6275297692852368,0.6503120883357543,0.1956775310032873,-0.4880359186787742,-0.5152321586298815,0.8167112049269551,-0.635654688830072,0.29530735367093913,1.0680379590022209,1.897126509168336,1.6610838347106174,0.8270637964382299,-1.5167214164712581,-0.5096528147209588,-0.36274169997966804,1.6512037911416593,-0.7576998877372019,0.5498519715344241,0.29514839106063534,-0.9707633499208242,0.2871003880847395,0.37710501533024415,-1.2625151856927839
1.1936060866994564,-2.0927210394636844,-0.6062038341583483,0.9782910865247586,-1.182759466501132,0.3671834785609721,-1.263840443325175,-0.012087761388021897,-2.3166496216890606,-0.8567732968836572,-1.602313410307803,-0.5564481061773978,-0.45761704416462873,-0.6947247978675315,0.9423034619053525,-0.8384739191747632,0.6855491963944563,1.6688921583609608,0.3007242300254834,-0.7706333900836086,-1.2864887323389838,-0.743120432870025,0.8508630761285781,0.4128080485978044,0.9791117520247271,0.8079171397828597,0.09525041985312739,0.43549444061312004
1.8465192435205973,1.3937948304446595,-0.31627393492050027,0.9889318884360756,0.6020372143546726,1.1447075348887887,0.7375561341185629,-0.9857359228727409,-1.6138138686606243,0.6308480146662254,1.845545245840202,-0.8662233526597541,-0.24559057270004755,-1.086623954416644,1.3228808105291425,-2.297369625038217,-2.2627623039487923,0.3213929155820956,0.04232804728622642,-0.32566198155696613,-0.35573169149296113,0.4965388417226544,-0.12131227393108597,-0.9690868727076684,-0.8660939277444567,0.9126865099990485,-0.5645908152879366,-1.395278029497404
-0.00847452670750666,0.4178817994705367,1.28789255160658,0.08851645396855067,-0.5861397654471642,0.5867429657415505,0.8755048045535857,0.1969734576590247,0.02783745717703208,0.2822161885810574,-0.3622454304086838,0.07490309015393591,-1.010076694304648,-1.1155454106674654,-0.9338000258265596,0.6266864136438746,0.22510761505248583,1.018143822390932,-0.1905862581321096,-1.1466183449927654,1.170614195079851,-0.016434670433295648,1.2846698229513323,0.6704529679185692,2.205048542426135,-0.019782139157247976,0.8947629645704227,0.8847021347364209
-0.6351119299679747,-0.279524943541842,-1.4860054130540261,-1.5688872981329194,0.23970721501675418,0.8470508750576539,0.7895464400381323,0.5419534286918194,0.9196670901406518,-0.6698207226596902,-0.5219407025674754,0.6293146513640446,0.49001443492367996,-0.13284347116636722,1.3811206301895667,-1.3297986782723852,-0.5361176134304217,-0.3000332837683133,0.8134511723215316,0.014158205650708347,-1.287997563998503,0.5369191211690546,1.0541407621074013,0.8053575490194462,0.7838694167638147,-1.8518868028201059,-0.9082454592212251,0.4689698197387572
-0.12021825177529406,0.4665904591597894,-1.2628566746058612,-0.03847084831921852,-1.4286906528829086,-1.9656878075707462,0.0845177991612137,0.6838714495231959,0.3403009381043586,0.06119832752496511,-1.5283404167318388,1.0415903527988541,0.010516527215433311,1.9766713401696767,0.8442368280445792,-2.010075567562675,0.7857581676255679,-1.397981397515388,-0.5133683305046278,0.00012999837298133376,-0.046765175277749045,0.2879062796213371,-0.8719899912155061,-1.0370080196079317,0.37103599016935374,-0.28092400335055084,0.1233842161598708,-2.1964409678908035
-0.2416336414907477,-0.9283286716360986,-0.9134526489293191,0.9253467690942376,-1.1474492146052109,-1.142268869867664,-0.5372039526050044,0.28913755055622,-0.8302843352770642,1.1726599712996095,1.4776784826465694,-0.896930577438862,-0.11730324401393442,-0.6541240872829185,-1.775619532986298,0.14825657710378906,0.674685530059519,1.9318512161394437,-0.669345443747516,1.2480822148971393,1.1953053646561262,0.10875829582210793,0.7808232419946014,0.9917689859739113,1.9670728333287495,0.26725180462362813,-0.11026435043044208,-0.8968545156885487
0.2164447393033911,0.9872405424691073,0.04779677186812186,-0.8811866984122444,-0.04368453133979751,-0.2805629602168495,0.1423701915533502,-1.6510693179188964,0.23467811287815776,0.3633275256629565,0.5536786079694076,0.13414635150156623,-1.7969927735853588,0.18019236590898716,1.063292732630041,-0.9246487705975112,-2.007038500137676,-1.5569961468775106,0.37825766640350106,0.5097180902922821,0.7833700241867672,0.05285888262235861,-1.518296714741199,-0.8802179064827904,0.6539299740675397,-0.10117180783537837,0.5285786351165336,0.2853413133426904
-0.2973642718711725,-0.26759364085268905,1.8366763867204219,0.23022221977315527,-0.31559114525686105,0.2720330422580637,0.06998451514610583,-2.1428334081894462,0.3444218250725961,1.6680519486611196,-0.5977909677667657,1.546849919975309,-0.16166846213637381,0.42114677399203254,1.0709074944292916,-0.8258771465701463,1.210041812174945,-1.2223452750321266,-0.8693631330559075,-0.5164061202435934,0.72773139481876,-0.2000074047791528,-1.5208985629194416,-0.3661993809199078,-0.9019780428200873,0.5598111194261138,-0.4923647465554862,-0.10095260739957464
-0.5010585782939823,0.339893961105498,-0.33268000319907115,0.19609215140456862,-2.594177552605499,-0.10396584815490874,-0.02369607279914728,-0.4839286073837896,0.6583430797559497,0.7652524394643551,1.3656084616466455,0.27629580448259855,-1.8721769252799791,-2.2623460453516353,-1.6257799471756538,-0.13118173059988286,-0.13293237744913847,0.3062995824540987,-0.5708046035726551,-0.7106930379646845,0.5453373935563213,0.6332442869645951,-0.1067468245842574,0.1300447140396115,0.40737825277191547,0.4899828480198083,-1.1029436318273786,-0.6603951617578441
-1.2630879625201203,-0.5920939261376975,0.7259748345159981,0.4342006631556997,-1.1405033034886762,0.333626576434344,-0.35519312410756826,-0.765428005377858,-1.3098755861663598,-0.15158603342290392,0.6803068582971801,-2.0851683364037554,-0.30188585881347074,2.357100114722924,0.6126008470861902,0.18946463214584586,-0.7088423148625731,-0.6786353842078446,-0.03348802862826314,1.6183666747658612,0.42207921425590816,-0.9354046607158132,1.2298831820006457,-0.1706001867785219,1.7042374463779002,-0.5287433720988473,-0.9568878854485654,0.26088735701001103
0.9232467558155973,0.9822924713617616,0.0059653406050020836,-1.04855137226468,-0.45294807907800433,-2.0132135729892924,-0.9135058921025971,-0.19080072737895173,0.4004778108112635,-0.24925816285249966,0.09029057318429304,-0.23745516327996488,0.7253397869977093,-0.9922231425340069,0.8958954465967635,1.9347130781091546,0.4547691922240324,-0.5534496377126836,-0.5310663207283602,1.1983365631563934,-1.1393082748987136,-0.9782986342629895,-1.1573926770063923,-1.2751389422002384,-0.9608404576760969,0.903864381298533,1.1122629893939402,-0.691521572152031
0.07684183072638713,0.6736533221375514,-0.05973574715237354,-1.0304762849745148,-1.4487687646447782,1.0178875153079998,0.5320546556146195,0.49954052332315013,-1.0191587065886434,0.26328190226510234,0.6443625173324815,0.40248566002302155,-0.8164249380811466,0.937955073716596,-1.4791492220482778,0.9802908899550153,1.0512788843426903,1.6307006581754113,-0.36645263774999776,-0.981559677316372,0.7334359674345403,-0.7006516534330494,0.07243102463850262,-0.3301752224257597,-0.8130600221730374,0.49031541877355134,-1.3889318925545513,0.6013657555545567
-0.9918224359029759,-1.7380831255709248,-0.007823537701456593,0.4789306975970976,0.7508709945167436,0.9645366595606438,-2.3445754406731742,-1.0473602433282254,-0.00989366668996906,1.467483813001362,0.6378771459473013,1.8041652662868706,-0.47925740291746943,0.36928466478898136,-1.1302744509454197,-0.47273725067300904,-0.8300003970373863,-0.7114052705269118,-0.46654320687459516,0.02543165709504449,-0.20089788151903032,0.3844848489289903,-0.04338303696111121,-0.4876277337414164,-0.5646542607255272,-0.3517424659388249,-0.42943623040352513,0.5175200286423517
0.8376430544970684,1.2547947060596112,-0.7849669014879433,0.5179463893440509,-1.3376561726433571,0.6412443274588341,1.2333263626469022,-0.25500558562093506,1.137784468896816,-1.145085482770118,-0.9914293918665021,-0.2627597801918327,1.0638775392957585,-0.29845661361807996,-0.4831080818571992,-0.9916777662416162,0.14578532428931817,1.291179695415441,0.732696541980879,0.762743665105313,-0.400330593996076,-0.6791515407871476,0.5444717566584277,-0.2442213170887007,-0.2278363865023346,0.8895060313833801,-0.17114700246111236,-0.8227934043436977
0.9743420598971871,0.2114546558301789,-1.0225105943850399,-1.0863222159624577,-0.28607386451388345,2.3236086931661655,-0.5330910196068839,-0.4637766191732399,1.523531107919069,-0.04906393218389795,-1.4295180758559887,-1.575137675386788,1.2737163306703825,0.6458303270955713,0.7225662517170207,-0.22719532609585713,-0.7777049884454567,-0.2832445211039171,0.06629931280649178,-0.8115870588693264,0.6270825216519834,-1.197052478013728,-0.29425155669046105,-0.11301005623686342,-0.6753096686904506,-2.2074504542762368,0.504059531437833,-0.7160831413357177
1.3596882094104636,-0.21765003523250054,-0.5097558652693838,0.1731072771025394,0.8686517148839191,-0.797799828087206,0.9854095141805979,1.495175483220595,1.124070378005274,1.6112270149606185,1.3751690646963208,1.6250624602900936,1.5896654555953666,0.182231180360077,-0.5284150137388227,-2.2764340405620964,-1.3590334987688693,-0.4926101699601229,-0.36540235541664634,-0.14355092739466263,-0.907995218775238,-1.555512521051936,-0.12621354888040368,-0.13257923384628345,-0.7967987930578537,-0.7309858621567823,-0.9089237421280426,-0.3430312587128831
-0.8112480456466442,1.2860587123333431,0.388754455830258,-0.8807891966236001,-0.5224936432745018,-1.261277521568266,1.0420737120306331,1.377564540741983,1.1307071403364644,-1.1405393941806643,0.18776907565570777,-0.29904614815821884,0.4943853071505364,-1.0477423010582625,-0.7298655184449155,-0.5011105429202718,0.09889200241317696,0.5910883305499842,-0.268121860030139,0.7616664751440714,0.7123682330618983,-0.33065594451832614,-1.299089912113751,-1.2202784923721106,0.47904800220558424,-0.577826482135221,-1.7228065230497058,0.558377020531057
0.21439189706150646,-1.3875343699235265,1.2039981151548007,0.9093009679775788,-0.11765317852378793,-1.3341977752323544,-1.4198771775475925,-0.33044141584193837,-1.7284664967701886,0.4039374967540223,-1.356873199898328,0.2420062584445951,-0.3978064413279667,0.6558622102819529,-1.0038665528547583,0.22876191654553887,-1.4326943774104706,0.683308784103013,-0.02673512113467213,0.611940278485034,-1.3851324983400293,0.4202988045792015,0.1712039898030236,0.21751397551786147,0.18230414260564984,-0.31592208737678734,1.2210516141627732,-0.23601929437676178
-0.7059724001012777,-1.7379916877367813e-05,-0.9047544742458412,-0.3872043755473842,-0.24817137232047462,-0.4217208217050445,0.17826353746556656,1.9202829914588952,0.5060259541207424,1.0294171018868814,-0.46076442087562386,-0.5545533941438798,-0.4375046719666287,0.8169576932283473,-2.1376623143007754,-0.9997558358831227,0.03167051257179277,-0.30580738210854463,2.0102549464155905,0.5272671035631286,-0.7097574930565503,-1.5837717291689242,-0.5248072469349185,-1.3492977384290514,0.41107251864729033,0.0956918993352733,0.2921241060463456,2.0750526356209575
-0.8815359911653976,-0.1376276757181654,-1.183917197932562,0.02361858353147474,1.6100466465190655,0.5174843923062902,-0.14172785349660671,0.20012654428134855,-1.2183307284319829,-0.43020000316957174,0.02884992195564499,0.08290548555640026,-1.565448060166387,0.2662950826320353,0.3841843019012228,-0.27102313349569934,-0.07923637885211064,-1.5529471796490855,-1.4938860369499736,0.17064941108019854,-0.6954891252757902,-0.02095567127248951,0.7192875193299955,-0.3858964738429827,-2.8121272874281207,-0.21489678288546382,-0.5101095004416789,-0.2651671292034033
0.9089861634145324,-1.5767356766823817,0.143254261430747,1.5454853340118757,-0.6135625467911939,0.5078100444347459,0.9343867079590037,0.19706446952672813,-0.7718439917042305,-0.7798303243831993,0.6793965812571355,0.5071207511955341,-0.8872353880983395,-1.2465868638667337,-1.2864440128564312,1.6550998548387246,-0.01842551275175014,2.3470580618211474,0.5452368312410935,0.39053868736205,0.180475685621541,0.9164820816121928,-1.0150365263272558,2.1500586621973725,-0.1079753960093762,-0.7102915044097552,0.31286786683389683,1.09630137308141
-1.0014789215870785,0.5797848302805477,-0.7790937052323356,-0.580916792131415,-0.4585547455851008,0.7987644721651322,-1.1305108991066322,0.1639300339072145,-0.43739960953002993,-0.9037175408774313,-1.2230963781719044,-1.2149559404653754,-1.6444329832491873,0.8530282161311655,-0.2688632014082597,0.09319447941049343,1.174477796571044,-1.1986698152719952,-0.9384436202408044,0.22823764561090906,-1.8402943140656494,-0.6897624623413328,-0.9779203847870822,0.22556332739070858,-0.4355611758367869,2.0056172070362055,0.9422742439552215,-0.847051635148595
-0.3969312915989116,-0.3579121004355571,3.306624661700835,-1.5220924638317561,0.20344322618700383,-2.0833362409574683,-0.01715743493038596,1.8907447407397193,-0.46703499571859064,1.0721797764322059,-0.3025630688658514,-0.6092752248859645,-0.3566489307818389,-0.6737262731504526,-0.6842539968864921,-1.3535269344275789,1.4667723546045444,-0.4648182361725091,0.18030692606747348,-0.9361751387667925,1.1239409377713692,-0.25104773256823393,-0.09091083052966188,-1.8277070568471605,0.4261759907267915,1.8151149999836131,-0.9019926217974067,-0.5103588708982303
-1.1420742633812768,0.11853302506895146,-0.0054179171365162085,0.6615869784021159,0.5481553839303471,-0.8171319782454151,0.19270386705899303,-0.347159036325626,-1.120879665470794,-0.19044886914968648,3.7999401626558136,2.2982776918822427,0.0013565106027037953,1.7115691564573847,-0.09938256407343574,-0.09878621127607375,-1.9832061927557885,-1.026639779224345,-0.8502585028918412,-0.008971549724777948,0.0411437683864944,-0.5623535578468855,-0.5881686105547134,-0.16528421287736017,-1.373642673859954,-0.5888107212739815,-0.4366578923477962,-1.266931843556654
