0.2660471181203725
-0.0379557050636477
-0.021587460246645367
0.06199663582308307
0.020636061957114506
0.009865137291260963
0.03914341255487449
-0.1953039711610273
-0.05116307428339635
0.08088011102126516
-0.038147459221511325
0.1068521064161556
-0.09771444798308161
-0.11788304136652533
0.16149417102573554
-0.0027071297842777018
-0.06946587644707573
-0.11849777112337959
-0.0009475346678208624
0.03920031703566614
0.12513600319156912
0.007773509271515993
0.037424987020327045
0.064921741722285
-0.09496344829122325
0.08305637233348052
0.15860056761341437
0.02052289985801525
0.02246639981102998
-0.006790036662439701
-0.06240198048332961
-0.11870985371797131
0.10377732060910566
0.10444379590585882
-0.04626893413550412
-0.10072732729738094
-0.18199415185276935
-0.04660010357217224
0.07563578585381106
0.20502432938531107
0.17613078031340673
0.06230739263506408
-0.19207063014949002
-0.05348709247770501
-0.18926360586866917
0.01907248684347992
0.11756190800880909
0.09177483365091593
-0.03266344337657216
-0.029403905026307905
0.018456551132936146
0.008034391811003152
-0.062210735759328034
0.006828129063288167
0.07251952581570423
0.140432929161841
-0.16848290858623263
0.07869157120854395
0.10297571456527548
0.01176785477679323
-0.10758760199767035
0.05230745008928489
-0.004534631136083096
0.006902570751714887
-0.10663436819272354
0.06376902684775698
0.030763210581117813
0.14048585429047666
-0.04142997063057249
-0.06813826046305438
0.007672282911733424
0.028382582126062258
0.001945690146972714
0.03082722097946974
-0.006565234181521723
0.0669339709732178
-0.09860225318157959
0.04167265400656937
0.05384581037443908
0.05065302077487604
-0.07428257385605186
-0.06044045493286335
0.01564073641630281
-0.16322543954366076
