1.3374148945087212
-0.3873079320333894
-0.19773514970370276
-1.0994238486679189
0.9814710879313941
-0.5133733662206678
0.9245621982586595
0.5654247203794396
0.9755670264316104
0.2269546774428315
0.8519835995986469
0.4877415802833044
-0.7402151828548106
-1.0149706935210328
-0.40508113456503614
-0.03228249372462587
-0.5129747306098841
-0.0701512299737195
1.4958153606379911
-0.35286013792452486
0.31162827670834525
0.8116985950932072
-1.252280805695001
-1.168751850896301
0.8852760882282377
1.037856412558239
0.977495009239333
-0.09475877272945804
-0.06236901660691272
0.17887655037613762
-0.010637088007530639
0.3525434917006751
0.3970931772531717
-0.45925760259644166
0.6369378277849266
1.9881648141137573
1.656869186018981
-0.5667647321936133
0.37208630617141414
0.035650718451560336
-1.4661764689940682
-0.4186672835698819
-0.21270066074955277
0.660788782842396
-0.351320550076004
1.5948461090669
-0.0007752718385692188
-0.9320292102282965
-0.8370353500062991
-0.45692999197452855
0.1862642312941083
1.615111840278297
0.538413988899066
-0.6948744575228418
-1.3593302755483707
-0.9086189805146799
3.443446418020354
-1.3993871097366177
-0.3689065813019642
-0.1734113673190013
-0.7253706498810923
-0.025302056894172732
0.12695886550215427
2.0313137668596415
1.247635510917778
-0.7989241618408146
-2.3494331224941645
-1.6525954865692616
-0.9419790360284362
-0.10483002814443101
-1.81365226755317
-1.3149412144446075
-0.11661947354503298
-2.595596822337409
-1.995081405076464
-1.1405475106490095
-0.37488699402175646
-0.4832855876964567
0.8612270531006367
0.5334904833058989
0.5668435877560029
1.5321318383236648
0.21977115589926796
0.625431244977835
