1.529784353923444
-0.3281407783045043
-0.3840541924239112
-0.8907118772511092
0.9314087329597531
-0.4826738549297925
0.9150623348507595
0.42077490214384794
0.8612892279400457
0.43047880276494943
1.1221500880570185
0.4752800807456167
-0.8079017557592487
-1.2928281380054008
-0.4182540214039605
-0.07943838423551755
-0.8559359632119787
-0.1187635520196043
1.4796489412883873
-0.2724683223808759
0.07283704478558536
0.6029091567994982
-1.0904374373412478
-1.0327140767698046
0.9409269791688555
0.8835675679069067
0.8693821860101367
-0.3217366862992707
-0.16154124531704867
0.3901074607351293
0.11753148334033497
0.30489036118710056
0.3854833275842865
-0.5097919545230865
0.8711313334741239
1.9623476569400364
1.6186190305471662
-0.474517196412048
0.41418758701210856
-0.15157279383395858
-1.2940675151948688
-0.25445080429557193
-0.17454036079097326
0.6144630345461797
-0.3386008889923421
1.5238674115422803
0.08460434083864249
-0.9332176389570603
-0.7202445323923449
-0.3698563145675619
0.17971654331443798
1.5169421521180761
0.4239555872403218
-0.8348465188822515
-1.4150985168953933
-0.984068683280825
3.3693634332825066
-1.1221079357739128
-0.34219193389562097
-0.4071456898918639
-0.9435450413389438
0.06657703594664155
-0.05786062146183624
1.9055932996159308
1.2593693520729488
-0.6733247656459712
-2.2630228391326113
-1.7924249182859266
-1.0503673777575715
-0.17300365689083325
-1.6622491616988944
-1.2984744195536524
-0.0689390765336926
-2.7647817611592016
-1.7736251692299534
-1.0175179515363169
-0.1953677150777613
-0.5311969507880134
0.7462875050170369
0.7224855671147329
0.5823903871739656
1.174769604311272
0.10055599440624417
0.4847447631858914
