0.0664153177168372
-0.0003223537244182312
0.010578504810884666
0.0027299941245589386
-0.00838809856198963
-0.013381027377304178
-0.0017699835717338722
0.02974764767527018
0.03351171668998352
0.02540997149682483
-0.008192150250155142
0.012279594863821148
-0.009143373741570617
0.0010596214923330935
0.04941296278792929
-0.022394234342261076
-0.005117135380365618
-0.02329226004638644
0.012734625952101957
0.005732766935264398
0.0067435887458797555
0.03267450028055159
0.0017772606898576447
0.03530352051748452
-0.03588200926199156
0.006787343682834254
0.0534584991149089
0.0405930842187614
0.014310563166864458
-0.01241948090471996
0.0007072103204246603
-0.009327123659960064
0.046841468923219796
0.0026192275295544316
-0.0027503752682648576
-0.01953736991680743
0.012906857251126136
0.006191839058286808
0.013470576779286958
0.04581502877736332
0.009824687927919785
0.02632720404367051
-0.012868698597092599
0.02667187610341531
-0.029218737692403875
0.012584062453563681
0.0346123744739684
0.010858870218785212
-0.01635101446048847
0.012683794371985163
0.03591518757543458
0.021600653800368675
0.008502675505425437
-0.004873889197979232
0.01899692638909274
0.03183583697746752
-0.014121759235275009
0.025715703876029974
0.02413620005757804
0.0015899131149794148
0.02655695833632302
0.08985621866841692
-0.004335874926604461
0.044519058235442485
0.03957997067946375
0.029407528896050295
0.029986283572906842
0.05576358971326249
0.012386374989669607
-0.04132718988532245
0.010307105662154174
-0.006764895340155792
0.024789279866350166
0.028482806120267937
0.0012326720658841132
0.05784655895140691
0.010859566011808406
-0.030623710845496508
-0.013425905779067113
0.06379322379975245
0.001187553331658883
-0.001077821630545213
-0.013220286071665243
-0.0262089435446167
