-0.7876188991009856,0.7180272950856862,-1.0895986331895302,-0.17121441580559288,0.5423405069004805,-0.19100569048076346,-0.865457590632613,0.6710293623185807,0.07095895039436355,-0.7413820859199802,-1.0653956197405763,0.46019091910454013,-0.09188787146740322,0.4893001740289394,1.6861191578931398,-1.5191760550001447,3.5972046939250775,-0.617920018644705,-1.4192897779701232,0.24793811811765337,-1.1949074201200223,0.4122007687795263,-0.47986902643500323,0.08023208161244363,-0.5783617635506851,-0.6813030430485296,0.8108934759101598,-0.9053694412705742,2.704297137663191,1.3045015002909355,0.0023638799404190787,0.6730976893126009,0.5064108073441846,-1.6847704283514884,-0.9158270364384417,0.5961047867477969,-0.6682503187814784,-0.1090307517524714,1.023684355994094,1.4336349728553914,0.3970187446239102,1.2965700772918876,0.4883136730797697,0.7396526039744311,0.5240036331106684,0.5027949677546055,-0.21047707996432452,-0.8193240191937414,1.1814651822652757,1.5588815345316591,-0.5781882444769417,-0.5075980819672501,0.13912037903869082,0.25936378877443433,0.34226812027150544,-0.33303408044216576,1.092232362661975,-0.44731810005598877,-0.31197792891431003,-0.10525480957789624,-1.1305407090766029,-1.3665355652701225,-1.045364395393531,-0.8866348300887896,-1.1387410177246189,-1.3624333754510336,1.1123979538484723,0.8695596434851677,1.2809766757933618,0.6194982516052486,0.6137677770286722,0.243055234845561,0.10995930106278068,0.1455828552701936,-0.2085749642231198,0.4662049186039151,0.24492419088268086,-0.7375321635260395,0.025121891194577372,0.5820756850092772,-1.6617214496861845,0.44925410683072964,1.8621333638864959,0.3251696921862652,-1.7088703082648562,1.1190286754559768,-0.9979611345704281,0.20574849681828378,-2.08487202070968,0.6867147103222241,-2.2887902482284925,0.1738490668415222,0.3440093729305486,1.2988367693997611,0.09371720629992478,0.4374721923962028,-1.2444128248176545,-1.3786354084172605,0.3717240745292541,0.457785691415823,-0.3427368137192049,0.762440099409288,0.3192599353923945,-0.35793884707610363,0.06234480630807667,0.18440120377243546,-0.7696569953536643,1.614714183591483,0.11942770363706985,-0.26868391652816187,0.9354627198822187,0.6476760784124288,-1.4459774351832457,0.7384057888693584,1.1388325976135156,2.6878015920392855,-0.9527078985128283,-0.3341543751237639,0.6062595475162356,-0.3488201147257574
-1.095299198119985,1.2070786551690098,-0.36392483138830667,-0.25839791720576893,-1.498829557781426,0.2887365117556475,-0.7886887854373588,1.5577200245519722,0.09606309655071506,-0.7843656000391426,0.5784890993078363,0.859745492170428,-0.2305111901555931,0.8292288763222766,-0.5160220700311278,-0.6766246596998164,0.1739096310301361,-0.9793475467955158,-1.5705586622857115,2.401314420957816,-0.5099782869554366,0.23901863317801855,-1.3190732735673711,0.4996551468838681,-2.130112142529812,-0.08968644161590292,1.270673846585791,-0.5920756290974153,2.8542771582867803,-0.8981232859884353,-1.157495823059349,0.4259927639244877,1.6890708390018119,0.7126616153835603,0.11007489798169297,0.41726492405083426,0.5255763371532872,0.8821384545482183,-1.442496344689955,-0.24312859162064793,0.7917248160677427,-0.12017737786886898,2.490823078056074,0.7621778906438087,-0.22725342369912777,-0.0703145859265002,0.801214914438916,-0.7495621907900805,-0.19086003655841913,1.4622739649581442,-2.208647144611057,0.5401208339422254,0.8011858800797154,-0.02221466012912133,0.964920049309683,-0.8959581165793312,0.038341849252611686,2.2464137646435036,-0.12838575797878246,0.17019369059625167,-0.714469940462178,0.21616480740872526,-1.7659047770844445,0.5825465751798371,-0.8722938779849548,0.5872841946392953,-0.14415938900593644,0.6015955358540961,-1.6099334153605689,-1.0958324143864473,1.3802877866417647,0.09169920306365173,-1.069749740524673,1.0584567136156746,0.8793814628241547,0.3941400935705008,0.3958182792035055,-0.39310123965613814,0.19186267128469603,0.7170329150941971,0.8563755455385842,-1.3636393113535235,-2.4657432812187703,-0.30913185812298766,0.28344667445465904,-1.2416158119954441,-0.19404873756760893,-0.14165154140789632,0.9978372148312692,-0.22606547547367645,-0.14517149194417134,-1.0432318980077464,0.09079889482658217,1.2287858542556247,-0.8476839918976878,1.0834084552565246,0.1308967278327455,-0.7168190870129069,-0.7302667023014485,1.2879898866415564,0.4986048715357501,0.5782437854799961,1.3377477736529633,0.04730901641761336,1.0216817802996045,-0.5312073721110552,-1.3488607465369011,0.23587625363415393,2.091525363953841,-0.8193976653834595,-1.0188580913080065,-0.5349657613611578,0.4672280222636388,-0.30706341669875165,-0.3767889387993165,-0.3731800732779107,-1.7578779765990182,0.11926260570822848,-0.023876782070913587,-1.449868198665133
-0.44618692114979597,0.35301441139271406,-1.4008818458696894,1.05769309821863,-0.14491924743571968,0.5724262727884137,2.3262052703138343,0.24839131734652786,0.01441313136467403,-0.9731679942035019,0.6567842058481517,-2.1492913103974716,-0.732677976991852,-0.580344330332254,-0.7057667443055662,2.0583034443672643,-2.1776848134755706,1.407596093688039,1.3952294479024276,-0.5334930043256592,0.4956417126335871,-1.397667610070949,0.5457149815886981,0.5214834141278337,0.7945818135762822,-0.9500419438048784,0.75873575221897,1.451329016900768,-1.6457193603253908,0.6747506442592818,0.28551949719775765,1.0974123402538025,0.4340326896323418,1.3276180297838254,-1.1072460962489155,-0.5973505317278627,0.3148415245110766,-1.0632083709099323,-1.2369739001825415,0.09481109292163316,-0.37821903350431274,-1.5808497365349112,1.1442494507084644,-1.0190789441488293,-0.0012242903808058047,1.0795593709642912,0.42914170943159513,0.9785773619660915,-0.9728793771563335,-0.8233053480655498,-0.11279648027165673,0.3812102291846252,0.6447589689667106,-0.2649802236860395,-3.09227888077361,1.0002951959146997,0.7603151380304088,-0.2656715750140103,0.3581995838295558,-0.8025585404551905,0.3996673822792905,-1.6452745921567116,-0.5964784345719866,-0.8018858407176497,-0.07182929676489658,-1.4922382624736195,1.600498904866278,-0.804401728646973,-0.38601074319847195,-0.13716757489788514,-0.08559433073529589,0.7753058498405215,-0.7471118285443308,-0.8357226698218183,1.137097657947725,0.9031450581235156,2.608520108715032,0.02422322598138297,0.3489841932280431,-0.17544948313255024,-0.9725558336248978,-0.5164038472686802,0.6483389657462667,2.306975902750894,1.027595477665254,-0.4183832518532748,0.7071475645960842,0.3699897591508728,-1.373519744897889,0.8176182231317782,-2.033767948030167,1.1058303872728286,-0.6083091152960979,1.2254732976017761,0.1387462545776885,0.612061892927751,1.2311548072252607,-0.13554483183582405,2.0605708324209577,-1.4645053474599332,-2.0734949708362334,1.2337614823969227,0.8531548257738186,0.13314530524975665,0.004091933988821615,-0.3595124567321976,-1.656798244480107,-0.5761266691350296,-0.48792393357108954,-1.3552998414477393,-0.18287679262787243,1.0347795854244903,-1.0609895947467847,0.2593864515866864,0.5466739152661793,0.5732407140653387,-0.7109712284502221,0.8109328664129031,-1.13644546314322,0.4221507005078551
0.5359566356346543,1.570602063310387,0.1072739517336121,-0.7233605657508236,-0.8363757935611775,-0.75015288815644,0.5508588471714592,-0.20870164135766614,-1.8655704990634863,-0.45303203589077295,0.2956414677917629,0.4985339209420678,-1.1270566578748673,0.1438959816622816,0.2628936488654917,0.659673447872146,-0.27827661600396153,-0.42866023369062634,-0.8343718624127587,0.663175875244314,-0.08888281003782507,-0.3619488862615764,0.47668881113120337,-0.3750593899961077,-1.1071361355141316,-0.44094857013335054,-0.2935938472863355,-0.27616805665389577,1.1002997496731441,0.5406517310847369,0.22036217318857723,0.14294678276745154,-0.6437740726332946,0.35473827611923936,-0.8249597971957364,0.14935326640357943,-1.4068953498471484,-0.8305322045537727,0.701321363377807,-0.2251209634445174,-0.18843408947553414,-1.3873510133507176,1.432044436103567,-0.4823042238580826,0.3289063715244581,-0.10644488088316084,1.3044393315715959,-0.9860144791134539,0.6248499280132822,0.8680272296595624,1.5185773481133353,-0.6291158121293728,2.9997677612201854,0.2641583312853076,0.36981438398730887,-0.5671565170161829,1.3728362924031003,1.6150270078532745,1.1508421766337127,0.21393551720213796,-0.432413383053391,1.379356805894446,0.2509224463660325,-1.4021634345972618,-0.4228401347770854,-0.7089420257270845,-0.7928711881687026,-0.12576095134019294,0.28821579051583274,-0.41069457268731135,-0.9408982902288627,-1.1711026517049699,0.8501344679407334,0.3355328943811857,-0.058159100087152485,-1.1793426063929344,0.5259199134542861,-3.1919098454306347,-0.25774978695895,-0.7976844868892033,-0.27680934220738024,-0.6721368121702874,-0.6413710778558829,0.6290338553667992,1.3760582234173153,-1.0664173487287254,-1.184775938312927,1.2948882291848205,-0.08099415142789136,-0.4121630081418344,-0.6116145518335592,0.3486524967028116,-1.7089952798707406,-1.62820133607672,0.6449698099772794,1.0729358715459598,-1.447310731213051,1.7926786611033874,-0.9630104457156579,-0.11632680399744427,1.1050749402113311,-0.36014388279331516,0.7684040491739739,-0.49941114010495036,-0.134055023988956,0.6135402735709243,-1.0024028818089665,-0.6985954886333221,-0.2103892474169516,-1.0751763357348678,0.03304825786443744,-0.11546003899356945,0.3958513303026461,-0.4392188224357942,1.0217733655042305,2.639927929704862,0.013008807791417326,-1.0958388112306192,-1.6269518929192857,-0.5209930883098308
-0.3016530243682956,0.24254470225743713,1.2710934704860029,-0.15980701641186906,0.3458658117997647,-0.2835756859945881,2.081549253970811,-0.09958896900704005,-0.6893571864015179,-0.21146418617665577,-1.0083845148170865,0.40007632317336445,0.5897659558424929,0.8292336282288617,-1.7604314579476694,-0.5175586102128155,-2.327999486988956,0.028523125379120468,-0.29725084833182736,-0.6840409926960954,-0.5824974445830126,-0.29055576533599103,-1.4123104741094339,0.37794836730290815,0.5206190183542346,-0.6550007743555383,0.6562133406163544,-0.12737027518746583,-0.2752535885936574,-0.1020443398576549,-1.6427494934537676,0.14469459512684948,-1.0928032610107459,1.2710550104623408,1.3915555334080252,1.23054837623288,-0.3952505596294535,0.06340636549350397,0.03719659536145401,0.7140398984701757,1.1371572659511335,0.9067832015154094,0.35728888341344156,0.7114504626511143,0.9919968050146285,-1.116719594731296,1.6197298622599692,0.060429114370208196,-0.3068742431836767,-1.6602752310705386,-0.20888314050115128,0.19170121535789833,0.07603690349603381,1.9006064696290874,-0.16130747865462744,-0.16307891134220903,0.0734337185423255,0.7156568354258125,-1.012864005798282,1.294135792799612,0.7579581604049606,-1.4366963639268253,0.26767404331075,0.9421583892620266,-0.6803099348919696,1.1523326821148838,-1.5839611040277901,0.3306911938535924,0.5736937257762175,0.5468847049813139,0.06890448780058611,0.5847557950970852,1.928554254295922,-0.07601650653891043,1.1537172655051442,-0.18495451958572764,0.8989702316233578,-2.0350360541438435,-1.075793527735857,-1.0239240340056885,-0.26635778286191764,-0.46610208405901804,0.7099480084628913,-1.2343599987004121,0.33443647147158345,-1.2629729561810898,0.3361647205612882,-0.03898831746758882,-0.7454893990150839,1.0310176618011846,1.8749709861324815,0.8775812212256939,-0.40496870059088175,0.5470193392240669,-0.7595626822223368,-0.6402627903772501,-1.7875150149446053,0.6990429766210805,-0.8045085319051472,-0.19794700626890854,-2.725543650096712,0.08118296919582184,0.5940749487553407,0.2810830212157964,-0.3162243644252596,0.4750176356001838,0.00918341874608909,0.30597923463056054,-0.6067855503910707,0.5412772214973736,-0.06622643780681303,1.5998885560478127,0.33879634939853726,0.06859507269710471,-0.6213405738097925,-0.025414427126689107,-0.7175780525310161,0.8480265039009061,0.38844809783853534,1.226692467169447
0.24784425700805368,-1.8824012839065634,0.6459195075728729,-0.21800331521204727,-1.3626979047071384,-0.422079627987156,-0.0008350979142129394,-1.6962439272439203,-1.4995431805120338,0.13473698336751688,-0.8550503532561142,-0.4857763619116134,1.1177244406090654,-0.5025835320260474,-2.526810092603757,-0.060323391341212236,0.8369303277594531,-0.9230146421175008,-0.6102352211981538,0.7512357669114954,-0.5651416981381931,0.4153443711543314,-1.1310472754275767,-0.14663740358856486,-0.20001375072153246,-0.16400081731350408,-0.4427379566049082,-1.6526990516131466,-0.8773932154925699,0.1415538518713878,0.45508413131697933,0.397504901219624,-1.315672944037551,1.3316301124709198,-0.40254643465979933,0.16702739261055674,0.007541310871710714,-0.8777159556053894,1.5785334937652429,0.08683618475781772,0.382163306666765,0.3985251069686576,-0.21343158816531504,1.0507766081461667,-0.2911456160459815,1.402375780650696,-1.2211668208219,0.42138517967290323,1.8282880381400533,1.147704062181651,-0.1993410914340035,0.601038957935781,-0.4042012857896372,-1.1658145446679953,-0.950238816026569,0.5840762072481077,-0.6623181066370314,1.144368866139593,0.04316433944405262,-0.126351304989827,1.9267085948731022,-0.6845371282384834,-0.8089225915561331,1.4299853644664624,1.0833101611814195,-0.5716467059281213,0.3519297626992736,0.6364502850281709,-0.06318680129553146,0.5535435693107384,2.280214947334732,1.686432628808994,0.45293641899544734,0.11139797699394456,-0.5241874396776957,2.031225115506268,0.3315259599219493,0.09235338554661782,-0.858366683276038,0.2794794063376898,0.11651374960092302,-1.4072154665406045,0.17599770543586418,-0.5468918949762656,-1.2505873966930092,0.30892025810491913,0.14214668781694215,1.944049438351483,-0.632670692779187,-0.6978931647976291,1.2445415048514143,0.04059712504469559,-1.486161460042483,0.5141663668115153,-1.1981333537016405,0.045152864455307404,0.49647558301905614,-0.8919087747320945,0.3317815420195661,-0.21570183393602632,0.6280821875578207,-0.6510591413274099,1.3772596790909786,0.8914631920724122,0.407799743414588,0.15987800654165957,0.3544959962859626,-0.43655271253686007,-0.008151391687922933,0.03340747124720348,0.7945404072509312,-2.50528614588749,-0.40241140033019496,0.829324699792818,-0.2428567743140708,1.5322816165900548,-0.5305960747174936,0.15819411093402083,0.9857176592320508,-3.486864676190283
-0.5168638575658783,0.5544289238261011,1.0089556147710632,0.34707417716980105,-1.0356736856589301,-1.3262636763169489,0.19472411947482168,-0.256232924305286,0.8375076968652782,1.13304751037355,1.2000692372983146,1.5764678934435146,-1.3857948804303413,-1.2284275274091243,-1.3117940827282248,0.21804496921164146,0.7831986874064816,-1.6446279399718944,0.5174942187286176,-1.3259893449255293,-0.1998074514582468,-0.10549816836845613,0.11899210213124137,-0.4435971102952843,0.958475059341158,2.0733227679732447,0.8295629852503837,-0.819344432087121,-0.4012652106831304,-0.6245899413115584,0.5119816950722329,-0.4086953143593279,-0.33220081535181306,-0.6617525270205762,-0.3623919956649117,0.23045145347443166,0.1535635453438235,-0.6740650351701446,0.3984555811546396,0.3785371600384434,-0.019200748435966367,-0.6892544613726752,0.30750879023706706,-0.7565356161253218,0.717050599548459,-0.3569100124245594,0.6349636523581351,-0.15117318028332496,-0.6224699880615053,1.740431696782924,1.1912324608307336,-1.80986766210389,-0.5097178595090156,-0.18001853511190066,-0.4390998284256979,-1.0099942472823742,-0.2221793507101338,0.869242507369137,0.509551912395645,-0.207356430983663,-1.3709706577854979,0.6047628454800276,-0.07696087455083507,1.539956356547521,-1.4096706955590683,-0.43438184248262257,-0.17692647338316536,-0.6448051096431563,0.9585886627253806,-0.11467541660732597,-0.2332062550533382,0.903314625083324,-1.211756086334226,0.9381013876697188,1.0472731467057006,-0.656043943168182,-0.6159699357085132,1.114128953255098,-0.9997820909907267,-0.7512497945135926,0.7017228073570838,0.4500734210395591,0.1315927770998616,-1.6619627209862657,-0.5810327469928398,1.1540898415168803,0.5948556267324411,0.04752050395956249,-0.8749232595174714,-0.13376044693242284,0.42293793738463287,0.5199592047832303,0.5427445004270915,-0.9190176975615254,-0.18550221670008016,-0.5652950718598422,0.8436396678315125,0.4113421057700378,0.023124090946690604,-0.32394163028023154,0.9318309475689002,-0.7205532343014583,0.5663128004454002,-0.7330901940049571,0.6214866065468042,-1.106864047484284,0.5828218488346639,0.21136532272312045,-0.9672186124148956,0.19198083874239422,-0.14075277311039255,-0.4713835866703595,-0.5843535308084677,-1.2856948552749567,1.5846218453793381,-0.014576630241023476,-0.9218899932654276,-0.21336926343812496,1.2103762060907215,-1.1952344448669945
-0.07673012558899461,-0.6068906382403005,0.5988692259349555,0.011327403448408577,0.8119384988342064,0.7965032898164993,0.16688630028532495,0.888224815094851,-0.7300232684021357,-0.8503445180824931,-0.750079493481902,1.0022685557728652,-0.5980051933304933,0.7722425349419658,0.04712859026727556,-0.8308009720865162,-0.12460712620467931,1.883117022717745,0.4290541716519927,-0.11133605136887362,1.0417981158345087,-0.6668184685776666,0.9070978610834078,0.5234219130743146,0.30465504113274916,0.7862047574943198,0.5232109588342546,-0.339090852862883,-0.37056275881860246,-1.2982047001090633,-0.015990474306712608,0.34332107030583264,-0.2815581636584857,0.27524193277461556,1.4806453490385132,1.530769023081105,0.34336066875174387,-0.6505457692901857,1.5502298812771562,1.4519975680823387,0.7758688753394938,0.11174260596512703,0.1650623723613134,2.6323308901359064,1.1880486770375225,0.3821170176573694,-0.16743005884592269,-0.0093770903693312,-0.22427099371724177,-0.315643692219304,2.3128757186869895,-0.2682380675374376,-1.3296123158763415,-0.29325645538803996,-0.873480038928424,0.500611483203868,0.8089815852764397,0.3382545105125726,-0.7362670664168907,-0.0834295247600492,0.7777549720710092,1.081706261210267,-0.7144724968024198,-0.49276288794257517,-0.15898445975028438,0.5144501205770197,0.964116670407158,-0.27081659607693204,1.1939784983253534,-0.9536514178852243,-1.728279526904906,1.9362845410499978,0.13379601944776134,1.433499895750446,-1.4294036727867345,1.2392142490817337,1.4912391987589644,-0.13022065591900533,-1.1625141976692093,0.04909069505226986,-0.1488380849643819,0.17097324822189447,-1.2054020843125777,-0.8643933834447153,1.0797616286963643,-0.5889735755972395,-2.2004891071536963,-0.8185098783887585,0.7090279179289835,0.23238149002298047,-0.1856611738224289,0.1484486656384439,-1.0095095591365555,-0.346551345324393,0.39665267979027863,-0.6604355474542802,-0.2547808980612601,-1.0587271805683849,-0.6446172770956909,0.9767550526725982,0.8529982978817214,-0.38815725496947984,-0.24724404946370782,-1.5120848735432681,0.24751454367700854,1.3021492822517486,0.4140991691619423,0.7665578723397373,-0.7234534669337984,-0.4854513996381455,-1.153056096085288,-2.192865858989701,-1.583201848939316,0.001463412699359668,-0.2739420901715505,-0.5317504723543829,-1.1652526751923236,-0.9202308555368547,0.7320272948634936,1.1628569582026385
0.4435687612147858,-0.3951687417738604,0.5649490705567244,0.5440377008382377,0.11795867635832448,1.100544301661778,0.18567578252195122,-0.8471620581352003,-1.256060976640847,-1.4712754698247492,1.1063013144074547,1.1421709529540829,0.6934591606794855,-0.3968779069119795,-1.1709852650357253,1.6068741197769862,-0.4059641329960981,-0.08568777118883895,-1.9076483995098727,1.4198027672651186,-0.059823239727729446,-0.8339786863883666,-0.7296195353074816,0.8866949889778291,2.031824851199981,0.8998051202109811,-0.5225283153251685,1.3274020258254497,0.7118381720787278,0.7594098586151411,0.6643662795005095,-0.4446332865627237,-0.466949186077546,-1.48259310797307,-0.18468152505644272,-1.3758694752382874,0.9327628043572903,-0.3789300817015931,1.0961617756931223,1.0623586699134613,0.36255166786893,-0.8722033650137854,2.0408965716990184,-0.5546411254196167,0.3775570432153638,-0.08159948508795069,0.2073273006422548,0.27364624480928024,0.06779452124131909,0.9393996599814336,-0.1256296141885282,-1.075660269230369,-0.4473053496479553,-0.10464031268484467,1.0730547935787285,0.38464404388225654,0.7359518736493647,-1.6936745951706669,0.4426462306321464,-1.1117673149964633,-0.15293782274567563,-1.3197164919258848,0.9117610179683101,-1.0153752647383318,-0.057692190969569096,-1.5157156442915733,1.4272398981188887,0.49346567480160186,-0.3316986719067173,1.0208706907224885,1.3596101320400502,-0.8825986147753005,-0.05441533241137665,2.504606392479734,-1.7562670538021683,-0.5417827023117882,0.8503064255526849,-0.020740394959462775,-0.08541491951897937,-0.23292160878634316,1.051550479132753,-0.49119380382968636,1.0767656957752982,-0.9703460357972911,0.4925129214110713,-1.0961051091394494,0.0774679548974861,0.25150166057120427,0.3792463117714028,0.6332627805691289,2.2521778530450987,-0.7022184900624754,-1.3414321414642354,-0.7846010360930448,-0.5136095274449252,1.2461732481602787,0.006865546315191174,-0.592094489899552,1.865782498877962,0.19406565695490427,-1.5630309975268677,0.9357346417105447,-1.5418219574160557,-0.22035017330576892,1.2928203617375815,1.092351088862219,1.3066825992135165,0.05413877637284419,-0.4156808253633347,0.7587289569671694,1.3822944518458449,2.1205698032666427,0.6771870182146615,0.22518074935077273,1.0282160323820742,1.2593749873950861,-1.838924085052876,2.0044719050606243,1.7648634191516928,0.1923791323825353
-0.30786897538636365,2.687916638241833,-0.036742597544998964,-0.017494618741128204,1.2362804563318033,0.9090947133133607,1.2170869377844191,-0.12298549907175578,-1.5425890348820812,-0.1713496213946132,0.09580808663176582,-0.7482061499600717,-0.9127819560061392,0.30518737242874855,-1.1781888873379054,0.3989495844564034,1.649652533054843,-0.6597575355843003,-1.0875716911139535,1.8725183130149157,2.1944586437673252,-0.31329308684116675,0.16695861860972358,0.47331946069061154,0.5159741642156805,-0.4597467178895648,1.4674384123069815,-0.06441473701477021,0.11120978607798172,0.08617098653529992,-0.2889243085697351,0.0639219322628318,-0.6035544271940525,0.6215381869432604,0.060137486999109695,0.44463653225515054,-0.13878457936849267,-1.9142659135956683,0.36011612396463255,-0.27815721928253084,0.42221475693468513,1.6423881878520152,-0.5332710273469276,-1.108477413651309,-1.096174339385235,0.5856425233741197,2.6775970927367463,-0.7706214907606336,-0.4413385183331716,-0.5908183550615831,-0.7246345628813152,2.048675219971772,-0.42485725254162415,-0.41366242077605436,0.3954012665393855,-0.0629651704043973,0.13153540698874158,-0.18675240954679923,-0.5308840267972273,0.6346999501898112,0.21002515922407372,1.6623981035856705,-0.007842991815973635,0.9196299619407831,0.7187518053866779,-0.8565697493918373,-0.17500189473915287,-1.311881550276728,-0.9206160406174566,-0.5584904290280501,1.7067009668977466,0.9241196364279295,1.2732841332544498,0.9575957199365605,1.2417775646567268,-0.32925041683605655,-0.16534453761660747,-0.5857193726274105,-1.1571247163659157,0.3204340344342167,1.5142089475936404,0.021302526820268505,-1.1648658516064787,0.1683632564538575,0.27597470002888835,0.4777508002585412,-0.9051422669592516,0.23439074323263034,0.7073293372061811,0.04452438917935884,-0.8637388309167321,0.4596379825164652,-0.36008844656287375,-0.4667210162172193,0.7709115720689573,0.30131364291281715,0.6955333416903206,1.4226559398393654,0.21312078698010586,1.0427207798978397,0.6364341490859128,1.2506224168084863,-1.1079698475731712,-0.9015208361313056,-1.3915872881281355,0.9743763163636974,0.016211466086818505,-1.8658653281988087,-0.7743811116447094,1.0430000385973761,0.348792930429557,-2.594963354369118,1.6345904693081752,0.01487838217501329,1.131512356542375,-1.2348800248579357,0.7254979969815747,0.8516204908277178,-1.057666408603263,-0.6762802378066173
-0.35119356279496483,1.2287424103048346,0.9622606691821112,0.8271694280560574,-0.12065690299173944,-0.21500386485815598,2.427924564591418,-0.627887003988161,-0.11391387080894717,0.3174260342384087,0.1509633971661384,-0.8866490539303173,-1.4306082741481254,0.9264053640474611,-1.0029283323719567,1.4378763978894642,-0.5441367632173825,-0.37868502472029575,-1.8038612032605705,1.914703792722912,0.0785505939163445,1.6722543448866645,-0.7935569980334634,-1.0619277719102227,-1.5377450186121098,-1.0232080008258444,2.7652177768653017,0.47458940844069447,1.7998605819109348,-1.1123669285939177,0.36133305805786753,0.9987474819099865,0.301733069276342,-0.6074629414300013,1.9163306113822154,-1.4817112316450716,-0.9115465626052685,-1.0714030028154005,1.1667169537670428,-0.49150942291329747,-0.023072418367341137,-0.6956298252048525,0.3135409072802715,-1.1857148800155435,1.0477469676910618,-0.9968250615132056,-0.8026969604014926,0.3711619706289256,-1.454333899255833,2.2070982130497727,-0.6443641436358611,1.1541382001227203,0.6297162351656653,0.3211403470181731,0.3367149536389228,-0.6344089002749084,-1.4511823326518494,0.5827774244101291,0.17574012615494297,-0.9920441346194139,1.0778946940879124,-0.19329333134916304,-1.172721391276337,0.051303277095825564,1.01512761388154,0.9264976003462453,0.5063546695106051,-0.2028476497527369,-0.45670387932151074,0.10891634427121231,0.3427489785426183,1.2970138320639535,0.5795606047203847,1.9251313934443692,0.6436348743083441,-0.10470140368908591,-0.18375027487392556,1.0236098657429817,-0.5296677837884315,1.0877696204025504,0.4362608433821868,-2.3170028100140483,-0.9696007653449541,0.0003345798364204337,0.9856620233791741,0.22186728068659609,-1.114616974268432,-1.0981157468172906,-0.2752469480471276,-0.4066836877277586,0.1150736628624083,0.06782947520556919,-0.5910064798205488,-0.421549157720974,-0.6499511895879353,0.29488677833397353,-0.025555021804271723,-1.6367353811607128,-1.5237177607195882,0.2068412256995448,1.7128819494235488,-2.1159957303726555,-0.26604398131222484,0.5885359184691121,1.08824927544306,-0.27663682535018796,-0.4593725718190424,-0.7870598128697284,-1.5944420142948614,0.2254351959522842,-2.2121998725726866,-0.13680106809166845,-0.7598113903128833,-1.2030005521812466,0.22159213422595755,0.6469942512540312,-1.664229321293975,1.7040605648583027,1.461898092347474,-0.37453580122303837
-1.1340667507688316,1.3091503492353087,-0.732967713061132,-0.4995770145482821,0.9276256449138676,-1.205597688245323,1.1713767103935695,-0.6419783213120734,0.32311774222908884,1.012817556735294,-0.9819463314849277,-0.822656455893068,0.376554487044518,0.4058651755301947,-0.7388346387764378,-0.5815488059342198,1.266923416947956,0.19150879582975996,1.0702169467577738,-2.3941498901171863,0.20707978292245519,0.5089894540642149,-0.5182635838518975,0.30014560208787866,-0.6610629978392327,1.0520665556260076,-2.2281701384258255,-1.4374365048907023,-1.7287290958821233,-2.1507379891831166,-1.1058881365498663,0.5205137271681644,0.9702379332386833,-1.4001305600782292,0.7116505315652459,-0.36255878564007527,-0.829809111595583,-0.027039624857121598,-0.7008469643398854,-0.02126794444823975,-1.4453089657953835,1.0313090326745042,2.201763195186052,2.1378938648641106,-0.23029898606035626,-0.7627692890547066,0.0687763318340382,-0.11715568042176427,1.351188313160019,-0.4674891704340065,0.6343239449698359,0.7701918026105355,-0.3006380600713145,-1.5124180415193,1.1519357504396566,-0.29039986036510596,-1.7678707956196533,-0.7700413371642775,-0.6660303818234434,-1.3866476246282955,-0.6633506414458316,-0.26586336319706805,-0.10619704910147747,1.345300366013728,-0.9409473718177042,-0.47241459393380714,-0.12383020308743126,0.47416420316917074,-0.16989754809667107,0.04646332736894168,0.7266554909385519,0.5233661950226771,0.1936088853433857,-0.3294314578099923,-2.1329878868421632,1.0128975299347154,-2.19696908297063,0.8951232604006594,-1.205484691943698,-1.0393984955096585,0.6893498482988409,-1.241299296317477,0.627721220414037,-0.13649845928009946,0.521355003347882,-1.8306493721066772,-0.5558824636533143,-1.408096623896931,-0.46710200413444114,-0.215768334327005,-0.04646485490666419,1.5805260189004222,-1.108703354033304,-0.19416325609133966,0.45727817904555806,0.7713520828842608,-0.5886545841433249,-0.5617890959955966,-0.32431572582173884,-0.7652929584135716,1.8237303488207293,1.0303531323715411,-0.7527577881103586,-0.8388480007671151,-0.6319359983112547,0.7247155020312377,-0.5803658016062772,-1.667772975784221,0.09707722222427502,-2.4640727420915667,-0.5318130262378504,0.6334626250894954,0.31571870210982406,0.08939078115511506,-0.5062165984922925,-0.28642504942693897,-0.6036518078772187,1.793498544407052,-1.1923401971663676,-1.772907845498445
-0.6988170446171554,0.008499893292699201,-0.9316597712431097,-3.2846181235128284,0.7312949611829921,-2.209557745863432,-0.042971515578524785,-0.9606334962800063,1.93193973701382,0.0024725078149719307,2.0277193836896688,1.6058249164213039,-0.532034216354872,-1.4308586719340786,-0.5852155366704246,-0.19488551999509834,-0.14718895026139628,-0.5609798472408772,0.09495545372580161,-1.689741292683752,0.6296260626819699,0.1751665453212385,0.7715449593808875,-0.636391534833902,0.28880202348893913,-2.119385495068456,-1.0055159184401914,-1.1561741173100484,-0.7476283004015432,-0.5988550400022122,1.878622660490775,0.34710249634312884,-0.4478338931189018,-0.6385206260743422,0.6946276362907045,-0.24389613928824153,-0.8504733932817737,1.2227555047999996,-0.9333651275557219,-2.788077878528838,-1.725372292636805,-1.0764968024675077,-1.3232156948004583,-1.1379856978493808,-0.32464901668190815,0.3729783594884615,0.9567460423736333,1.178908778792036,0.7207549731710382,-1.3445143102015469,-1.1466982352467918,-0.32150399168987304,1.2803114911460693,0.25652952985101984,-0.12624937979083567,0.1804604520700239,0.7170754106592818,-1.314271392386161,-1.512894509707701,0.7092813209560357,1.0125439296168253,0.00016866309858016272,-1.221581697980867,1.2944555514689642,0.03749189201104439,0.9275389456802092,-0.35700081923076005,1.8471064462158064,-0.5771665253826299,0.21923414813636924,0.8513161434252926,0.4938787010366045,-0.12411983988180332,-0.1684504504508214,1.3548398308537952,1.3181480418788374,0.1501288044542989,-0.6253694242449703,-0.9583479928894826,0.38006040252612916,-0.6758609285000122,1.7180712961828009,1.3488067710872558,1.4995878266813403,1.0518501188973666,-0.48870588346378685,0.8390603867986157,0.036607944040127675,1.031081048308356,-2.5094128158126034,-1.69971195468921,-0.45621911692312367,-1.5200394580566445,-0.15682430417013887,1.1190423631689286,-0.14156348749704162,0.05296736894753175,-0.2703798462655959,-1.4028973760770127,0.08867857570305866,1.5656457345708874,0.7020592483052742,0.5602353837012991,-0.06695070452310194,-0.01846437055173522,0.8360174303621867,0.7187542628075468,-0.7773348902463096,-0.09416028733655903,-0.2560333979318843,-0.5703896718375617,1.0349334989800003,0.07955985085360766,1.2162361736096605,0.6622262452128725,-1.0400171562804443,1.4784550612599574,0.8147342380155594,-0.4876392366509071,-1.029918640082324
1.1822663711434367,2.1134054067051458,-0.4516497601375275,0.21234819228717539,-0.9381745180205848,1.0178049357816619,-0.666645020041211,-0.5684121318634806,-0.6091909303379438,0.09163690551233815,2.06274083572605,-0.3050380274402748,-0.017534528558633227,-0.9707853070544397,-1.7193706498143484,-1.4027905604132962,-0.7753125778284115,1.5226042856486917,-0.43278655371781233,-0.8354832717779359,-0.06391074784964136,-0.006496212805898184,0.4464127192273439,0.9222925770305135,0.07579912567882383,-1.2522027523471395,-3.237921875753216,0.3034948782805409,0.07345146775594465,-1.371518779945018,-0.6953891531938041,-0.5839988369341541,-0.7714482310537206,1.982129127215889,-0.4178576301535886,-1.8206571529077087,-1.1701262596886375,-0.8141585108211392,-0.021625826746160353,-0.9467632643280298,0.659140378181966,1.335401062666557,1.9210926195597169,0.6743798862746355,0.403927003019891,-0.596962480146426,-1.0200345129234076,1.1604446381663909,-0.7852789601142516,-1.1547761081287646,-0.4036674759559564,-1.2969491540992812,-1.9440995552577083,0.20258760185693603,0.0403672357876404,-1.1644717038297097,-0.012238698856825376,-0.5332363043952963,-0.9580602962067238,-1.2079235821648062,-0.37834652753359227,-1.8308521553278032,0.24161671924123193,0.606556769408055,-0.17411132346162828,-0.12715939026422593,-1.8044933415043225,2.2178267864337866,1.0380767880635857,0.8584748852789131,0.11809831306056699,-0.9220766231383056,0.46237486473259093,0.28831715477889874,-0.5340642438101973,0.5496817038273231,-0.29392911864973725,0.9352835154456541,-0.44074798888199146,0.08195576054921186,-0.2092261519049935,1.5394985498348768,0.19963242476735762,1.643951082750164,-0.5192244350047927,-0.8257091552489141,1.425171923056287,1.0574576808747518,2.3744538127780292,0.632187481332582,1.0990253741984433,0.13721853155620187,1.2464524746420869,0.7257991341015699,-2.0290470733464554,0.2836965437600804,1.1001373821284577,-0.5781621759984872,-0.8113948108561473,1.525337198086998,-1.3548098100539518,-0.3139125723110702,0.3776655382776673,0.4171692001121462,-0.05894083817257613,1.027659131120077,2.3740482440891744,-1.442893722977376,1.0412326271645311,1.351926568772001,-0.8809686331515689,-3.0314894994108066,-0.2081559554961098,0.07347465823738639,1.070341730535681,-0.20272475005123658,-1.185560337696595,0.421123452962956,-0.4429642334431027,0.5862794111990791
-0.7933428309897738,-0.6646910105998493,0.07628647599825351,0.6725206555526573,-0.0810279417851807,0.8692607236318145,-0.6763554649152516,-0.0870904611784398,0.6412447514658537,-0.2553560133003081,0.13026110589141623,-0.24848352010583233,0.9965870861627456,-0.3669707109096795,-0.5680140045640993,-1.3723462411429352,-1.2001551093970866,1.3623748142963896,-0.8821140148939868,-0.6628182013137547,0.5000812475783302,-1.27316818641752,0.8518203152319699,0.0958145655641401,1.2640681081736516,1.1344356131886832,0.3323141738650422,-0.309802362733555,0.2404798910485291,-0.833542503368256,0.15290421329122453,-0.9914234786328916,0.3632414265559072,-2.068289857583843,0.7953470582465337,0.18195617614607448,1.6307326616741185,-0.9581842282003881,-0.6180262992441682,0.8346932489537605,0.24712770498322453,0.16724798986361564,-0.9351710913349882,-0.6460204199224183,-0.041263965849226106,0.12883257852985763,-1.9949606215779156,0.13212329512527357,-0.47467326027775075,-1.9980925311408997,1.0615726054943095,0.3465799760768475,-0.8524679825372251,0.1978560152575477,-0.36717646923260183,-2.0325506344590236,-0.20544124407198222,0.6960967284038179,-1.0090943025634767,-1.1473854274343571,1.6510788430701284,-0.7915194917717581,-1.5032834256828305,-0.7079461315492457,-1.1088697322062149,1.3842001143191869,-0.07382218053973531,-1.4423703652447464,-1.2165377597280937,0.04678252091572946,0.6060402464389468,1.103307432984322,-0.6338291914600482,1.3461878677728423,0.7266336169963653,0.09646895584515294,-1.3826531339364294,-0.24322755351459488,0.7930886652045861,-0.610719263491958,1.135015996247488,-1.422983767501931,0.5737392131328375,-0.7953767730127125,-1.1843296893143884,0.4645935131818209,0.275426482460687,-0.16948306993775353,-0.07818751124780043,-0.7143626025030841,0.6183657701361921,1.272069773251235,-0.5610056241375262,0.0013554230341371017,0.15568226704312535,1.1079377028254362,-0.2740984407318148,-0.13107845295940443,-0.3568533852673605,-0.4664746661401875,-0.49228468309594614,-1.3854847871838123,-0.5746857868161606,0.5280234511248123,-0.36046224121451775,-1.9947167985029541,1.3421187485389556,-1.3669934560375452,0.415591637830166,0.5682630259217729,-0.1505664483874492,-0.4651873580543576,0.06011286980059122,-0.8520455817646573,0.7132819239470871,-0.3514966277126563,1.1827239183117455,0.06008208452186131,1.391465907760654,-0.9248275932868688
-0.22159544099441877,1.0099219164045827,-0.5406763462199388,0.06431383020607884,-0.7576883176950814,-0.12761610038860452,0.6519903558871789,0.2880611420317098,-1.4073435884164347,-2.007413327905253,0.3741480495484197,1.0039134255878768,0.1361323026704223,-2.1813854131363892,1.3927924145964812,-0.3865480113121687,0.8770598562025768,-0.10100050290852114,-1.822234288934706,0.356922721763187,0.9435052196195595,0.6059158863570699,-1.759996358840222,0.16689263109669955,-0.31688310943870246,-0.8517039050896349,-0.41903234103220866,0.8220975685765389,-0.10296945677197429,0.5962840077919435,0.6362344897282146,-0.23832994287215062,-0.09919970235776883,-0.5677185405359779,1.8638563003545279,0.27481035812643173,1.4685223213559502,0.7602745697722426,-1.6516757376874636,1.2774327605780227,-0.7511013500305674,0.6279209533840882,-0.48031613664488015,0.057412675034219436,-0.43890785372155366,-0.47511681686841856,-0.8114067178982792,-0.08142370790524987,-0.014149087204669291,0.564248760616654,0.8785195707522739,1.1722855973007298,-0.8411826610281907,1.0172494907673761,-0.4446156384984006,-0.19685656672920895,-0.31090051638318483,0.8963433133708382,0.682119101222904,-0.2822388841113879,-0.8876912566437501,0.6696481046761148,0.7280845020856421,-2.1314772259332715,0.45966233555784614,-0.7937252331104092,0.8332055960498079,0.7931981158198943,-0.30529683080638986,0.5072176708064933,0.1914118297608061,-0.4390805860035328,0.3724091863417974,-1.530759466642969,-0.49506221192863475,-0.005540069288438662,1.2562272771500895,-0.9055666185918205,-0.4541700331311381,1.05888076445722,-0.253443508351725,-0.07268826771143533,-0.5048691079966431,-1.9541434600335874,0.16646218416225694,-1.5683325001748685,-0.7884970267785624,0.8263097013110046,0.2549372046210421,0.9062546464143584,-0.6189117583050473,0.5326556477775626,-0.2787436213183211,1.2032843136578741,2.163814054816812,-1.0718989662058858,0.7199400636627049,-0.8796313629991755,-0.07768804134707913,0.2974745285601246,-1.0476332889246354,-0.1440007300414509,-0.08544925503548637,-0.21365767093527221,0.940205174700385,-0.27126572806288674,0.3788876504886863,-0.21213224832539535,0.27942996765373507,-0.7788474157114172,0.734624735310352,-0.3464049948205027,-1.0851058105276652,0.47038577401798043,-0.17653577689252378,-0.06555647036731534,-0.24997039019907766,-0.36212382587446706,0.24749363847020067,-1.8484459163667422
-0.1539999512475962,2.2778345812992673,-0.8199419758390986,0.28039067602732864,0.5012089729360764,-2.0455355184410884,-0.5447269868354004,0.633772130502623,1.1536768948843799,1.0100103119999664,-0.48588192735834773,1.2484818328561587,1.2470146933295898,-1.7019453241090003,-1.590078331756687,-0.3691048374194544,1.3304295326012838,0.21825599315961466,-1.1416970480708861,-0.88565786542478,0.24844458010463008,0.10466757206316628,1.7709437003485247,-0.37795498991145215,-0.21016903067264725,-0.2098650612231859,0.516979171229631,0.7241867158486911,0.9285808524447807,0.7743188800399234,-0.13632762546415556,0.8862853618288107,0.3219561312356182,-0.7627456709806963,-2.227422544843992,-0.7118204911018172,0.5427387095022075,-0.8608912287505702,-0.9695040132971806,0.10619375772136436,1.2177502920636758,-0.8535592456393759,0.17187753084360743,0.6228322269579696,-0.10933410253894901,0.49331068740430567,0.4199960280565945,0.9596844949874853,-0.41322979283593436,-1.6289516378765614,-0.06916002383841577,-0.9880211043168512,1.0226898416282688,-1.6811915403164621,0.9812596033301383,0.026506093835458648,-0.4764831189580305,1.726000854294156,0.4781564282058839,1.2745816421922591,1.1031906211680504,-1.32930799423248,-2.0410939224676423,-0.4915852658465415,-1.3063503817731772,0.5336091913187696,0.5586151125826562,0.5063210945611556,0.08423561612620352,-0.9500761545977878,0.6552730283111107,-0.03939311570710172,-0.4916330029482225,1.266530156414071,1.745347233356316,1.6534709424606462,0.9609980557498864,-0.013383486712092609,2.0885191621475934,-0.654107299993785,-0.7882271952794943,1.3024468697271423,1.2986923378241326,-1.451973598855298,1.6482520445870872,-0.5215613139399842,1.970780731834341,-0.5416102058180363,1.7854447979500547,0.6648823984097125,0.7197665668247007,0.5147542684877049,0.9968159468982032,-1.305975238585543,2.072537297024549,-0.6142737407805389,1.5551964567069505,0.24782937954487758,-0.11890931226821916,0.36628489555988625,-0.10473536964986328,-0.9289230013617027,0.45965669434200834,0.5464689856139304,0.6750878782189254,-1.0633930796687845,0.5253661446758969,0.26628001591150985,-0.5128795514407422,-0.2035179961654333,0.18296333359966013,2.588458218247142,-1.1400628911955195,1.4622999346634646,-0.2263652171986239,-0.28324930991702174,0.5870533248907777,-0.8123655979031,-0.04326239468988536,1.2609756187233458
-0.5526697073051678,-1.079062956010829,-0.3668751449704548,0.47072632870687275,0.3065154088543072,-0.4262630668455953,0.11908386342231243,-1.2788912933793037,-0.18648035068875088,-0.5721642877337202,-0.9093928158433076,0.09887551461256636,0.570356165071801,-0.038820296684484924,0.9603791044734722,-0.4618774490166234,-0.5658224322371764,0.12533223002757427,0.06172302472015248,1.7790875808211641,0.9242285873085635,0.050472635005612936,1.2991804080414944,-0.21935169479206648,-0.9563626008423277,-1.3643421130264788,0.48645097606953575,-0.10804688748580256,0.6892944863472494,0.5910156994768604,0.460137346667556,-0.30452243404270213,-0.06591296649255282,0.5709957602631088,2.198681111400041,0.4319882496039401,-0.545500949195257,-0.7159256926278494,-1.0261360472962542,-0.5967214722425112,-1.5536224803882581,0.35676765784192843,0.7007548180953111,-1.2242854400366692,0.572647793348931,0.04816972052336789,-1.3469892982879208,-0.7787360586011254,-0.41884342166266997,-2.4266612249251835,0.08735996338631728,-0.014690435713463726,-0.24476984941942428,-0.8594490441514802,2.2451174469256108,1.933788846362354,0.3065884728509027,0.6644318782867652,-0.8749171130875759,0.20929382187897935,-0.34230413539499915,0.8576803417513681,-2.850080539439923,-0.9180705937624104,1.199933754002744,-1.0989172146491781,-0.33024693884509204,0.6692387416501905,0.44314089994308165,0.18775994400521578,0.9601868903717319,0.43432899736159536,-1.8878821381034756,0.906615962414172,-0.2113295400315364,-1.3028779535150206,-0.3682774060283844,0.07512182256213423,1.1168095031624057,-0.8440585780094332,0.7074321390403827,0.5805664014611271,-0.555253787083428,0.19900897995302538,0.034059412530282974,0.4178740460971308,-1.3463591627202027,-0.3096351041170233,1.2720442394599631,2.5353482902521023,-0.7884886577885325,0.1937201052485126,0.2761796371762569,0.44658292719097736,0.9299195139848743,-0.5826080190756096,-0.9991443942200341,0.8067406309574645,0.36943623042614704,0.17700978525279754,-0.0018069194269398376,0.8589189559302534,-0.5732521171636772,-0.3967634634982239,-1.707950289447398,-0.3365324311678662,1.071239759063189,-1.5385064672107105,-0.9018378984494342,-1.1182014730589591,1.217265940836708,-0.1492430259930573,-0.772699140633053,0.45284721044417153,0.7323199446424943,-0.614219025755596,0.6259998556498785,-1.30075619529384,-0.6443755785168707,-0.9373516556436
-0.07207832341509383,0.42484983797368664,0.3339196491151117,-0.6835088274109034,1.0610667117667973,-0.13933168250956596,-0.35506968789164317,-0.5623906511990112,-0.0351514336122795,1.001983845311534,-0.4018680580339534,2.492507824725043,0.9498810689849113,0.6762944249078368,0.07708007103359238,0.13771126733219857,-0.37417511683471266,0.7038780808130161,0.7299257157449872,1.8129025617300745,-1.1460271428176054,1.1012728725224394,2.43118064653989,-1.2145342531705812,2.3326722885217155,-1.4708402041744884,0.41254627980157665,0.21065467787403133,-0.6994520704157292,1.701940671346711,-1.663023467040126,-1.3608056648846192,0.29333281995718846,-1.0105903709437682,0.6227744554355124,0.12016000398931281,0.49235959059038786,-0.2386994127392517,-0.1176629130675802,-1.0974315457767432,0.6639666029747391,-0.29512951877203975,0.7082628483792962,-0.17888779840639674,1.8200311048967326,-0.7035314396278579,0.2121865805453572,0.16805472079745506,-0.8564456522260646,-1.2632111845912493,-0.26614929765093126,-1.5793942820247957,1.0452279568329281,-0.6936617356989128,-0.0544212916682942,0.7320125489859284,0.2292327929257073,0.024262580338062136,-0.05785538205226537,-1.5282562868761063,0.32593074374355036,0.7949910779979066,0.6842276217711408,0.42050140416053133,2.1203521772938014,-0.5993938291503516,-1.416192122431483,-0.5040320967308232,-0.5489493383002476,1.076348198234771,0.879630421406871,0.06669105688298718,-0.6588841933228462,-1.3354874625485733,1.0954604672068131,-0.3471722065043774,-0.12233596782987498,-0.5823920105146708,0.2238164108430246,0.9166242160636603,-0.7826718097097347,-0.6111632422116486,-1.5857329943071174,1.8649610364285023,0.9059024411589177,1.3618088998627595,2.4510740502272848,0.4580798785313752,1.281062410626939,-0.14660115149592023,-0.12089678814125296,1.413043926965121,0.5640362033997072,-0.02089814436459407,-0.6144675098714905,1.2514694752859061,1.1960967979271808,-0.2114861772865464,0.6835373977203005,0.5099542536546248,1.5590430727907763,-2.944494240311613,0.47209806533986676,-0.9348719508337582,-0.1929671628982434,-0.09128342046708741,-0.7911014565323358,-1.579304568735364,-0.17847578603541503,0.4286920330665705,1.3369411654790693,-0.5860583471569739,0.4380287741042099,0.6263819415657277,-2.37922767422525,-1.5368403332388578,0.7357820279641263,-0.7105155934050533,-0.25510315309587145,-0.9885661954977678
0.19216500369312725,0.01011710064818172,-0.04281648917901942,-0.4642940296665262,1.744543095324607,-1.2550553345156312,0.9769319466655592,0.37770164367042625,2.052477538739407,0.002807217703818906,-1.329586926579135,1.2766360773594314,1.618006666892148,0.9136701601358883,-0.32107648971407665,-0.43418156014060433,-1.6251240024866496,0.46751823835773,0.7183038687376032,0.193381460884005,-0.07364105495267086,-1.1111684059023212,0.5219166405182036,-0.924213075869527,-0.8150921202201518,1.5289238533017435,-0.6649081784471659,1.2356264332225046,1.2199109436368116,-0.8129667193189022,-0.10133394547818965,-2.6754215659575484,0.11151531630928022,-0.15953794320867593,0.6665806643002683,0.8115239999899264,0.2755132637262028,-0.7824674648030788,-1.450676334246023,0.20733423067193713,-1.316088040367488,-0.07611365256416938,0.9632652611612719,-0.3842698588656935,0.8459225354131488,0.4869674955086831,1.5244032602551474,0.12576463989855238,-0.3505231604266867,0.292536216112016,-0.6743802307127212,-0.030539985413375624,-1.3166186790150691,-1.5646217013394668,0.7333963820114852,-0.05082588137169028,1.317780911025939,-0.7447661711089063,1.616405710763994,0.7207628803045062,1.0668104291577183,-0.6879242162878061,1.206206978437684,0.1105251197686894,1.8576349738157587,0.5292379427131426,-0.9976613999335783,-1.7643942687754866,0.806615144997997,0.155829021923072,-0.8672568443810437,0.09206091760567989,-0.6213066043011883,-0.541833207299617,1.1957203827194778,1.6963304852397287,0.7371488193844139,-0.39749908423369057,0.7771655709041555,0.7434473021474293,0.6408230947078866,0.10927627741102529,0.20450107190032774,0.2760899677062995,1.1161032916175746,0.9082214847394366,1.5224814316364583,-0.9631982390257369,-1.9763708010627152,0.847707385120713,0.351361454760753,1.6406984247154661,1.165149963341347,0.04695057536215483,0.554910644452831,-0.5039739385955215,-0.7549580281547681,-0.14149724179299442,0.3511128929407404,-0.581298384829839,0.19682383120818803,-1.9167945875069081,0.9058289825066447,-2.0469936885165496,-1.1987903427732909,0.24311005653028117,0.6021898528385132,0.3628427515388913,-0.10537294627467796,-0.4511454944993465,1.0049131531642541,-0.7395517679867085,0.3201939268047835,0.16438591456845833,1.1108078195940414,0.20716415104394797,0.2562651308228781,-0.9327321129730566,0.5118992251501369,-0.08213874228168637
-0.49874195241339003,0.8532874228075833,1.3219541145986453,-0.23589631640723452,-1.3815931130598835,-0.5938373993199091,1.7419208358832379,1.478069548191404,-0.7296591879254739,-0.18872994906819635,1.958039071503696,0.8098580884821913,0.23472377692654897,0.07989097728035888,-0.3838203338022885,1.2136369149733461,-0.7705589282872375,1.3009435893615207,1.5178909118564214,-0.11497160639929696,1.1537507979437296,0.6237622330165882,-0.6159371121925651,0.3618219358625178,0.6484562092097008,-0.43234688306732943,0.5186055125199877,0.04198760445433805,-0.3272013461750257,-1.5829587055313932,1.2334846713527103,0.6902090219425531,-0.6228444266515811,-0.8420021500741046,-0.424510810858423,-1.4106098243449985,0.6425255992663382,-0.9250317521025958,-0.5013085643473908,1.534490589271793,-0.5066783475705964,-0.30272912949428754,1.3294113895530908,0.2319209160125475,-1.874303127784709,0.4021576762132961,1.8116860296993618,-0.766048356207725,-0.3491755298113574,-1.5199453819642497,-1.265254808992045,0.8434570583409869,1.639079519992548,-2.1417518081625366,1.38925324535966,1.0352910080744435,0.9264659224214623,1.9630367273502145,2.7591077365343777,1.225070827346255,0.07419698072342977,-1.0913496366010986,0.2625177142772525,0.4263474371339578,0.12113009842156801,1.018762892903932,-0.6195792917753492,-0.4846519500576556,-0.2898374318991229,1.6168003869540486,1.3805203011768188,0.3036312387156529,-1.2573299495091514,0.7846055652110161,0.1179305680120841,0.2957045966916433,-1.6095508148864945,0.7709304360387744,-0.9261281549097939,-0.43356823681492884,0.634040026902986,1.1787098546840868,-1.3459156075783092,1.7995501443090234,-1.1771272686606244,0.7535428937246464,-0.4202093908677929,0.18766357873147113,-1.3989421856673245,-0.27540814653417683,-1.3310273540272015,-0.19981696669205168,-1.2645525930054309,-1.3143390337667271,0.4222016770972108,-0.9066095804192725,0.06625185044503397,0.17135475032711273,-0.8015814634944114,-0.8453810877816118,-0.7615392968075277,-0.5789708220307183,0.9884395013723176,-1.0812904690153977,-0.09152965176652947,-0.21476782755632126,-0.26245743792228254,-1.7382123156264198,-1.0557789251957805,-0.6211960252432672,-0.363759459952176,0.8719246662867927,0.6796769220759538,0.2038712699625048,-1.088116678227388,-1.3432223409750499,-0.6331376420974002,-0.6842059050541508,0.11593448074800751,0.5355439203283374
1.0055085912378579,0.24874500970547617,-0.888703644209129,-0.026249688284697675,-0.30533867751744104,-0.2513456605040735,1.0688794026124702,0.1299203164506388,-0.302976956538021,-0.26403111918711897,-0.33913852959487195,0.407854012085357,0.41402822303768505,0.27422663945593484,-0.2959885067568013,0.05965721794197483,0.7562553363783222,-0.1772379375197285,1.3307500315140335,-0.2198627052819057,0.5259475159120194,1.9205916732678232,-1.331017879650197,0.8977534652131427,0.3606997416236448,0.7235883644956317,-2.38588589785694,-0.9877501938470584,-0.4742150051830478,0.1055874400138182,0.04750005010754982,1.918959798355379,1.200629156046333,-0.08023484062824733,0.8529140343232546,-0.27533812426643056,0.5291830462911798,0.25813891399172023,0.4569797548170955,-0.806063289677652,0.8873518378037847,-0.29340249184846795,0.2447503599621046,0.8559593124563196,0.6195525923409481,-0.1745241418139669,2.075887336288522,-0.22591384103409984,-0.27035281575133546,0.5879749493147044,1.1682046368818824,-0.5118129505801498,0.6934324274213894,-0.6598790276299854,0.6025212363216198,-0.8116088705432601,0.19628861348885018,-0.41949523720246085,0.6847389794887501,0.46936350982881253,1.0335512243460554,1.3217491069172917,0.8530418234708188,-0.13420051965564744,0.8531991871028379,-1.3943534914709177,-0.7267862019368498,-1.0163586314837112,1.549968599232278,0.4973282289092054,-0.7498283207061066,1.8046544199593801,-1.1217973452372594,2.068715403734694,0.2917055011831307,0.3093727982382907,-1.0988275589695904,0.20939267632473882,-3.2366089395035638,1.049989091474897,0.3579737861370137,-0.06483345117976634,2.5414564826303434,0.17311087589414245,1.1180600906969538,0.2573462289560428,-0.07624664181648101,-2.0012907263309523,-0.4095381552025974,0.48702340336749944,0.7472272608675331,0.601656155998585,-0.5795877785613828,-0.23820597565465526,0.5992569893125503,2.4561112960787503,-1.157193780125328,-1.514687931153791,0.7348928860130339,0.3837342960468967,1.298554139717477,0.1654258915362928,-1.6768823231490013,0.31614734483080226,-0.46466950839760396,-1.589692037325157,-0.30742942578694576,0.8596315380745944,0.5455568885948391,-0.12092007671539208,1.0384848846074346,0.699661860692331,1.1370889652713205,-1.7198399920650185,0.4191379511288605,-2.240658006788406,0.22163668049531957,0.06555255548276702,0.16951576077300914,-0.4938343978651704
-0.9208947658796878,-0.44270449485982105,-0.47208438572947736,0.0025342009968079868,-0.034002554070978,1.1559099735784768,1.144034135002336,0.20796605971864113,0.6893427459233521,1.4041275923608496,-0.012281187372421785,-0.36436607542020866,-0.1696990123492723,-2.145961328772646,-1.5685189797814265,0.4032199283035658,-0.9032449605936308,-0.5442429826230493,1.876239269035413,1.5984172826162149,2.5831651346342817,-2.3528409199205886,-1.2055526646170163,-2.0900462075511914,-0.4806542025186082,0.41543913796564,-1.835257972819052,0.2146445771029736,-0.640430489205174,0.5415313391287735,-1.257076680585507,0.24407893035431596,-0.25229693189691016,-0.8923550924433654,-0.28294291744831646,-0.5925404468669168,-0.6129904063490529,0.40456724258826415,2.4284698007468557,0.26002811604276843,-0.9868037749520916,0.027214319225983396,-0.3340608911227934,-0.5402443333130812,0.22761822405556956,1.0619448562959886,0.012713513373681857,-1.2502944707604098,-1.7233232257234825,-0.04139046083488031,-0.45848870761848,0.4522690995917983,-2.1425531441696863,-0.7267380403981493,0.4563736338236194,0.7819717254026489,0.6962069289043845,-2.181340904383041,-0.24057750152677945,-0.8300863684641171,0.07593376323685906,-0.38647300903689585,0.16227890906721312,0.2657203568448516,1.4901498014802217,0.6099554365601642,-0.7114194555683377,1.5500506920664276,-0.7743040497646252,0.6858029705228257,-0.5681149123856583,-0.9253148255598397,-0.5166160240015354,1.4900983725531418,0.513413726413765,0.792761201027659,0.179279101783883,-1.4047994927465455,1.4857876515249044,0.9223573987982974,0.28632606984401626,2.0066279670371667,-0.11319612173940623,0.3386822792343583,0.9365212053016656,2.155359353957701,2.3878199955633232,-0.34760075561280795,-0.1895981776250415,-1.1264324859354533,0.9581257239841596,0.030856366700057234,2.0735279500597827,-0.6172868590064318,1.4055062789347292,-0.7353281691488326,0.30319905166290245,-1.681347147933774,0.41133594078839397,-0.016750248110652174,-1.4991794847070916,0.7715762250352869,-0.7941762931551364,-0.27715243461516115,-0.7348684916905448,0.17768493561786516,-1.021055436021594,-0.9913597606636229,1.0362740459958248,2.0020749939512417,0.09519526792094594,-0.49262881696211525,-0.5631209376238009,0.5505089799454502,-0.3305575751015706,-1.8934178647264834,-0.4509354375130095,-1.9195253155394532,-0.44021811780521813,1.7366046989859747
0.33723981736327396,0.37130520233369424,-1.5371454196098315,-0.20547434093009093,-0.4148610587935895,0.9969058991742948,-0.553620213109325,0.5435860626067519,1.0719189827563964,1.4941634052357435,-0.8161405055199481,1.1034605627827128,1.3813773420267248,1.294661194821585,-0.15426947117268996,-0.031162689225121148,-0.3688829553291954,0.4223531809944589,1.1900228364520686,-0.2934925045118181,-0.5711795220594493,0.07852216097180006,-0.8326871243266397,-1.1956170555804355,-0.4595440800028964,-0.6093584188938056,0.43230109175718895,0.9067430729609544,-0.636264225465201,-0.14503322436846355,-0.9014958689638491,-1.915123234380188,1.1466850680174414,-0.8488292257077427,-0.6903453380677951,-0.15983672362034543,-0.7763761458521817,0.518743009360992,0.5514397800959312,0.061721015254841395,0.25472074256130967,-0.6324274256243212,-0.3973378376677539,-0.41806387065702466,-0.5480932065785871,0.5652352329556726,0.2534011599106516,-0.9038168685000464,-0.6105532441549238,-1.3296296878722271,-0.48910878976043265,-0.5116474527527729,1.3143563134050886,1.0977155686034221,-1.490941761905653,-0.1713632411229062,1.6732136259590085,0.7406205756638684,1.3367198780660308,1.0124458080112562,-1.1104134883277978,-0.8915155085790527,0.17932286445724008,-1.0591170972000887,-1.0401209402819445,-0.3887367937261766,1.8444901105059983,0.2692710504765003,-0.09267519240479978,-1.0939412579688117,-0.5750961287660551,-0.9651839252345517,1.4253127175357003,-0.26488270875337866,0.10485808122119424,1.206033602708363,-1.1106734111026029,-1.5761809891833218,-1.294179793123977,-1.2161198624201928,-0.22447165831682628,-0.5546602861891224,0.6838106995030518,2.7169582577623825,1.0528955664684325,-0.502933475955663,-0.17417019831123756,0.20645569191765228,-1.287807468887193,-1.0634807138134168,3.2526841729852545,-0.5421140106113416,1.0140752480282507,1.3653032080760825,-0.07875750410792184,0.8978504984095041,-1.4993998528269539,0.34663899713374496,-0.7384782591594017,-0.7653524994350771,-0.4316386336479094,-2.176543513848046,0.3165438751421007,0.6506964009712242,0.24982049809570428,0.6699014368358043,2.640063890204488,-1.6550519448432186,-0.8896552394933019,0.3717778090126449,-0.4751247373039207,-0.7583313146787174,-0.10021645638761817,-0.5034871181549795,1.3644433783872714,-0.4268692185879143,0.6866708910720137,-0.4260611264926249,0.15352126281592185,0.4913176764385966
-1.1238694575635824,-0.41346791838267727,0.4138190865756921,-0.6542416006772971,0.2535897300408519,-0.7463568621791428,-1.4856217931433588,-1.1567809002556837,0.5871034523153823,0.651473614746639,-0.8594704622601951,0.21671711648200628,-0.4992085539917983,1.785046156482265,1.7535414846386663,0.2117222048352798,1.451226946846718,-0.4615807560816003,-0.8058946410534563,0.45642935877951135,0.7568489107663278,-0.5525980989250452,0.47548753270647215,-0.6155150851757042,-1.1422816778233298,0.967827845134659,1.3604444376350455,0.46938034489868496,-0.2383266805090151,0.8363508910241962,-0.34057935542748863,-0.9772949369124186,-1.6038390383189,-1.7223545669304667,-0.8612237713620101,1.4689633233959192,0.3850726758715869,-0.36624905043544365,0.5293825520293584,-0.924293998779593,-0.6052402240539723,-0.39073063272279795,-0.775759237811791,1.8400204462157228,-0.017590047928272796,0.05994363801385223,-0.5360472467429898,-0.4743206305218069,-0.5770959433931563,-0.10098432331966885,0.1739069977993753,-0.07908876255824662,1.0009093287143604,-0.9854007754209961,1.4664729931855993,-0.22075152528566444,-0.3810030733717475,-1.4166145720361922,-0.10380622596984773,0.8709132856812437,-2.1019927028873795,-0.17366579978719257,-1.0951385562272797,-0.8485647576015851,-0.2634120098339993,0.6886954066495973,0.5427926743928496,1.2431947359289903,-1.3078489597638259,0.2869622275583801,0.2956847067199111,-0.664823771309539,-0.905836440916229,-1.3837874254288667,-1.3967539741376642,0.8750521954016284,0.7043783243530152,1.1528536405523455,-3.018560544132329,0.14030471012307388,0.0934113145602258,-0.13607547857192448,-1.4573326667731081,-0.4764327324952453,0.5721946558619755,0.33433902506600094,0.08869756225732654,0.12050971803040066,-0.7546615801732156,-1.086614748890203,-0.6191865507533001,-0.04350351712772159,0.6386004072097092,0.8508088462080595,0.8123006285576214,-0.13069813761764226,-1.662244616341629,0.9052033711753441,0.6970191041996469,0.7566318248268215,-1.330146981382734,0.2827969457556673,0.6840401154403569,-0.7400371730998712,-0.19668046604425315,-1.4164495263461698,-0.06683230695823678,3.280027595189069,-1.0315105353273142,-0.24974924763200496,1.2037474799516832,-0.9617243587511537,1.9914624033054065,-0.712810902961305,0.587716779478018,1.0627358009027132,0.37080141486626866,-0.9119463370925301,-0.6287341210229769,-1.2595502533304967
0.6356441812559721,-0.6434499203046743,-1.147862603826864,-1.264718176939693,0.30953846131040713,1.8353687193209611,1.2194904302444158,-0.16297968413493574,-0.44103822330652526,-1.043687547447464,1.0576371174447743,0.1801078416271406,-0.8044542772381095,-0.1350577640168654,-1.1361644000597253,-0.01596379945832123,-1.0696238600654762,0.5409599257120363,-0.8219876910384979,0.6295073759998138,0.11390382487764208,0.2701073631967218,0.28390254407956445,0.4279993692011324,0.5303867436431842,-0.629394230851176,-2.6344787903464493,-1.146691602443092,0.8642887007462473,-0.5783439404312009,-0.19363332142189005,0.9644572452284581,0.09932410294317316,-0.15609867807392871,0.5467648517799503,-0.849518283161136,0.1323021645207494,-1.1670264016487553,2.1496183981724624,-0.675787945962778,-0.8296979384528348,1.5112323344017207,-0.9502709309310976,-1.274806029199831,1.2383606368043758,-0.0721164661876472,0.8248490999410522,0.2530807050268245,-0.34970048911226365,1.478108653869019,-0.9379742112785032,0.008840880650946173,-0.7270356639001265,0.46042335871905743,1.2730582313324923,0.4890437297343678,0.47536995019109796,-0.2984098044821382,-1.9982262450728865,-1.0422089964005845,0.6060809592679716,-0.6240255644161318,0.5846482462328005,0.6853395014187584,1.1006437624272085,-0.086154928750685,-1.0920598926345213,-0.09415483021685703,-0.0524839526316842,0.8152930172532158,0.6837683361766235,0.33168972847531186,-0.08741683800048115,-0.9247284613134251,-0.5343406168861856,1.05915465370474,-0.616756266022516,1.1390939078728655,0.0037373394525637114,-0.037152944997039354,0.6026928422957167,0.6729124288230028,-0.7022471139302159,-0.4494720471799662,-1.0502942710454242,0.8800340095096091,0.10938547430118813,0.522523243970355,-0.3175902230343895,-1.1220319888304384,0.5701688073397316,0.03740362604679002,0.31615480737864005,0.1924608066522301,-0.09886022396528057,1.2926219859364942,-0.47414126729428596,-0.5427161265353994,0.2493875180353331,-0.33871139944385403,0.36978309371022977,-0.9418742652540147,-0.0789073067450569,0.1987802037237892,0.4593985805175355,-1.8613491962507527,0.97322330972974,-0.6516050206868395,-0.7876522237475568,-0.9223983837419641,-0.06422833655789045,-0.42862544022735743,0.09296923675296954,0.8962797500575304,1.3651228436902194,0.5865246097175832,-1.624396184704374,-1.1309272299597013,-1.208927074081227,-0.2972617742662813
1.0605509354215386,1.2142769922083323,-0.2380865778257357,-1.2736275953180194,-0.6831895321834527,0.4163897227788082,-1.5541598170890232,1.3765191639418326,0.8207595228608262,-2.8465013511168613,-1.3810746182300837,-0.011378427055646826,0.2081508396380922,-0.8424030522644941,0.920264371247307,-0.4229000428619933,-3.4675965741650856,0.9276370472025813,-1.2590233505663326,0.5419507918825102,-0.5902836690451773,0.8045811862128555,2.6277627310205003,0.06747024981082797,-1.2740569752543047,-0.2149768298312846,-1.3943389292853665,1.3621794541781729,-0.8595344920855481,0.045841114345689785,-0.3897824691838634,-0.3716183819950274,-0.534026975021982,0.6801800862641378,0.006657041099756264,0.054268331330519275,-0.2534139677814758,-1.2065552861217612,1.048946898857667,0.9220966078434593,1.558300650417492,0.2627229784415987,-1.8001309036057724,-0.014126855390408893,-0.6349683848037146,-1.7126758688607255,-0.9404879955607299,-1.8849129756338148,0.02075681303169119,-1.674549665113066,0.20116170944377795,-0.7262400614856558,0.43535814786589067,0.8426525198520459,-1.7886522241351612,0.36277873774122865,-2.1227381535201335,0.10028868434195809,-0.26019454208534265,0.9105742823006198,0.373602070227091,-0.9690813991171309,0.5013526681177317,-0.5819554479468215,0.007850001363475821,-0.893116894452063,0.4264271829864128,-1.4816379078048119,-0.6095376785648579,0.05886375375029243,-1.198264488647089,0.7265518252447757,-1.4101927327396415,-1.1610615502915471,0.822087991270618,0.6331191344861401,0.907333851403863,0.7309869144171769,0.15179153883739555,0.21113862493045024,-0.5531162741435955,1.8607819699185257,-0.9889923330969812,0.23632212576351072,1.0337954987487505,-0.652388957975206,-1.670309417442967,-0.2184209384420357,-0.36416934227743203,0.6910866435345928,0.7499223389799956,-0.5096371594373579,0.29742122750633293,-0.19158670440149186,1.2320137292828481,1.2895660231077284,-0.8061764642246902,-1.317002297018521,2.5592186300113156,1.4334661586364774,-2.431181658729668,-2.7873497994778784,2.131338774876044,-0.23671826496208684,2.4683169166165273,-1.1724865835494775,0.6909929725079496,-1.7933523797332651,1.4647658429502461,-0.16092693932202748,0.8373735542942697,0.3239354713502864,-0.4803141076866489,-0.1844872683711628,0.0912560624415896,-0.29439837869886987,-1.4967092140168232,0.03146476429067197,-0.6055184885290082,0.7697509872407198
0.3070580003188808,-0.3772640404740161,-0.3588245099320348,2.4739235856521473,1.7581887751422838,0.7312066671839629,-2.4675007103232,-0.12985463818344964,-0.7922483400972065,-0.45277745403805975,-0.4976585875755089,-0.07474298243377532,1.7399022128195405,-0.5017886629524071,-0.6621187208142514,-0.16502585045807155,-2.0306433405859226,0.7072244937443806,1.211300078318225,-1.2255321218706279,-1.0906807247239083,0.7104848313327938,1.996404417936624,0.6455668597205869,-0.7842091691068377,0.40848867483757834,0.16785465925346033,0.7151793455859881,-0.1850982831165372,0.1374876289380332,0.36099120194838696,-0.6102759314782032,0.06802596140108716,-1.4039385095837775,1.3215588223214212,4.184213628391903,0.02735795288863185,-0.14904030560935816,1.5875410882418954,1.275865992533644,0.5114142643150077,-1.879160724147653,0.47162841799466665,0.6813070703673014,0.023742349995464478,0.4599644611162086,0.45446181731713514,-0.5205682318097684,0.041396689433928914,-0.512821301560091,-0.022870327106315837,1.6305110487321084,0.206210093976716,0.1850102009690889,1.3477356035379415,-0.4078351399687347,0.04236221393355775,0.12153436059294358,1.582965445840242,-0.5057960027422529,-2.662954689834019,-0.17739656822248556,-0.35954645995414497,-0.24016361900697925,0.9428346640420805,-1.2290077857584207,-1.0752777027966844,0.8265622125103549,0.8745289617315276,-0.3797182689429749,0.59074160855473,-0.7185095629964575,-0.5705933603284484,-1.4718591206785794,-1.3187375739552307,0.014752765953156817,-0.05741475926796026,-0.09560963575234391,1.2424549022315994,-0.5037776501366978,0.6777923410461913,-0.8567664585939003,0.20891646918435602,0.1424434240285038,0.5768626198380221,-0.07547849726556162,1.7575267012478146,0.8821943514838302,-0.9168279650111242,-0.2822591352086019,0.8585272493198284,-0.40176629185750073,0.07670886767224154,-0.5235122215017695,-1.4854109409197573,-1.0460950206989674,0.9997342969553783,-0.08933470035818097,1.0786714009031366,0.06339821645457226,-1.024084147263859,-0.5182780263795961,0.606176616232067,0.7137525365515276,-1.002726797393928,-0.5466561618956794,-0.3107831535508721,0.2591089537027964,-0.0817174415100968,-2.4685838767665764,0.5013042078838159,-0.816337854435295,-0.6880848358866084,0.17597367452831178,-1.5211624241350536,-3.026552185127796,1.2770432844105293,-0.3456296151187312,-0.430499947689237,-1.142892671176785
0.7183397636780944,-1.0089930894430397,-0.7168601798892784,-0.9751875436120153,-0.9183522311289724,1.0115222560707118,0.6008451051476948,-0.07517474110205094,-0.5958467645951775,-0.21848638546953947,0.43229522275237897,-0.3540996463908052,-0.1926146332091221,0.6070030952852089,-1.2240236670965539,-0.22140364303688237,-0.1344102112509493,0.3370229850958425,1.4275925761639787,-0.5881476403130085,1.7118843642317931,-1.421507507177981,-1.2434880235649903,0.020597500589242014,1.6527629967814697,-0.6648014718339192,0.901714477590584,0.5161941141752319,0.3663303574914915,1.0136973916786247,0.19652902543958323,-1.0960906927473877,0.2223596871421703,-1.048423199485837,-0.6328595296591208,-0.2561337854822645,1.4916849081213193,-1.172442403176908,0.137807004857547,1.0342171281009571,-0.3525172740687793,-1.352678936608264,-0.25513349402551716,1.760193623449627,-0.8251810058490636,1.558935906759362,0.3010351364422821,-1.2128669133070065,-1.2517169914028332,0.029315539901407298,-0.03557189853594853,-3.2988064798865433,0.033845764231168245,1.239330502710793,-0.19488159805699964,-1.9516324775293743,-0.24777726547135703,0.4086239439421247,0.5673544877424765,0.3875629322153607,0.637215675188684,0.9455021343942333,0.553936825976329,2.0502762348783308,0.16880583867896815,-0.5680153961635029,-0.3014092294830634,-1.637347929352429,-0.2812729008520275,0.06997294974061774,-0.2895739641119784,-1.4712461781174055,0.15758195394606436,0.9392249905293195,1.7759641152484043,-0.1702389534443545,0.3886747527001885,-1.0607502097173744,-0.7763783026681574,-1.6501572080767724,-0.05441536212527881,-0.27820318199547456,0.09455949937223973,0.28026150122617843,0.35867203629583794,-1.5384710219758884,0.18404126579859842,0.3820698264986512,0.6858847893675551,0.26652900201440394,1.47348879029881,-0.38811726309582956,-0.699424363052833,0.4116260116715755,-1.1429042777799137,-0.43368644198216,0.2000535449535502,1.7325980762016737,1.0929579438219503,-1.9234709186612835,0.284483332683276,0.5956263129958725,1.3021825198344723,1.1487388231788023,0.0965215747488281,0.5639273112587501,1.0145620418027843,0.24238973784302933,-1.1639491264602495,-1.0587990258977722,0.9782101761705375,-0.9758302518750603,-0.7752000859746578,-0.15072111876218977,1.0231339246241666,0.8670160638779042,-0.564921339768338,0.07184019475752768,0.35520440524385405,0.5251174712854687
-0.43349225023031324,2.0038215417006153,-0.48214606505289614,-0.6745934935463442,0.7637994589963558,-0.3754270575732889,0.0684677580490942,2.4193169938547845,1.2229202545661533,-0.11641988583567214,1.568280642233805,-0.38729674978743006,-1.2484143273596005,-0.7345549993487123,1.6264328304819111,-0.9316504447596176,-0.5349465825367113,-0.7351258931301333,0.38981679227354127,-0.0543197673433296,-0.2552612705571611,1.1724258556309262,-1.8568115292850795,-1.9776779942648355,-0.7382754987861064,0.43931694455996834,-0.35074534102869354,0.2586492502171188,-0.07538899757934477,0.46386797112232914,-1.2969394414747295,-0.3965356257823689,-0.2829317817916914,1.2096548049081588,1.0292123838484035,-0.1235098419667808,0.2645896728845529,0.2730402249597052,0.6250941074182625,0.8077032486716488,-0.13988470173689246,-0.06694427949363449,-0.21714330539176416,1.924397918258294,1.0478479513357457,1.4852146925972904,-0.5380920065709572,-0.7565576961518735,2.007472676316952,0.43446647046697146,0.04704159311175019,0.6432967878807564,1.1892810785346546,-0.9805207699175769,-0.7219026587989705,-0.9462294549133528,-1.4953398000999476,-1.440201723647363,-1.021644818818648,1.3733748923798748,0.6199013625594868,0.08377553626736806,-0.4249916593547217,-1.4757986207454428,-1.5557788745687504,-1.1739368527336855,0.13135576044124744,-2.1850530756777946,0.0943380486361753,0.025793116796962383,0.3783850534505538,0.7209532812968972,1.1275922480091514,-1.3248171654495013,0.3187213940355918,0.23708503550123886,1.777700285557846,1.4996256461828747,-0.8684293805616992,-0.5062906327372293,-0.48213776130946745,-1.9616873164348632,-0.02538421441759802,-0.25680352694158476,0.77990455525275,-1.3962558484839716,0.40068327385219477,-0.4481984763726605,0.42949550572028067,-1.450013536486428,1.0946669887583806,1.2833723911318404,0.6286387758418555,-0.05865746994630407,-0.048246849271998196,0.8442917917911864,-0.20958734031723503,-0.8561520330734895,-0.2794995225904328,0.44669468260841677,0.8986383268635556,-0.8008290481229452,3.060622839510174,-0.9078088751167562,-0.7147782761179347,-0.06338010743229086,-0.1781606131256083,2.156601289594073,-0.7193277772082579,-0.7409698048529834,0.8243515275600526,-0.8684521596154064,1.2154330658634755,0.056795386041450895,-0.9349830584715639,-1.1030100629488289,0.26913185113759036,1.5797028150215415,-0.5559978688768143,-1.3040959821643459
-1.277100694922788,1.6846339603474407,1.7830557013382975,0.06885329931483117,-0.24065646258960355,-0.57583645334267,0.7848494251949868,0.2435756293078768,0.2915425821173765,0.32294730407955075,-1.2147868620004911,1.3902204131405291,1.2554629491535714,0.0750894057970074,-0.5925935945388687,1.2094974849734619,0.950142441929017,1.7264976943312476,0.6857839766901157,1.1341769823184447,2.4374788144166146,-1.3930243261429833,0.11656703701013127,0.06694636285548944,-1.2597024653035105,-1.5213208169237973,0.16778969406452587,-0.7470899380060132,-0.974607389005151,-0.2166862894771721,-0.39075429567413805,-0.0502403947095875,2.270427688452101,0.5865528927110436,-0.7578853509503967,0.683404756181256,-0.0446886790695229,0.05510727753406959,-0.49375103631531475,-1.2187565903140194,0.8538005760265566,1.3361276495233985,-0.09603300736209273,1.84257891798128,0.028682859456311962,-0.17138629561741836,-1.1623838314194377,1.677079606753883,-1.1610537958422438,0.9211291152120501,-0.30114366166280715,-0.3148198605157297,1.0548049509718007,-0.45298363080811416,0.9733931874967005,0.35490053626420315,-1.8359851620801941,1.6049716106376946,-0.672089050896018,0.22866526102687504,0.06178501813112709,-1.5596900382187373,-1.021990667983213,-0.14183221714039534,-0.7590335252072559,-0.7693371691708548,-0.8366295394190735,0.10312490743492407,-0.14984562273607407,-1.397425727109741,-0.6349665346314907,-0.5502085847979251,-0.7892960966897773,0.23895956291219414,0.8509445702546046,0.6715407894843334,0.041669899958068676,0.5772513962853238,-0.8511613076838943,0.6791713534826602,-1.2525575084941658,0.15865725912342982,0.5536090098373697,1.8247132013906469,-0.6079226237595379,2.356927261546546,-0.9207463608046403,0.5200219235056103,0.5775008973975843,0.6769567490200841,0.9077026523642778,-2.680384983224202,-0.40615466313054943,-2.2446345464436757,0.00861190001488229,1.746415760641178,1.2184167633752472,0.9654585883990964,0.4501152607707807,0.36411154010865393,-0.6503862961323444,0.6286394410190891,0.2695879305912633,1.4000441638402972,-0.5336011993722537,-0.6596570900679005,0.5837323684871074,-0.39785670822605945,0.36753422696788507,-1.4683031586893291,-1.458417418816472,1.7352887361063498,1.2180714596977724,0.6510752855619009,-0.08366333406419686,-0.8823464426382778,1.301569041626656,-0.7930793101795942,-0.3132159041074518,-0.4909838672044092
1.0123353719115453,-1.5429493915951509,0.2619115118614256,0.032917458135274594,-1.733038837885129,-1.7765024775922584,0.22117752622859901,-0.12593306981388278,-1.688317809078122,-1.0885130781277053,-0.17376827488952254,-0.45714451358139446,0.02355432144046131,0.25124671610160665,0.7613103813330017,0.8486250027286371,1.7008598215617892,-1.5568906315920927,0.6680063295034259,-0.6421012954229202,-0.1420867865835295,1.3852942280365517,2.101128003480065,0.783085600322163,-2.511856253508358,1.1119635908327759,-0.637279787076235,-1.1792409238407602,-1.0969832153751855,-0.4134592508541709,0.47503300575110247,-0.4044803420375282,-0.18055715901631456,0.4888900265362593,-2.1041961236731694,1.501989152410164,-0.4597777071637606,-0.5314053360724897,1.092260445652717,-0.39156242165163996,2.259408248438743,0.2703011752136921,0.26373809909775986,0.19161452048481012,-0.20581146216050802,-0.28389317208809906,0.098592118073242,-0.14496340564662347,1.8981683944938406,0.8763134052045136,-0.39830834478245813,1.614590786718566,0.3009295620614126,0.6277643625612626,0.7690013630944407,1.366844110467974,0.07735735068521292,0.9521697848231323,1.958683448905573,1.6521177723769263,-0.4319735572732947,-0.9056831972330568,-2.5927820341628602,0.55184514386347,-1.246217213207944,-0.9337192565961554,-0.3095083783516173,-0.23292022933327314,-0.6234887704112011,0.20153005600910806,0.3218462195017625,0.7489879928539551,-1.6106719927593358,-1.255056997780364,-0.8803788860827891,1.1439978940948166,-0.7208884868653305,1.199080397041667,1.7750309963532764,-1.583477569607963,0.38203577622435136,-1.4808949209912043,0.10948469601295446,-0.3221895759115182,2.0890786744055974,-1.2707786363641322,-0.3926859941109532,0.33779060530792,-0.11013415438883649,-0.03439552237451304,0.8451054810940647,-0.8184980924060159,-0.7369435121416653,1.0899678277794946,-2.7479862852360535,0.4866552854395055,-1.1229765822343583,1.077238284528683,0.1790731075472675,-0.7503730898895339,-0.03263599545768746,0.0018266531614230083,-1.2486542520739212,-1.30678699020434,-0.9209724380539918,-1.4544134685080043,0.5614723616667898,-0.8553689901721423,0.528196292260859,-0.3245057699118963,0.4046067860372249,-0.014820265745393694,0.42074851664253315,-1.3584452342896336,1.5263852498911543,1.3085212028283022,0.4010818126195737,-0.6120820765108743,-0.7070359800011822,-0.26237423657709474
0.7916093732215795,0.21802217896713,-1.1102601628149835,0.15760847819470256,0.6268195220872766,-0.3069355120087857,1.2068058863125746,1.2968815089798258,0.18647329297077012,-0.038994178529187226,-0.6457832957292429,0.7654658438975251,0.9002982538178692,1.4049330031889282,0.9853834893553495,-0.14904156782531494,-1.1896433231034251,2.4921856626560257,0.5789694342052913,-0.5331985844547712,1.8818559346146477,1.2547626791872,-0.5756885561666255,0.631353372673231,-1.265630635988302,0.07035862577277842,1.630917862081016,0.22439263474347032,0.6122114559532076,-0.7656241237713991,1.913050702553215,0.4092266718426096,-1.199447173834385,-0.171502845161504,-0.11241310367677669,1.7641731871093622,-0.10067372302611396,-0.5696839937687287,0.6010382251087238,-0.5211784056592323,-0.25521310344669945,-0.9333083949396668,0.3300541538410109,-0.37353203802207985,-0.1813507560671121,-0.5802998568016713,-0.20962295144533835,-0.060962337815987006,1.1382372134737893,-0.02253229270123944,-0.6194929012836519,-0.396955432908908,-0.9529756754767741,0.6467966093721665,1.4786103910738577,1.5576299799459,0.9875344674292911,0.4709359803141285,0.32031506564722667,0.12889698142895456,0.10957673931958818,0.7294870346478611,-0.3726434032406475,-0.5376159414423171,2.2897226935635757,0.1953078864997664,-1.9368301258613003,0.8941511373477765,-0.07045137904586686,-0.6455565661259672,0.5786129111608614,-0.44995822030008004,1.4830228157183303,0.06843828733672931,-0.48726725249468966,-0.8062776556648378,-1.0300686952556197,1.6312632701545269,-1.0879649854989084,-0.6662487647586305,-0.22063297153106923,1.8035784356757045,-0.9280833661364756,-0.5105358444707564,-0.11252355720262788,-0.2385170598566808,1.763133946632556,-0.967957010341367,-0.88944145628627,2.5080641183609074,-0.3393708199113402,1.454334148580831,0.24193537775391105,-0.7445854960175224,-0.5323965699537498,-0.21708068230443228,1.6177396730853135,0.10658657814665831,-0.2907750241479847,0.38803640425644687,0.3629593629369011,-1.44224260962594,1.494752770115885,0.791947341442726,1.4539530591456087,1.0646627238901258,1.4601410481573793,0.4615722044436551,0.990690688257815,0.03464265391699637,-0.09319476919148074,-0.41786701253257186,1.107563647289326,-1.9016590270681457,0.0016743977541536937,0.9734367053255599,0.5832878522080542,-0.3747161619955997,-0.30960797992161715,-0.28847974304001567
0.30539681627744203,-0.5755801143668685,-0.45170122010287517,-2.0851273334624407,-2.22357553111705,0.4378736067434832,1.2412232895326178,-0.7002617564319158,-0.09005816561343893,0.4293186126017403,-1.1976092806468437,-1.6344585479270262,0.37386478999140443,-0.2781755362306757,1.7558771532719915,-0.6094582836827093,-0.909977204558855,0.22472003775502164,-1.1360153701668196,-1.4336959218073138,-0.6469317035505261,0.12874098058928754,-0.4904190317903848,-0.6069770086120314,-0.27621284410344854,0.2482663025789151,0.527987961356097,0.9411673781813163,-0.9256710564190878,0.4967084918075459,0.02014147465203994,-0.38823769325712176,-1.7040688982546908,0.531530544359534,-0.30132873571349456,-0.3603467143606726,-0.851137108529022,-1.677307178115846,0.4466301590903102,-0.9681451492123468,0.45946306498508177,1.0646963929227051,-0.33049815396700805,-1.7376066818959566,0.2861957999055739,0.9891698441881676,0.22616517410199347,1.1399925191185505,0.5050468005136642,1.0643730183399638,-0.25169893997725645,-0.9015115993456234,0.6480937643838112,-2.4852960494570726,0.7212701057859349,0.5109700255673125,0.8881534017301903,0.6661353271883341,-1.4743788570739589,0.7111671132422483,-1.7147226089234757,-0.17842133324015247,0.0945373311398561,0.38155196455995377,0.056560680426163704,0.013182793985247635,0.07958441694428223,-1.1538638954299374,1.1375990791027593,0.07347207204595434,-1.0944024463936985,0.3108279100184454,-0.31125226256132416,0.2036650598113244,0.15072784188738847,-2.103726984882014,-0.6656419101882977,-0.5618945893881431,0.10565921067440313,-0.9516218280166447,-2.556562856495797,-1.357881778333206,0.16201707938948373,0.34379970344654603,-1.2074574671846905,0.6196053525049614,-0.333249685146102,1.3129545446407158,-0.7070678037634194,0.1606963841978821,-0.06576511874370342,-0.25817329245236736,0.4378482469219784,-0.3398412379636858,1.3887097352573383,0.5457563442741822,-0.19472173370723803,-0.20451114702793477,0.5445766528806019,1.7912268276388574,-0.9621177576377682,1.0940099810283597,-1.0031909361622948,-0.029905285284644346,0.06383865079226633,-1.0646391435901421,-0.2687572353941077,0.8041306939825271,0.19886466012810713,-0.7289062715763174,1.5846261103504578,0.7731055995964674,-1.321973334892487,-1.4316262884608957,0.5708972514697807,-0.894867661004078,-1.6511477795257787,0.008263684560063633,0.6736661312453539,-0.6497889243965435
0.08514611334851431,-1.454723298178116,1.6739827249261916,0.107568605584659,0.1667279811686665,1.214677049684566,-0.004824246319259505,-0.4259654863066812,0.1474131490918994,-1.0983843110260625,1.5034898416200602,0.015144653045254416,-1.265128672575213,1.4160135941871883,-0.3863169430996632,0.47546082552915203,2.6425143425475657,0.5129618750093212,0.09381241564662383,1.9501076260651913,1.344648018659361,1.1881504727815007,-2.1554278762488117,-0.6546208294010051,-2.140258644954483,-0.6075804269669108,0.07903277328120197,-1.954433350200023,0.3589285156046441,-0.14241107721829044,-0.9477623919383147,-0.6429603403289543,0.4323242103640775,0.5871489576991687,-0.18018588826382634,1.9541787465810196,2.203952128347271,-0.11884684403235828,-1.0436483157508092,0.6568256339705442,-0.16846097420729994,-1.121844193152338,0.04353815755695532,0.11706093083481937,0.21596402140989626,-1.0023882254005594,0.5639546241193165,-0.23855893245950424,-0.49213121393247505,1.6179658704050788,1.0205350901016406,-1.4735281243923306,-0.5156445935325044,2.3088450995321623,0.38613453456279273,0.6802266997222447,0.9130019650290252,-0.23061874077608777,-0.6000667344667011,-0.7219382801278794,-0.10846541135115734,1.0896808101649855,-1.838896923767173,-1.471431473520112,0.2117714799214335,-1.2921289825956348,0.785406517336272,0.11031863067496615,-0.9036026272934261,-1.104515555450774,0.15184756550417186,-0.6439962369024786,-0.42248346268481723,0.3997775352485392,0.6106480403580413,-0.19988419483243516,0.8144750202830943,-0.7046082812603249,0.7087666189268802,1.5148567460950897,0.637599837079504,-1.029976433388474,0.5949968402458023,-0.3124488771000228,-0.2981936794242012,0.44948506839755964,-1.5542296674486387,0.274546465597093,-2.0751727195882097,1.4513563657501674,0.6540170832293584,-0.34851306227919854,-0.39689235243062065,0.11129159903415335,0.5747558035016953,-1.3448228154531927,-0.24245881896590935,-0.7377145955898949,0.8858641025816822,0.20757753234449774,0.9419275128100667,-0.8349437480372163,-0.8534573792636306,0.18055048996700124,-0.6894021859572563,-0.5943088607442842,-0.28120189634354,-0.5137883834624354,-1.4448654516211048,0.34793306147119085,-0.5956701490323247,0.8965507751294889,0.42595618687855824,0.13476747799741054,0.5118667060311989,-0.3376945833944029,2.4325260119107575,1.7409639370711538,-0.8752173391610724,-0.44663857437205673
0.9478611182188478,-1.006563138522333,0.24131241645001011,-0.19555802954104015,0.06706772850858066,1.02481758565821,0.3447432837357941,0.7647112072163808,-0.01962392921712348,-0.8533685490178547,0.331705984974221,0.5461268094664757,-0.004088799078795433,0.48840022763104285,0.8910989195360977,-0.6683488956283743,1.7112968991420439,0.07390294445259879,-0.27776311099678613,-1.159990322654243,-0.29088912130278227,0.5710700002195301,1.2017342636239445,-0.5943221289188195,1.6848785786656146,-1.714037364956565,-1.213558593616735,1.064602063371695,0.5441600035068543,0.4119097010767671,0.8073816862936848,0.08708533663363136,1.6834160291501654,-1.6991526309667997,-0.6332994608078529,0.7873814003325085,-0.7049032911352703,0.10556877870646722,-0.2769174886089714,0.5339725007653626,1.1528015420263102,-1.1113502936873123,0.746207084154258,0.39486580305523156,-0.23220994420838,0.1874350503006731,-0.4124117665372657,0.025847871994354527,-0.4670001738619227,0.3023901757291048,0.7939449588946369,-0.7315000638656483,1.130238343126642,0.4311423560235939,-0.05819814688722814,1.862877889977221,1.0036633870735654,-0.33329543034558917,1.266092843415589,-1.1774857752148487,0.023431655397331795,-0.7651111147167896,-2.53578857986345,0.4977607331598382,-0.909207141361418,0.4416444578960765,-0.8171820809049517,1.711143213540136,0.38983561342277545,0.4514471073239285,-0.471234256635418,1.9234326867053575,0.5072352266303328,0.24757973939324684,-0.5016770202182057,-0.2113180725152834,-0.7283038269470885,-2.191267329816448,0.23598587471203175,0.10799035830284591,-0.2593242745479786,-1.2848802252075762,-2.2092919472266805,-0.3027536559538472,0.05269487335605133,0.34849193264946354,-0.20846654812167958,-0.20623455405000093,-0.09426245076428579,-1.1819574429966622,0.2461155602807625,1.9686530111118965,0.33161314608461906,-0.4645837957968379,-0.646444567460972,-3.007892256400339,-0.6604625281916118,0.9016901362944535,-1.677999050671632,-1.4439821693960722,0.24732353282915395,-0.3915530165062362,0.04456402010939824,-0.7677892255055998,0.3248733153005881,0.207601079106891,0.01677447665387842,-0.16480103206322955,0.27182654098202774,-0.3056360767879577,-0.5091862821110495,-0.7746312804651433,1.2374228390192707,1.0860163953777346,0.41550511263386664,0.6986714016930753,-0.4927115096790153,-0.19514275236831516,0.025424003633062818,0.16027357622166183
0.7941905367721717,1.658666776498669,-1.5661357538622644,0.23254122338592928,-0.37244201744619243,1.0545262914644054,-0.03793320941489728,2.4018944840048704,1.8283033743392463,-0.20932576951092738,-0.8759287410859047,0.5049695771965831,-1.8396695161885255,1.5877697871272254,-0.7897086968298692,1.165398290834094,0.8192946154172753,0.2773746794982592,-1.0804314487755067,1.5413245598737382,1.1758726187828177,0.870490049698914,0.5552892108601547,-0.7968198500936428,-0.2827218399311362,-0.6019260242744722,-0.5204334546872535,1.9923582376331301,-0.9007564322760601,-0.04830692793375551,-0.17763464388633407,1.2543060227418048,0.41053806708107404,-0.28784877523651053,0.4730481956707398,-0.7492301426686462,-0.3049323942222829,0.6507604774554917,-0.16735392956512343,0.5995512596820306,0.35775728059302275,0.5174171932114855,-0.33204160322951437,1.0642793844030425,0.1382045545400069,0.08025011943648301,2.1769350116965405,-0.19357574812938994,-1.4100875433196252,-0.49531920231676707,-0.28295700014810343,1.2593031422694292,-0.11623722383754158,-1.2738393486641557,-2.860051981310891,0.9864797784322102,-1.5874262705492586,1.308131456597651,0.18441159709603894,-0.43797970921207663,0.713884386496044,-0.9683281452400362,0.3820646692535758,1.690223722985123,-0.680205827769821,0.6724730432528421,-0.30174097162053437,-0.9679587506557703,-0.4476314232046428,0.8685237863444448,0.6910202857615239,-0.11872157778067281,-1.0202470622697866,1.7110789327381992,0.6416566439562836,-0.8815146756082675,-0.7023110819882271,1.4358181231626492,-0.11849131817369168,-0.2190998728916756,1.101653984475877,-1.0283446273537198,0.10189430690582457,0.45599014330837395,0.14461364899673262,-0.9038732082734473,0.2413760808979139,-1.5501551428613272,0.5970870020918027,1.4054282383562422,-1.0257784826383094,0.7233508417580674,0.6217383537756278,1.3550521668888122,0.8918703238783721,0.05989527709706703,-1.5694610918167362,-0.6775467941717415,-0.20793528944181267,0.557513036437605,0.10879434737119387,-0.3242092513749109,0.173026957023406,0.43039887183261105,0.18760237286356923,-0.6684233315412886,-1.7829567733566976,0.34699884289612887,-0.7767424260642132,1.4017596164340047,0.48875449518764547,0.5681249471043485,0.9454990917338586,0.7078044635086743,-1.2057480868797195,-0.9907545110435487,1.028814711683173,-1.3837024311794244,-0.407275945862767,-1.3088675379154164
-0.7199976877268645,2.20496760834913,1.1912691992350413,0.32295151303696,1.1064804540155844,-1.442462258932854,-0.40155810993809743,-0.8523868552597574,0.26900399535005504,-0.23151992686283776,-1.5795240218351412,-0.5155599429794387,0.1884926698268687,-0.06405717639484927,-0.1577178688761565,-0.6751195890874199,-1.751761304594142,-0.22109076709308176,-1.5050533998268576,-1.07413254002717,0.2067217237158933,-0.9907284734734269,0.13716301153890997,0.20564417314917244,0.04580205915208937,0.13035612338956953,-0.7250514407394939,1.550692376623235,-0.09059561665116432,1.4520763358825568,-0.7296688317352783,-0.9895097637477036,0.9929503889911138,-1.2054535218787008,-1.9516058333746233,0.0167723589692368,-1.140348066134706,0.16047229805747049,1.3150055330153958,-0.4279265188815512,0.5843091859003609,1.5655243547157949,-0.8591409279934934,-1.7634125791504796,0.3281243655551401,0.05912321044208235,-0.16812423707187327,-0.2768582871545027,0.5972161144071051,-1.9974017759393894,-0.6270754047092558,0.19289828641062323,0.39023932889472557,1.2414016228158906,0.527195493857526,0.8920672572867028,-0.07379650272318503,-1.5631636497332488,-1.064009046012647,0.21938073475573164,0.12125368020553041,0.42557959868881845,1.5851359518096968,0.41031555907069506,0.029849379074946798,-0.4359075210875835,-0.48269145036110245,0.6901644413996494,-0.3696270731809374,-0.20182657560185738,0.5429046105954002,1.2724803225851242,-0.684324501449319,-0.6441472178973249,0.6895243851648972,-0.3007501208529252,1.5154973688087752,0.6385094406695678,1.3495633000127547,-2.6257163571452997,-2.1185780632248137,0.766317735427492,-0.4917607987080869,0.33190314528950937,0.3994683098528127,-0.30895093247660915,-1.0308773241003588,-0.661918391339408,0.1798492511783008,1.2766107959151007,1.0790710588926067,-1.543801550087916,-0.2840571500396841,0.47462662994954885,-1.3891797431162067,0.39566284302172133,0.5881013397028374,-0.25688448079177206,-1.058666707581237,-0.6416232065099363,-0.5340887862028653,0.7258898312917422,-0.9869951862241741,-0.0026816064481473274,0.6994878012244519,-0.3419669833307952,-1.5681599259094545,0.2732560193597376,-1.5048389964423463,-1.0115410250000667,0.5001211167241028,0.7465893002875212,-0.7283769233021096,-0.3327718725245588,-0.18897087705994794,0.6070173519348947,-0.3005744707172747,0.7367890490517639,-0.7917138703489812,0.324963684730346
0.07488866387972354,0.6220204271166001,-0.00467617684519597,-0.786369234123584,1.652499601212817,-1.2450913517215967,-1.0332061553940017,-1.0606553827584997,1.17143462822857,-1.144436514613742,-0.5938651847578683,-1.2106824185758425,0.5666450095085852,-0.367045587204589,-2.3075946679626025,-1.0959368675367855,0.814908599759314,0.1710856974541485,2.086218935030163,0.4256199489124838,0.84399927888195,1.781553755255623,0.08563016257513911,-0.11553595349604578,-1.1363866389825914,-0.2264129502505217,0.6381747790568498,-1.687864410975156,-1.0821100353899826,0.8299166408838733,0.6881285398443898,-0.7698666623592203,0.04892900556331553,0.5790164163481969,0.45083950882687357,1.0023431617582315,-0.19353445983934534,2.1179410592117796,-0.8457686326751962,0.2604286860630843,-1.4855583296999917,1.0897860438362057,-0.5928824418742542,-0.14083218450013038,-1.003560958870788,-0.060304960984712004,-1.3366357550290826,-0.44502215917294213,-0.5349671031405004,1.9680953976473732,0.6671077409431804,1.0603793390162326,0.6946144714289332,0.21954016758458791,-0.14249769946565635,-0.8443541973515685,-0.1832560792996736,-0.3364483994931466,-2.3761394308468,-0.3544727318312642,-2.7226755073644617,-0.8387088041480958,1.1375124242444883,-0.694337189739712,0.02124288342694159,0.7761744697534293,-0.7489321458795392,0.40856617258420164,-0.22357901019517745,0.9479160789717785,-1.2328770370533622,0.4975945720720725,1.4019557408350922,-1.114166137460326,0.34054525786356593,-2.153491865709929,0.3685048309416089,-1.3378693074075578,1.0210665857186811,-0.03995284631108991,1.263050003167111,2.3140953053455804,-0.7819841494628652,-1.4055348118748756,2.0764518909520566,0.11770860621024298,1.4894814646861307,1.4576906331589696,-2.926761545515761,-0.6299756698066272,-1.2115578773424425,-2.7400313598115513,-0.8834501571010105,1.9295267286056568,0.008504768719209643,1.101900210516985,0.4568714894314688,-1.2126799230379992,-1.7000267630419565,-0.5847344731040081,1.4205395984845497,-0.7359506654404973,0.2419315460823795,0.12893631430440544,0.5930603545955855,-0.5250637682964411,-1.737267431866395,-0.7992365432684847,0.018533566167375688,0.5364755970027222,1.279437540586392,-0.8106155417395386,-1.236948138319333,0.8611480809557988,2.7535085686188636,-0.06922579148757213,-0.08790408408646759,1.4077961366096636,-1.813450814285466,0.06184947219852661
0.06419497653167246,-1.2539708056970427,-1.2168634966576408,0.07636333971813444,-0.5266097554167849,-1.0679902643251251,1.3345353672183053,0.43493735028924563,0.46676384825173317,0.27312607162395386,-1.2513184928093122,1.0429860681813834,1.1090746953462776,1.0698293376533334,1.8283349124986303,1.0024200845260498,-0.6993943901924473,-0.4513258572869753,1.118504570073589,-3.021055178866756,1.1718040184471517,-0.7786657328746602,1.0246677155756578,0.14063858629182358,0.7851840476388909,-0.8672562008709324,0.26162704173568996,-0.24516089555268714,-2.324757915777139,-0.4866397171065197,0.3659857404775033,0.023016478612619386,-1.6460849640328477,0.4195083152710435,-1.0843009952170721,0.08528264487772304,-0.13175020869629056,0.13033919437056202,0.8771424240744502,-0.0544719697254215,-0.06634345977836711,-1.8009880602792527,-0.6100620936062104,0.6044305001881501,1.1063115526840095,-1.2488502156391108,1.4865206346448852,0.1552085956470888,-0.13610077360274386,0.199609709251369,-0.673087056701639,-0.35262635573868173,-0.5688112907027872,-0.22553572033882624,-0.07825945166274426,-0.2522607695266076,-0.5129044984687922,-0.13919206640732448,-0.11471749249060513,-0.6234343997315877,0.11433312238872298,-0.3288164982752436,-0.29769042837361365,1.235374923730443,0.30865582724795587,0.0730798131221284,0.4040330081732328,-0.24569102792209896,-0.9634898127952322,0.07522939646898266,-1.3576966703390179,-0.036090613463577864,2.0550632750469826,-0.3989850019473614,-0.7072248353492249,0.024857973188564655,0.08544439112925933,-1.5086934954492324,-0.5202051183530678,1.1323485532549127,0.9368509834283429,-0.27257691676438855,0.6133422288579862,-0.7666586785704153,0.27161044660342243,-0.18239400623817328,0.08785928982187614,-0.12310069238377512,-1.6330209403571163,1.0648926068470288,0.29637062378577567,-0.6752401039244554,-0.6710816691743031,0.8779804695996934,-0.8156435288996167,0.8873405571434204,-0.19038149590275055,0.8672372114707146,-2.289765997875273,-1.1881375398641694,-0.8967589644620511,-1.4216544559071709,-0.3768857825670221,-0.7445755573249754,-1.5632279182123112,-0.12173484368804001,-1.251477083870462,-0.2922597824137832,0.07151809724455917,-0.23183756985796466,0.1388401238076804,0.6649790893308203,0.09643539025761218,0.21225076823754913,-0.820610934129963,-0.7415643225776568,0.16348436215579082,0.22078520745880825,0.5624489918516906,-0.43071948047583614
0.5577998338222613,-1.0876121836761559,1.0487485485163552,-0.2988417222892319,-1.4686037028078804,-0.15768128795392422,0.39894195344816746,1.0487617934544577,1.610372498449076,0.11313870083964582,-0.15323980077280033,0.6793268484316507,0.5199473185764909,-0.5469114970227457,-0.996180961518327,0.22459197756876365,-0.44063227225039114,-1.5930030678671676,-3.3660962935537437,0.4075916802974324,0.37740772525056465,-0.3442153390888911,0.5457161667719961,-0.9642566697401791,0.20065542949525472,-0.6788711415322748,-0.26355427690137784,0.4127112794972734,-0.4152742673635492,-1.3435910709261967,0.06742840103005154,-0.8995485828695294,0.03571133581141312,0.6343587272058564,0.4654146933731794,0.48376512377194186,-0.450731817121022,-1.413559906710045,0.843438427308615,0.8711450886886019,-0.17562754065536346,-0.1703924545026899,-0.13985060924766957,1.3020216636548565,-0.961978994468782,1.6643341346616942,-0.2559200389823019,-0.5515823782940802,-0.5820030113065456,0.624315635425284,0.3708498350013189,1.3710706458318833,-0.7762560930954469,-1.1162641956417316,-0.6433940297401042,0.6138238021487457,0.3723001613072182,0.25504398809892753,0.1172198675235331,0.5940606547008125,-0.5213833806887177,0.2888141702789926,-0.9448985747160159,-0.2680651065998941,-1.7462627887058235,0.4693521826456,1.5443984356875013,-0.08900464480664905,-0.5499838133119203,-0.18672961984386854,-2.5418312504010037,0.4930919148679793,0.32793606133570824,-0.6999299629951147,-0.4279758578958317,0.4061188770229932,-0.8797258546527322,-0.6340560115211504,1.0697227023280382,-0.33769368394766436,-0.0708334365175095,0.6488655483730585,0.12392084933463605,0.9557547870908604,-0.08009621889195309,0.3185186702495578,-1.2952532341919825,0.14639196102183952,-0.836725461047483,-0.3550120127062427,0.1957669971111867,-1.5699635220081445,-0.33429312039568515,0.15149859103971827,0.6203115763435989,-0.2904029961030973,0.18564163384891175,0.7360294648137822,1.0790981465671798,0.6121757332845987,-0.429763902018297,-0.39316027054053354,1.023521831565092,-0.08711676365304041,0.47317980621311867,-0.22877755840506667,0.607983196071452,1.4428111950926985,-0.6087586941240498,0.6675354419688495,0.47460044975009485,-0.4351680399906033,-0.6816274740957249,-0.13342726384269746,1.06430007799139,0.9792584692680341,1.28376120724045,2.175895131389108,1.107868339107774,0.22731086612057516
0.23207026936443564,0.7803777678587764,-1.3004859840645975,2.4039018905589375,0.062186340074775935,0.458448205510465,0.3826121908830439,1.5003482239703583,-0.8576406247980435,0.19160038862416873,0.8811533457902767,1.0988950245435944,-0.14717182648847463,0.9515312287772504,1.970334276356998,0.39591615483308074,0.05581093034915688,-0.2800606038970773,0.3398693868747712,-1.347962227789122,-0.9952040911556681,1.6554830805603011,0.17712248492851587,0.35000311868280054,0.38923435488323316,1.8446353465440604,-0.579035592524707,-0.5565342072073691,-0.24596680396552845,-1.3683358082908066,-0.15249367460976537,0.9410053155867756,-0.043430245248519884,-0.65727088515629,0.04022588901455532,0.8601625664425752,-0.9962929788574119,-0.20487454564517868,-0.26974145342065925,-0.3580459167626442,1.6959073663347184,1.6828957112879999,1.1922930292953624,1.5491154641493257,-1.4298475795434935,-0.7947568240438446,0.6783092381898316,0.5367695566949555,0.4043823797365028,-1.0621921031271084,0.4079941284645094,-1.3064076914930252,-1.3229866566616584,-0.16803865806087742,1.3278202614086867,-1.2231700266746721,1.136021679908934,-0.37448157847094315,0.03613873851757141,0.39309198712107946,-1.4222111698774826,-0.934488447486171,1.5179029434795228,-0.5888601677869663,0.33556207005626393,-1.0009573890179475,-0.20717187813139165,-0.8752668863400314,-0.5937288046650836,0.4038405355070554,0.053391811864270375,0.004129396588024681,-0.06542708627717521,-0.007141223894390238,0.8674382804657284,-0.1428371837330816,0.7141872109915629,-0.2431283841808655,-1.734994483705299,-0.9592177904556647,0.09403805300079601,0.11880430234194808,0.9774368332127004,0.33357449334104083,-1.515885450666079,-0.5938875541939006,-0.21114877656172756,-1.1359710020300382,-1.313318436165102,-0.29226747168882855,-1.0738734624470492,-0.7158597446861708,-0.45075599709412945,-2.1228131393061225,0.11334986255974114,-1.3786753826237332,0.037297566251441434,0.00010680296153919718,-0.7376124445626808,0.03802121545324082,0.8853382480315791,0.48444269019245956,-0.044366467517028746,0.470408623404481,1.3492248143879004,0.043925223413869875,1.340607991412697,-1.5117331431798673,0.9897101894215312,0.26356818198374077,0.5717964108493425,0.5164685879095493,-0.5439765492583212,-2.48698770770781,1.3059495236384189,0.23258260177152973,0.04992388260722368,-1.1089254095736585,0.06192596172402648,-0.08438805398371474
