-0.7393191180942591,0.8924479417134494,-1.018674796049416,-0.06706588080319523,0.7662230638354243,-0.28606895398835974,-0.7986644795471404,0.5039903135202393,0.20402725334507005,-0.5567397281131257,-1.0130123080846303,0.4345799301362423,0.019978986521325626,0.44779755083509165,1.775739090107668,-1.725787286996482,3.6722865085873946,-0.4265111608402178,-1.2922942043193093,0.06176402110352631,-1.0233939878585028,0.6094630964791408,-0.5365003724932543,-0.08407367977260134,-0.6048246882033894,-0.5417788114933956,0.7697193375608455,-0.7985480471665052,2.6949322967438585,1.1279553806805325,-0.04051648860221718,0.4230069360023949,0.514180663530329,-1.8733087550990108,-1.0948489144422087,0.7921384836698384,-0.8316515632594119,-0.2556791559320007,1.019774851082827,1.2325930864954548,0.17839348203763214,1.2379209886081097,0.5010254648164923,0.6894784374853631,0.47950344507346965,0.5646092924175568,-0.22864118226917723,-0.8379765698809657,1.031485143410644,1.6135705012663655,-0.5496082159280988,-0.6727946116965868,0.22107901712131342,0.32353356551686047,0.27353503598442835,-0.2890839872577256,1.0587908187319472,-0.4226306290057001,-0.20042519496721173,-0.12541665229952656,-1.2455605129797183,-1.3229532760492348,-0.8391702210706653,-0.6989557761499564,-1.2445119105672884,-1.3209157091894257,1.2617798889262168,1.0811576253619737,1.189419184299641,0.5724013921953494,0.5660635375152823,0.3643266517613771,0.1869171458348845,0.04444298856699998,-0.2466104013455325,0.39421971211628437,0.05584444267523875,-0.815459873709075,-0.1354581376191653,0.45939558462900365,-1.7414604429694855,0.43374639927904457,1.8117881856033025,0.15542440601027344,-1.7547851726460857,1.2251164361962323,-0.8094340617295832,0.28733546447944724,-2.2312943138650043,0.6661070023502086,-2.3506467318364614,0.05633457307244493,0.5136124856736057,1.2150635093309499,0.044313843181652914,0.43158383205939205,-1.148421343355464,-1.2870911259515785,0.2944699405094816,0.4960557884604026,-0.14237159069580502,0.8133939995926366,0.1938612249575663,-0.3010420424714513,0.024364418076559362,0.2428580040395622,-0.7386566138263161,1.7367680542570796,0.0697346925498582,-0.46283240984624274,0.7537517723663004,0.6077105949592176,-1.2114610656171965,0.7213991841434094,0.9767137340292726,2.7647685813266945,-0.9018075091034475,-0.40295406942208156,0.47799472314307856,-0.21192499766818457
-1.024043856671637,1.12768777280642,-0.30124516077116703,-0.2054244290800568,-1.4614668847324948,0.3653907987302752,-0.7450249007737763,2.510807616045401,0.005435073039833198,-0.5515540335216572,0.5276820258394421,0.877603401176615,-0.24234010297102726,0.9037120192951043,-0.6295856807410453,-0.7046632675915129,0.1614033394955028,-1.056885210615627,-1.6491051126381684,2.368982493353268,-0.517815813071768,0.3151300880712628,-1.2582468785578975,0.42951134916090333,-1.9923595526819267,-0.11104318160864801,1.2508473780248834,-0.19482554242782144,2.851692956669601,-1.1362444609636069,-1.1376117078526733,0.3828147140666803,2.073925776351434,0.6790043747862609,0.0823504782842682,0.43787189866735254,-0.0013781247922058449,1.2734371983925061,-1.342114732729836,-0.2279534214910825,0.7076694890686013,0.031513432685921994,1.9615390832102684,0.968432810075479,-0.2787023460498013,-0.09302618450297667,0.7918025206373098,-0.5527351995741144,-0.22736386475376835,1.239192101681686,-1.533962370177721,0.524967045835498,0.5873597979494303,-0.06281827487778033,0.846118686193445,-0.9985733913891479,0.5096037820214319,1.9535596275413243,-0.404932508364259,0.6762561257407099,-0.8321900534574097,0.1833799630228259,-1.818787708674863,0.5969405146644864,-0.9319617073361373,0.5267219060551366,-0.22001918289340217,0.5494972356966363,-1.673170144218338,-1.0350085852417266,1.4897383987907546,0.10108648113517739,-1.2117044678561288,1.1584241410293112,0.8562077722084729,0.07935997798113624,0.42578429956362035,-0.30575875688193843,0.1786271088390264,0.6584150483847964,0.9056086155646064,-1.2567028112649552,-2.393870027897888,-0.1210893208610851,0.3329372795437839,-1.2717778866431175,-0.2047898081569001,-0.6044806161220202,1.0045668276932125,-0.2882257356018415,-0.08342347175076593,-0.5308308170595594,-0.06455059744719296,1.1692826643211283,-0.8221409612061739,1.1836696974980072,-0.462527518165406,-0.7488969092638601,-0.6506110892136984,1.1930741389170971,0.4175843728966703,0.5460413452454179,2.33033186083405,-0.054623859364464414,1.2811422362482252,-0.5893533589679959,-1.4078544089902765,0.21945466751870885,2.0538266068579714,-0.7842498532691143,-1.0774171266043229,-0.4725824789610798,0.5896024236367693,-0.2944676057544755,0.3975428948216935,-0.405904317747261,-1.719981012975991,0.3307428929155451,-0.11005956796785943,-1.4357740573887858
-0.5277355508752392,0.23238108813467317,-1.537339489208153,0.880627774861573,-0.11991284015277082,0.79666007922952,2.12017616040394,0.14346907396135475,-0.0893431166073519,-1.0577975948291656,0.4426742299322302,-1.9766278361202354,-0.7869301206505093,-0.35958410896520876,-0.9276665278691487,2.1563569189239873,-2.408283080272107,1.2418862899279601,1.3113806666128018,-0.3464578265702431,0.2868849349141208,-1.494018678173051,0.7803627671586852,0.7162403010865769,0.8272800240153682,-1.1640673182141887,0.764421923028023,1.6081594367884837,-1.7216649270751327,0.8360904680806875,0.4308218620482661,1.2948821403275017,0.2153095944154945,1.4288887058364061,-0.9669752953125061,-0.7100110887920353,0.4863362309124723,-1.0835725132349487,-1.0423672312256174,0.27630678209955273,-0.3623430888066434,-1.5569873720006604,1.0656610703934504,-0.9109264111161481,0.10893930894087471,0.8529791661108563,0.6531375291920385,0.9789394957172358,-0.7565292834147103,-0.9533117300807189,-0.10787085850009086,0.5395967476565013,0.5727094296650985,-0.3857665060513912,-2.984309043742846,0.7841537440871172,0.7508715213280972,-0.20033996485728559,0.16705405708465787,-0.592603728697057,0.5415698791114941,-1.6770382466867317,-0.5362590608600696,-0.9849535130899154,0.0671443736316329,-1.4054953273935065,1.4381095568109707,-0.9125156112404015,-0.34396150963377586,0.08559157068934369,0.13029588757384278,0.7231728339006605,-0.6894291681777753,-0.6350871466538479,1.3424183652426636,0.9606244859184517,2.5830948301299848,0.22849510710145254,0.4484082126338723,0.054531013162399965,-1.0203296041356815,-0.5805181472192887,0.8558108308046689,2.3777803456734077,1.2539858692298187,-0.6430567123720029,0.5242176464466622,0.22426150947194562,-1.456624519112679,0.8723874000475174,-1.8076219230983772,1.0964944775154293,-0.7482453618921557,1.2556681737933115,0.19355225855320585,0.5087789657369197,1.0634598827249289,-0.12029413620919113,2.231879567925745,-1.3002419275309907,-2.10090550714569,1.0101359734723518,1.0475291994668219,0.07895362228911512,0.14174778859032727,-0.41970390767731747,-1.6169445056116747,-0.5530324668961398,-0.3229220712122709,-1.3644970147082383,0.002536501484236673,1.2313827443718217,-1.0342859638068513,0.2019316857143154,0.4415508107520046,0.3644436129328196,-0.8846603191216188,0.8666658421849069,-0.932925810626517,0.2402605740287618
0.538262007047384,1.6142568545935483,0.20107056619586589,-0.706496874106752,-0.7107602404832786,-0.7767722427696955,0.7079914348700661,-0.12571545959853783,-1.8583298782286768,-0.23483848464854215,0.393297613561231,0.3803917757844835,-0.9346356190178716,0.0343713254520969,0.3515933040280453,0.4654088289782927,-0.17726784414991392,-0.3286729648611858,-1.0374076237237453,0.4955456387858375,0.07104759211946339,-0.16987982882260547,0.3770468173932105,-0.5627472959916315,-1.0669329865220587,-0.45748509259953135,-0.33684876493878996,-0.1289488074064779,1.1500710998059502,0.34942995853500414,0.11738676736975173,0.05955807708173718,-0.5501240640519508,0.17350195834151885,-1.0144671015281528,0.1622717781860982,-1.4155061667326536,-0.6968617612265059,0.6370982444133078,-0.41284150925474694,-0.313399378186832,-1.4579374543294918,1.1677658816298784,-0.5131129454980928,0.319532463414885,-0.038256247702749734,1.1917867005355225,-0.8937110981625263,0.3953099642764236,0.9549099819546267,1.478732087930452,-0.750616487676612,3.0792838013848587,0.29808926291921173,0.4073765542799377,-0.5287939002054404,1.4542356798303397,1.5092352072885835,0.9334560824926195,0.19398441293335003,-0.6644669516737617,1.299928587048902,0.29205758253214076,-1.1787859012855662,-0.6376375227423734,-0.8665722558540511,-0.9907038983154702,0.07303793067459913,0.27318617005703877,-0.5100657143784846,-1.0240915589866852,-1.1391752481549597,1.0990028205158968,0.32840611498727723,-0.06971657320076789,-1.2670648374840385,0.33132235187722126,-3.0805225554643636,-0.439369157492197,-1.002672831338311,-0.3448398334702785,-0.4753041561967725,-0.7072946502295672,0.7594706556482855,1.349589141218962,-0.9425900804506739,-1.0992058918307197,1.2450408840073044,-0.22559219718837734,-0.5352526722559948,-0.6584403488278764,0.274536353630061,-1.6966103889535422,-1.617030756472821,0.575347364790408,1.101996078476256,-1.6861194945055356,1.7829646141877973,-1.0502855943307459,0.1318885767115219,1.1659276526852655,-0.2653068466352147,0.9211509453659714,-0.46339701926563015,-0.17834565103144162,0.6714403414018356,-1.0039173240360293,-0.613548169951845,-0.3272167867202899,-1.1768705639653039,-0.21875035372124527,-0.2864915009543445,0.6159036143578321,-0.608765617592906,1.1029298967108165,2.666401277388504,0.13881442534777375,-1.1632956470521698,-1.7795336309061254,-0.20364517415621436
-0.29924562956103123,0.21465886310318813,1.2541920897063454,-0.21071516749786873,0.27899308309062326,-0.23348154776635552,2.0638364572676915,-0.14039016982365102,-0.7247815617979672,-0.27023351757324693,-1.0286227538066717,0.3930056955844931,0.5138935785753563,0.8366573344882475,-1.73139691357221,-0.4781459807163438,-2.3645524205868815,0.052250870317734684,-0.27487880278883514,-0.6338428153770985,-0.6350219554889227,-0.3850678651702851,-1.4008295797132349,0.4215584414259771,0.5050334907163898,-0.6295306093953846,0.6833744693930266,-0.12672102185952508,-0.3142755307681273,-0.05775474648487032,-1.6244030855881728,0.22875419863394755,-1.0821987532835238,1.3638665624324813,1.444694427521261,1.2148408208192372,-0.34040507984216867,0.06280386876315068,0.0627514554438202,0.7692346659771836,1.2246082732523327,0.9428837611601568,0.3253977241883185,0.7465862490997335,1.0244439876389462,-1.1249000344450486,1.6195039602530912,0.03878546178062478,-0.26235363321971,-1.7041746336464594,-0.1746638225166325,0.2165151038937948,0.06262476178988485,1.8320465475160062,-0.153704534020719,-0.2227742381784112,0.08574182123208712,0.741541255444303,-1.0114519209183985,1.2705764912522741,0.7931501166192235,-1.462580288189946,0.22588917403927708,0.8902811399638624,-0.658166659149949,1.1760002581357611,-1.6098739281927037,0.3298971804996949,0.6355886838144088,0.5616033555990562,0.0823966716641214,0.5831801671985557,1.844670579743778,-0.14243532659168598,1.1745443872369519,-0.1635076853504409,0.9301525893814809,-2.025204157003563,-1.0114949746255764,-1.0000521397978042,-0.29542050885600596,-0.5896766624202264,0.7461023029466961,-1.1885364250034407,0.38986074438845897,-1.3159583293657382,0.29367128227932837,-0.053514468209680734,-0.7123313461715032,1.0703637087150542,1.8884632460703503,0.8382290552089405,-0.4271603366198049,0.5080486572920397,-0.7091285284208979,-0.6845868774522844,-1.7357023804986405,0.6999988341083154,-0.7638294188808322,-0.2676652914157362,-2.7187478259852833,0.06879022564486838,0.6427615951996997,0.2475080265039237,-0.32449719065101923,0.45068325028146977,-0.03930747013454522,0.24790568503171725,-0.6040522465594595,0.5691238027741882,-0.03936314579907159,1.600984387303984,0.32828273102381433,0.01986413610284397,-0.6105213600129703,-0.04365650661788417,-0.7173860549078221,0.831162598770553,0.41156588755737716,1.1854734770637219
0.33173411192137164,-1.9676926595577362,0.5371263378002885,-0.3176525469600072,-1.329561442591042,-0.3193531519849819,-0.0670169018658076,-1.7221810371593846,-1.5665448521882244,0.14628229404589724,-0.9354777484058814,-0.38953507472898063,1.0852216289952128,-0.433388475819471,-2.6083783776368565,-0.07803758736904835,0.7759189892065564,-0.9046924596144335,-0.5479383547911834,0.7303011600421324,-0.555537740586471,0.40606219223738493,-1.0567218681141124,-0.18737743412917057,-0.15250345873755564,-0.24119890477569259,-0.33846303609098305,-1.6237076717126715,-0.8865976761614346,0.10044122061127285,0.5247203757172645,0.3564284102507561,-1.3837937442585566,1.317468355090818,-0.43650228922827483,0.16759945285121755,-0.058827612242898925,-0.7867996115318097,1.637098848816224,0.0641744864003703,0.3540570776389572,0.4353050016963235,-0.25601216404027616,1.094974263938139,-0.38983784392819687,1.308246361372266,-1.148700085966865,0.33453496015951445,1.7735525998988544,1.090664292914222,-0.1688276769847221,0.5645656441711149,-0.4944068459514665,-1.2240702153335987,-0.8700066212178184,0.4968479046615057,-0.6042210539973175,1.1440658130277848,0.04277389271673747,-0.051640952457109535,1.878781431621659,-0.754038147752846,-0.7655878843732846,1.430210858897757,1.0991468078619373,-0.5002324483432019,0.3472174466043933,0.6725178471954419,-0.0108128744537437,0.6370581324147551,2.3686639006247145,1.6059495382172702,0.47860082579671676,0.19543186444072497,-0.44934426628984386,2.0728096539306273,0.3014525703699221,0.1617932354045406,-0.8977450477724189,0.2672594392112317,0.18286096006925742,-1.3164344799856764,0.2582437865314417,-0.5944742180769371,-1.188552555343603,0.24776910801175886,0.15637539453209218,1.895296193772893,-0.6647110697131261,-0.712766166536974,1.330510736975108,0.10248828028100512,-1.563375143498553,0.5872456476492938,-1.1096652759876457,-0.02325538033947751,0.4916263281960148,-0.980927104438284,0.4035776121948027,-0.17086282658702778,0.649907141101206,-0.7336231078828681,1.4605977630669666,0.8128884960395341,0.43128976206363195,0.054759323792486714,0.45698984817590077,-0.5021623011626213,0.07772988986512981,-0.003748933670427555,0.7586078977645645,-2.4535518943584678,-0.37132322821047864,0.9040984913956179,-0.28420652680815833,1.4575870991021012,-0.6031241535347416,0.12335922966228234,0.961345116417687,-3.4793620830580676
-0.5472387215284407,0.7284203630165609,1.0466544736535952,0.23494353027997975,-1.030003670269956,-1.380998136508009,0.23847547161401303,-0.2649957504093404,0.8661264683414878,1.1202759380666558,1.1915589196080327,1.5449278248934954,-1.2143507559033602,-1.213223729124624,-1.307473465166464,0.21522629814079725,0.8181747072183403,-1.638752840346892,0.5964573333293908,-1.318452522789823,-0.06441456014646177,-0.11255121877536031,0.09490960152584603,-0.44723128424558634,1.0218798169745669,2.170683071527197,0.8140147762891844,-0.8122154845736199,-0.3771315084364753,-0.6081892918003023,0.5048339777608641,-0.3933471797244067,-0.31172114866146333,-0.651493229941149,-0.42091990117493044,0.23422538789437472,0.18110462073303638,-0.7153681636589719,0.38402060061804716,0.3776436721674837,0.00019032039933143438,-0.4126288587909499,0.011228396648678208,-0.7824329363512998,0.7502821594411637,-0.3314951730849615,0.6038330620521686,-0.1861785573489706,-0.5842983525307163,1.7342942365995655,1.2149530537654318,-1.7966264139177872,-0.494345157835417,-0.14830121962488835,-0.4481864065198767,-0.9857050939270928,-0.24715656162601993,0.9411799345315406,0.5707474202849704,-0.23632447899865297,-1.3525706298430447,0.6361579480015898,-0.08803129420111108,1.530483054111541,-1.3186058555386484,-0.45319544624271324,-0.30069598128394054,-0.6673130221405427,0.6831451660477884,-0.14790902532352274,-0.25399048382815,0.9433041385984278,-1.1963196000953067,0.9189957838384768,1.0076121503959579,-1.1161027400555787,-0.6370371109870469,1.1014014340869998,-0.9428795432335001,-0.8851095211906229,0.6603514292232211,0.4309376937421063,0.12115660817366296,-1.616482921813654,-0.6019122595585144,1.1852241707882771,0.5631048810810311,0.06885002422383663,-0.8542363061368543,-0.11136583383753111,0.4367799082372616,0.509647359132968,0.7332808132241105,-0.9269971399113873,-0.2234921891515002,-0.7193270439614465,0.8663218937608571,0.4502827202759837,0.06621689665833662,-0.31097985443882875,0.9212425089940599,-0.7151887034011387,0.5413745029704755,-0.6992525720194859,0.6630671217714148,-1.0907676452359572,0.5424324625202148,0.2448385802206089,-0.9978048188388828,0.21060559317228747,-0.11740354609163665,-0.48585613201610584,-0.58591440148808,-1.2753258017924145,1.5675350686308664,0.02231088216907312,-0.8829210462745021,-0.09967164580548236,1.228219396158893,-1.2863151640479211
-0.11596993776011723,-0.9757214688598645,0.5060068246798594,0.051636475793230996,0.675097415394588,0.8956516466287278,0.5584791577009076,1.010578305693442,-0.7727850741631781,-0.9223146164556,-0.7652108715464616,0.8168132264865628,-0.5462726597964435,0.8928089899958782,-0.0019361934139519186,-0.7266661201695304,-0.09586173914122278,1.7878846804138706,0.35443297999373097,-0.004216460950327096,0.9593898144306228,-0.7600607065689952,0.9452842845067423,0.646573744947196,0.4110075502208145,0.7467511519027661,0.5551517414697521,-0.18733290354380852,-0.44029691687997374,-1.1580780026832187,0.05618634451116571,0.47212907110390656,-0.2665870429908516,0.415902831575989,1.5127724294855747,1.0875391123601008,0.5178450766952221,-0.688574244337278,1.523219556211801,1.4792522544581903,0.8034926086546098,0.6433372702759217,0.03577006353680063,2.5640991095871004,1.240365632792226,0.3749905828725481,-0.12306822602557299,0.05739903582434181,-0.17268571731076546,-0.2692136429232778,2.2675570500539495,-0.15154999183149853,-1.3051985854424653,-0.3629998262704236,-0.7682306988620378,0.4769519469770226,1.0063945051203078,0.9524830097247043,-1.139569590219385,0.02008187629091861,0.8931499108741779,0.9842537198568038,-0.9059245953848787,-0.6119402404456735,-0.12119426570049283,0.48694163326398854,0.8213710132386671,-0.3963288982250123,1.0830191650645125,-0.9170935833774695,-1.6572800535558194,1.8662338858019092,0.20018441560624242,1.4357039839026056,-1.3833576748955994,0.7512008275040576,1.519531150298646,-0.07879915363811833,-0.9608802817113394,0.3407716960518678,-0.3124628441695903,0.20387764212071846,-1.1729086265601734,-0.49464842708192763,1.1272441304374468,-0.6160425373673318,-2.384809836019181,-1.0341136710885146,0.8300784062287067,0.5714246356636598,-0.1535666171521453,0.12053842810189383,-1.4712485816658216,-0.28484052385744274,0.39141417154441477,0.3132675407156699,-0.3552314286975469,-1.152909670299494,-0.6195936038981932,0.8807657701003584,0.7478275648558643,-0.3779071664395135,-0.09644238569293104,-1.4515930531798418,0.46617239957501755,1.2836661293241292,0.27843648103159996,0.7295007076631737,-0.6680318274303618,-0.39208321168720084,-0.9918244037467938,-2.140622151486054,-1.7309335597540931,-0.024102490793657838,-0.21637720479176029,-0.5888248131486304,-1.2497252435856658,-1.1646590350007937,0.8573698467326528,1.2353330767626762
0.2620864549104275,-0.5040074600980206,0.5577174744044436,0.2685842429610658,0.06263677353524974,1.0959244609329737,-0.09240897448099743,-0.9734184027858226,-1.2445031940571996,-1.6289177843352913,1.1108302110901467,1.1393022531695352,0.7407002749188866,-0.5506029212546639,-1.140909162576962,1.6389259156287646,-0.4209098914941173,-0.1629694484548255,-1.9669847498195137,1.518548007981651,0.17734315736342499,-0.9776936946733364,-0.7679716938148631,0.9739390726750038,1.7747255909090016,0.694619670635238,-0.5630016543579381,1.3085857601697617,0.7083307969331369,0.8619286131010021,0.6511498492063688,-0.3064119260254934,-0.47274208113734073,-1.3884703621455525,0.11045307552318202,-1.3149760185012098,1.0321385013032836,-0.49745946286126785,1.0685001730997687,1.2248743542680325,0.45544752565380725,-0.6827904296306901,2.0994761454604323,-0.5164709676494122,0.4981281226410941,-0.0722370609363906,0.23500617199657653,0.4381356874433706,0.15170481507492553,0.9221506864024288,-0.1425739856341456,-0.9919009769422533,-0.43279323181566437,-0.12409077198863619,1.086144411328969,0.3382418700030948,0.6325287729229354,-1.8767194705158061,0.5879878071751042,-1.156963442676827,-0.05580323967193535,-1.2490970899772387,0.8411028304336704,-1.1566803989539078,-0.08210051459827152,-1.5822046996077024,1.746266846478208,0.412826007589425,-0.48699720028619137,1.0317679669744808,1.3413366467230459,-0.8403415461271633,-0.05224841939457861,2.4616940431194774,-1.7797247736374313,-0.8214897408187897,0.9671486061044926,-0.05591382225890658,-0.010794459635446115,-0.09013393763088832,1.0256193469357155,-0.5963426185713974,1.0790740979623386,-0.7285692096347128,0.4460838144380432,-1.1186745065508905,0.11795241280563788,0.3214759443480474,0.38865579145610873,1.0026103780339912,2.239982246989315,-0.7928027391619659,-0.9537084808644611,-0.8240986330102499,-0.5397670566063795,1.3908113375094904,0.011841860224605757,-0.45860898669623723,1.8073406748559278,0.13421845962282283,-1.5831151729801574,0.9444891295299729,-1.5993365103372488,-0.18291879379399234,1.31932613755346,1.1453384465193153,1.2111615591411986,0.1376853515322549,-0.4201114345647937,0.7796874802071387,1.496328143616274,2.1230544134973837,0.6568964662166409,0.13291773421363243,1.0148513960252277,1.2097698120741767,-1.825198741532558,1.777492861632308,1.7942246405732807,0.09444377012620352
-0.4045021522561653,3.078053716611411,0.19080716501167422,0.5007690722001736,1.3712015967671138,0.6985491856243274,1.5458901851998246,-0.12443713154453241,-1.2289610715053516,-0.06975504216609954,0.2898353284778315,-0.811992277635648,-0.4902587048066072,-0.12527567192847622,-1.0263302393413305,0.2226771272033542,1.87515647402755,-0.4490060784997848,-1.5164141845671608,1.6868786853311812,2.4414742443976145,-0.11530985730751803,-0.049029982198872786,0.3106061371819352,0.14798908413993192,-0.05709240425032063,1.2980445404874774,-0.17161799177591433,0.2371148611961332,0.008916992888917959,-0.518331780385998,-0.10513304810780247,-0.4229922054028261,0.4165670229673924,0.06551970834315157,0.7558363195269037,-0.1521380037110276,-1.854702534092197,0.14183271779865503,-0.38246591074058117,0.2630497259283916,0.9802305427594101,-0.6522478268292028,-1.304119727637189,-0.923386712965075,0.8113748975088727,2.485077028647023,-0.5546841112671848,-0.6056445237469689,-0.5419418576656533,-0.818016306892495,1.8275228158765702,-0.3145381243427047,-0.24197368478938486,0.31057497005100765,0.13502457407237525,0.026383439230832303,-0.8008283608626562,-0.43434314312783295,0.5575190121163196,-0.002809974755924619,1.8593440749206638,0.18292938117291413,1.090793310156023,0.8832938737240698,-0.9072768031244739,-0.4297739369997785,-1.1341879751974142,-0.9661065271653484,-0.7399088366615278,1.5284123830151375,1.194094757276452,1.241607453680431,0.8232660143586787,1.024800328816467,-0.1080464036128486,-0.3050948523500412,-0.7680536196092357,-1.154915731546936,0.08815602220904625,1.3724492969752609,0.12127814098136622,-1.3528672630685292,0.5183478065346526,0.014901484732774022,0.7168501189118782,-0.6822793796144965,0.3511335505256731,0.6079376278902047,-0.9267857037045432,-1.0367075878655663,0.2752824235687599,0.3131913554776154,-0.5375903927650874,0.5815880274102463,-0.1704566938920081,0.7667022197413097,1.6196247926764662,-0.04013347992955362,1.0287164146839978,0.8465908390158775,1.4465338184563132,-1.3831405452738184,-0.7831490336716554,-1.3706077172848754,1.2025312673495763,-0.1094466592747967,-1.7068484435062408,-0.9862068606793342,0.8014079642247909,0.14396419273700922,-2.56606254147747,1.7823133869768815,-0.07837474322284804,1.2277632270972114,-0.9615133070894393,0.9057541823467637,0.6225099337931901,-1.3325125343830782,-0.5070762786754754
-0.2239176844118661,1.3054779291636331,0.9961040603831437,0.9753571468656963,0.22540741796466243,-0.30953825006085267,2.6269828600170966,-0.7210192287869561,0.024486239980694702,0.5311726595885723,0.2466634703975198,-0.7748342815730735,-1.3645608075571083,0.7994452474752397,-0.9149173809913583,1.2009187020570031,-0.4391941579523455,-0.2170374712963312,-1.7390624459931956,1.6715403153655217,0.11125181386389592,1.957323027533765,-0.8662975681937303,-1.2746746958495987,-1.5524375113838134,-0.9101429374826239,2.5522643132311056,0.5910651062432533,1.9406431771769335,-1.3306729185488104,0.3043473875571644,0.7453546476132866,0.3467241063898474,-0.866727003205584,1.6772270836254446,-1.0671040288233844,-1.2385299864740915,-1.0767290371921705,1.0641373244459584,-0.7629420944317111,-0.34285732013691084,-0.8160934435994589,0.42572678035163913,-1.2629805860506116,0.8119697033795731,-0.9171972003554542,-0.9222947260585256,0.23363083690562775,-1.751502312049772,2.261310666142097,-0.5885937092891811,0.9063243199100951,0.7493757726131892,0.509938868027032,0.2681046449809503,-0.4941306556689519,-1.6060372806232994,0.444257836013771,0.224353372363259,-0.8224776650749794,0.823824112072988,-0.053343270458036364,-0.9740981326297519,0.2997070318049203,0.916331880848898,0.8967239865207286,0.8075752787352535,-0.00666924702506146,-0.6355751734227839,0.03544265228498426,0.26605737275837876,1.5351340887802583,0.8782366541154484,1.751147797218073,0.5196648670720065,-0.2972470619928728,-0.45408692465042805,0.9214704790170124,-0.7917117394047071,0.8058021228006103,0.2707974191601831,-2.05068851133446,-1.0793538201276331,-0.19100804898736987,0.881481030676587,0.3898683963163262,-0.7480961946079151,-1.0094500244012237,-0.6093094997213019,-0.6102788914880568,0.022357662962592006,-0.030006694160780743,-0.6710760762432978,-0.560549256595574,-0.6161791730985542,0.4205757866092861,-0.0886398944457996,-1.4887256912786018,-1.620171340471536,0.4086780107742482,2.011568865752294,-2.0221613269088796,-0.37359354823826324,0.8098621863579214,0.9583708086330223,-0.18125060466844134,-0.3840886654310615,-0.6899742405065692,-1.6908696512158132,-0.07492983213474601,-2.5024134311004165,-0.25108019664382675,-0.41958785660075676,-1.2666114300577076,0.13457692421028072,0.7751296269398406,-1.5741843017619157,1.753099201524682,1.2550416541368252,-0.0961065191748999
-1.09835861991959,1.3598403310469602,-0.7365190949508335,-0.5555423949557633,1.103425397508074,-1.2156172548606412,1.1679509984919807,-0.774729517299878,0.45714304067943845,0.9732222479802128,-0.9868919408076541,-0.8018418235946463,0.401730864898255,0.42493006454783516,-0.7478273719102232,-0.5559187962587512,1.2597617837649457,0.24146786899772255,1.0263282760859256,-2.3970032356227415,0.2013173119381433,0.5049051364799846,-0.5370381814223488,0.26705471848711704,-0.8336267959142615,1.0536980196205104,-2.2340742817670804,-1.2774819790407066,-1.6938938715662348,-2.067942762596889,-1.1494206037231758,0.3866962569897059,0.9115397080063912,-1.4300177627943769,0.7156739529363314,-0.28953647095467494,-0.7312072042744217,-0.09708063629244064,-0.7463495718606326,-0.021725652303612075,-1.4482022290912768,0.9264845732720706,2.175089837362338,2.109118586925391,-0.18509114393395512,-0.7772282687541433,0.08398524170259025,0.020735513738461164,1.3397464335549052,-0.48575693853154794,0.6792311578372159,0.7197172992230522,-0.3206975685311803,-1.5061313899038198,1.116386471425473,-0.24189772991851693,-1.8946791630426467,-0.7877147482537132,-0.5780307631816821,-1.2883668940587316,-0.6530052687021803,-0.27712543023712444,-0.008768617101260489,1.3249394940173829,-0.9517246565556038,-0.42527915373407077,-0.10787991514981361,0.5083554144131044,-0.20728965626451978,0.03990599726443857,0.7307908991185933,0.5909871126609765,0.2616156722075981,-0.4108192569870814,-2.1417620840552187,1.041405780705751,-2.1952670737350384,0.8903851834736507,-1.267471673725439,-0.9785559494455477,0.48707810850712946,-1.2196434194350154,0.6436573311510134,-0.20162929992394782,0.5031825830821465,-1.8130886077189254,-0.5755243079906752,-1.4571685918091157,-0.5837151656926336,-0.23503251482565882,-0.06047846404537029,1.5423701945194999,-1.0331744493836958,-0.20043001407847233,0.40700767425279955,0.7347642056187604,-0.4087440069824953,-0.44716991732802863,-0.3055539211795688,-0.726254978360963,1.9955718140838379,0.9976838499010113,-0.7915813015652488,-0.7580508846574235,-0.518053993038812,0.7540695319991709,-0.5614207332859652,-1.5974566250249036,0.06615776436829109,-2.6558113274057837,-0.5522199681898383,0.5967046473873304,0.451641900594026,0.04440340992987515,-0.5769631172912618,-0.253884379076884,-0.6145372195845212,1.8464304438784889,-1.198726385005622,-1.765102647929838
-0.7831886554997919,0.09994043694522226,-0.7853798872201463,-3.0948361381328726,0.6765462439320454,-2.3853668201569027,-0.0709881971295688,-0.7530865474155202,2.070910050969551,-0.07276663794293582,2.279021221915551,1.4681473846877648,-0.506507879383785,-1.5995220550974245,-0.4152437128959741,-0.1414312195405506,0.0378395476975846,-0.6470343007013615,-0.011760060716388018,-1.6096194892112416,0.6693755124104147,0.13247462354510267,0.5674537983087659,-0.5588115633497658,0.41229273848519327,-2.020233309660697,-1.2581048770410126,-1.2574219217017355,-0.5506682734760625,-0.4934347514662421,1.6366319000936027,0.41663160966283763,-0.20439236044723144,-0.604402366579989,0.6641942950382863,-0.34534171296022115,-0.6703722685642685,1.0303149049142282,-1.2035643882729348,-2.718010535673847,-1.738163394388442,-1.2320678074879552,-1.1862096428333722,-1.302608600512598,-0.20153808645213384,0.6679090057794267,0.7300743495112519,1.3286161286156593,0.7425784830749281,-1.086612966927896,-1.3300064878496638,-0.2935592652306312,1.5526548399795415,0.43364551229925435,-0.3730032762703005,0.3195407945178267,0.5864082824669541,-1.3279730018741795,-1.449672738277075,0.5663245439601678,1.0676270250575097,0.2632102169444068,-1.3175869224844419,1.248637413909669,-0.032264929448990044,0.7853635568092625,-0.15376193756443127,1.7220368037164295,-0.6847429055310091,-0.0022646144537023173,0.6561882268808619,0.7595242308815828,-0.04272606560848408,-0.3591878384758792,1.1446553903324974,1.2666659824877782,0.12653690462099174,-0.8051102420742738,-0.8377638217946279,0.3756392046452365,-0.7862719833404413,1.7373609311462659,1.1034246837803425,1.4805473210885698,0.8209586039727902,-0.41367334612530593,0.8080600474069948,0.16748275766796797,1.0376670954056746,-2.6876970568804257,-1.9383489884820813,-0.6084763110507064,-1.4554902683274844,-0.344673158003772,0.8953024549291101,-0.011135787151941546,-0.03841999882503532,-0.03327197582463103,-1.552535505278217,0.04055294405688496,1.4729747402912652,0.9839338786156053,0.4168999937250908,0.20795010943674513,0.026519625715453275,1.0613882910230499,0.5164982952039996,-0.6147644101398845,-0.2932269555065287,-0.11403257079934548,-0.5259596244663568,0.8415105177908132,-0.0069054553253015,1.017118986033534,0.8658284804561267,-0.8679656003670412,1.6548959203546298,0.9883921992745556,-0.5548037622643576,-1.0811002974453274
1.1494689205179813,1.9281158053463214,-0.5885589206480002,0.09181575776277054,-1.207372910041755,1.1530103894209316,-0.8070945310465193,-0.6410446765786152,-0.6907358753618296,-0.1326716421407367,1.928864795218342,-0.2502006585097674,-0.21808625179620425,-0.8850460125793133,-1.8555665887427435,-1.1018207799646729,-0.9053614964029103,1.2904058860018495,-0.3965721866482726,-0.5675674863192536,-0.2564379961159881,-0.2757682560911628,0.5745218472446577,1.1938639507702804,-0.025324078315042194,-1.4281788391324748,-3.1083324908639383,0.3390109988845976,-0.07280004957398264,-1.1341003960014446,-0.643139893664499,-0.3333009846628366,-0.8024009493669451,2.1652696290513465,-0.2100601857021218,-2.122120004628049,-0.87662508450111,-0.906042718907779,0.006809455720774728,-0.6977834009667917,0.9351604563531641,1.5641543377742342,1.786681706721548,0.8141841917802671,0.4761074066755431,-0.7384767056243169,-0.8801297708855554,1.279259540391283,-0.6441957347567114,-1.3262218494231828,-0.41272060573253383,-1.0001884986879983,-2.082710017999922,0.06734814908021913,-0.050403945830216824,-1.3415084076459738,-0.0901962261176665,-0.3831895327986975,-1.026918958753934,-1.1025177850148429,-0.12200126479390502,-1.950315331236708,0.06156110572485678,0.3583899041916625,0.07940348062431311,-0.10661474796302553,-2.077220708244935,1.979852819219684,1.2840463440646372,1.0080129448956727,0.27616755642054164,-0.9677616610134206,0.27166336443767475,0.3135040321198759,-0.3955790637086306,0.611093914839953,-0.03672114827974003,1.0890391004629945,-0.20760758924094588,0.1780224362092699,-0.17265516062746578,1.4592037094765595,0.30104586176327336,1.890272571754206,-0.36867651788297334,-1.0345326929616319,1.1191042939584563,0.9316443199656227,2.5410721032061026,0.8260453692829188,1.2472884776331552,0.16661961570962816,1.1747070592294413,0.8858918210686365,-1.8932141542737042,0.24684875609276882,1.0933646455769275,-0.6971105276707822,-0.6593367187295494,1.2335809530925113,-1.4381666206661363,-0.4561767487986248,0.5119971046771834,0.2927146288976312,0.10101661183425376,0.8867697431335081,2.1566991130231665,-1.4391937564841202,1.1517189032960606,1.4199176093522348,-0.6170402985992147,-2.8794698070080673,-0.35631026057238285,0.0993337989504185,0.9958511378510939,-0.2470609904159401,-1.289665231555015,0.44029740022544817,-0.21913401101353155,0.36544706033948093
-1.1283685006271866,-0.856110867338489,0.1683530074327659,0.8578352580450017,-0.3072330575302134,0.7533532574368548,-0.8694314343942721,0.10007204022012389,0.6978111513741877,-0.258418003331057,0.18554937015858206,-0.3193883172095569,0.5929929583786789,-0.46659026641717316,-0.5060703922441098,-1.297394611529785,-1.0830632089354473,1.438416246530297,-0.532570224482358,-0.6555263051179386,0.14823612884492,-1.307044941094919,0.7329887957612276,0.21694027425188214,0.48364154638411005,1.2033402563056685,0.580192017779776,-0.23604942834352818,0.3002523735308584,-0.8122586253852974,0.09396360238308976,-0.9917497037933615,0.6151375356179263,-1.9732414843481356,0.8568597819598254,0.3126275411689725,1.3997275322286256,-0.9814875468012789,-0.6513876807204546,0.6956831346360809,0.37611522210366705,1.0897558354809187,-0.8801091677376996,-0.6501958512748222,-0.2194237644341601,0.15288631625828347,-2.0895585740564746,-0.03137319760007587,-0.4472700032951926,-1.9051910311053446,0.9349243034730716,0.375008900958985,-0.8901228485429468,0.25568160462446116,-0.5974484623088377,-1.9138552583954351,-0.08594005980207836,1.277838421259675,-1.2410558292581182,-1.175196045053342,1.6261429253802515,-0.9713618347210909,-1.7597282722666183,-0.7057236807913839,-1.1043369607222195,1.3186819841467448,-0.02218406875214612,-1.5043388019025188,-1.2302979992114709,-0.034166017203362764,0.5745461134149991,1.0557434727032382,-0.716014922150115,1.1349131770512086,0.6010180137556449,0.5553058371120111,-1.315540484357906,-0.38724431654580116,0.6113961024181249,-1.257397963722684,1.2475301389157296,-1.4923212615493406,0.5481758798694164,-0.5962340728780605,-1.2839232682809179,0.39213796881765084,0.524601054420065,-0.21106314567926862,0.027287179784304835,-0.17517149338790264,0.559899119720573,1.243457200861815,-0.20867174160411797,-0.06540469895132618,0.19175247811446575,1.0039137677289471,-0.024869679140228893,-0.15036925561618086,-0.403865979297302,-0.5340850826809239,-0.5514458607445919,-1.325422645387162,-0.5603827803478998,0.4534861581633054,-0.673294357577988,-1.98431669544644,1.3811609539960283,-1.2642276966057329,0.23424763464159287,0.7051208640725138,-0.14399973270961314,-0.4006800073338066,-0.05388254353245514,-0.7606798093571632,0.9464130341779402,-0.07939500666324643,1.2455239031609657,-0.8818962197391554,1.374591379261582,-1.2141746666116358
-0.20782873201518484,0.985042675459012,-0.7479713702716825,-0.05166345347777713,-0.6827426588441232,0.04595055605529497,0.5981620287925545,0.1609830086874531,-1.4463063704571613,-1.8955046224056438,0.11502155430357405,1.1395588342457323,0.03748700375230665,-2.034718146809956,1.183426540034207,-0.24960770795292533,0.6939031669749434,-0.11818413493720498,-1.6438078059982375,0.37955287298870977,0.9522870019900453,0.52513779518798,-1.518735283105724,0.15891839738641378,-0.4598685316971656,-1.0065030103154486,-0.2844195170977069,0.9893873074374535,-0.2519916957901034,0.588775023425794,0.8291648429355694,-0.25136428780774694,-0.25882605160735467,-0.594269748435914,1.9210678908663794,0.26969916829877116,1.41358082904111,0.7136628125126696,-1.4576226585722116,1.3076389608551,-0.7567426387490627,0.7896079741105181,-0.6187064263925777,0.18902369553346662,-0.546443844791216,-0.6930788608714082,-0.5875355013142972,-0.24326753041552668,0.05350944528152326,0.3573011418255761,0.9091877899076451,1.1723221093670333,-1.0457945566745994,0.8743297453422763,-0.2501539987138535,-0.35193582945680424,-0.21099381226739164,1.0555103926928602,0.6208644139282732,-0.061404799283941734,-0.8788963097395067,0.39264179852450587,0.8048762780255059,-2.2114515215667487,0.5647994922045391,-0.7166134643889401,0.7229023273886137,0.7386570813615817,-0.2832405240447438,0.658960853416,0.387945466015769,-0.5524835551396879,0.27703239562684373,-1.456234292980558,-0.34859675093385045,0.12739927386396988,1.2986077494712902,-0.6815808350417487,-0.469189522118432,1.2096782041590215,-0.20940131914557947,-0.029510026879167862,-0.3069096277090993,-1.9619075734346814,0.3721975049596181,-1.7182318923243303,-0.8496514433990564,0.6783564489988786,0.2570744885831117,1.0024777748185296,-0.40089803614587016,0.6658351157528906,-0.3726492007413264,1.2913389604324963,2.256508879800626,-1.0178908439851888,0.6402383697691041,-1.0255517615857417,0.11595608425754393,0.37609043319959345,-0.9278699258318902,-0.3640692410213079,0.08767072681550724,-0.37461959575914966,0.991636346449862,-0.41699235914905913,0.52048149563252,-0.2596130046942546,0.4854801037869468,-0.7774577652429072,0.7943843763041684,-0.16195546811092393,-1.0856061808271773,0.7285443367216032,-0.32938368432027926,-0.24839736374236962,-0.366792097590683,-0.4487015426531641,0.3582243721130832,-1.8816025933174163
-0.16821303695353182,2.119826079543732,-0.940968417295354,0.15556912503063428,0.30761750893756046,-1.8574343103134854,-0.8751156067285356,0.6955557737387563,1.020298776472081,0.723658230627682,-0.6125948669754687,1.2885433828043167,0.9444972256795938,-1.5371446619733298,-1.7089412584890726,-0.03217124270219471,1.1540578566427833,0.03887208621093378,-1.1157326388023001,-0.5582719900905962,0.011159940394462692,-0.1824388724967714,1.894193736177688,0.028164339427390928,-0.2079915813406707,-0.25512467437721525,0.48535268990809843,0.6221851207863253,0.7493544618527435,1.038913930816569,-0.013209351511735483,1.2435576140666194,0.2973566393992595,-0.43924102058421527,-1.9585099712740077,-1.0915048990402336,0.6458379742352206,-0.8441324259135327,-0.8837494702601169,0.3582324721457556,1.4088994755782271,-0.7108650006637097,-0.04818651873424832,0.6726770717551306,0.054233797753086906,0.39201962498616255,0.5782903118184505,0.8893995067804813,-0.1399367444636187,-1.6971679451143384,-0.03959968325225422,-0.6946637833645812,0.9394340429345289,-1.855710616438302,0.9201880304909559,-0.1116833364208687,-0.5147014791103034,1.7035916166875515,0.36440323970069644,1.3141322308038275,1.4289769073556595,-1.3648090077353972,-2.0177983228274092,-0.7853195895093967,-1.1772000912612475,0.565199377388536,0.4073835223376607,0.22772881784043789,0.11233825184083247,-0.8020802834628089,0.8280754064284135,-0.03996461563827613,-0.6782236668683649,1.3580057782320307,1.9150484228662292,1.671121898135516,1.1602618445438935,0.1447222332884984,2.300309238701102,-0.3157174331861259,-0.7234788209168668,1.0649555440756542,1.3800267994927025,-1.3644704489418218,1.7798625919035054,-0.6664343975738882,1.5654099943144875,-0.6362249228599413,1.9622492000946832,0.8653958879533771,0.8645743428398811,0.5327684593726447,0.8259597003249248,-1.2694391448450284,2.078516074405818,-0.45565183575193485,1.5132518215593458,0.2057975116583518,0.14701686472660405,0.17909589690687708,-0.3448601301587145,-1.0608184751189782,0.3760003531411429,0.48018175906035715,0.9261647692631049,-1.1336320232859922,0.4081154627460419,0.14015799745304575,-0.34826204759975893,-0.025199399587929754,0.5148048698711516,2.813176396793795,-1.3788392299479895,1.5707817956414045,-0.27262581171137734,-0.49214907467152635,0.41113892592146434,-0.7675019159794377,0.22001480289233571,0.9409939232658195
-0.38157514760335376,-1.3541687468199244,-0.331708920965884,0.2770770341295911,0.14715341208988703,-0.3869718552903413,0.2481119029635347,-1.1312002545430053,-0.2993287121877177,-0.5636645550029178,-0.9515530990298855,0.20260859568712322,1.276538359305719,0.10770147476741143,0.9018124883120603,-0.4450688027149619,-0.6259722573130472,-0.10571557937894771,-0.0014241913136213294,1.8536737349147396,1.454220951322753,0.00014903232532685633,1.3480023044201601,-0.19699904161601953,-0.3931510728921865,-1.5984698024923012,0.5718577441585552,-0.33649469031323664,0.6044056909871545,0.6347656585059611,0.3066558945127016,-0.0915685626250486,-0.0435388047879021,0.5887501494444171,2.1580135480556453,0.0995811050767387,-0.4637688306910796,-0.5694218552134087,-1.0306128828576153,-0.4831974192299023,-1.5051166191863523,0.6821222383847385,0.3971398317459823,-1.1019077317661516,0.4883771600946591,0.006443564912058105,-1.359985955094858,-0.7422675578337654,-0.36553219220207644,-2.4229336031862116,0.07615333307668139,0.08641093070640533,-0.3291176027938566,-0.8335279424794315,2.1190198933586757,1.9187762380037474,0.4651280403813821,0.6198654688105714,-0.7071451809004936,0.08850702465073025,-0.3007769348398465,0.8304479212180146,-2.889064322507553,-0.986092061359266,1.2726959193557392,-1.0350033981178375,-0.5355643928705106,0.5947792042416588,0.8485259211170365,0.1865818893218599,0.9802713731892795,0.3463625571975384,-2.0456569543193286,1.118439239891653,-0.19293561642874177,-1.248765551659752,-0.32659522745671205,0.11252219311104125,1.1869689361070286,-1.0418047346504844,0.8991361821559647,0.6084031160572562,-0.5448055180479265,-0.12427889173239942,0.05611728765730703,0.37110242339567934,-1.5014537398181977,-0.28808665296805996,1.3985737014806197,2.147602641815021,-0.7954189244376235,0.20865361853931996,0.11852764881267149,0.4916747941296231,0.9529117129762193,-0.8034489986842365,-1.0729151730996878,0.6156077978644443,0.395121575139563,0.17922045007986045,-0.31261808530817087,0.8060187773636683,-0.44802405001052764,-0.5445987303250166,-1.6762545945220502,-0.3912668748547104,1.1293498680310454,-1.6281047767330912,-0.8564137249982003,-0.9172138602157335,1.3124151176632903,-0.0764821261757312,-0.7872454262946244,0.5237688141855051,0.7293367988599638,-0.7768044842370437,0.6347654071857012,-0.9709340643687767,-0.4951146063137225,-1.0108779283063467
-0.01947273434182745,0.4593514724069204,0.3061557722678585,-0.6808038071854841,1.0209867128930918,-0.16672637433364057,-0.3481169177141715,-0.5258004246260953,-0.03434038062733824,0.977967281483351,-0.38653858171679073,2.404255973720865,0.9370761698242798,0.6501638529829389,0.08065658620029144,0.13586768258216333,-0.3602141431617653,0.7633721869976011,0.7917333540747425,1.8275376381182438,-1.1602014377411054,1.0771730502987111,2.4128182323936644,-1.212377305221902,2.279966031480836,-1.4516816100751448,0.4237673632482205,0.20294099836709603,-0.7268171647083255,1.4978630487397668,-1.6913993141674926,-1.3421716127307586,0.4830270984483054,-0.9922243749076181,0.6621050533466626,0.0657457463382859,0.3910618058139561,-0.18299489616697923,-0.10775792884303434,-1.0632713366711395,0.7038040200303033,-0.29030319420509776,0.642861692214285,-0.17830632819335207,1.807246669769706,-0.6845034852398674,0.19566826747652025,0.15143554081042246,-0.8366908161328785,-1.286497266996868,-0.04813849695671206,-1.5553105848019413,1.0599599010132044,-0.7357616467779964,-0.14529103391854856,0.7190423284769377,0.2885539196113225,-0.024609551844547696,0.031000717886960582,-1.4509927896382477,0.2874947181606038,0.7852655109705328,0.6001310734376981,0.3970317392814824,2.145795440580126,-0.5315442416120616,-1.401682697455663,-0.5055765130788804,-0.5340226990599674,1.036924716666957,0.8635278535753451,0.06690919175711293,-0.7496699736081823,-1.3675060130568206,1.1001241680858818,-0.5367167442074978,-0.0811770566351109,-0.5957987640703793,0.196938771817601,0.945662667169783,-0.7661506627273631,-0.7955014806647145,-1.595331873343234,1.8648277885940066,0.8854019517602137,1.3969831342038208,2.4267787930570988,0.39795016090609303,1.4629192224560663,-0.10036078045941615,-0.13271775111775522,1.2519344189871018,0.6290996441510299,-0.05650122802562162,-0.7277026897350672,1.3478708926829048,1.4284700936723993,-0.25612878430541225,0.6898797689976447,0.5572342964268551,1.449095767263461,-2.951798623181924,0.47122458287838964,-1.0026693372119682,-0.10578354721373281,-0.07428965457500508,-0.7701162334201479,-1.613562511333055,-0.2223463457457078,0.5059755110767533,1.3700374760460108,-0.5432657823162674,0.412851978570141,0.6164575759456401,-2.442615368760669,-1.555864208078826,0.7289894783073445,-0.7902701880637986,-0.23591823007039758,-1.0812545483038
0.058140636742549476,0.075617805644857,0.15747588576959418,-0.37599167014226803,1.8654552438072605,-1.3534776017265873,1.0862867472638662,1.741210369045762,2.1357095011236886,0.08654737251836343,-1.2582792753311307,0.8861129731045561,1.695079665720976,0.8608358187790965,-0.2694930250948062,-0.5048305032587455,-1.5575302170049135,0.1237592114073177,0.5209316208084833,0.11261012191211021,0.004414749276246185,-1.028675222468901,0.48226311507864705,-0.9903157217284846,-0.9739206673810399,1.5994953069151971,-0.8206565239406374,0.5695014603591735,1.2997951416311586,-0.9507919127014739,-0.19057617958152298,-2.7238608777162345,0.38890672722274583,0.08436355355353534,0.5988094371612618,0.9659320588289839,0.31605266980776175,-0.6506402989295186,-1.4364405671359006,0.08482544691727245,-1.3682075523992392,0.373676225561377,0.5567273778565633,0.00453087032231702,0.389815266267299,0.5753985154395798,1.4466444048051301,0.1496722460689387,-0.4468744966047387,0.23024979540935178,-0.8494508632395641,-0.16117842198165572,-1.296531370401606,-1.5325978608158588,0.28820984121814314,0.008265366699021965,2.619297586664787,-0.7137102546466052,1.0441759402187611,0.5968269185271737,1.058629849291368,-0.5916801961199416,0.6173749323328164,0.19199600920500123,1.7705744677196646,0.506157753523747,-0.941530017232939,-1.7227215015432626,0.7338185767224122,0.11019817143637252,-0.7927504196671222,0.1985257066763747,-0.42807580147736357,-0.6090655123889137,1.071655491821274,0.8715638406236879,0.7279939541184453,-0.4556676237779558,0.6888441087921126,0.6220533718861372,0.6257165215007977,0.08165063037096004,0.16017712131416234,0.06455266338892204,1.0280138310644122,1.0035820311645625,1.5323894826412694,-1.1913548707863229,-2.100737298567495,0.7725713598835195,0.26939738706961924,1.4942185160264,1.2173594591392003,0.08813151339025066,1.3682623694113836,0.22410004497522562,-1.831647174311058,-0.015452377159394706,0.38620357086160406,-0.44142958940380045,0.2737439666308195,-1.8053395804558647,0.8468944668543728,-2.0153922624603573,-0.9762545257276705,0.30196258255681885,-0.004130411235501744,0.5494083139167889,-0.1981868205755331,-0.5674929991352732,0.9319466527819475,-0.8566886461838608,0.43698572326175367,0.10408441727962206,1.3375638889812846,0.2825892109301617,0.35942341053760507,-0.6573143098682492,0.45802624319203805,0.016853481700328903
-0.41423386672744816,0.8116721398494279,1.223834280311135,-0.2773104025364649,-1.6118208816284056,-0.5221158176242298,1.6351797314997047,1.4766742494803047,-0.7650774264567678,-0.4071861387691208,1.8684216261921194,0.8711366906372274,0.15798207313653595,0.13317856461346259,-0.5082163372775322,1.452611179087007,-0.882545500501194,1.1579879893863918,1.5842423559877223,0.10807096256961796,0.9804495160274468,0.45168726026719197,-0.5556823908424876,0.615002424499114,0.6484230878376251,-0.5252229646126739,0.6257084020779737,0.13245097804029074,-0.4361687781367894,-1.3631513685909737,1.263650001897402,0.8551145433877774,-0.5426790699299786,-0.7182432461371547,-0.2458736249996946,-1.643943785833681,0.7000237531258895,-0.8697385210106484,-0.3936424054359826,1.7188312780642867,-0.2796891381185535,-0.1689698709458811,1.223861854514505,0.2466638057260855,-1.6627737711879758,0.32019691759013635,1.9227882758060624,-0.6967558344026556,-0.13726612396080398,-1.6242525516645065,-1.2465390227606057,1.0403281191614775,1.5688553766471685,-2.216637333061225,1.3692313950610413,0.9597237019711772,0.9935706982829028,1.9628199455739193,2.6418018161516432,1.1705035025606267,0.3091288413738722,-1.202714090336124,0.1668243638121567,0.2224175607239963,0.28366589308978446,0.9866151439435751,-0.7431140955950597,-0.6952355683822216,-0.20193642049334268,1.6915920387241763,1.436519709245082,0.23781427274159855,-1.3931909805548002,0.7706785011948488,0.20787265614899017,0.36396475172913867,-1.412571127720401,0.7972653995294282,-0.7604586544157622,-0.2832154704260757,0.7763352424754465,0.9983581694519821,-1.2332066578296585,1.912794362250642,-1.1148270381032637,0.6494814377042797,-0.6510840276751135,0.09352552275508462,-1.1221632307307707,-0.09609561814423051,-1.2585041279522862,-0.23525593564561859,-1.4320447253218844,-1.2212090134400975,0.49415736657227327,-0.8353935248918268,0.4166441630901676,0.017445308507126642,-0.6598285776436481,-0.9247654048221122,-0.9701431837988069,-0.6827525296635947,0.9886426173119924,-1.081985035354188,-0.14063539114387044,-0.27089350395767414,-0.2532745607388947,-1.8480010313859694,-0.9808042174730441,-0.5041232228237276,-0.18385589215798542,1.0658841028990274,0.4770924091242608,0.3096993872140742,-0.9729567934112997,-1.464150597219043,-0.7646811100594477,-0.8904232088437072,0.3544648137648824,0.2679169020494421
0.891290785096257,0.2748853309424472,-0.8993953458127344,0.007398841165338885,-0.45335084688091176,-0.35126023039025644,0.9739309347776055,0.14728855188038015,-0.3661013358368112,-0.46996915300633463,-0.33365079398883835,0.3471953506025789,0.26555206729254055,0.2778790226342749,-0.3100932965646574,0.24070675478751774,0.7565068711399301,-0.23081257436909416,1.326700225629034,0.0112086636483621,0.3722320069008608,1.70433477267731,-1.3545269327029759,1.1006385239504324,0.3501866973734973,0.7699082156363117,-2.3576260402721965,-1.0942231256700765,-0.4768179869797256,0.3774241280585062,-0.020557598069425323,2.0904904439402237,1.2741263336496622,0.09850378177231814,1.0431360063432296,-0.4028741780083999,0.7046237970202771,0.15417680993714344,0.4882952709630073,-0.568333477801009,1.1030070138953139,-0.36245132721895307,0.3326143945981343,0.8867902284021061,0.7161661539022276,-0.15454896700139215,2.0806916202551604,-0.23550102583100047,-0.007139460964611969,0.5880917421023334,1.0105293014158487,-0.34477084391804924,0.6974876384399127,-0.6453415011175543,0.45403319466171577,-0.8269108998739777,-0.048745767119132796,-0.3390435375164568,0.7693049412458988,0.33912691713340054,1.181046007401535,1.3637619921295967,0.7476752224435218,-0.3237873540218715,0.8294342422086867,-1.5686477256219369,-0.8188950171465913,-1.2272580769378538,1.679584249553402,0.4789540751727078,-0.7903663256600972,1.8351801378433725,-1.3171855705987268,2.052512173143132,0.24339030765628383,0.32086958045926856,-0.9299163672460092,0.16401889686923357,-3.1156767921158717,1.0894725794725653,0.41170013487404167,-0.31607957498600586,2.532945521248291,0.31696890168627584,1.1235400218806588,0.19474766611552047,-0.22665961463681422,-1.7868919694209988,-0.2831212484838623,0.505305427630838,0.7416634104165433,0.5299432157072466,-0.4890408016277802,-0.23720443959969845,0.4998247293423692,2.3902908246692944,-1.0738033619049536,-1.4282995396612255,0.7608914679981531,0.18222480714764153,1.1201347259607823,0.17745983734764564,-1.7084860243235884,0.3506808307919194,-0.3896654079649561,-1.5640600660015982,-0.3499174877363502,0.8765717027708825,0.5239446067521104,0.1182978647482828,1.2645410998096116,0.7511306583143457,0.9549480453874539,-1.7906403998948024,0.45393961920471537,-2.2691025953618174,0.2189770048488588,-0.0357023575216396,0.3290470500945489,-0.6088975477644876
-1.2481015620606133,-0.28253878832911944,0.16109959826219264,0.0684030443086507,0.1266466521516265,0.9619041977214617,1.224352266197851,0.46819259418419057,0.8664237169981881,1.473187985386284,0.16967790176550934,-0.5266342601130168,-0.05677871971891349,-2.3017592435855834,-1.3903853584034662,0.3106949397814298,-0.7485721011404525,-0.8696081734531131,1.7659637284521204,1.440223775793314,2.7137717767865013,-2.198712057358244,-1.3959840352121196,-2.2987309546486467,-0.19353960350135713,0.5237004160951456,-1.9802057856652355,-0.08354751443799532,-0.4137041122092487,0.8486385296907708,-1.399988845147474,0.139433730340407,-0.8915843276967917,-1.0056963643143901,-0.43834392855266086,-0.6173243499608364,-0.5142554496475567,0.5900396885148027,2.1802450475488855,0.27289700538170547,-1.0121701833325367,-0.24127421534563898,-0.29924371378234654,-1.1641363904356048,-1.1730233927198246,1.2111192911043847,-0.16040085702806045,-0.9690744373395612,-1.7280737092876512,-0.06825461198432015,-1.0290900313361342,0.41545362505537237,-1.968562479205466,-0.5027847085327589,0.9190901917708062,0.9955001586182413,0.25219558527364666,-1.9991549568881002,-0.24552698133761094,-1.2831766300659064,-0.017347210574077118,-0.10862520390519619,0.2978849532865444,0.41485892021394083,1.2473214035942792,0.38749270848191353,-0.635250542025871,1.6308076501285012,-0.8115361413594749,0.4946265118072596,-0.7786771121791961,-0.7122921986410463,0.058506538948796726,1.332230070840457,0.3068627415904382,0.7461361879236591,-0.07936329918649081,-1.4973788818408038,1.4751793057497182,0.7760054850487086,0.23439464601675025,2.1068926714695655,-0.286807649618674,0.05632682764433274,0.738278454978294,2.275829961633054,2.5806991960285197,-0.37482406769361154,-0.2246686787981751,-1.0992047069463828,0.7884737254590783,0.30156031714641446,2.224834893678305,-0.731198245458743,0.8404214437444093,-1.887935440357121,-1.191301339748915,-1.5117372972670104,0.21774346107818532,0.27485164189196515,-1.4521863524360814,0.9217720625515137,-1.6685151375184513,-0.23172386019783392,-0.7991823531424512,0.35130357624548364,-0.4034438417507603,-0.7555749929763464,0.8726099045349247,2.0224438737367993,-0.032138727368680176,-0.6333206457456203,-0.4170176588271015,0.6782775793778095,-0.17670676371309763,-1.8294239362961207,-0.2723487390302521,-1.7293768260198221,-0.6225892064184506,1.7600138874301108
0.43406090513108725,0.5169964755375506,-1.3952340887944643,-0.05874374870591517,-0.35895940818346217,0.8589705653647672,-0.39468146742783095,0.5647812193321944,1.1096041561325656,1.6253982980080723,-0.6396874959253901,0.9789020887180006,1.4055978818495098,1.144198225124052,0.0006526614476729079,-0.18390739792273741,-0.1850466159702506,0.47133014486978364,1.130767615432534,-0.4584728555652327,-0.4566785317021135,0.18295185969072625,-0.9848452450012699,-1.3368109588353714,-0.41108936107431937,-0.4605049622534754,0.2787088774878746,0.8378156577737778,-0.5063700300498347,-0.21854450838551068,-1.030547555603742,-2.020761545369051,1.1501572178632125,-0.8359513907741913,-0.9027556691889858,-0.09670217500092874,-0.7477098662591233,0.47323695273021643,0.3868394399008703,-0.10207332416804671,0.10986714586805615,-0.6690148958777696,-0.22102496400573693,-0.5851442663072199,-0.6215258497028812,0.722978561158303,0.08898576666663435,-0.8754044122210282,-0.7707184998071234,-1.1179184642585576,-0.5120012878538124,-0.7140725385309951,1.4031903680093865,1.2458351652046469,-1.4829937456146864,-0.019077578024775235,1.6027806128955668,0.6007141183332211,1.3263297077416676,0.9655954263962911,-1.218290604744978,-0.6876287904822423,0.15922667731454848,-0.9474639579717996,-1.1834169531434255,-0.4265841703619294,2.0423027600329893,0.416093788087151,-0.23490039576632946,-1.2896801329078038,-0.6890195999145192,-0.8546622875534458,1.5097819872246656,-0.32829236564406344,-0.014047570402811238,1.063571533558949,-1.1879175539763303,-1.753186159661365,-1.3916308470167185,-1.365065161943126,-0.3169824800588012,-0.48573322531839325,0.46844110262329863,2.580047012842639,0.9232502446404509,-0.36504826773415194,0.004246853056183064,0.32826915613837965,-1.3495467326940618,-1.1403487978046212,3.072372044195192,-0.4928279938763403,1.1031881831004973,1.2938140423568922,-0.18321661546676593,0.9709192510809193,-1.5617156556776675,0.3738113207425805,-0.8287256357101519,-0.7261445712007287,-0.3845112762709618,-1.962811328417491,0.1677992616089607,0.7432087550413218,0.17460812752221233,0.8319833144883496,2.5234477186073265,-1.5877438974631064,-1.0463477656956275,0.33096616984271193,-0.6191492643478553,-0.8819429775574015,-0.11327944657159597,-0.5906284314374232,1.4231443274066535,-0.28949498215934455,0.851124142822996,-0.41496284865621963,-0.021066219240788272,0.653235615296782
-1.046132378068143,-0.4749695153076376,0.462530136873191,-0.595976776079188,0.18748100583394087,-0.7983784152028363,-1.4228317147146885,-1.1189314774540073,0.4953197051474506,0.7057617627109174,-0.8274428504599208,0.17250821808562972,-0.5021115403568895,1.7548305170683705,1.74782529223412,0.21723635121389032,1.457872855771122,-0.4127859031528619,-0.8683934931079721,0.39766309580039116,0.7219379211927208,-0.523740962697239,0.4592600998786121,-0.5457121561175768,-1.1594010139876956,1.0011082875055157,1.3748714070723818,0.4932690975390413,-0.2675391934349222,0.764056438485713,-0.3663951211846037,-0.9261315568244487,-1.5709592240561059,-1.8310786440867615,-0.8263735881910015,1.3847486804899096,0.3712182580718017,-0.2816027379603211,0.5322003205358545,-0.9664822429015197,-0.6197733361860679,-0.33840674607656085,-0.7429848431460234,1.873269903074868,-0.08140306514686604,0.10919026734737297,-0.538962257613421,-0.386408316786669,-0.6356829632697018,-0.056572951075845826,0.12778268201961074,-0.07901029161799293,0.9997731732014278,-1.0084553350212988,1.417524577806944,-0.22141711117075888,-0.32489025780431013,-1.500355781150344,-0.16379163137784883,0.8484834709962169,-2.135008030403145,-0.19896457323820194,-1.1613540431460194,-0.7994102800868577,-0.3049187775300314,0.5771142130750815,0.572357751309566,1.272929457876332,-1.3321982759270241,0.2787833867606183,0.26574316374341067,-0.6975088607849942,-0.8730670278705113,-1.402180412655585,-1.4218595758704409,0.8050190817126541,0.7191328116040164,1.1579889436689055,-3.05723126439407,0.12861308760139792,0.14720828742183845,-0.015737578109376395,-1.4799830226396289,-0.4319572804969753,0.6039616851228875,0.3759588541694768,0.144102581472302,0.10861182005690787,-0.7306988139019064,-1.1179423628665222,-0.6293122088005518,-0.025066944817667792,0.5731919258963192,0.825696939875835,0.8210407022360962,-0.11157692764487229,-1.8039909199584991,0.7979933329184496,0.7254555730156262,0.7710048457102149,-1.3315258806902022,0.32797963166638194,0.736965545875527,-0.7894964351495691,-0.22465592777234308,-1.4622644181194808,-0.0485088549931943,3.2508500235974944,-1.0673126287539378,-0.2317522570991114,1.154790281501553,-0.9771310139632822,1.9166545937909616,-0.712011731796765,0.6319695647847149,1.0783530475367606,0.3772877995412566,-0.9678237840815389,-0.6717382843182397,-1.1970240158689038
0.5554901257329944,-0.7659079367380135,-1.1914433748362772,-1.2772720112126923,0.172745191129392,1.81609984340364,1.1247771478733528,-0.27325237855162743,-0.5088645110473003,-1.2931270954695906,0.9837987738362394,0.11979355059829183,-0.9253745350369612,-0.11076674546627502,-1.2199860371733726,0.15248184446721857,-1.1537599492214847,0.444866024483642,-0.8133736378132113,0.8398606554428947,0.00556876738439431,0.0871078020261896,0.31803220646758484,0.5731110299784737,0.6506649593687122,-0.5871964879697747,-2.6228602457804278,-1.1905119263757162,0.7756565726730166,-0.4265664262497569,-0.16982065407670588,1.1628622260478532,0.09088277454683999,-0.10636352373639991,0.7637572464106646,-0.9557624131239914,0.17768905771387747,-1.1402883520942806,2.1505437747984257,-0.5099139582240799,-0.6861743162165607,1.4234247333094547,-0.987501163054626,-1.2039347040169706,1.2903364429543565,-0.14345091635472856,0.8911949811978099,0.25122516821289304,-0.16867484019081408,1.4123862064212251,-0.9435303938823082,0.24726996338041277,-0.7825391812268988,0.40169344402506635,1.1821813318926317,0.411266230753642,0.2902891373809107,-0.3105158224468253,-1.9033148389528058,-1.1293253534951322,0.7053511831485132,-0.6900371750752105,0.537681685723977,0.5261287885357857,1.2470229222853704,-0.08467022449252175,-1.1533961213153419,-0.2566269445330181,0.054724233972842616,0.8770874519992683,0.7024300608386099,0.32400160753709234,-0.31428927047564525,-0.9727682672198915,-0.5117077480073177,1.1046365480832874,-0.4241416783437858,1.1713692104576598,0.20674738928196323,0.09753987176676225,0.691744694032016,0.511589171233805,-0.6466686639736411,-0.4326743562427745,-1.0101968836541564,0.83032392228011,-0.051782049348194324,0.5308333676341994,-0.11257049610440749,-1.0557915544666039,0.6448100343673873,-0.019107024518278913,0.3026474723551945,0.26078538070961094,-0.12566253574562616,1.1790402114949654,-0.3813430890999081,-0.6067461377174063,0.2299486462523629,-0.43196190019629277,0.21945223608739314,-1.0283795814650927,0.10806444619316348,0.17090462400609738,0.523242133540629,-1.8703071829787463,0.984149975406208,-0.7282699491212772,-0.774214784447818,-0.8032769339231192,0.10990892085769315,-0.27952799982204646,-0.017258915554758017,0.9077678823787899,1.3081151243173263,0.5216195990938353,-1.6620217718705146,-1.147484540380405,-1.1497664894458164,-0.5026376986812616
0.9350933081280159,1.3101134269198933,-0.11188333359619401,-1.2618034323585159,-0.7712993564143841,0.3298362664928103,-1.6176437786078668,1.4171538903673082,0.9035617666270438,-2.9422807988925026,-1.3172060199509368,-0.09091977434696792,0.17011105131759405,-0.882791020957298,1.00022811690213,-0.3643981200429909,-3.366930499972278,0.835732410438879,-1.3281966692739249,0.6329739238727319,-0.7260913483442012,0.722725061770193,2.547361482505363,0.23775937506853234,-1.4091627510288733,-0.22967889097053767,-1.500583909260343,1.241822666497182,-0.805780283074324,0.15784809229930608,-0.45204927248824645,-0.28062092729760074,-0.43650616804335174,0.7913029133082164,0.08541639962867537,-0.016975979965276177,-0.14146134784627457,-1.3013755045505093,0.9341688780321656,1.012864217385849,1.6481530962780704,0.39006488890469126,-1.7516936584759228,-0.12243581052211944,-0.5594759966126508,-1.6194841054085292,-1.0097872292129342,-1.784512890250518,0.10586261771057523,-1.6034779344517864,0.10901212634686361,-0.6160972063311951,0.5133819548251625,0.8596256885066663,-1.8406238182005472,0.36683597230455456,-2.223516888159264,0.11672742024478928,-0.21256358702485495,0.8272770418046118,0.46967118438501465,-0.869350217028714,0.4005981097007471,-0.6419904070457961,0.021804510462381615,-1.011686992056001,0.5495160389100582,-1.6105555369721005,-0.5349067741517657,-0.021680353606012528,-1.2845228205911083,0.8343452390741722,-1.4324009369426003,-1.228993679647142,0.7453446529328096,0.5437706629290201,1.0086265435033797,0.6930405411909831,0.20280438074846496,0.25245165553529764,-0.6286021454511381,1.7597892320127022,-1.0794138752864142,0.2850656950389226,0.9848158339999471,-0.6590971640884449,-1.7157677907888786,-0.15703160571851435,-0.28362549598393955,0.7416922910712352,0.6955109199204781,-0.5772710583634879,0.4113339951307883,-0.24268320948939048,1.171581939439896,1.2772383495136694,-0.8038401736770445,-1.242521778984492,2.6190823531301164,1.397240942995978,-2.5278912539363145,-2.68561906341456,2.022112900207347,-0.1328061146475567,2.5402303250085643,-1.096736066757313,0.6218197208444816,-1.712695229569664,1.3913870322976265,-0.0809425635457093,0.942978555915077,0.2639015301835914,-0.5543985409968514,-0.2633733019664211,0.18274717584982542,-0.1962594630526936,-1.4144711543103392,0.03057769681384995,-0.5628325704849862,0.69205081500053
0.3600609500739521,-0.6352769000760518,-0.5237988573368839,2.4210278435490826,1.528291090921366,0.870835158217597,-2.6761408948823733,-0.011860602558944547,-0.9095730995335991,-0.6887719782649647,-0.6181230362651936,-0.07112737390268344,1.5104233473846553,-0.4084065025744029,-0.7349825074171858,0.041439817381592935,-2.2082730700301556,0.4760398059956702,1.2678379387128436,-1.0128934991677812,-1.4251227723278566,0.512345397736858,2.149034602430985,0.8835868086584053,-0.6892320231843885,0.23903614014603825,0.2666985947756138,0.6751985381787684,-0.33951327749959015,0.32777672822993914,0.3401339163610895,-0.43074480618127153,0.12027432778466109,-1.3391292169332811,1.4232782269064443,4.067176896847579,0.15003350182287561,-0.14421923868688188,1.5585390400157253,1.434568457726635,0.6513045268151179,-1.7846966639600843,0.36949856577761586,0.6750237793498567,0.1194209971512245,0.34057138925972336,0.5577432314223937,-0.4391196580736747,0.17681066211032542,-0.49267462075176816,-0.09434169610414156,1.8126500093321571,0.167626714306199,0.11618819678165168,1.187445636325406,-0.477738228790332,0.021262355806665047,0.2555545673286231,1.3761541005697169,-0.5105227457113637,-2.4404740266765543,-0.19540290965644008,-0.4564306963340802,-0.4635838354604367,1.1590171525592372,-1.2326320716310937,-1.12579023808374,0.6066784838883922,1.0535837566303639,-0.2515047773279267,0.7188279215913962,-0.822697154177868,-0.7426496449581638,-1.3776454528030533,-1.1681863186748758,0.1009940232635091,0.07899717468304812,-0.012695748001965107,1.487233545752664,-0.33677342334821425,0.7808870310278663,-0.874621571488887,0.3208820967185743,0.3833540484031059,0.658886309782316,-0.3000003487119828,1.5559320192803088,0.7908232279124454,-0.7452227543876432,-0.20054464007851208,0.9868251465555375,-0.3305411101573883,-0.10669691303312069,-0.4251508027053015,-1.3778110029312505,-1.00541584638566,1.015447010797468,-0.2096923946928131,1.2696882768277538,-0.11030027807722108,-1.2484197257252423,-0.5708101603444307,0.5873046596801308,0.5867986234317161,-0.9480858249020849,-0.6519906083985024,-0.3987571950166901,0.15992444333531738,0.056665885339829226,-2.314417405550879,0.6767846146134185,-0.6696209643100837,-0.9066984781575347,0.31533773927803593,-1.5462362458612322,-2.9948095882215715,1.1242734713787663,-0.2709781118871449,-0.22946296489247145,-1.3502950607919337
-0.09808391603653564,-1.1302889824697933,-0.1805503997515323,-1.0247913051595845,-1.154377426738832,0.9222387156794806,0.4751832317771506,-0.3310248182739029,-0.5933852654477486,-0.4325078137375096,0.4387774182297762,-0.44013046253440946,-0.29650699092790755,0.36891782816198393,-1.2267218641802577,-0.08712400722975124,-0.1495856081319262,0.5551016889676348,1.687197368425341,-0.4864561672832281,1.7090841938467674,-1.55310118462137,-1.2444876675714274,0.10543897347246327,1.4741159373296695,-0.41269462697862297,0.9735809825787445,0.4202957991875546,0.37080619933433345,0.9250787869864301,-0.02227821905251069,-1.009737750702114,0.5010701126073677,-1.1029556581220146,-0.24885457278606993,-0.7002696213257752,1.5183880822460885,-0.9887716873204995,-0.08747374228251946,1.3051309926534334,-0.148432728427701,-1.4924379163371835,0.6293498230979131,1.7197874090997898,-0.3697324651181535,1.566660986134221,0.2640352498190831,-1.224971162356425,-1.0496601214211323,0.01012079913738955,0.09540156815394854,-3.108922092054591,-0.1107241985707365,1.2030958074508937,0.49530244913539534,-1.8685972532516626,-0.539038724010626,0.24453365548126424,0.38573754939342225,0.11508585478052637,0.5648739034347068,0.8592438413810314,-0.5338864002477559,1.934084646143076,0.11594283192381998,-0.9180776363309314,-0.20493900330199172,-1.8461423232448948,0.16298858395750224,0.012106228913712457,-0.34125203575561425,-1.5003605034959953,-0.4975688535055719,0.9604852012726162,1.668206928313356,0.09276031622507776,0.6371794072292222,-1.103747693919118,-0.5431392873827963,-1.7693024626111984,-0.045417310200529984,-0.14887869407470206,0.06945243819345961,0.41492999881852033,0.3318477725474661,-1.4123184243873101,0.17875937208924916,0.2061073553395793,0.9947469523854009,0.393895292024293,1.4483752418762907,-0.4792634313527624,-0.3502107981944608,0.40931889830882745,-1.3568403540160026,-0.7203207949652027,0.14624281046002227,1.6579282154850168,0.8840436659874318,-2.366352577804792,-0.022441823040511663,0.5821767990495877,1.7110349701374343,1.1409244118174044,-0.021982848489546476,0.5534900065180859,0.9295339695506374,0.14397532441879263,-1.2246397970971954,-0.7500596220950058,1.0467047033046932,-0.9106919714662749,-0.8698379933289994,0.15603948366240794,1.4897345729099545,1.0479868505741612,-0.6227359509840787,-0.3673884219947028,0.30310823008291043,0.4743635371812312
-0.44023369897181625,2.2760482929104353,-0.36437243357105337,-0.4786079942160056,0.9642090037451254,-0.536149575835048,0.2760830181774554,2.241238892430452,1.4056303867316666,0.07009184547009524,1.6854380940383074,-0.4614689714677469,-1.124689723878686,-0.8303248059289581,1.7358295947059987,-1.1056250007507087,-0.398537595242841,-0.5339298062156739,0.31756200691739744,-0.26585188794807674,-0.0884697772232583,1.3874942475720426,-1.918096885000586,-2.200377159880372,-0.766365083630126,0.5701487054145636,-0.40753920025465584,0.3705017471206812,0.11411786128408945,0.33603753314463936,-1.298127195067941,-0.6155003970096677,-0.1677859579983194,1.0264401275740251,0.8323094658846809,0.07012460538086701,0.13278467373331124,0.15775609679698985,0.532253423568246,0.6489970907656675,-0.367319523082376,-0.26141266308252853,-0.0399831908838431,1.7872330490064121,0.8870658060284833,1.5884450998896513,-0.700655156095399,-0.6493077147137349,1.777480161089293,0.5109444722199253,0.07920816622241691,0.45973988466002824,1.3100483657383475,-0.8579970871948985,-0.6584889890255144,-0.742613960900126,-1.4787257268122933,-1.5227971638305016,-1.099108156824354,1.4643417606375029,0.4199188327162872,0.058347243830232313,-0.2971612910309871,-1.2084618238428235,-1.7187140252855666,-1.1335372885245079,0.3242984284578355,-1.9606657960579177,-0.06503661443415154,-0.13323948038355765,0.23019563832852807,0.9028859305618742,1.3170571671357494,-1.519693463261934,0.16238324763837259,0.10298022055763739,1.5022035395604245,1.3354068290418901,-1.0927492199522384,-0.7106226093960781,-0.7013490306062165,-1.859981756395776,-0.08318190062886117,-0.4072164838375769,0.640949690053988,-1.2965901340783836,0.5422948276378873,-0.4372747721423262,0.2369716601086892,-1.6277942118891622,0.9769540665353428,1.1227113865020484,0.719630642559711,-0.2634399029569116,0.024654471503614755,0.8727536335503823,-0.18249906500804694,-0.7240608753328717,-0.3870372488906875,0.5844321760000646,1.019506983994913,-0.674276021899798,3.03749819789603,-0.7732290198925507,-0.7739243060169194,0.11461615929642226,-0.19788471754391143,2.267268716901828,-0.856602962580309,-0.9967266974259938,0.6046232312893043,-1.0270266470651874,1.4575333101751236,-0.04560560099384347,-0.8918218544190022,-0.9570991274382443,0.41112118524910213,1.4317712367457918,-0.6725946483358467,-1.0852517355479685
-1.3780496849999164,1.197113021974286,1.7445017464800063,0.18494912978208228,-0.09905197147103936,-0.7100982818298713,1.002752482134315,0.41986453850126587,0.38297604565239585,0.40441559995023896,-1.084447796656156,1.30373773582403,1.4443003114695812,-0.022552072311053217,-0.4665970417045644,1.1019878341919238,1.0657144154255527,1.789305570536107,0.5562403622308697,1.0115393971807551,2.684295622330387,-1.2656919782820684,-0.029564970993212373,-0.06542079624690147,-1.1685853362638,-1.5731440095626044,-0.025190598213895188,-0.7285597392302945,-0.8806321622474929,-0.33140026822102336,-0.4336463596255201,-0.09884373266957493,2.2850277598659394,0.489909892784853,-0.9705041536943075,0.6397571172395478,-0.07219994544812412,-0.05265382909267097,-0.5719375541323366,-1.3184195552818694,0.7733149926911642,1.2903262676911298,0.253348380261665,1.7234682168846507,0.07265431769275367,-0.02509815116598484,-1.3109151403865478,1.6762197709728104,-1.2791397785514564,1.0291876463466378,-0.23556786221260465,-0.4718583714792747,1.1995827437218658,-0.33931780237572584,0.8737467599114547,0.41586866873377826,-1.8030380879469685,1.694108074963452,-0.6653626140701243,0.2248604457417185,-0.07541345804861313,-1.4457449039210748,-0.9297799540741993,-0.07908407490688221,-1.1155893833078134,-0.7805741576201587,-0.3943878757970836,0.21341748232702523,-0.5113135204737892,-1.537539830349308,-0.6781644895733239,-0.42113039889995985,-0.5807903528594187,0.19423763225160157,0.7985247550132084,0.35218981596022086,-0.03606846569334546,0.481349208235478,-0.9470474910931469,0.3978988507090081,-1.4476156511724143,0.18457328456836467,0.42830152482001643,1.9240869364778599,-0.6982308817515613,2.5768219178101486,-0.8775378049963347,0.5113973074631354,0.43693343085296016,0.06677908049500571,0.7653420340097533,-2.7096749495409567,-0.5754848398064084,-2.2361690138841075,-0.12207673249563934,1.6612748414859764,1.2119472700424878,1.0950720455077667,0.3540578146103387,0.4283429186597511,-0.546655849328159,0.7767098030856225,0.1288259393227532,1.5238298338392955,-0.5539703106929766,-0.5318455545786795,0.43436491131420873,-0.23160258047398322,0.26093703211421043,-1.5161101940023671,-1.5928492924707303,1.6451354186137064,1.3336192557268707,0.5107824385487902,-0.02175443147107024,-0.7621873953127486,1.3676904152509777,-0.9191158830443086,-0.40914828409164145,-0.37675493017826867
1.0184364500961212,-1.6813193942206368,0.06452388359325563,-0.08414159713928805,-1.7156668117403664,-1.5681608287184134,0.038518554090656375,0.004470167243385668,-1.909992255827947,-1.19688725013634,-0.35580528811560963,-0.33823991303719325,0.12346747315079691,0.3094027426446159,0.6164781213075123,0.9671311416823447,1.5632893207984584,-1.6192867298105789,0.9209567292717478,-0.6095044658515767,-0.09874657522135812,1.247140873811205,2.2154752762506784,0.7488661504033528,-2.2171318746219595,0.9674759198854226,-0.5978631832349327,-1.086107061307566,-1.2436128875741235,-0.44375431215308947,0.5856714222803392,-0.33198505833280634,-0.3774923508566443,0.6236478063907236,-1.962926569629268,1.4983401208856957,-0.5279805037096251,-0.2505554414807109,1.243069388686076,-0.2648029842874117,2.357332261206294,0.3569995008573345,0.05105231281826341,0.36156663925975735,-0.13686518803889147,-0.49170590515057816,0.25796277198327194,-0.32539889751087897,2.0094854656268994,0.7430862305795395,-0.10846123516628844,1.6537479342008716,0.024033768288482915,0.5355088878251022,0.827293890549585,1.1916787826172448,0.1962193083717753,0.8890812270254226,2.0056901958821745,1.4731780804766021,-0.4268211490559556,-1.067186968262873,-2.4384570179953173,0.45912724508065617,-1.1075261805163503,-0.6635864520028376,-0.4253210557627484,-0.34052481918448724,-0.5274974203519301,0.39048767271875795,0.46175343723931717,0.6176358347451969,-1.6718577427429784,-1.0906655467630797,-0.7326050960563741,1.3685659262598484,-0.64239934811458,1.3831112073368412,1.9954197325988443,-1.4454530968987458,0.5569069008540858,-1.4800166042288563,0.29495951385249813,-0.010836748878021153,2.258154166648489,-1.3758261593011898,-0.43833085518559856,0.27125790110267073,-0.0810459152631673,0.07180280017942443,1.007739763237684,-0.8799606078027934,-0.8414761088660725,1.310962014862658,-2.600934071350031,0.4587718563782526,-1.3250279842836825,0.9238840939355148,0.17773724429865778,-0.788996348214631,-0.025194774773309295,-0.17764980804112793,-1.2091877681992984,-1.4315684686060393,-0.9467800549375285,-1.6871724412081555,0.6090785641339636,-1.0375828511645582,0.781246649855335,-0.2729462397147473,0.4675682358480552,0.24117653550199075,0.33044984706308156,-1.1165464201523883,1.398192131117893,1.1139861188654103,0.18615367900431365,-0.7933312236307418,-0.7269441286150697,-0.32097876533079556
0.8486414034364389,0.22041472987133842,-1.1452837525809105,0.11823197205651335,0.537134365901761,-0.26512761066618656,1.169758386782603,1.2891962837931885,0.19832167989648278,0.051919807296220956,-0.6815100637763604,0.7908831250149371,0.8894901683368619,1.409819492640426,0.9305422521551598,-0.148444444283127,-1.2177402330015965,2.42022294411449,0.41663441836131254,-0.5213674891696176,1.8358225169630975,1.2365082415517343,-0.555010067793022,0.6417235678480029,-1.3409665090076524,0.02130821139944796,1.6776901100424315,0.26784067256644944,0.5734846238671404,-0.7436649696650576,1.9334687236361208,0.4350716434892724,-1.2209647508298034,-0.15059758000484386,-0.0776841528349365,1.706418331959767,-0.07730467927737533,-0.611052465859245,0.6370603430794224,-0.5369360838677879,-0.27885437171792693,-0.9073671310788668,0.34015893665289043,-0.41522966468929,-0.22353910515774697,-0.5929662371083709,-0.1876149701861625,-0.003060229885850445,1.1683965785000998,-0.05183283616279104,-0.6978139686579412,-0.3854629898134262,-0.9937027506919864,0.6196437394574106,1.4651269428518015,1.533471231329901,1.0866120985543422,0.43428226070304055,0.3525622126946176,0.18074577241518447,0.13392095396001072,0.7200357841337082,-0.36992772082149655,-0.5504397744177076,2.2974540385507454,0.245122861149766,-1.9578738112541503,0.8654330565032081,-0.0739620352826074,-0.6223995797856408,0.5937278095294803,-0.4619242787004129,1.3865263627793785,0.1648539438623757,-0.4499297305565303,-0.9243297390606533,-0.9717530933218158,1.632529658338058,-1.0961456850715874,-0.6794497016374501,-0.13407395882241083,1.8146996831263853,-0.9073979309394378,-0.5060928532662287,-0.08929828718385385,-0.26042126880126376,1.7353852851081286,-0.9894600183706176,-0.8421963304765153,2.516949897906859,-0.3107261920691732,1.4514755016540273,0.21273695668939652,-0.7463300937299502,-0.570677405752569,-0.20494032327346245,1.6108859445216175,0.04144040021812103,-0.28247124086081987,0.41685267141207627,0.25054437744529157,-1.4716344170946734,1.4934359143924083,0.7778554090974102,1.5072653969709764,1.0510165899516526,1.5271606574115701,0.36478478083626953,0.9971478538945217,0.09165202331511031,-0.07670301252206846,-0.4109819748942745,1.0973039602242918,-1.96156307107647,0.0301816237705609,0.9737919284161473,0.5707651594975869,-0.4278368224355096,-0.31266305506185427,-0.3184764853164372
0.08429668893545202,-0.39807278535725843,-0.3712428163906338,-2.0967345432557885,-2.298309827116607,0.31655388132236184,1.2044993208449752,0.19340947192764685,-0.024780152117387495,0.483768118224672,-1.182057102391911,-1.5411989648629343,0.24352553561164936,-0.4558108835419018,1.7322120976009527,-0.5783149242211154,-0.9544776419262874,-0.2156728371782606,-1.5441763036630336,-1.3739989379248854,-1.080841023923547,0.08907728676766317,-0.5127208305575326,-0.5198601244551417,-0.338164308735052,0.2117068619606324,0.5416798839828884,0.7489198465345326,-0.9673631550457863,0.35466472664201537,0.016631075735685976,-0.2974344459938811,-1.3513610691755331,0.628874368147289,-0.09763127186573126,-0.5709194085765983,-0.6189790182701511,-1.2250437307390871,0.5879181394627953,-0.8359909094272707,0.467787352587374,0.6933489416697254,-0.7339223801608411,-2.3224233685999356,1.0036247272356538,1.0093979848541546,0.2159449422032566,1.20214717030596,0.62681227675361,1.0573211841404102,-0.4697334243778207,-0.6108193841189363,0.6265463692203499,-2.4462301378454243,0.8988175972346236,0.5101900546276574,0.8776075509698248,0.337092442062112,-1.3346649100892867,0.009288192907901326,-1.5425811603032453,0.09923858584083149,0.16420193077968467,0.33660527767228715,-0.4591714167678864,-0.1793896577594552,0.4364053069375064,-1.2339729453357107,1.3926757482551912,0.08112385840026314,-1.1317183307276744,0.27677929169436755,-0.5131530871297149,0.2524561698523872,0.1683323163150491,-1.845413043966531,-0.6619085705526357,-0.5019555614061747,0.2606672371803144,-0.9240337900352751,-2.6845163570419595,-1.8899741864154935,0.14307421449538396,0.7494392048449108,-1.1881190296469137,0.6907397782291064,-0.39740097082184495,1.285852273670114,-0.595367203681908,0.23322663877261776,-0.02108982703347609,-0.6665016726324775,0.3487756493490657,-0.0917765019525278,0.7289903696852799,-1.037043506383083,-0.5071812269648835,-0.21509989302870078,0.448298739013405,1.758831394677572,-0.980598722189258,1.0916141146257754,-1.8270386514549792,0.1379822541552963,0.9169869639701437,-1.0380400250558601,-0.25761505937636225,0.7911721793774632,0.28128055814085445,-0.6024827874390332,1.668349578044319,0.7757864083514683,-1.3815238019694884,-1.3075400036851612,0.653635462557149,-1.0533707882694159,-1.5810695047168637,-0.24633729616221223,0.7568047307390043,-0.8929973797595787
0.13184314787327334,-1.3699313792784842,1.5161529969103984,0.18359908873149086,0.4789432166455337,1.2067039053883912,0.08612715231204039,-0.47093817685880873,0.19882356066616802,-0.9103411952436863,1.5120294270625145,0.0036284474573927473,-1.0937111593190132,1.3250134794582331,-0.3519133749525758,0.2330485090054737,2.7132110910956677,0.587017240520011,0.1206811008131192,1.6931510378729229,1.6017655983427845,1.3720860274027262,-2.1404394571492107,-0.9120072148522963,-2.150738375621883,-0.5020032943598567,0.008191981597071685,-1.7443640734595895,0.3277487983645845,-0.35584270681889485,-0.9830507979567252,-0.8531619076653307,0.4227456024494128,0.4123805773872827,-0.4100801368547874,2.20485863154344,1.968155964065487,-0.03850301673615175,-0.9515999333968288,0.4828794008140759,-0.3850565132927399,-1.2242980865557982,0.0005828197257330909,0.1301062831915329,0.08093056215736909,-0.954621240220185,0.5648303082428082,-0.39347133162004316,-0.654360927926575,1.6279490674633985,1.126752351643044,-1.7121363713277677,-0.5216225572122665,2.3228136537405035,0.494565396182427,0.6839564227605438,0.9506810905696982,-0.2695346457670693,-0.6154144094466445,-0.668465056916285,-0.3461740011471419,1.0791509163480617,-1.58736710595535,-1.2663684370576171,0.10592657136741569,-1.2087402584881808,0.8955008546158514,0.37995820530586716,-1.062640081608187,-1.1241648894261835,0.10426226167194029,-0.6508016803753613,-0.2770076231882696,0.43818594824155543,0.6648461024792894,-0.31547829134412303,0.6818688665181357,-0.6801308074794715,0.4619480011298173,1.3493764342304384,0.6441698480158541,-0.8910977449413108,0.5646858958845371,-0.5404205613573473,-0.29954205512065596,0.5898976231586004,-1.3619714994812129,0.20355379479978222,-2.3039741925935746,1.4815817245928515,0.6192328020856153,-0.40265338717352106,-0.305474960348469,0.1579077070501305,0.5687897073483315,-1.304592780070388,-0.37941158000113856,-0.7011607161990882,0.7781972335876021,0.43965103988823134,1.1313426231733725,-0.7889922053885323,-0.9288871349311357,0.20066748939457565,-0.7379718363742336,-0.6172310202410553,-0.1736483730415476,-0.42317865962157164,-1.4727217617999018,0.18270802411629788,-0.7881664425687139,0.9039440537973914,0.5647065952105075,0.07418061199636827,0.48546766974487565,-0.40291578120526184,2.442545530955954,1.7062118822843582,-1.0163213175640566,-0.2894656208137931
0.8495287231784886,-0.6575157696126855,0.3248279517369332,-0.655037912801203,0.009240048495693974,0.940884381081862,0.9696303037702686,0.7364427471840485,-0.01813674312040333,-0.883609983220381,0.36464082098284883,0.5629708495381424,-0.17854088484550654,0.42661832889469953,0.9155438475813126,-0.602517073507047,1.7292122830429026,0.06389452502522693,-0.07530166587819409,-1.0768836021828396,0.04619551346089031,0.5673278549634316,1.1265621764935625,-0.429205838987026,1.5249190638747523,-1.8149282199471246,-1.3453165295600635,1.0071240650699065,0.6631990644104452,0.4346535909254131,0.7493402348336117,0.14964030291193187,1.7547425474106766,-1.7041112044339617,-0.5329671252002325,0.7389640962513417,-0.6692536545627517,0.09151483066920932,-0.3397820071041869,0.5819217689478202,1.2074757574427801,-0.3482712179323232,0.8451885751965171,0.3696677059072068,-0.19613857806734866,0.2614464949301006,-0.4908359972496107,0.030061734627694153,-0.4444064783832955,0.28474550501228485,0.7859809750672575,-0.6603294450100932,1.1620787951129086,0.3917506896459096,-0.04533843088718555,1.8804803916258093,0.9751003420050824,-0.0791689379504127,1.3826194868111061,-1.2499349647711444,0.11535453642518849,-0.6941194475714254,-2.569604536924517,0.507131945227926,-0.975134909101322,0.42923288597091946,-0.5435742871645562,1.6904381367976793,0.13874074576830994,0.34764546332412805,-0.6487101259206604,2.0609148970101394,0.5153277351333887,0.17297031355181702,-0.5781594753423493,-0.5419045730463746,-0.6294348452836173,-2.241130232306013,0.4204217098291726,0.14165872713375063,-0.24082362751678188,-1.3755429626236113,-2.249977976302693,0.5668601247534163,-0.025334740323129615,0.3839124067791172,-0.22369263509254023,-0.11286746322116681,0.013734965782039463,-0.9389884150210144,0.15647299346474078,1.8722074749637674,0.28363003749051097,-0.5535232055898028,-0.7269695001692754,-3.197536792406957,-0.7590597422073238,0.9761227092313541,-1.765650449827274,-1.5009960649028378,0.19243083943851327,-0.3679771638036548,-0.014607914993414248,-0.7279080885599309,0.47259653893860665,0.27243459727272634,-0.049013420042512225,-0.11818531696452951,0.17695218940592208,-0.2163560099522013,-0.4677963314134403,-0.8124437443127782,1.1915083460962506,1.0214300676677732,0.4939908295195673,0.6717569944933435,-0.4178881277063929,-0.4095851496841872,-0.04450272585402803,-0.047227218129388265
0.7634796442746795,1.7020480678758971,-1.5316857077033916,0.258914561505662,-0.4240962517421344,1.054760253259777,-0.03290234420899187,2.4212333887430466,1.7804803716721596,-0.25270944738230344,-0.8514254522088364,0.4984848394375406,-1.8535226602195285,1.639746566283359,-0.7608328238967464,1.2058997453061915,0.8262624946710453,0.24546138711340193,-1.0846667462166337,1.5772328276567247,1.145412855023069,0.8360926393663974,0.5627000087712201,-0.7602141713707987,-0.25988956615532055,-0.63936812048376,-0.5447708356999239,1.9784475524324063,-0.8860778356298885,-0.0008148173338037868,-0.20084223348170874,1.3273846400679177,0.42193293676940336,-0.2393210731847322,0.4740825317131825,-0.7798513079604505,-0.24271981180592495,0.6591722117280205,-0.1572361144070179,0.6416615072202213,0.39460853634167703,0.5113687000552863,-0.2181037890942607,1.0289851118485864,0.16483159809377199,0.10857425584342183,2.151940021885555,-0.14185900974945892,-1.388377712146625,-0.5299785836080628,-0.3226424824006032,1.3088415664431878,-0.11696606808229643,-1.3077022624750547,-2.885485936125396,0.9880046785262298,-1.604653295154736,1.2820581992863265,0.1458460709237233,-0.4297340894954756,0.7419584956608959,-0.9928998489299475,0.33766058526865245,1.664967455219185,-0.6962901452909608,0.633044029852556,-0.30282413159502636,-0.9800177896516085,-0.4418374591622876,0.8312302899815202,0.70742223099731,-0.09518706701906841,-1.0166696313971986,1.6926367029401284,0.6581703558925514,-0.903373463303997,-0.681711501112862,1.402646650268674,-0.09749104124810895,-0.22384772276172807,1.0847050551048154,-1.0558683894474032,0.060114071086909436,0.5363117947542484,0.14567882701745138,-0.9073597017542046,0.21442628928967825,-1.5374513000080516,0.5874119799550113,1.423737778945003,-1.0467929958189772,0.6991720427467708,0.600973920261722,1.388965635698975,0.8581602257860625,0.04498607437466918,-1.5597314411843992,-0.6874535547425443,-0.1851075214399999,0.48861257866142965,0.02610273239146742,-0.2998283854050069,0.1423261383883264,0.4373122031008644,0.15962101200940526,-0.5858503405779407,-1.839691979452266,0.34962483325225663,-0.7931062980309376,1.435255476897561,0.5191300267395216,0.5254455622082697,0.9309308832959398,0.6413651052208676,-1.1266723461507449,-0.985162156093121,1.0516685181398433,-1.3485752775807758,-0.39305419570192374,-1.3349595097637132
-0.43025839378063135,2.2344793771138116,1.1829543549793526,0.3498222557700904,1.2339059990392671,-1.4645824284320321,-0.18913274401313393,-0.9242267290301943,0.22989835455192542,-0.1227887575890235,-1.5554418412856637,-0.4959910356471717,0.07133414392095985,-0.04264317247290641,-0.19916383113563937,-0.7823216530491027,-1.7874544429909147,-0.07952326968983278,-1.4132558250282237,-1.1669655545056272,0.2743959202881157,-0.9036005585772626,0.16587407810317614,0.1896833217830472,-0.058274054883815526,0.1138134199412416,-0.765611551410034,1.5455010727651666,-0.02588742251726717,1.3791238571728572,-0.7541401161762568,-1.1443853084772375,1.0205652567713688,-1.2992239373733008,-2.0804655659545195,0.13620311861837378,-1.1505776152826919,0.07386354246446024,1.218890002408821,-0.5381547442149857,0.47289286905026817,1.4057553577261626,-0.7437729525036648,-1.7518976210921524,0.1739073862914735,0.0596939766552918,-0.21866075193237516,-0.23015317547728853,0.43842324303423774,-2.0080493548911504,-0.5210002462839886,0.07946765244267508,0.3284491686846703,1.3085039146850046,0.5203611558685513,0.9546444199753588,-0.10844062456516768,-1.6057043547149636,-1.209989108932759,0.26875005213652275,0.03423985204834831,0.4221113218496902,1.450606475568303,0.4628010517016259,-0.04417193718539971,-0.4762859308759402,-0.6102517168413362,0.827067800829766,-0.5652772470421942,-0.20107442950631765,0.5843742412335737,1.4168428046286146,-0.2780223441634119,-0.7657371530727151,0.698551272035839,-0.36584435382106,1.3853284207882368,0.5897110247348839,1.1390682676478792,-2.8364584117299745,-2.2140944302809364,0.8994461185009034,-0.5075412891360843,0.3546432154040328,0.3408043689235335,-0.3877802714316252,-0.9147016817005946,-0.7966608359974714,-0.014067885114537122,1.1832484597704869,1.0752514691910582,-1.4670838159171753,-0.4356835789760538,0.4854463958132659,-1.237088690541685,0.5575446416714441,0.5497889701030626,-0.19969176176965656,-0.9989385403267681,-0.6078694224676064,-0.31485426900065483,0.7574088296024237,-0.9272302538541286,0.04891380263949422,0.594839020686869,-0.3281724720580328,-1.609029603483493,0.3474357293400381,-1.4708533314140435,-1.136887380394018,0.406164639592957,0.7840387422704648,-0.539878273501798,-0.3956628205342519,-0.21362894969020702,0.664412455728863,-0.2885615103594592,0.7715809567089351,-0.7970800483544159,0.37549745289416686
0.06996073770803897,0.6359374222260176,0.04699286923395351,-0.7074783452299238,1.656614629407426,-1.2981227997548834,-0.9675952732534997,-1.006961416762932,1.187693579231618,-1.1138960215103024,-0.5201967308027162,-1.2456332874904645,0.5925460595672944,-0.46452679771463057,-2.226127668998995,-1.187497762147577,0.87289509698099,0.19343902707050137,2.0724814183986457,0.408097292835658,0.9217525483078094,1.8432281010996954,-0.005093847319915609,-0.18877910158734404,-1.2077754097707474,-0.14298956169564447,0.5410865764005349,-1.6975132929233814,-0.9695444632052642,0.8222565416483838,0.6212224365342685,-0.8199279045521809,0.14267397192012046,0.5749320130842562,0.4693839501006779,1.0376417809189256,-0.27715368431901244,2.048717106688088,-0.8668021099645777,0.25081078489197856,-1.4896273196335093,1.047543294240384,-0.5993374322713548,-0.09872461265121538,-1.019095845598614,0.03722596843137681,-1.4266718132165392,-0.4004569552320068,-0.5704448476656705,1.9974507931259247,0.6642427657357415,1.0759534391510157,0.7059932862978386,0.34710368477900766,-0.20138256814956979,-0.8897011882038408,-0.15638497105250693,-0.3904673868323207,-2.2724445895747354,-0.38857446474977075,-2.714324532924105,-0.7424914746196378,1.1972801755256088,-0.6788418205948575,-0.07382727016454656,0.7357944159661066,-0.7313051439594623,0.4254085004165722,-0.30068706510991483,0.8758289250403938,-1.301475272694883,0.5178635142446182,1.3603794305959362,-1.080825965664388,0.2256569927711776,-2.197413977694753,0.4260814384890938,-1.3459911157286923,0.9275107915518277,-0.11500808629136862,1.2665983915020846,2.295772102128709,-0.8848427961711735,-1.4134316334635786,1.9988886776509718,0.1855453497675827,1.5619523392234114,1.5589481970238377,-2.9110136432019544,-0.7761591337074807,-1.287590237929016,-2.7068349642555667,-0.9056075457576891,1.82449136757299,-0.10452927074607345,1.0595768284262697,0.499283979066142,-1.1537847808085118,-1.7712184877638864,-0.6027473936813205,1.3785594801103995,-0.6560955947905606,0.12744595196868247,0.16029976678495636,0.5201598853649745,-0.4906991278655477,-1.7578182302846894,-0.812312778053918,-0.04676681169367943,0.5652120764340026,1.222467985681351,-0.8949925500187695,-1.2118638474756895,0.8133688010449476,2.811198092845216,-0.010089408971298341,-0.018964589888874943,1.4150579876914169,-1.8755114124200392,0.12410545611797473
-0.017156622519664988,-1.4169418125295565,-1.3563818342111473,-0.08719103372792886,-0.5469590760852663,-0.9707949723530994,1.147688721555641,0.3803203767579913,0.42742785431041525,0.12083598902082852,-1.3749411370141933,1.1097425377558052,0.9930372637070077,1.1210843954686383,1.703399072161886,1.193030517634901,-0.82865203002453,-0.5670130025774398,1.1474332875182225,-2.809256936180968,1.0101017172973772,-0.9803667424819927,1.1167763504332606,0.2920451492507979,0.7298694522960635,-0.9538499535500733,0.3281291821701952,-0.23315396679957764,-2.4531532862776535,-0.29103808568316114,0.46541945655012784,0.09920695244441245,-1.6920521797526331,0.5510582808919553,-0.9107548695864901,0.07450029546395118,0.07405875685260341,0.029936005034378342,0.9001821923023169,0.08841426504166801,0.08491491596453551,-1.6758386110626187,-0.6041692720287604,0.6464159263449255,1.1993552599758455,-1.3962522505981478,1.6392967358462136,0.08791710694551833,-0.006582986957475872,0.08514035015901647,-0.6201564899324115,-0.15980237203218617,-0.700532292475788,-0.40810043760351006,0.10150947192731831,-0.3549578783221454,-0.61421572331555,-0.05831460763778006,-0.05306523660203056,-0.5047189885112481,0.30570975901847236,-0.27533111633327606,-0.31430335406510357,1.057274029961193,0.4705284714731961,0.10415838565624475,0.3221099610067858,-0.43804582699396094,-0.8473659147673204,0.19162241170222571,-1.2523608707810698,-0.169285882752916,1.8585065108382655,-0.3420919270477803,-0.6123772366845726,0.02703447143185338,0.3257980021734924,-1.4007621223242395,-0.34083469749787254,1.3185886759252383,0.9143616195151675,-0.3062938343291461,0.7093111328636698,-0.6557059491760435,0.3805068964253776,-0.30315474859080727,-0.08250572566317435,-0.11368324956025411,-1.5847735865707144,1.0899859253242639,0.41910224887549374,-0.6317458534361625,-0.7415037184356832,0.9947498869907048,-0.7157545697294957,0.7746398669102128,-0.15209347584650876,0.8826394838144387,-2.143270642996306,-1.307582928743179,-0.8447150782871069,-1.5313793424248827,-0.46854365765058287,-0.7655715715277854,-1.3999954651490825,-0.23380524861895466,-1.3194345770053926,-0.22127982646489833,0.20808371014798094,-0.23227015231647155,0.32245214495485985,0.8305194321568073,-0.0860474517762416,0.22981349170330342,-0.9165931664499384,-0.9056423242620553,0.03617861114311558,0.2838575454560196,0.6485799451007976,-0.6444196536730776
0.5143976013689431,-0.9959207843753164,1.1710046021528016,-0.21562379947478852,-1.2271070929057477,-0.2960838452117929,0.5501125935132386,1.0065680698210946,1.6892899617125006,0.24322167458115554,-0.06413142157900077,0.5786021135124034,0.6191429506811921,-0.6389444964437692,-0.8906587574678648,0.08566329363258407,-0.29728532579989336,-1.4348291241335902,-3.350692918793589,0.2479085162440357,0.5620435529060361,-0.17494720516542797,0.427700362219328,-1.1665894233240193,0.12463091409670153,-0.5888289682704304,-0.350554264909269,0.4630304131301663,-0.31279604908745884,-1.4687247936095715,0.008547863313499141,-1.0627089594935337,0.0516357256143508,0.4691355749086598,0.3458378350153338,0.5943361113313653,-0.5109557410808803,-1.4012955688798598,0.7951159270504556,0.7322761289826362,-0.2534518560061792,-0.30606844593601334,-0.03094538221195692,1.3025514037081465,-0.9079142975525011,1.7516839815368028,-0.376908249664856,-0.6658271978642509,-0.6450525783548886,0.6728952951579438,0.4237306847436758,1.1501241541255713,-0.7165965608649753,-0.9631229641901,-0.585665695292916,0.6949768526808208,0.38616145313466504,0.18013006686304514,0.17160704434008492,0.5350506727217533,-0.6775235744712728,0.31137258348641716,-0.89899135135405,-0.1410625102701074,-1.8984547112362236,0.3666774378508175,1.6445446409567337,0.04755525214076764,-0.704707380998833,-0.31627437354388516,-2.611786091713732,0.5416522419015084,0.44378317584221305,-0.8171373591764935,-0.5247488514880569,0.21789670361605762,-0.9935291824973345,-0.7270860202474005,0.9161437143946296,-0.4291969620758612,-0.1792819478637107,0.7056251354550872,0.017082148391255842,0.8895544992099653,-0.16051805735717223,0.44700983954406126,-1.1391205952322745,0.17936745250705166,-1.0493342199145388,-0.5252862612572089,0.10260333025690972,-1.5063370761427386,-0.2925463108972607,0.058917191069847594,0.5635561120089685,-0.2867005767224551,0.17942390082894769,0.8856356066515346,0.9426450707364139,0.7565016456004392,-0.36849341777223343,-0.3061164284168941,0.9368401853871795,0.01218139405725755,0.3781209168761142,-0.12418728838338687,0.4784986614834751,1.5513722478254193,-0.7284950563073256,0.5277773228959179,0.34412614664294555,-0.5844866276805165,-0.4748483774167573,-0.2734829062696681,1.109816313935648,1.1349999378119338,1.4126474369386457,2.0719371778692444,1.0223603989306256,0.3057701936682741
0.26344817854225305,0.9623520463295027,-1.07523519509234,2.583894916755797,0.15474394369704783,0.21086067846155837,0.44516557132941387,1.5368498463665534,-0.6567629185874251,0.31362868628775264,1.1019725138107501,0.9082446910778006,-0.03621203229394258,0.7229655319468681,2.169835613868123,0.2260245536879926,0.2789973407265612,-0.1587534905113294,0.3010680975746542,-1.527299624459898,-0.8372121249783897,1.7572796782930067,-0.04140253129835697,0.21888606998741356,0.2651823850189318,2.041533559303146,-0.7600179113079271,-0.6884525181060374,-0.05912687628948472,-1.464024183548606,-0.3081136354883175,0.8375754135855068,0.0955995086670491,-0.7699385849792872,-0.06543770473782703,1.1337784596416438,-1.092026567594389,-0.28553636039622254,-0.4712758875099997,-0.46439109551296687,1.590857947886473,1.6164267772080683,1.2644183439505747,1.4040802547026299,-1.3796098188638564,-0.5838070661217627,0.4355468995314571,0.6125474782648199,0.30840169859273825,-0.8320583585505693,0.3452306247083105,-1.4817435806919312,-1.1528600226009222,0.1140593264368638,1.1403024447185086,-1.011736507701744,1.0689209726278053,-0.49695300930842967,0.23107425022006348,0.27632928301496207,-1.509359130870195,-0.7062759191289512,1.450033757696152,-0.4031647814621497,0.09751306665537787,-0.9767907623838703,0.10383228053041886,-0.7556958878620015,-0.6487358668275044,0.1846377102289332,-0.2044558807942789,0.07725769168599382,0.01754961488112758,-0.20398199312465315,0.632051571141896,-0.2411046337309868,0.5978458273799326,-0.45050110345764466,-1.8553876115573842,-1.086499332416827,0.024010125218408167,0.22323685431551019,0.7884970733925767,0.27865348709133314,-1.7346295467875141,-0.4752671843915261,0.0528293848034847,-0.9096440208405345,-1.3277539285667523,-0.3797790590435094,-1.2695537423699685,-0.6925797313035011,-0.27407277658578155,-2.3197977656788478,-0.010648992935535808,-1.3267021691865941,0.10612160899955109,0.16979360728134585,-0.9934221705905946,-0.013853104156226224,0.9035673150649469,0.6665840935735781,-0.24173483341086477,0.5690305705153902,1.1711575131238883,0.2267009972567629,1.1886588969227878,-1.367439153510339,0.7659661255643825,0.2375525860986468,0.41969450799328145,0.2950865151101553,-0.45172547649404543,-2.499030082755664,1.3922916673328372,0.5029994113806738,0.24019463361081458,-1.0706877708480018,-0.09865425159683745,0.05610400308510307
