-0.01865346022642791,-0.03751367387935556,-0.0032528813627642392,0.10278577841854213,-0.0814606014226294,-0.015363733113239677,0.015868794376674253,-0.15092104472519427,0.0074853497378780135,0.06976813588589215,-0.1591466014746486,-0.08643727821839325,-0.11419788437571941,-0.07920228575173742,-0.009920700316626806,0.013121500393742673,-0.05711728265656629,-0.04845595305243944,0.06796698890647464,-0.04152246505566732,-0.14633754405541158,-0.04276132079983099,0.19694556079695336,-0.10232799301586697,-0.07541568823667955,0.19048450725286384,-0.016020281510147453,-0.05872514434509343,0.14885527760633355,-0.06393851786549969,-0.10369167619184061,0.10605250190088804,0.014778534791638443,-0.006401846689765189,-0.10860762700919384,-0.13667262082921158,-0.019055544453518057,0.12520106392171643,0.1953775156548379,-0.007460732096144835,-0.11732868117151726,-0.07967909468701531,0.09387744093188066,0.023420060756177682,0.2592790714683934,-0.210528617026232,-0.03378970430094863,-0.18325107219531642,0.03728530845035052,0.2527386459936123,-0.008610771044828196,0.05596858003130056,-0.12019338506857663,-0.05699180576741729,-0.12886108351055126,0.2781418498864496,0.11468674981202275,0.13644053815343518,-0.04734436482754163,0.09513422962247133,0.11360120548608055,0.13674600763547107,-0.049951947552492715,-0.07662095252935244,-0.00718617074234594,-0.012590813917679352,-0.07578916431599796,0.056380541470981045,0.0738177201209593,0.15307416353116643,0.04418858245828208,0.022412696689375164,-0.09680810400312849,-0.12788432382699377,0.06588422037746006,0.015309671988430836,0.20801524185368048,0.027607273718908996,-0.11038974812139644,0.21038961303557535,-0.07926572236635158,0.1175928523767036,0.15695877177706571,0.10208936941789813,-0.06332381614379619,-0.012517968238323412,-0.17761619628787526,0.08484149888154789,0.18127463231425966,0.09207185375152996,0.16976017763015747,0.2359148294760295,0.16174145144881433,-0.16568821412348236,0.025695868597359405,0.15422485831977487,0.03765606044161611,-0.03543243981202413,-0.09122802259733605,-0.08641107427386617,-0.05830963775962708,-0.04670726984417684,0.06398111874200553,-0.018206989249951736,0.24263847863857005,0.0591865078657482,-0.015363402049863995,-0.028634184396224838,-0.025656088495226898,0.05897269905153483,0.16022022028892624,-0.1156800818464415,-0.06598370108928965,-0.05225832676154416,0.042878219870777404,0.09670333111835044,0.03620637695661413,0.07099935095835384,0.04742479094872754,0.013472508757093462
0.08247942535050365,-0.07640422814267271,-0.3365487361064341,-0.019648946952742125,0.07660882981307647,0.09619126993284632,0.023153108227313784,0.3357184868256136,-0.05677051409402389,-0.11602242948585846,0.4415193403930291,0.08010569440149787,0.02093674606170412,0.07083367146930845,0.09204950754847534,-0.0645629596082708,-0.19266647275762327,0.08028761619514081,0.039653483223351695,0.08533054640386939,0.1590945106476559,-0.024039450233348907,-0.11213393719515534,-0.06312308566436527,0.05508241376502758,-0.19413441440645893,0.09867422503721568,0.09363088457950199,-0.3329335710760303,-0.08337091734009558,0.07930898197916189,-0.08149588921900199,0.06880483596626148,-0.0022257201497650346,0.08358859630506715,0.03818423738628991,0.13135860056956353,-0.15428704682411717,-0.2645698343254507,0.11161883691075244,0.037311884835826245,0.02115755670801264,-0.20350302897940437,0.3524411786263083,-0.38358191533610864,0.30244821474186234,-0.023033032128823315,0.13349164644738518,-0.10461556832846798,-0.2523978563299158,-0.0881674151092699,0.010684154660246498,0.1370259091527302,0.05241852761131757,0.13431972654298516,-0.17565843801185752,0.005936622349892166,-0.10039250491680725,0.16662611933000362,-0.05820269557705537,0.07538789968292242,-0.175889075424499,0.11829361204215744,1.1167405020418476e-05,0.04083060393302633,0.010140777315367928,0.20637086336216579,-0.05548846162013557,-0.08705750377622748,-0.10602565206316102,-0.00324508071993385,0.0818560825592775,0.08710207259336125,0.025198075306648842,-0.18784279904302303,0.07112852937413333,-0.3629972316720404,-0.16916489744874383,0.037116240283806876,-0.1713685074543831,0.026695556629195257,-0.24912300563487008,-0.14582355350370566,-0.11010459672966372,0.012930102256959758,0.088603025351796,0.18017847187170247,-0.0482453642293016,-0.14158298741452763,-0.10367414968724045,-0.11019310337977753,-0.17528128756833983,-0.1263695449504778,0.2774291619264801,0.02509254668472801,-0.10978321006209629,0.04099714158992525,0.1397326827766754,0.18252358073485223,0.03854686689698965,-0.016557866056041867,-0.07349861890046458,0.02482801011284444,-0.09206785680365823,-0.4018662207145198,-0.266626726712891,-0.07289001757994323,0.08796854683901806,0.06733185156043414,-0.18203956517068154,-0.2221398516991278,0.13858371458547028,0.0006936490991399787,0.01873222571129392,-0.04438925393258299,-0.09855612716319836,-0.0076472092821426195,-0.0018827840018436734,-0.0949702872474275,-0.011621508736092238
0.061061689903047084,-0.15896055752031546,-0.1765830781674528,0.024124962531802976,-0.06816218272702743,0.10675954014581092,0.09339085841275184,0.1579420564045365,0.017100981452985175,-0.10423558939948697,0.028607344221804047,0.07565018826586549,-0.10029831395394709,-0.09083671673248188,0.14538083716815697,0.12793889014715412,-0.02088460194174732,-0.03562564033593433,-0.04507983344156995,0.19974529737357075,0.08720931880692559,0.11318554242245316,-0.10119508549210951,-0.1265895076325451,-0.25258238163596863,-0.08594603676501097,-0.11848291771882247,-0.26874061398997323,-0.033960806863819824,-0.04852749519665562,0.06201307833733911,-0.013616462597247327,-0.03694673769606016,0.016395377319507486,-0.1891329363905815,-0.022618210441922554,0.013222466646034289,-0.02802001748038903,0.21043737129087042,0.016523312936574358,-0.04654536133644698,-0.015209238682875636,0.005273057044156498,0.13692739302370355,-0.22247413920805256,0.08370832427430354,0.001137221777256993,0.14700240474470755,0.03746633295249439,-0.2098412399141702,-0.08240492111297702,0.048383044011556964,0.04820412753906116,0.029362101605024664,-0.018627446623685824,-0.0034478704320131796,0.14282365731315783,-0.05471394468889494,0.17483655373628,-0.12125401695262432,0.23903360876647545,0.01513840735758586,0.13005710773428594,-0.1091166608137336,0.07694167227651419,0.05764853155041051,0.0777334187468394,0.0027736759003431227,0.12134990688018858,-0.01511319637872072,0.3221163905994069,-0.00878498465945053,-0.18290526136472135,-0.13325851975693281,0.13209338266843118,-0.04821253869346245,-0.13640028230346196,0.09268924997612936,-0.11409877237134682,-0.22794695546039198,-0.13191678413266,-0.017942525414927066,0.0565813236518715,-0.11786402457767105,-0.04106785850431132,-0.07960372503639153,0.008938573947181295,-0.029151765610342075,0.11431755454143114,-0.0711735191325703,0.06839682917864995,0.03069849900488048,0.042734312603776685,0.2771623873336577,-0.20050483109120407,0.06217239620138861,-0.05135985067108345,-0.05550256512459959,-0.010654068061542761,0.07783583919026558,0.08728677852307125,-0.017020214792609064,0.011873602277189234,0.08598918808795014,-0.15832592240600243,-0.07836951629245696,-0.14992482855181405,0.07438710533789304,0.1518554241413784,0.08687718866479062,-0.09014340610069262,-0.06334866387385926,0.10005940445005979,-0.08891548701773377,0.13781959808696329,-0.24836701211909298,-0.07019322106353904,0.04405185217803891,-0.04796861705920898,0.04267604745492156
0.18442115829136327,0.12466742825967798,0.1033756157121407,0.017045643502891613,0.15081615647914323,0.06888956012973241,0.01761778709935371,-0.011188006868046002,-0.07676607392631306,-0.3758129158101193,0.032284307108018176,0.35587908767201587,0.16192706206615337,0.30787269127446054,-0.2366399411546807,0.07437861064283519,0.022814910267707166,-0.06586347704153568,0.11148516817291818,0.1440051361901051,0.023185016340652273,-0.027548171902867565,-0.12739178273648316,-0.07519734687252368,-0.03778719961186294,0.09416687859994874,0.17950974545099826,0.113119646038744,0.05911850892961502,-0.1613832850780442,0.04025128045306723,0.0014554395022010093,0.4486979136179997,-0.07121765507775221,0.2165046832702135,-0.14664463812790937,-0.2258752589148912,0.04720989562552409,-0.009562899139446634,-0.13485646590730224,-0.09687484464985738,-0.027990759245227956,-0.004315207648270307,0.15559749656227573,0.24854868324992666,-0.03514687644194267,0.1386738741786437,0.050144872960894975,-0.024854459834385858,-0.06851633237479063,-0.017315474735340484,0.41421969270356923,-0.11405112275631704,-0.028205509068920016,-0.10436697219493478,0.00829211255945464,-0.12894997709537923,0.26343812350734325,-0.026270574875890323,-0.004629527485828867,-0.0716602301846759,0.3002056020811889,-0.09489608474830656,-0.1326975855485603,-0.11005778415765316,-0.11056711267279656,-0.2525641465609886,-0.33172977799962805,0.26320811280567946,-0.03228946358052728,-0.09452022186009297,0.2464438747935069,-0.09489173364744186,0.01425983447607828,0.2953273848887666,-0.14565029585682998,0.04339739889586279,0.016842163117426822,-0.10174415645083511,0.04496254239812466,0.09596712134104847,-0.055012852487234705,-0.22876418922299716,0.17427740904358205,0.1295997737849317,0.1687861403748109,0.07316078741390451,-0.01302260806637976,0.06936498170591841,-0.17821209753216372,0.024643621178414697,-0.133948566399501,-0.032555604363603496,0.015104894173367715,0.24393462658446727,0.0025486504091316573,-0.0008303000368846187,-0.16823216324553958,0.07355130304549388,0.026994339388815368,0.1336633098377408,-0.09604523504925215,-0.14653828372430108,0.08744985408410197,0.02330033756982937,0.1680197989511316,0.05139874408097237,-0.12060480391966305,0.02759656666109474,-0.19195006121279307,-0.06598690657279635,-0.1379170311896488,0.043778611545781006,-0.08799534184128625,-0.08917783155566482,-0.37176987159439623,0.14350911002946376,0.28833843914304963,-0.017540876466298254,0.06198850783682523
0.029570016765066872,0.06455155799472007,0.23290727302964442,0.02590487683449237,-0.1417227814130958,-0.19803318781929918,-0.002787086847695515,-0.24401466688751047,-0.1016930914765309,0.3110329650663881,-0.09200347445433402,0.11274617289872445,0.05275308287564556,0.05212698761074991,-0.19537063466338414,-0.07968036814153014,0.11685305126143361,0.007747783212345996,-0.031189800339590637,-0.11122237396647305,-0.028836913042471803,-0.008344773402524167,-0.10382157592886021,0.03842680160091091,0.1413749959301926,0.1854907529836239,0.05705708702060066,0.23276164675431685,0.019840029367068267,0.09053455515504513,-0.13835402513605288,0.04745230902773292,0.0923846992490712,-0.02383582829014571,-0.049357576888346515,0.148875941730883,0.06147314604489235,0.09197303642311554,0.15102134252710245,-0.1511146198904862,0.06498600189058662,-0.05276145045962131,0.08267020198724467,-0.24033507565687268,0.10923060600491388,-0.08532832223716925,0.029910105119633552,-0.16800905755144838,0.0012552631036455858,0.2645927128194561,0.1119829088022415,-0.10358264436750925,-0.08080264710545479,-0.030646213353452384,-0.08115129676104543,0.11796038348641802,0.03901243384418234,-0.05930585257392591,-0.1503992710884835,0.09290907613093569,-0.028277191774118422,0.03761125817764013,-0.13358019389277115,-0.17098975815327006,0.051808454500884366,0.01558917825427732,0.022234587140745145,-0.024425866664785436,-0.03348738717789261,-0.025757770555418565,-0.08789800846951934,-0.07077257153467122,0.05741667817012466,0.024046959237855922,0.07661864679607695,0.06969098747871198,0.32859520398749154,0.0754675985127765,0.06460880832163617,0.2223034294065555,-0.005500193732123709,0.11878099650193245,0.0820538110255223,0.05102537175783708,0.05360617277838452,-0.10481289068366247,-0.15531447961502165,0.0304718965615001,-0.11473610752824201,0.12948812673827134,-0.04805841838018255,-0.023746815189935676,0.058862823596092344,-0.17760180540740922,0.08009577551049366,-0.0375559300180844,0.031072472789182647,-0.09810521809454241,0.08342332614836521,-0.04633821489781804,-0.021335571880576776,0.11280113130663787,-0.1315561401006142,0.05826941708874432,0.3146709591810263,0.029105932252039193,0.19929492276836078,-0.19963963827777184,-0.3025605389945594,0.18434727942696164,0.16474030856760694,-0.03191530765630504,0.06139871210436207,0.043630225624992365,-0.04483978286837622,0.017625772669258633,-0.09047584075645736,-0.04859585689078505,0.16862088257086705,-0.041564008729506226
-0.004753385031955612,-0.012660596855593767,0.1343503384802184,0.12912915221231758,-0.13571738091364757,-0.07235352245203551,0.005731658700881598,-0.14381255897067163,-0.018638822298599797,0.0660464079671882,-0.24051534131911803,-0.1305681147957189,-0.12446319698813672,-0.09501536142583686,-0.05600710485910823,0.09795453483956938,0.13580827333109693,0.14891785272689145,-0.029965996347459833,-0.12315037355200247,-0.14482156556558506,0.015962197902348985,0.1594102212964753,-0.002640701120291312,0.06540115765481096,0.19420960849630692,0.07202358997726936,-0.20548823522403975,0.15412525868579205,-0.053916334415748675,0.06483642826510731,0.15656495745678858,-0.13425643746111257,0.15582860265257384,-0.17056192245689153,-0.12386443834324827,-0.13587290999963147,-0.045586244929977635,0.2811700918607977,0.012629111438894587,-0.15301044271986497,-0.020495972524994868,0.15385022089574305,-0.1406284996324046,0.10042145573154093,-0.15628332284360358,-0.10476852308472293,-0.18582511133921711,0.05335919143775289,0.1296025491211375,-0.009612653610921106,0.04023819640098602,-0.14082916319639416,-0.040531739821041454,-0.05620398890084131,0.2144232616734084,0.06037906893288817,0.08699702891011335,-0.1581555697057317,0.06767283167664695,0.08546075341640053,0.26834097540922563,0.12736908975067643,0.007147133638221363,0.08804055298301824,0.08729088443941357,0.029272584425110538,0.07310903782520972,0.09250153832026985,0.08625119615374693,0.2169093131814862,0.03720154332255601,-0.0414985425010518,-0.03572849909218896,0.12526073082521164,-0.13573580525265802,0.1770548000844697,-0.002435032601864526,-0.03260141856560711,0.05280780714629156,-0.06385384411366751,0.04286770900221937,0.1476190887222854,0.0736259482575004,-0.049096337511180116,-0.05756046490779629,0.009147675707868463,0.040538404371555765,0.04024291782703242,0.037158147010147254,0.27580007676676643,0.1890275227380736,0.11941677778291515,-0.04485979998456713,-0.01760713463794334,0.03110900086073238,-0.0047625535816151875,-0.03763342142563255,-0.04029191929105451,-0.006662750383405272,-0.03829684816707362,0.03033861122201369,-0.1773087037484993,-0.025909376436706776,0.2582498897863075,0.11051523816713674,-0.01137554816880366,0.004658585159404013,-0.1090599607544402,0.03705973967817947,0.2043531965665312,-0.0021634101754723764,0.10859038232842498,0.02832270957302258,0.10896985081343352,-0.05724875780564106,-0.11637681852397089,0.006266445084344472,0.09265715499029804,0.015279229686546734
0.14436425900827318,-0.0407952763787833,-0.10442542419087872,0.019101376058354286,-0.0601839651964661,0.17607487151356196,0.13556949406509627,0.005474035204129468,0.14574212987521787,-0.05880325801201888,-0.05209531342850136,0.13611795948852948,-0.019518415704607592,0.03842328104627759,-0.10160129066271968,0.11764851469345569,-0.24433808436819354,-0.16791926347019814,0.12810861070144616,0.029452823578123018,0.10389713339586328,-0.04813458116623387,-0.13558173381751656,-0.024630072477352268,-0.06121538593968619,-0.021560475080097074,0.08633860015135324,0.04087375565106304,0.007391010969484466,-0.21310309662562024,0.03876123126675158,0.005368565941778888,0.09639726121427078,-0.05788860451282883,0.020472482333508686,-0.20415464043156534,-0.06676466341838082,0.08611878492631896,0.006757187966334234,0.21115079037980208,0.025857840294330744,0.19002318277948357,0.022447404483224284,-0.01624361471336943,0.15316157570762276,0.07023189615414811,0.004308880655002569,0.043151854440526015,-0.09120995989462545,0.04237013016545122,-0.021116924748959306,0.1921243178142952,0.00449678931876772,0.2030878590632037,0.15361649388098153,0.17441049254675212,0.16050760623500662,0.2386775481737462,0.19879487802444823,0.029817113375338298,0.22994544729495398,0.07777386612376698,0.010845924930342308,-0.09438663141702323,-0.04058267461300061,-0.04502678533247233,-0.05713211274182358,0.03868818024064091,0.06195891522535508,-0.11064955949954403,-0.021118988929146387,0.2142824772076945,-0.20940698466012392,-0.1818921092494725,-0.05302377808399535,-0.0855507267149354,0.07398817317295729,0.05970923484208482,-0.03246906894467142,0.0011356308182845398,-0.032785248117285004,-0.0667360645696346,0.008953293075360571,0.029651771189116112,-0.06402347934308963,0.02097405816119866,-0.1759360078561021,0.10326312261185909,-0.09278113759315217,-0.177720264035004,0.058007398133384486,0.07339383800775454,-0.0536517690055225,-0.050144063088714684,0.03882360559934689,0.05352238587036928,-0.03593482421078745,-0.0704394110892164,0.16720372494868116,-0.20775032382727318,0.015146984211590003,-0.2116046900285538,-0.0815536323596213,-0.007881417387470297,-0.09243490560762899,0.15474786908358368,-0.17931712906620537,0.07912336488467936,0.03748267673165124,-0.00144252068757151,-0.061505827536014544,0.09061777745322383,-0.0520286087141464,-0.11549053991428287,-0.028685282125560804,-0.16215283460009403,-0.021343347918071635,-0.03326032640822251,0.14503297475094887,-0.14209128182032119
0.020900397210723926,0.06543325417257502,-0.08465415770533416,-0.05607876356256673,0.07275094427934718,-0.014722813074520698,0.029542561546846556,0.057253494851574195,-0.07229368191307126,0.023786230534129683,-0.001984850756491961,0.09636560663948787,0.209481999916896,0.08176121414509678,-0.03829936390397372,-0.016647294765229147,-0.00960721827801902,-0.06392665840258983,0.08050703429910162,0.03921825234887495,0.01849734848818213,0.15751136948220015,-0.1885945116999075,-0.057339883678904406,0.012389573341016324,-0.20628034273064738,0.0595501448108253,0.08774152102296506,-0.1294983018406044,-0.06854577291261262,-0.039797720866683,-0.14308491693558023,0.0343646736295838,-0.08790688760094306,0.034143421205645216,0.20655898270508322,0.06033437880991273,-0.06286974507119944,-0.06668388272324433,-0.1677223609167614,0.11587414444133068,0.16987034182595478,-0.006045921936785166,0.056571925145076224,-0.0992520028506256,0.14582743018373126,0.12203602541049062,0.16650739990349966,-0.008009287816243325,-0.09716467351026441,0.10081693888228813,0.030411598323897674,0.032732710152722964,0.026680116415021923,-0.044597763121296735,-0.2110795936422497,-0.10205296794885112,-0.0656930989753801,0.14534211184985502,-0.10824523859440278,0.007062439978257565,-0.11789214727210638,0.017602680005680684,-0.05773427734214019,-0.08804889489704208,-0.11891977234142846,-0.022771894998062064,-0.06927790899945473,-0.004480799301014415,-0.09908437961613914,-0.04404969823574836,0.1565695675312665,0.006681823079316619,0.07445581851874282,0.012154267027501893,0.03051460010644797,-0.009932411505358452,0.07494751196237909,0.0422709734493701,0.003940182097538463,0.011842761638797633,-0.10892038305805778,-0.09191931805735878,-0.0665076936126149,0.02336599932127179,0.04083523607120241,0.03828248689258179,-0.08634141304266171,-0.11995646149801568,-0.11828256558288501,-0.29661597596271244,-0.2543962616328979,-0.06482395914461164,-0.006398602029925827,0.12025487742541807,0.018578593896134876,0.010783787735225292,-0.04591327350437724,0.14988704746578665,-0.05378501754506728,0.12334331788538114,0.04170483264330383,-0.02064621769637942,0.11387911629217944,-0.049736103853157174,-0.04105101004635736,0.04255281972477361,0.03124559713950885,0.0060096858613976085,0.012437667370284684,-0.0910011961650479,-0.036605291385434495,-0.019828392892827347,0.026909959989059595,-0.028240116139624034,-0.08201428559511947,0.15881410496639173,-0.011335710154154454,0.02266138186489984,-0.019230124609234404
0.11560357454863837,-0.038283570913637446,-0.3211642548072664,-0.08544810707772119,0.03901081228533396,0.00015519981744070043,0.03509903275077438,0.10838781955101645,-0.2651360990697869,-0.14662737442359317,0.13829078447990054,0.16856754285039743,0.28343170261207196,0.13048838918473196,0.01371118967892872,-0.09282833135454943,-0.18169281486576405,-0.010745798023899108,0.09159866801691983,0.17653023254559697,0.05955350661378992,0.16726891774459413,-0.2366677137403127,-0.07452314678948478,-0.0026727057570073522,0.15474038889844752,0.06623687769724261,0.24627913209103183,-0.18162003938064725,0.04433436673109793,0.018395748555361108,-0.22895900777768768,0.06015273510744921,0.11126588129864641,0.08943337933544071,0.2104697033443769,0.18216531838058717,0.018625665053580234,-0.2621544948228576,-0.20897333856731845,0.22343636834598582,0.04748672275792079,-0.0954396819141245,0.18315076954483853,-0.09256321141329811,0.25270762596428464,0.17556298389494984,0.3413388397346831,-0.05514783148995073,0.09418347483328247,0.12781803218072674,-0.07523032871056477,0.11796336788759387,-0.06712308101254424,-0.07715188067582449,-0.006292458638643107,0.08090841564411384,-0.06370238265894937,0.1242086930087391,-0.12677341927221497,-0.009379990095260717,-0.2903148756870549,0.000337555719681935,-0.14825719892347275,0.024451168872406802,-0.020287389167711334,-0.031968940117984714,-0.03397098815980357,-0.1157472310785847,-0.15560691496363427,-0.1329638867428859,-0.025489930054510574,-0.14064265160975395,-0.08661088965184223,-0.10351337602575118,0.10485206352709199,-0.09550737672639056,0.06743327232849124,0.09495561390362917,-0.20387324748678579,-0.04869574353703518,-0.1735738965815114,-0.14830522699856188,-0.04838351925390358,-0.10968588097921025,-0.1645587925872425,0.04518621516657689,0.027700204952211163,-0.18627385150253983,-0.061025075929268195,-0.2362541107085575,-0.3332008517691107,-0.13020101177006818,0.08058096911104069,0.031177291841682973,0.002371324659999733,0.18025613930162648,-0.04440054566424723,0.0701963311833786,0.04082396966295531,-0.02209191340362764,-0.14631220799717445,0.13775546354191087,0.11571253498130962,-0.11105098120633866,-0.03996989585663399,0.18713600107540157,0.040239000378227224,0.027264071433071736,0.14599845428114958,-0.17966741087705998,-0.0563138660906176,0.09422549445792257,-0.06176558216485226,-0.08114617261626189,-0.10661101586861065,0.04608261328920952,-0.10649689342268095,0.19028156618594763,-0.019357736571209115
-0.006044356547938249,-0.004602751483855515,-0.14175397994517214,-0.041797083424379586,-0.1010024042480937,-0.011126840577403756,0.0879214761596207,0.00011582696815584823,-0.051704381772125156,0.018511638658972415,0.017952947291726487,-0.08705403873415458,0.11382373298363693,-0.022372000540875153,0.00017360975615754535,0.023438765874570753,-0.16941354588508606,-0.20862274980004658,0.16918255115254757,0.02838873956555595,-0.10653867550319802,0.13864605864059795,-0.10518006446332111,-0.1022693185871813,-0.02277053250769152,-0.007870691833946094,0.044338610573158174,0.11363446749613804,-0.06742783423245065,-0.043624949409587464,-0.03179326714017405,-0.07124172271138085,-0.009930064571893635,-0.03758455765617524,0.009255950790941067,0.10855209077186756,0.14973633043235715,0.05640804804738852,-0.048530025255210225,-0.1310040317828874,0.07076427561389063,0.12326744910701454,-0.05699351883486967,0.11437924653475393,0.12997971158271582,0.09139343834033606,0.14598988735815832,0.03626542485871772,0.021800864462843683,0.14929197203212485,0.013708058340779011,-0.12661597743031155,-0.0640218773160465,-0.04285331384763643,-0.07452777215698392,0.03179513445170136,0.013972917406202484,0.04410153520063921,0.08353052118672497,-0.06782356435757265,0.046772808012778125,-0.11180468873517171,0.019474963177046813,-0.1410949494795693,-0.055234444154242245,-0.14537849180910545,-0.07585686176358535,-0.0401249067306282,-0.039897637489118724,-0.06919305047226437,-0.04367351501626793,0.07480710886189759,-0.08939522076178309,-0.049695960159111395,-0.07655097248594579,0.022614442442582993,0.05542788419091138,0.07378610733881201,0.051155522306805985,0.11160633651431513,-0.025712278085289902,-0.044066986421776866,0.04331580728590794,-0.012695037967205898,-0.09390379634518108,-0.10529361878713338,-0.1071670214869392,0.0328278399489535,-0.05658240654606639,0.015050908286507408,-0.1716525413673609,-0.1392188769034032,0.029507723037164015,-0.17089576305692375,0.09089000086242856,0.12100071512768355,0.1462997976550304,-0.03251335474320402,0.07195248538205096,-0.05214732164121444,-0.016941962920442102,-0.017061140167301453,0.06109397939728314,0.10403258083560828,-0.03862158691036506,-0.0033946585249370526,0.05078092224803952,0.16970603131134326,0.027093021710300955,0.147717400867858,-0.034819363158653506,-0.05993889708723922,-0.08398048488835978,-0.008717829700784758,-0.027069090785220625,0.022121018248047127,0.2302606123375555,-0.08108594035150046,0.07670217026726359,-0.1225319846957233
0.06803276989687931,-0.17124392135273905,-0.07909771093444119,0.03953293378266154,-0.032546705282043176,0.14316447422513456,-0.04012603043219563,0.014556653934620013,-0.010229908871799712,0.028106648808255644,0.11247288700926383,-0.06692305245492645,-0.07436468931907497,0.014502814671254072,-0.016863972534870302,-0.0330069164951351,-0.03765990886927767,0.06703875937417654,-0.029451641330779904,-0.026374649114158977,0.06191240647009101,0.011466654252744051,0.017030658089605855,-0.0517388035230931,0.009402018776127247,0.054509688672907515,-0.09412197610860956,-0.010507036684292178,0.04793381562957462,0.02310514639555865,0.07102241614600027,-0.0058151274611153315,-0.10416607312647337,0.07235747800026418,-0.11033641658699597,0.018340660371692543,-0.02554985120254929,-0.012957196306675304,-0.0714704351329183,0.1180201355287379,-0.11070405427097715,-0.004024377219501109,-0.06150575419405759,-0.0153839892585776,-0.12744479325559505,0.058311498452276476,0.014066057024500268,-0.023739452201965296,-0.0796402612173894,-0.01163185858262375,0.05799480768590326,-0.17601223864936663,0.07420295770279661,-0.05838592620503548,0.07464441153926236,0.008547536925804755,0.10047322240370038,-0.12031033937899632,0.08474932572317886,-0.05363032077039207,-0.03865266991519408,-0.1297688382239417,-0.0740189537361894,0.103211369327721,0.06529285126738156,0.13881757297036637,0.027065976987694064,0.04533164030993453,-0.10768565066254697,-0.09073826385321701,0.07816923472115575,-0.13104428388992295,0.04162564971942515,-0.059498630061744946,0.05018597481515216,-0.0008118090070039127,-0.04338772670704826,-0.0034091279106522494,0.004936462320489003,-0.14008258729223017,-0.06021990281245398,0.031177475625917505,-0.11311164608618449,-0.01982716883343686,-0.024886637953115076,-0.06473643284410964,0.11483975526875301,-0.0281418878689879,-0.057067476568993344,0.003019975786055448,0.05308167093402037,0.05379589658985662,-0.12679467222121235,0.1519357049833938,-0.033511943230396406,-0.16331807382103297,-0.009710885962778948,0.11546402342122591,0.05107156995111433,0.028526999986894393,-0.14320285999749507,-0.04652799496810321,0.026952295609525004,-0.12059839934278466,-0.024189198974763536,-0.09026870499987832,-0.004141103948709283,0.09083857368853465,-0.049570396272808195,0.13967104557292742,0.035013163876888846,0.0272091818915656,0.16774776921086043,-0.06922214816580456,-0.0076480878257427784,0.010272133886984338,-0.16721623705478833,-0.07776430704917318,-0.027269525665216485,-0.034842466754320615
-0.024434462219407448,-0.07542381048175002,-0.013437794993184423,-0.06258871626982761,0.10303562433347985,-0.1579066365601963,-0.11097249446561624,-0.0810962121268572,-0.2730545205934261,-0.0753596916386385,0.14790121293439726,0.19238530326645395,-0.03065126494610457,0.28105201083544185,-0.0994778217005781,0.07578180677560101,0.1020895075825511,0.020058820259312216,-0.06449859310646591,0.019718433643971914,-0.09456669996730296,0.0077074208367879996,-0.09684128449887056,-0.09829280549871515,0.01963767379379832,0.27451745147095047,0.06013918872540712,0.12827729051949172,-0.08718993511821538,0.0637377270449807,-0.07710454555236795,-0.027464944755561507,0.2841398866814058,0.007928288191843371,-0.02704529678106104,-0.07524044679646583,0.060820628255604914,0.2021132833307113,0.08928096520751426,-0.14901037559442712,-0.034917029439913164,-0.0339308016665032,-0.10166115424555672,0.09038218488312892,0.20126334722194,0.045986814714454934,0.08873448926215327,-0.02381968241375815,-0.004732313910387773,0.20744647492744128,0.039455000975158215,-0.08788761837828071,0.07804779397570878,-0.17667310214706403,-0.24010200739719534,0.22029216977973312,-0.05357382791984803,-0.09865620122981832,-0.06702794340954883,-0.05553002392935927,-0.01760219317382422,-0.08259091838004368,-0.12502116840062616,-0.10941069163650986,-0.05145714931188908,-0.036981380713543746,-0.21717618481570597,-0.021158498093141243,-0.07841095271951407,0.07054454126285181,0.05286942481053454,0.033809212829350684,-0.016977949628898297,0.0014492603987034003,0.2237478871571189,0.06652262351992522,0.034018584294487314,-0.018339318885420355,-0.08925240597059167,0.017301380596156265,0.03838540489793017,0.16946018454908962,-0.3623239265749693,0.06456552753016938,-0.07853597384194347,-0.006111358718472653,0.23765147499027772,0.08714543598677794,0.06402746100475179,0.08396068361786992,0.04589158575947012,0.03558103098913383,0.07472172069524817,0.021973948468137373,-0.0031022793542397342,0.09775081047403142,0.11277051239852477,-0.11438756790795132,-0.012062535649190352,-0.05202987203989172,0.0053428508305658545,-0.06695553650801248,0.033545637430073334,0.1042051922877723,0.10082317824939734,0.0911370975812277,0.16270992542263277,-0.22358210742684465,-0.21411845923776826,0.23556252909851255,-0.07122174898184176,-0.20376425458895103,0.057883390199925666,0.011724295474611318,0.02012419014887389,-0.18293298057693957,0.0070364373989050925,0.11278620255157,0.23375936189413354,0.15815054495103048
-0.08518465847122328,0.046982208115870026,-0.0012745959213422014,-0.01282668205437884,-0.01318363278016547,0.12086105485605782,-0.007743349067673556,-0.02983994657763652,0.12871631417882087,0.05955933316190212,-0.11291746724735245,-0.05623635509493178,-0.07799513224926802,-0.05311905652764301,0.0603630479954832,0.03570000566804228,-0.07946228067434088,-0.0650393302995862,0.06421213056799462,0.013035312238492582,0.07189041412551084,0.08293392632606751,0.016784965312841172,-0.008336893936434595,-0.03827397751355451,-0.10347132457333996,-0.091372333830592,-0.06510671833730883,0.06805636004292612,0.10529811486481165,-0.03735548425150697,-0.034736753585432344,-0.06597978332540808,-0.06941018904198037,-0.010846758124072651,0.058402120084147954,-0.038584667684515725,-0.09999080751381181,-0.004961039218729151,0.02500537238133182,0.05426776126591405,-0.00013999058693294904,0.07078906784982616,-0.05675007549725788,-0.15367328388043236,-0.09415253804886037,0.029038340665630134,0.060531549608249476,0.031689487988603916,-0.04079444806757469,0.03139278310155706,-0.08094589394267138,0.017516219939306653,0.0209600608104396,0.06574756100260629,0.006340643413417573,0.05303788027763896,-0.11177269191222121,0.08107232411483593,-0.08464970714643785,-0.049198640806381505,-0.00042036023887056097,0.01566756175350158,0.06888009466268663,0.0037137799811848412,0.0033894760367947888,0.005322205002112949,-0.07650924332400061,-0.035320298042377005,0.004737529440581185,-0.0026495458104131564,-0.09759404779862196,0.07517583464095974,0.02078588647905184,-0.009981144150228534,0.04657558220778861,0.06236721311762617,0.08201038669334966,0.06056791857131578,-0.06057055807254176,0.03781356155744093,0.07612204279494117,0.05865010463765574,0.03254164232089403,0.02124056262797493,-0.0009213662247496597,0.07526850499451668,-0.009666970195706332,-0.009654310398051072,0.05952184570542272,-0.05903189296273727,0.025927351979192964,-0.06388270750813291,0.03515118435568368,-0.025553666578632426,-0.0546923421471672,-0.11488546592692045,-0.007681546569405837,0.005593616821372799,0.09019568721645128,-0.01246219993837499,0.09450098969818575,-0.06188148919734503,-0.05132883426943412,0.07949278066288278,-0.08114230779380131,-0.027710945689611664,0.09146029806025559,0.011087200945783561,-0.05008112859069002,0.12069677537276839,0.032106317853399916,0.006924004381404518,-0.01951145098624535,-0.03137684510687748,0.04516700063725053,-0.021309744989014275,-0.04082187449065135,-0.041718545575284996,-0.04534898871573582
0.036524258227546645,-0.06324744647416507,-0.07482004206254263,-0.00599697907863164,-0.02237509295152467,0.033525831016951446,0.10299834031210178,0.24796222827323883,0.016356228484298827,0.04391591174247346,0.06321498386461788,-0.11863620823698176,0.11779765135337228,-0.06396384446225645,0.03389627887799679,-0.03450989125955136,-0.1269126065186089,0.04172725057566039,-0.06451312787412322,-0.1579942883103766,0.16557974458362087,0.017419196527248715,0.17257158703772804,0.04168592942531967,0.07703790978747471,-0.05281080460610893,0.12257461262665857,0.04022594801857945,-0.05979769413602632,-0.05908376657220392,0.17849149888703203,-0.00783219524302079,-0.005013267913193728,0.049679726501073905,0.00661868837913321,-0.08466376464436537,-0.11698037267130598,-0.15823969449879366,-0.04686380361399325,0.14966607533640833,0.09350296270327733,0.06628028834015605,0.051224941794209,0.004448299183046137,-0.03779709700287673,0.06113044113029488,-0.05966400948090034,-0.018103942904497947,-0.0625209633748657,-0.021632521725111764,-0.0792971936437247,-0.07713888438151693,0.03487928601806634,0.16354100126529994,0.20104544888095413,-0.003389328137365708,-0.1233690359820195,0.04973212940363203,0.032284619857878026,0.05237506547998957,-0.029609603463049528,0.040410171410036506,0.3696056976784789,-0.06163548397408649,-0.00011018063372864536,0.008799476517914623,0.10112875089154436,-0.031037914746397194,0.017148667373037826,-0.039690191729733953,-0.10616569033430699,0.11757527889174682,-0.04677052122191903,0.017336027511368,-0.36611209824132096,-0.12052121575355891,-0.15676491083577154,-0.18976822293433968,0.16278751834789537,-0.02991917063116465,-0.016372764128223628,-0.34829032243590285,0.00467076809849598,-0.14110275598131344,-0.011201693467259435,-0.21951012955482269,-0.19595743746962635,0.0922140949280607,-0.046415809683762105,-0.04679465215854086,0.08710508330208712,-0.18268467004903746,-0.07637534060571054,-0.08622924237976817,0.07151237040689491,-0.0684601601964478,0.09284816927232493,0.12082271084980799,0.08240475662049272,-0.2064081880447366,-0.04032941960183289,-0.051173672133044884,-0.15565903710425524,-0.10113662965683261,-0.20727114275885197,0.06969096705498701,0.04190417105269167,0.0927592066634254,0.06189811735120171,-0.020349546130681392,-0.0010644926581990014,0.20267529038556212,-0.07029707449648039,0.021893949717408996,-0.07507093937442758,0.1279030065014264,-0.07105297884076434,-0.23790663989873162,0.008312260913841416,-0.026557685834726973
-0.03463732232090394,0.13146714716916905,-0.07454190211651823,-0.22449877554709213,0.10042451935981618,0.019120839020332757,-0.04802403061720981,0.10946288463779574,-0.10817497005126528,-0.2589251690184717,0.2681020583937948,0.09214286083857019,0.191151052847329,0.16136821029916026,-0.062009171750207,0.09120072282572472,-0.18585872134213838,-0.1766487335191501,0.2513902176043687,0.03088236278526115,-0.04801542281023949,0.1601705867809653,-0.25445912605933835,-0.12366124035426844,0.056057699961556025,-0.019040296682027287,-0.07605205114847731,0.06644278618418191,-0.24097254466589288,0.047982762529159284,-0.033006827635133094,-0.16797095811121374,0.14146282794371765,-0.049326815119703306,0.1518900955981898,0.05004611037970084,0.18672197568084103,0.05125534884198873,-0.17878365094610327,-0.15069795241717657,0.11821734051297361,0.013114258311634198,-0.1242873747016247,0.24849362022597876,0.09251493240049498,0.2320369111508922,0.3259371700016159,0.09542154515463623,-0.03251912200003934,0.021860157983505286,0.011765440357316487,0.01365151552650517,0.014798645722827864,-0.03849970653420623,-0.04797882271388027,-0.02288940075953563,0.07196768634888398,0.08184405222253795,0.08615012532217659,-0.050796032651759915,-0.04746835958487738,-0.05955794952372483,-0.06169996173144569,0.027519786357787488,-0.11100059857028045,-0.22078435363806442,-0.17768651367365715,-0.18983318539334187,-0.048322456390641894,-0.030930431732916142,-0.15372477863787276,0.03756985712191086,-0.05404761467936005,0.02498252148350154,-0.12989831684700873,-0.03389149401878486,-0.21995359696727074,0.10180965290161902,0.02089270892468285,-0.023663693455136123,0.09584937512769627,0.0014598200158054452,-0.1073519775680199,-0.000942835555155882,-0.19256020171929783,-0.004086802224777885,-0.15198941540059324,0.034434725393192624,-0.047142550368369146,-0.038469597098443165,-0.24001159591769955,-0.19862181161744297,-0.12305988662018089,-0.0790206583345645,0.10497582415933682,0.08626444536561484,0.1913231504158238,-0.054884744693465645,0.0016795384861704515,0.033567253953059574,0.051421631582434985,-0.16860654103196412,0.09448614579097785,0.12855958686633562,-0.26449891675209064,0.042223411269904046,0.11187219274152639,0.14074071656380552,-0.012854573454178344,0.06506050585382753,-0.12803637939295773,-0.10460513184989707,-0.03817008763154213,-0.039260718024172206,-0.21288604139947542,-0.14635875170006515,0.2171859929221379,0.08130323892111262,0.21558539955675632,0.0012507355572280506
-0.09469314756417295,0.07141300724359084,-0.05901956592591917,-0.01627319994660615,-0.0011703212878651356,0.24379496523009644,0.020215466193118474,-0.13153616651017788,0.18841592988390357,0.024505239235287645,-0.19768658803165495,0.03472423643906536,-0.048826927944108374,-0.043119843406097466,0.022394559114499044,0.011215057677168908,-0.4735119658341873,-0.1033104556332302,0.2719014951698542,0.149895004472449,-0.04220431497335267,-0.10926899304300029,-0.04747780107760936,-0.04616325859207272,-0.17048098422180866,-0.1716118143239805,-0.014685029828491649,0.07337771121242928,0.1571281045567532,-0.01934574064847782,-0.20977036157278647,-0.024200514323439615,0.0997193368549539,-0.1784575981820299,0.15588329539335208,-0.06821026991557984,0.06769706401637234,0.08274879188394683,-0.09634162000648298,0.09127798225752123,0.036717232001428214,0.07646984100086822,-0.07592969506357142,0.015131845526811532,0.07701802022072374,-0.011925218715393576,-0.07995104547590084,0.14046480677913134,0.1102124157722875,0.00819300972844211,0.09700082495300431,0.010620595797227935,-0.0011666964495114726,-0.024802071796479464,0.11598004204715456,-0.022637628961973456,0.1809251857520281,-0.0005568324613731038,0.2061063731262511,0.0778528855410186,0.031230592839167657,-0.059059939931449854,-0.1392345367649541,-0.04339506870254775,0.06385114564122649,-0.08646732953535669,0.01195305137589997,-0.058579745845545116,-0.045364500352582375,-0.06112594479034956,-0.07685205543974613,-0.02284881862887686,0.09408031470882953,-0.009830780709019288,0.014738689695782415,0.06638176269817339,0.2169336839376219,0.12808221096485528,0.02053762284824957,0.11437977668690555,0.034936298526503796,0.08741949236117015,0.22521602464386126,0.05314456994404023,0.0020499420355011306,0.13209868222237542,-0.07344266172703078,-0.17804523964676786,-0.14328396056388448,0.19865180656776915,-0.18011272096526,0.1754497429334784,0.07992296687091711,-0.11880072604234491,0.20204222636611274,0.012204727514341289,-0.20710282960834553,0.02967157706689861,0.1734734492629541,0.06822068565185745,-0.0315909181002822,-0.02657390322772213,0.12226192801806139,0.08860104560218232,0.1558382034006625,-0.1423578143993747,-0.32141354007116035,-0.00619009935303784,0.21242963244581747,-0.19240950303125295,-0.04161891818918183,-0.01526466786305955,-0.12385666505270437,0.004956975749013841,-0.03295743749074484,0.009218097294759623,0.034301071238680376,-0.08494431203419833,-0.050329784788467745,-0.22252126416449466
-0.006996426929105537,-0.15002976241389812,-0.24262559049015878,0.09866328520283188,-0.09141923512654049,0.2252900043998346,0.13750262627214974,0.09612518028981881,0.12653397648621695,-0.10524556182278386,-0.18627684649878,-0.10184081387294724,-0.16928907416866018,-0.0065919804700976916,0.052052416559816364,0.22182884984487866,-0.4377720716775031,-0.02966129341970902,0.22835137850407425,0.15320823899757052,0.04363904644552835,0.12073995842257931,0.019040316741578273,-0.17885872355249846,-0.2653615741426461,-0.24505592943450516,0.013917089555452157,-0.15527995595778468,0.10555942668887687,-0.0622560130819883,-0.02424612075402599,0.07313705544562923,-0.013128990548510456,-0.08617256613098215,-0.0031256667923059444,-0.15462790126743314,0.02205967388931167,0.06443408675665807,0.06370005965399522,0.19457976258034004,0.03916612787270269,0.2393531890157394,-0.04291140980664702,0.3130177719736658,-0.01558903771170943,-0.023095545058415618,-0.012346675918231301,0.045052980652718275,0.011391704037239596,0.08733799961053178,-0.10104158765525491,-0.1347148874501507,-0.0517777170780707,-0.011690917772729922,0.11130384024806621,0.08500993764501594,0.23892061616132262,0.08723827651948314,0.3482801365001643,-0.08145658637611818,0.20172056528435642,-0.01619032030824902,0.02929355667166843,-0.008012525327938579,0.09140998933166895,0.07363055781605782,0.01275119208226359,0.023092536797286508,-0.052054486919126224,-0.06361423718833424,0.026619275732679148,0.13069553862862468,-0.07996156092403402,-0.1066848192949113,0.092550203095886,0.09108477834862316,0.25594405182979146,-0.09278104753653069,-0.11219980771013478,0.07868645880030792,-0.06797913858345603,-0.2506193108724321,0.15686977027987212,-0.0708649269738119,-0.09252533650814315,0.04101544213650726,0.09345701317985189,0.08463390682395887,0.034468948415960016,0.050252842048739796,0.1191672565862166,0.034352943577404815,0.06032935924689529,-0.12701973520564086,0.17888305462199552,0.0012798963655811372,-0.14638390304344487,0.14686039602089485,-0.06750792672519478,-0.006184048328353532,-0.10351755135651901,-0.0877205098687248,0.12007089454791832,-0.143311848484172,0.04625315619784186,-0.01762851558390383,-0.270002945590683,0.11382021367811472,0.2361910671889571,-0.04490469512649527,-0.0383445987888738,-0.05196459143513117,0.016680897101815424,0.007584802173065816,0.04579781354293968,0.14888011066173515,-0.0620206530527382,-0.11785536680748863,-0.12759052324814243,-0.06412840475122322
0.01417954025436748,0.15296484857147763,-0.03420629077440697,0.04675891915257974,0.03132815769593432,-0.06009296845250804,0.03959646648434658,0.10442752101886311,-0.06480088025572031,-0.0030496225781334223,0.01508856959449143,0.003667230424850598,0.17315373825118452,-0.09478259128963253,0.09614688516641794,-0.12936070260894425,0.013670298881757772,0.16910005820427557,-0.049963195126267464,0.04253158717981059,0.04397413670071029,-0.10963351155567402,0.1276682154552424,0.1122243158547495,-0.024272678827976058,-0.07892437134539713,0.03329003753411121,0.046326515416012196,0.009669348974633002,0.04369613492809322,0.043447118393603344,0.03548016009390824,-0.1395031534096572,0.03307501558103099,0.0406727517488437,0.08546953983925727,-0.09306095740870012,-0.27400348994589496,-0.012963993058854578,-0.03986420363384854,0.007258501754021364,-0.18061237652889936,0.050848576346844435,0.059421800033320274,-0.25452125741581605,-0.03765478485862506,-0.16093638328387327,0.0960173047668771,0.07491224711620315,-0.15898513431070568,-0.03899606704215937,0.1197933405707266,-0.06866105118924451,0.007825406526486849,-0.009450004908339043,-0.19442409630549015,-0.16562214026273753,-0.08464715612739543,-0.05931117474179354,0.08855336565877323,-0.06541590435212076,-0.005566848369247822,0.1972051267252578,-0.005453546411058096,0.057318411906105454,-0.06382546244010477,0.2333092876780298,-0.10465353871954222,0.096687539383398,0.012336956079865992,-0.038167714086709784,0.07068561222922498,0.08524619681734098,0.056628320595361735,-0.16686674483459082,0.043394590429248654,-0.11795875337724594,-0.14821594986472256,0.08924359442906336,-0.10567607756434272,0.09071179097106788,-0.21018830269511954,0.17528082930227926,-0.10661310105404335,0.11869063888148886,0.06316623221616441,0.026327529283915095,-0.04862315128968246,0.05021596160849327,0.04307430437601354,-0.06646394877219511,-0.12880681767432003,0.06076967517363315,0.07800861502266403,0.057903885198099296,-0.050642188073858604,0.15423978963947696,0.01939069163039879,0.08016533432244044,0.06888142476156976,0.04404732949325381,0.14367881211464456,-0.03782912433527143,0.016488957054419284,0.008985205320038275,-0.10779507807957074,-0.040963488666723384,-0.04512596313012017,0.13820855772265814,-0.2576165121798179,0.023368025465104074,0.015594301515781563,-0.06178797143371763,0.046969377190784964,0.04276806956731552,0.05813639057973269,0.07575817641436443,0.025326860451196517,-0.1378155706181822,0.023755266333897344
0.021374104201694073,-0.15540264922339594,0.02558139981006446,0.04353241422951152,0.09343642148184181,-0.007736065219419601,-0.05085787521137408,-0.023444544627845364,-0.04922574364782312,-0.10040020787991989,0.013928843409982194,0.0619097351436994,-0.04824048095705898,0.004144771825694534,0.028895709306572055,-0.011916247072065015,0.1653057309452086,0.09588463920298042,-0.18514583125397202,0.03241619611858847,0.01156097350611229,-0.05386518839017993,0.10434555470212505,0.07333831921325451,-0.012948300016546581,0.07285476132030252,0.07330970730347258,-0.09959970537599681,0.03828324608441984,-0.03362180007033136,0.04575564218110675,0.06454933692881763,0.03913609918378161,0.08016993097991297,-0.012572793410489006,-0.14243813424080412,-0.06142230042060861,-0.013941974328992385,0.03836635363062196,0.11376207397689131,-0.08216150707824033,-0.08164278763848665,-0.03141307228818975,-0.10250376576355445,0.0741674019520267,-0.02362731102102291,-0.06892698945604737,-0.10674787596162154,-0.0692636270058885,-0.04170526779463749,-0.0517768985392463,0.031035974681279454,0.12856996650626773,-0.03512583321925944,-0.00820966517236528,-0.10014097637410561,0.016886298566896704,-0.001099083905213099,-0.013014130550116161,0.0709283557869311,0.0032809009950994375,-0.03880288799492555,0.06585910818535114,0.008082276760633385,0.058491018465242135,0.12572751157202883,-0.012631816183832707,0.11817038685993715,-0.01947486109964281,0.0014472704841693473,0.040060945108686984,-0.018470806451444447,-0.04145604004973874,-0.005185479799735043,0.12749262821457472,-0.019428708831389006,-0.0866281320321175,-0.045552959544836846,-0.07618672997159066,0.023506204996385997,-0.04577194935702608,0.036914205269694224,-0.14273225960613178,-0.027083085565311204,0.01661973712104138,0.04117578404591722,0.14068600836659312,0.0023156180309944767,0.02135679932529499,-0.08783700292454924,0.22720201374988455,0.07543257896947317,0.008353921495689826,0.0706450855418054,-0.09769664464681492,0.012695853757299112,-0.07162828815314674,-0.0006344305565422204,-0.08570433943420588,-0.01252332325720951,0.027670405426200237,-0.03838299344672939,-0.044503548634821116,0.006607118270095032,0.0072036173644917925,0.10558426525029425,0.022119200169907673,-0.11386464495392026,-9.493348209002844e-05,-0.0018117737674066422,-0.023908371111188743,-0.0427079893383993,-0.003232459108785109,0.0413500223983453,0.04732614583349226,-0.03680813130327967,-0.17512884060721523,0.04291430814728176,-0.05109553694272656,0.08111047605592428
0.07262660680503774,-0.04940659003077411,0.09271401773842555,0.059871819739836324,-0.004540835893282955,0.028165177345154703,-0.025416144533204253,-0.06789815813397071,0.10898324579753388,-0.013654840228341257,0.01643013724310438,0.11179910425483489,-0.07594275698682432,0.013399000395724161,-0.12181865989278626,0.02537598609096126,0.06374030930659434,0.015214865476087839,-0.11469067590378287,-0.016027637492507168,0.07599029288282944,0.003605228321308846,-0.03374537180434188,0.017065881475718237,-0.012662855527516947,0.11257817219335998,0.013315759830945925,-0.07018923727063983,0.020577074608002538,0.03538240198522922,0.09545512259808274,0.0067988013654734095,0.10254229991362997,0.01702151599595712,-0.043501856142331756,-0.05956752392261511,-0.09461995696162996,0.023701817633166984,0.03930622198271518,0.05250727744347566,-0.07979317709610655,0.028480501526294204,0.08743359623539276,-0.14679289528873482,-0.006994448962056586,-0.01129181075528275,0.014621225877945931,-0.05156489897661297,-0.013634098318397108,0.0012888011931013541,0.052520838749159096,0.06764600206279747,0.04739678368887695,0.10971224664588886,0.08638440195220787,0.09386407079994846,0.08802750968418488,-0.0125196339034888,0.04838568374811209,-0.0244772295142175,0.032446544221099605,0.07748885300036101,-0.0068390701976616345,-0.0069095689196172734,0.05321939209256284,0.04149827548934209,-0.05920151164784139,-0.024734220403675025,-0.01739784124609803,-0.053259359465201266,0.057579390528530276,-0.04868036381142694,-0.08367744035760608,-0.02576927968909633,0.05445330775225523,-0.17136850317190583,0.04129133451781292,0.0025346876826278925,-0.028418444179376466,-0.12100878292494127,-0.024588601072051172,0.0811167070448438,-0.06054354101448449,0.04552922298179711,-0.030324924015119027,0.022872475505958303,-0.038366770386230584,0.07460745771197708,-0.05065570962129418,-0.08350556975441305,0.08151548977504307,0.05167720358973386,-0.04603801774161541,0.10970382441638886,-0.006410411695284639,-0.10728394077121743,-0.10960687937675571,-0.016172080206485216,0.0002310488541489026,0.012484948792738914,0.013699288460716871,-0.020172386278884714,-0.19604793670464557,-0.014356829397077374,0.05023083868717524,0.11892400575894582,0.07524335813417725,0.013171001192530363,-0.09892209500309797,0.060999721280961365,0.0681758893570701,0.08763651019712432,0.08972907488013426,-0.019734371226874575,0.0027227311177907103,-0.12509795921561107,-0.13189461415775194,-0.0019929349721578764,0.11369325596598008,0.01511280544166262
-0.07452815459494898,-0.1721793215834526,0.05440824178902655,-0.012725623417100618,-0.018148417370649622,0.06482962706575852,-0.07862663591781315,-0.13238001477211278,0.08083309225850288,-0.04369517271447289,-0.09560463224298653,-0.07342392811536509,-0.21072539221188097,0.025912776398246233,0.08700938951416759,0.06244830599639483,-0.04187248431858764,-0.07787150935079795,-0.019140152659857818,0.01222837113202599,-0.08261416676703359,0.027333202620415564,0.0964125319421986,-0.04694828623578675,-0.012924476510813888,0.03427415208939113,-0.10366403997921551,-0.1692550178633569,0.12519604492866065,-0.041906064585579744,0.04074308947807741,0.008919008242229916,-0.028078950384192964,0.0021722730302371467,-0.03686389787413409,-0.18602451804118256,-0.00561168500737947,0.10061997282577935,0.029585430019019227,0.13178397671420486,-0.06898692641945284,0.013660881772928847,-0.0309547870390789,-0.05998866257266755,0.07812482640656981,-0.08727039342689281,0.0889822852615379,-0.03251552768047059,0.0031291502144910302,0.01838390349933036,-0.01706941996874348,-0.0318074071877373,0.1569876190342404,-0.02678171552921506,0.014472182694207511,0.1318428909956651,0.09711799113409561,0.013923444463473583,0.04006972209536577,-0.19404229388743116,0.03390798322314297,0.0851119244488193,-0.09290424922800337,0.1693367776579582,-0.0015100856307839609,0.06750139780841317,-0.1425467116927563,0.06049078214229128,0.0019355980202202003,0.05374594197145332,0.08074237577755226,-0.10300177739961906,0.01830792774744213,0.01971846673418838,0.1976187326565503,-0.033109162233531546,0.13041648125990005,0.13968735510926558,-0.1169899296328366,0.04422078165355315,-0.09056775471076313,0.14957539418032123,-0.013506165998490291,0.10609045804638133,-0.08666095955627745,-0.03626214270083756,0.06612725411219202,0.00460506866514496,0.04185096506691079,0.01978886849631555,0.14249243673377163,0.1263160276222183,-0.0014963099231220965,-0.019481294682754852,-0.12902420951169413,0.07239602584460537,-0.16914972289372374,-0.07833813835025132,-0.128912463087432,0.08013837454164903,-0.04586976150914506,-0.07202537314344085,0.144288755518472,-0.10733537804835391,0.03201125631762783,0.0789317148037998,-0.133567676201778,0.0769617474729714,-0.01899720340598711,0.019736840322088556,-0.02802221054050243,-0.12370157753109866,-0.012849028428184459,0.032467628869683345,-0.0018119027683595427,0.05548100882051921,-0.06995761318884629,0.045096907571135963,-0.00567399287155225,0.03349205823520117
-0.09402078747479418,0.11961681100097568,-0.022753884016341187,-0.1380180149561094,0.024823743958576498,-0.009981387316193167,-0.014841536009529522,0.04145791453237691,0.05757635252500632,-0.10782452905279498,-0.054362051164960304,0.015750624499366907,0.032713913781932405,-0.005613463776950149,0.022491749186422216,0.036431339927883465,-0.05443083167380918,-0.13034466700143418,0.1110449159754734,0.06585685389587997,0.0068675410558363004,0.0987255190493948,-0.0328765421701796,-0.08857200791836925,-0.10652954967713019,-0.16729699290438005,-0.03755911763783339,-0.08038463915207322,0.02036224184869767,0.07420127017688673,0.005644481771550651,-0.03873596884171456,0.0262011054507966,-0.1417390948257281,0.07807755111154493,0.030114282749016136,-0.08569128290047624,-0.13246563864395847,0.12191101011929797,-0.09838342727337254,0.17148823632537888,0.013269330238035086,0.15231423794039284,0.1624507674149561,-0.16331297426468255,-0.08404619366580948,0.07186834122238459,0.040222518804500555,0.1665137846493757,-0.16474436447965418,-0.05668929844169664,0.09758334948429426,0.02716924354439121,0.027581482423791017,0.008436347485214253,-0.10118331961100405,-0.07193883697692437,-0.015136812427473495,0.07182435262001924,-0.09386018023664089,-0.0188103379810725,0.064547752176007,0.04362530004571498,-0.022707174245269697,-0.03052947026753894,-0.12706473182202369,0.00920640598800318,-0.13439783451844642,-0.008863422665485288,0.05864766939632175,0.03727638077625156,0.027903922150581153,0.06014259291799059,0.1385984801802863,0.03487983473701019,-0.0884277570513502,-0.021414207708922856,0.011790302112938095,0.03219213183975379,-0.08441352819525082,0.07890008261734081,0.04195430652335998,0.026677515842704648,-0.05306518855692781,0.02923034402222253,0.11664097761121464,-0.03308536117730426,-0.062013428023133116,0.07826357469829483,0.01722641671395772,-0.19093294858615759,-0.01351771212451166,0.05211773049605124,0.0807233492875175,-0.0030305360123832094,0.06692293931897661,-0.1431293324172807,-0.05994625452041639,0.010061444073579175,0.08579793340162306,0.10692766577233997,0.12185876533819628,-0.07081544833201239,0.10578093668097059,-0.11162529548560543,-0.22541503238452726,0.025570738747589035,-0.01479474433132355,0.017870832691546608,-0.0726720678328488,0.07823642734303987,-0.07574648245082587,-0.061886285521556644,0.06020260492270877,-0.014331764410560168,-0.04201899955125051,0.1635641690882157,0.0506703610233265,-0.04652180196607011,0.03261424685189224
0.0914981725222383,-0.07133416786588417,-0.0889618321830651,0.024256299685959316,0.036277460633156906,0.3437987072231749,0.07724061147270993,0.014670869055358207,0.24438598386189242,-0.17734013629600892,-0.07618131173501146,0.10657050115681528,-0.02546300738648639,0.08278819694929808,-0.18758844564381014,0.17022322009840066,-0.2596063473582658,-0.22661531156889755,0.20317622174925426,-0.004121212289794565,0.12969401138523956,-0.07737648493698819,-0.11719949521597192,0.014712793626277035,-0.08474077034740476,-0.04867715514429695,0.11355045824514877,0.07486938531560197,0.05029637942042892,-0.13981867532368214,0.07360022438295166,-0.08670734720373822,0.17737485891249824,-0.030143425003019194,0.0834052939770063,-0.3127799141505665,-0.14510295938686757,0.18959587822110485,-0.045357232946663786,0.18147545104471843,0.04650051314282674,0.2014735663043852,0.06079466179933848,0.058939776914745515,0.21479958321085005,-0.01617625358770269,0.047391787994427434,-0.027325583970616737,-0.07634805355353853,0.11061901780589925,0.048555067028117904,0.22720398844526174,0.031318519110299925,0.22818037397139693,0.07982713809560589,0.181765671668015,0.2108968203229524,0.22063292588390107,0.2574854061895204,0.0039015168878086415,0.19083999398524093,0.14990455623567556,0.004838824520080733,-0.09794123354782357,0.03199282193552573,-0.08220647790528439,-0.13511514188088722,-0.04771427377860479,0.04625749323815143,-0.09258032437808003,0.009250025452698858,0.1498517831920328,-0.22430300398638955,-0.1722736727855152,0.02920299864793706,-0.20425641531415298,0.15844699725504513,0.12641317163553134,-0.09827694255586011,0.01812665449358256,0.045384198576957184,0.03237480157454255,-0.06687289195851917,0.14320775516265624,-0.08027843045655302,0.03300104782692538,-0.18421474010705707,0.07031576525832114,-0.12369615783687721,-0.14977424745010506,0.07036275958551946,0.06784608003979686,-0.04921657826201267,-0.1302727451609513,0.04749869013839627,0.07580203439724656,-0.20919492672218057,-0.17935822943881305,0.1329985592074862,-0.14307530548704922,0.06909086049832686,-0.3461440006370883,-0.2951757144084106,-0.011946000871497768,-0.07759931482903906,0.24271854715747668,-0.17118811236310907,0.18420357051441275,-0.05606515748166562,0.040456681443689746,0.012905477955652011,0.04648549640665328,-0.0806398349193853,-0.12639071569666868,-0.10015414159373114,-0.2698185965985693,-0.015089022045931731,0.015447160177614607,0.20541906774120655,-0.0413054229780124
-0.1539607614098699,-0.06439135064148248,0.11752793721676823,-0.09492931507376312,0.07003571496797902,-0.025700141186699537,-0.1296447870137776,0.007799128497226201,-0.12157087241533782,-0.04051163489762728,0.1157570064511396,-0.035349799324306146,-0.1631589166641915,-0.03234118531961947,0.20074941204611582,0.09765831493680481,0.06407359023302944,-0.018158397315111804,0.01003429941677288,-0.08360511820670252,-0.0031705220039306456,0.014189884426434419,0.058841374154138676,-0.002034133090569923,0.05821259825033615,0.042599102398106936,-0.13263942003444465,-0.07154709456483772,-0.015420673316328883,0.08107866152532073,0.04559943166837748,-0.045054518238689,0.0022337246646283357,0.0965195441613242,0.038472765134988963,-0.10557587039037081,0.12091023181124712,0.020442068194163703,-0.017532875686866144,0.1200902117047944,0.022690053117621966,-0.10593199097001392,-0.08415236865415039,0.027062440947943134,0.04930440372228925,0.02457353031003187,0.0013915285990297533,4.972910753074601e-05,-0.009479631040603276,-0.03595790590502901,-0.061915746541137545,-0.1563971922094591,0.09670729161200664,-0.18400400372817102,-0.02073928714817544,0.07973068482575908,-0.04228135105779595,-0.11176870597981961,-0.07062828065366132,-0.15125580571628172,-0.0631416749258639,0.025594093670357344,-0.03008712725631486,0.17847168634619667,-0.0842569878635601,-0.014230601182253578,-0.08863253991166431,-0.03242434537427393,-0.03686513043770452,0.10938797702623161,0.002526025576458542,-0.1097228734441082,0.13439550169954928,0.07886651648494718,-0.023893196796540145,-0.05221901076553423,-0.08165384634366363,0.028035236032643712,0.05416354327190641,0.06539298059691129,0.04363872003393165,0.15898252409531172,-0.12220921973380287,0.028913414715977755,-0.11310563098273023,-0.04271992974014317,0.1250707042486508,0.032186339792184424,0.05128786048311831,0.09023142532462665,0.04785392834555143,0.044370682790026914,-0.06173985298266149,-0.02269984251457114,-0.2720341334257738,0.04260132910475962,0.014392814718829932,-0.01046071392642214,-0.18867004647333735,0.10325225205752976,-0.06279046409291755,-0.08246455220376606,0.19226652055939777,-0.014568261232109097,-0.08574762538868372,0.0339974257369868,0.10039999467896858,-0.01086232402596479,-0.052821221396529415,0.04909906502888427,-0.02598433535756817,-0.05825644370574651,-0.08361676248996745,0.0086709215078836,-0.0927175928676996,0.15278071749189454,-0.02326491022306585,0.038495684560234965,-0.005350217579065771,0.1407264818673088
0.15118790526781037,0.03415684947793797,0.05299709444017151,0.0682654738894731,0.07365546305668459,0.07349435091708895,0.02941901807577495,-0.0992016844175509,0.18405020900027055,0.015368991905206101,-0.1329468112606223,0.1602906049891268,0.06499764929163214,0.09356420567388714,-0.16493046371498649,-0.15567220847157506,-0.1024416345967012,-0.027936255019562997,0.02029050424983361,0.025914338935172605,0.032669816067671144,-0.023886751809824098,-0.034008194079909314,-0.021649806669382547,-0.04903171568692652,-0.05351146758926339,0.1640705515649349,0.154404746379124,0.1550832474934775,-0.14216383714323602,0.0254133352819493,0.040573284232373295,0.13658090469089673,-0.14757587186642973,0.08954179076092365,-0.10892728984209354,-0.09651160849819569,0.06791849968827227,-0.06626372313892309,0.14529916413847982,-0.08408651596838665,0.16464942539328747,0.08544476370169816,-0.036131008971169505,0.16208264862183955,-0.1015240324902416,-0.032242164058607296,-0.04046083605560639,-0.02233422538396463,-0.033632453454128665,0.08208889103416549,0.27574212047315366,0.029949287015902753,0.1597592509153684,0.14268154307558809,-0.02358518620294995,0.08372166040531347,0.15194424110222224,0.23221016454449622,0.06600961300555809,0.0882329486633412,0.12597160853516995,-0.021663768271673427,-0.05172810341410279,-0.04630042491507761,0.07810040278927861,-0.10654948541431453,0.0031408765131660348,0.10262163477391527,-0.10259514245934287,-0.04411905234886088,0.13883700033053537,-0.0936155517502607,-0.021731774015121934,0.10074174206444149,0.05981035103803501,0.09727762709640568,-0.0502899009117621,-0.029566039489423806,0.07648304933469577,0.04586300924548005,-0.021031428504622005,-0.026294993288398776,0.0556935554149749,0.06800490547206396,0.03743613041926958,-0.08918004417717992,-0.00391572517923406,-0.11588608776686786,-0.13094038507934766,0.018393299928843733,0.04485288982294887,-0.0010797339749275467,-0.1743801382997603,0.23937362893711275,-0.03805197057222426,-0.16412681827632392,-0.008581690683168879,0.08083411671831116,-0.16444881261657368,0.06620049075357787,-0.11990509504908041,-0.31371334575698073,-0.06880913483222664,0.06856092609005919,0.08724810348783836,-0.11368939117258589,-0.05224008130807037,-0.019289445622753084,-0.09921921907565981,0.06284022083247173,0.059506536662360505,0.02318072241282496,2.8669221802175426e-06,0.04036348675025362,-0.11696655928458491,-0.080087669549102,0.01789236235155103,0.03368630093939144,-0.07368475676951511
-0.019815911039608006,-0.09456556958887662,-0.014481023895640502,-0.027877198504854286,0.028725877657360857,0.16648445509634804,0.013499753702554662,-0.03631628343404597,0.13501446604962344,-0.07383558425076991,-0.2047950551238052,-0.0177647305277572,-0.036836534547113435,-0.0168709620936139,0.02605156700430842,0.09250607767860987,-0.17622369344278324,-0.15825052400786482,0.16213238361104249,0.07939487663516229,-0.011798257326526358,-0.04666147644017086,-0.06626196182854442,-0.04635661394913377,-0.062472776531910496,-0.1510662958765787,-0.004742801078846303,-0.06079263236552319,0.02474964954223659,-0.09226197979532162,-0.1439032945393442,0.05695122194038668,0.07165567978778795,-0.05181890279622701,0.08427779031205912,-0.19302499194262351,0.13211144949103534,0.11186334508060335,-0.01317876583015892,0.15491918187180376,0.02989450064308414,0.18495715008131328,-0.006119387774392779,0.05877016439513892,0.24901820765585597,-0.006720132091707481,0.017607278515203776,-0.040246119525232486,0.03488345121406984,0.022151859829419248,-0.09837698912393242,0.28110509594751265,-0.0015398241428129724,0.08227646003241827,0.01742996638778386,-0.028752544008422243,0.07574005049571894,0.1624618158991548,0.1432377813954941,-0.010074265879168952,0.2024381673585394,0.12811364395486885,-0.013679657458751887,0.060358964656745076,-0.058641248560183525,0.017336697860895586,-0.027491195192953285,0.11156467421746773,0.07094553241875805,0.01517605199622299,-0.08927367198318699,0.10196161405323055,-0.018528162772729905,-0.050617466519441594,0.10791396557135711,-0.012220468695723886,0.16200644811958653,0.060407942344586144,-0.11412043647648429,0.09330796564118282,-0.03711464313860848,-0.00826471662005819,-0.00599662969894222,0.04561002699445626,0.009689736235391919,0.03433263302588474,-0.053772216374308394,0.0005107061841408704,0.016832211701099428,0.0043571659553108995,0.01524344957994993,0.0142862972611048,0.06456972825335329,-0.161347177869624,0.014114085941189543,0.19215362660285462,-0.1584827086104603,-0.10736920962835679,-0.0028724682589586713,-0.0877295194363684,-0.0018287072458708564,-0.14446777170298403,-0.03870668064391912,0.030001072454891056,0.005555998732391183,0.1475653912659477,-0.14573314006515856,0.043915134269993265,0.10559088241381226,-0.09910696633301784,-0.06357149976527586,0.0444246905121321,-0.21081770055597435,0.04858005380021422,0.03916422008331635,0.05506109669362299,-0.004866870512987806,0.03462132875293899,0.03520623593079508,-0.025398295196177523
-0.04797376095318017,-0.08725876112752542,-0.07640570812735584,-0.07032358777512135,-0.09245343956325101,-0.1327353148531911,-0.00030619894862084847,-0.11142861029647015,-0.1523600480308498,0.12848094400299986,-0.08167173596626898,-0.047295333272529085,-0.0017001228865646042,0.02153655485525296,0.003038005763277195,0.12350900595416914,-0.011468569797743211,-0.2438757679615899,0.002646848048825785,-0.16996007006074762,-0.19534727656757037,-0.014453955346724986,-0.07967397493235466,0.021240865849431623,0.08079941653597009,-0.008537178656310387,0.2069564881159383,0.019107441967421507,-0.11263425816550382,-0.09575590171745006,-0.014632583005762928,-0.017672781562040944,0.11833684840299963,-0.038566918274290186,0.0010761910913893767,-0.0685014723486271,0.19112877675203663,0.21817428429338623,-0.0007629071796723797,-0.10007384917276578,-0.01245355543177715,0.18657489982818418,-0.16762961109250626,-0.07078523342987868,0.4264428550725545,0.125896002218777,0.0826809884040288,-0.09840986565209789,0.010261685148374163,0.3059846955698908,0.004531429846962546,-0.18272888214009264,-0.05861303396709433,-0.13993574113278584,-0.028635138380486133,0.19738044448731032,0.06208257326184702,0.07084542349048648,0.03509545502989956,-0.028947085912555733,0.11034475454636038,-0.18403178137996873,-0.11798884985772025,-0.1902278404351818,-0.13825013423103358,-0.03383859943784448,-0.1893496961138625,0.0374231894893004,-0.15467111875832307,-0.061919214302810714,-0.09981747836202619,0.11084239851886783,-0.2235286362012102,-0.031541408479251215,0.13947894678994355,0.01004161860925597,0.14057013625652537,0.10467415498358604,0.004685246412030965,0.27395478056291733,-0.0019241496160963874,0.03143861701403841,0.03686660929089509,0.0054281545318350995,-0.12175811351284757,-0.11309066282339686,-0.04344511231835459,0.06130468189677017,-0.047732881645210376,0.15260107758342756,-0.06754186997261963,0.05962418729522161,0.040915867026379185,-0.35026509703016,0.09739114003151712,0.23875087844641807,0.02448071397957992,-0.10933939288717348,-0.11360893786789832,-0.23136808094281724,-0.05456069044233687,-0.16261659550551874,0.11420190464285922,0.07911126431974508,0.049926685353777873,0.15840537321330297,-0.055648193549111734,0.0812061249003571,-0.054184672290439835,0.13332409704847412,-0.12734861530433117,-0.1301534524183168,-0.1778574795914157,-0.016543212500144906,-0.012463229371772785,0.005611192943184197,0.0030885690770447584,-0.17440723062321628,0.21130797779711558,-0.100785774272727
-0.11142813932230797,0.0580910284223712,-0.021505501084906894,-0.10026302194907502,0.007263821938734208,-0.047068766346120165,-0.06794586804709528,0.022835654558545235,-0.056727110269962314,-0.015323379170851935,0.02773661132745269,-0.045040247031103535,0.008595250517334972,0.022634759366159853,0.05580957858851593,-0.08028280607619753,0.06794762307840002,-0.001211333476867811,0.04484243906807292,0.015939485641678144,-0.0847625926899258,0.07938230397596807,0.08162415518280015,-0.04366631782473767,0.0077547229810128425,-0.08217116632179561,-0.07747470901897419,-0.007795465453316734,0.04690608270316631,0.1275121363892026,-0.0754462196651324,-0.0014838323285429867,-0.030368287664357976,0.004847120656030267,0.07100928007252515,0.08700610549431174,0.022219235741699473,-0.06894473079710381,0.06118526648766217,-0.13973364701087415,0.10359444383691364,-0.08715784756738222,0.016371454918707354,0.11982040489844842,-0.09288852711811392,-0.058440110259603315,0.052531754132610194,-0.06950685420871429,0.09302258720138849,-0.03778439238453513,-0.01686696107157186,-0.14637350116853592,0.04385391090679238,-0.12161709035911705,-0.07446505533396183,-0.09305644013359214,-0.09277928995549212,-0.18527393900869374,-0.05902272021625631,-0.09653052043074363,-0.21070037420576793,-0.08550550515429271,-0.04230077302613323,0.032138993976399306,-0.08597472491178569,-0.04490181817018269,-0.0311684543104568,-0.04657178254719631,-0.07962941963223834,0.07738941315936247,0.046506853756546354,-0.1006861602052252,0.08461698669743983,0.13259859588582623,0.06595761536928521,0.04666586050907328,-0.03821011510720774,0.007156174980434273,0.09108364407191719,0.046878808027351684,0.07309508990965609,0.12104872852075385,-0.07364984548667733,-0.03668199386870382,0.06284985325741874,0.037299116547105694,0.04710160777562057,-0.0771060793110045,0.08259931549624136,0.10525099070203389,-0.12456020521943639,0.05810384273851528,0.08855928314427362,0.017431842686378977,-0.0397337878706881,0.06625294705272113,-0.08160834535915863,-0.036619917484376104,-0.10228804079479269,0.1547732182504945,0.033973466885871106,0.0839061058637953,0.07145124963734185,0.1014283403327825,-0.007131747851173257,-0.14531565006412736,0.16938655553247198,-0.03417328679950633,-0.055008982631309544,0.005504036995241402,0.044435444561158985,-0.1424295473564526,-0.027188705526170823,0.05768495198593968,-0.0026898610710499433,0.0768704088344654,0.13726699513617197,-0.004381601452771492,-0.06300012629098702,0.06767392890226173
0.003715025604958226,-0.056265713595438686,-0.023108574906913853,0.05536566681670419,-0.0011184581821272938,0.217849241888802,0.000458005122127602,-0.17281689086308033,0.24273829893785073,-0.04811607069974081,-0.04598888309161685,-0.10374208978101604,-0.1788701522483772,0.03980099773016044,0.045948038613643785,0.059375672633479815,-0.14052276441317296,-0.17452683278127665,0.025307516686567444,0.030285058134575472,0.0687662618768194,-0.004126651490897267,0.06243807220998306,-0.07426222015403229,-0.15652905166902215,-0.04388095400980435,-0.059126255646759295,-0.08842965112221281,0.18151669537082454,-0.05316358096579966,0.12521973283971655,0.02338493806077564,-0.04292620329070148,-0.018957706420795743,0.04709469059853438,-0.29279027116105627,-0.10694182053825604,-0.038749514426332426,-0.044492019611793936,0.24682531166459798,-0.06967365778425998,0.029052721786689002,0.04680368941645347,-0.01298086141421204,0.010446920712646848,-0.1480335430534722,0.027981786130806298,-0.0017747976147135824,0.03168621907880626,0.028583076684544483,-0.008558052181741639,0.002891108375733387,0.11793547777917913,0.032702524247324845,0.1272420730612152,0.06577051653271648,0.1402422596671213,-0.008928024623982601,0.16003319770316096,-0.14830072048637893,-0.050025951670114165,0.06345415955474713,-0.033164445339384424,-3.1953173705355266e-05,-0.04582289928266231,0.0038930216266625504,-0.09234796924946785,-0.03941270529974771,-0.03737616272464754,-0.004999652370546266,0.066006387303023,0.008578298818820046,-0.056469778105606154,-0.064983525648378,0.20770466778639313,-0.08774003257254462,0.20634302398947407,0.06695375793468604,0.002670441470824121,-0.05118841602348115,0.02898297467019722,0.07271138777620391,-0.05534797528800091,0.1448994806308567,0.08725546964770968,0.10711125730428679,0.01771407137519746,0.0178091937013319,0.06190943231077508,-0.06032311099867767,0.12629840030464895,0.237678254762337,0.02716059652414014,0.043229698956716245,-0.014303551410089198,-0.027662086019992503,-0.20275028338358153,-0.09879871322428507,-0.01330412589028459,0.09058996596115146,-0.041640345051086596,-0.07009770911526486,-0.058063102386121106,-0.101301774942938,0.020483725919924204,0.05239571756819048,-0.10650338567330689,0.14796586326677705,0.11316554222136664,-0.14038735672212788,0.05376115559669455,-0.01969679878928204,-0.08090674816217547,-0.03158385348607124,-0.05796002206283585,0.03619776101186458,0.006665333311938913,0.07890494805184703,-0.02421950128263426,-0.012738801467970599
0.09153030893201751,0.01804290400264888,-0.10140965457401484,-0.02241868425318875,-0.01791464553212356,0.05629495619343416,0.03908714942770605,0.05696417980060071,-0.012432211984458404,-0.0859924340794704,0.1021713467882809,0.1102361230382325,0.11119785445982384,0.05794077762569184,-0.06630881071376207,-0.007578316578652616,-0.19147011626943866,-0.11043556368486143,0.12783107931651397,0.10607580047596984,0.06125502326832482,0.0822701098742003,-0.19693095800062876,-0.06394654107716309,-0.07696383406776663,0.040325054077432504,0.02826342029656367,0.09898918985622801,-0.12864505740550924,-0.036078231332176344,-0.09433044120473046,-0.11212180374390611,0.09952719282076801,-0.06037359225731296,0.004459572063525687,0.12292536082836064,0.08200044504445984,0.02909691349041476,-0.1308890273996766,-0.051234388543740114,0.11639539631281842,0.0606643219235599,-0.1533432158524927,0.09087330216311465,0.028734463962745375,0.1605082232836766,0.035599024055835926,0.1760288707761685,-0.01575870233706305,-0.0010796629685882375,0.05360036455985191,-0.025459379222531112,0.0328464536493676,-0.003621560174774836,-0.07138081747739455,-0.044369073134449245,0.06337479885504715,0.001739234925697438,0.09201075619761857,-0.025140997613097998,0.06672565908302648,-0.1597989416309853,-0.030580616858587845,-0.07699923104538435,0.0213986560932777,-0.059378547247430614,-0.035100979487253596,-0.000894671653477775,-0.04433449645029336,-0.1127438499909783,-0.05909111178532356,0.046875184112152336,-0.12319574186497419,-0.07176178956150081,-0.038833971630421224,0.0641275510759161,-0.07438058752029962,0.06935458320196741,0.03653069542055525,-0.12384836642128301,-0.02169286175444128,-0.05547442733058709,-0.0075882119035859934,0.011342187603205595,-0.043586785940877865,0.009835633606135064,-0.057158592722424593,-0.005620247845093117,-0.14059793279721047,-0.07063435724081328,-0.16756176464748926,-0.10212493646310368,-0.0409011037471131,0.13222948352557853,0.13885915039628588,-0.058704609833834,0.09056885018468153,0.04969774285511545,0.17867699189398328,0.04051078097785604,-0.02950392958054268,-0.07626896905703284,0.10235114263214788,0.02998618444283752,-0.04961121094969879,-0.009132105509874807,1.895842562900817e-05,0.01998752419734137,0.04393670784478477,0.02869769612174957,-0.20634711465040664,-0.026406017026026275,0.07536940440660568,-0.07399649537386038,-0.05658076509875579,-0.10619072908022242,0.07603958016221775,-0.02651197195487838,0.08896609020492745,-0.06664687135794525
-0.1507527700762394,0.024372981414462456,-0.049621534155938195,-0.02911042874814389,-0.16845005552056647,0.06848779220316542,-0.01804138506388952,0.01671934221731919,0.15982366564823403,0.10371920842309051,-0.19433767326521212,-0.1591166480365401,-0.15147787909853677,-0.18960836458619273,0.16904935433676235,0.08577284337364942,-0.12467503879479395,-0.1651091297501741,0.09747778309143162,0.00990456026438811,0.07888019798183135,0.1980757261472791,0.08073385899379044,0.023224933110698003,-0.11420124098410984,-0.18220211619770546,-0.020345743202063216,-0.1630257393643,0.04288368888075085,0.08861970054661246,0.055286892327718294,-0.018946784743817738,-0.2327427568353703,-0.07810835877229526,-0.09119080121213885,0.032591106822862224,-0.12855203244255436,-0.09156751946734637,0.1713560316332195,0.028216877996991966,0.11513927922083282,0.1019328755661317,0.17563956928994398,-0.018381858568360405,-0.12988050835103912,-0.1219536420385128,0.032360045816528106,0.17872079995602141,0.18265058320007452,-0.02202822251543649,-0.06060158610252882,-0.12211475164493175,-0.017855550849058568,0.01666315602311336,0.0558813358906418,0.05622207048783292,0.0392598156480496,-0.08625383924335008,0.05416813958606776,-0.20576280918091214,3.271376927207133e-05,-0.015665581100535033,0.20200293254897655,0.026870137865171895,0.045463023497927114,-0.11423368616286078,0.08864145141660125,0.018567182468887663,-0.031673970707435,0.010102144093235753,0.13538463059363082,-0.0646486947118772,0.10422059070785573,0.019431928497606228,-0.08263498690878078,-0.0925300019777148,0.0765451074636641,0.0825159558852233,0.09531128212100803,-0.12600761879525504,-0.018393301176534076,0.03252575466483352,0.19378635517336593,0.006505548333427027,-0.016803820732726894,-0.07860616879176183,-0.12162851337962345,-0.061416932579094176,-0.01574729011082399,0.11373500561190904,-0.1529003515913534,0.04937232639908322,0.06727622337247971,-0.062053356240211494,-0.12926405741722297,0.019082806789749173,-0.07893229981502567,-0.046945102089307626,-0.013139548860524647,0.04275425508789287,-0.08577033125131782,0.06417059571590249,-0.040024982986876255,0.03898598735618244,-0.003959299195424274,-0.11211000390727961,-0.04094825313461719,0.25529513853121333,0.11819048902574883,-0.0056131052574184895,0.11898337359863935,0.040759617213742265,-0.05400138058711488,0.0017826014177934632,-0.00010507094548380367,0.20494678273460892,0.12769796939902586,-0.024301161544776958,-0.006210847417436753,-0.044504944301163564
-0.0028959222897298573,-0.08273293078232456,0.009469750195659956,0.059256741799928056,0.005918755001272059,-0.06904818799105018,-0.029645660945707,-0.09579048969068153,0.013761862498649599,0.281705463759956,-0.02373656990811298,-0.150854747572676,-0.05396997594981852,-0.13202856321708337,0.08102515748909625,-0.1073270909859762,0.1338308400141981,0.04797151068004614,-0.13939701932306148,-0.1353312553441063,-0.04397066590005293,0.04741245274198456,0.0020541215681227605,0.012670482746857873,0.08058760702925467,-0.008643513211941789,-0.07388231178647774,0.007871349139726582,-0.010133389733124113,-0.02610510023741286,0.04510881034688096,-0.0024114331405175288,-0.19497842211788793,0.014138517415310293,-0.03098451659901219,0.037308899520242654,0.07292583726576138,0.08100486596619622,-0.07931856130963455,0.16813805268481474,-0.14187906533892394,0.07625505922414269,-0.08800965953965914,-0.21075459114011535,0.037678016256502356,0.0693738479114419,-0.05292334814015195,-0.0362422642601535,-0.045498185309599794,0.1265560327291173,0.012815204620251684,-0.12367843433740347,0.029446822522025348,-0.06487665766971365,0.08459077193058732,-0.006422488215190203,-0.028363759638077888,-0.09901886994900509,-0.016359849023351247,0.0612337130462061,0.01621866030344988,-0.06169437568683914,0.015592544614925714,0.04819875602940636,0.03609151248036564,0.06580461628915993,0.0712970808027019,0.11019745531785902,-0.09143065218041724,-0.05909209080273507,-0.04760188719222102,-0.07203892973211434,0.010950953806153243,-0.07169236516438728,-0.10316524921703091,0.12414806822102367,-0.007288755976185885,-0.008093208912498985,0.030266207391854313,0.06311334568440734,-0.041270433875047335,-0.06787748821234793,0.09340002234454632,-0.07586209632663002,-0.09592585704318986,-0.16778293348100756,0.03789749599588337,0.0037172358158647275,-0.15260570721969707,0.05602169716394965,0.0641228675157417,-0.02357352588033506,-0.08894463008006397,-0.09230536899511893,0.012838127975328278,-0.16319617442483283,0.04422476962342995,0.15105914817359972,-0.06298640976832234,-0.11418345193590829,-0.08932225680774415,-0.08983079097081753,0.11763836064263451,-0.0885173922908469,0.07506075223229128,0.17807453916008092,0.013320223128608446,0.11879669336921456,-0.0740526505498663,0.03407922564485367,-0.019184994962820775,0.11013186027662986,0.09273262756156514,-0.02498611925179976,-0.034066515525947326,0.12583245061773202,-0.18790591840388526,-0.15295708882354087,0.11330277787408338,-0.11887927333252536
0.018178360722869165,0.06328621588176613,-0.07919884379855292,-0.09139719914894184,-0.0396039989090363,0.046756062439963345,0.004276648677678059,0.09399064541354939,0.008597990361400645,-0.10384277350749807,0.03894108889156187,0.09333188957622932,0.15707609563375688,0.011591420161165378,-0.05855300000705618,-0.02069192170264253,-0.04475841375322328,-0.059211579139297414,0.2052492183111123,0.004352406730582536,0.19776210585979886,0.21299027525359815,-0.023917134081132344,-0.15051142114940944,0.07878757559206889,-0.0028141156975139366,0.12491164239589629,0.02299879671834226,-0.008862449075236364,0.08673572958103004,0.11868543045576281,0.06874345744925014,0.028406675790887684,-0.026574435406308237,0.08266129263849505,0.04440348827488076,-0.1906509508665471,-0.1383068528506584,0.009594789626250284,-0.10890144630934677,0.1947044564158125,0.0885410653863302,0.29161632412899746,0.16328080007314177,-0.16333128004748126,-0.1973099571001392,0.18390002099674718,-0.07610736538514645,0.05716952667992476,-0.02240789304581214,-0.00114259528012802,0.057186655857341236,-0.07018625748391422,0.14678711989616464,0.17667574469960148,0.11297803502559861,0.010962363038867629,0.08605991996049979,0.04834854206955492,-0.08093823217199977,-0.08043399147148789,0.12056249441179709,0.18731671300418481,-0.06812926999692313,-0.09070227202205197,0.02632092527415752,-0.07099151983013308,-0.23826978385409783,-0.004676714344069918,-0.07826272453721589,-0.07151578410151622,0.0450018403741332,0.06244666015345647,0.08528703924051316,-0.11909085907860605,-0.34852436866961445,0.06118434458904733,-0.16443539458882128,0.0657620893004807,-0.16859464810011088,0.052281285255050214,-0.1089916521284591,0.012324400150408527,-0.04420931603605516,-0.026440940831846862,0.041186047410045244,-0.26572410830993204,0.09046643406333778,-0.019114146089915948,0.037893652588992965,-0.08748547183636891,-0.2311751644494772,-0.050015077024681234,0.06860473075707112,-0.016122678085207117,0.06733709900911547,-0.10188811079479411,0.09162446270530494,0.008227322602640605,-0.0061557697050556165,0.00040705819177415826,0.017937394215372673,-0.28287672974001876,0.038012564998546106,-0.10035390246185734,-0.09507822914814668,0.2477378219532272,0.1131846273900047,0.018395694471668833,0.056234336660540035,0.24220248801915092,0.1808095244337732,-0.0663275453410894,-0.0007821005310647168,-0.11553268199292527,-0.012672769065613779,-0.01078464837296913,-0.10538222743251294,0.12795847237343702,-0.0486650132783919
0.06348353351847687,0.04245021616713943,0.07985033632312308,-0.0015370927507484089,0.07860199645476053,-0.08993373408153636,-0.03542561330162469,0.017295167568753406,-0.14600370164198076,0.012629764650899584,0.10079045028196433,0.052256423816972986,0.07900970978012224,0.14957869772240664,-0.0596061321697212,-0.09630516372221831,0.12406612422632805,0.1616496490020559,-0.03668316281898749,-0.04282316298039382,-0.09498980459695307,-0.2048986944875923,-0.07007660930995209,-0.006267179086071612,0.13386667818266415,0.07518765419518647,0.011960377077498597,0.16451590815888228,-0.098566029551145,-0.05406299606444856,-0.12256397018225186,0.11221389338194612,0.10961236385074531,-0.0414002393036985,0.041710008513166606,-0.07064735386945023,0.16332445672062698,0.16580517012673818,-0.12924428980905966,0.04315813328911611,-0.10725917946496766,0.01712967306868454,-0.19656335062865443,-0.0020231512891490636,0.24387384588306946,0.0973533769397434,-0.057092879214189964,-0.09043895120989989,-0.10607962681884407,0.040324675317562654,0.006651597197212175,0.10355287796210833,-0.026428390630830155,-0.14278997158401785,-0.11521131175281353,-0.08483923038079838,-0.059257747257323745,0.0561392817208591,-0.043073463439387616,0.16335592772798346,0.002547430194620958,0.01863548481995788,-0.22882232279533896,0.09189729283833355,-0.10057088910258812,0.10024709447513735,-0.1381262278669765,0.05158490314149287,0.016959606764372866,0.04687583791279749,-0.1458225311058975,0.06806620664601869,0.04861394012629494,0.020182705272683163,0.149151785448006,0.14760979934755883,-0.0682277587239633,-0.004423840066450655,-0.05146512747004045,0.18358356924494257,0.022145115737487557,0.04189996178247231,-0.11250859405459254,0.01565569808433285,0.02761100510734628,0.16633011054449906,0.160783901561671,-0.03462073516211056,0.048353170266073275,0.02964085897403389,0.01881401643996628,-0.023090730801574772,-0.017749194456696933,-0.02953626417051986,0.09992557547594096,-0.007841654887258909,0.01863420128363915,0.07760124955084932,-0.027061675971345976,-0.010171492690612606,0.019633694375037737,-0.07425419139837844,0.12445017498955342,-0.0437196765580941,-0.012487564786593566,0.09374859836898652,-0.07060769058122134,-0.15010550258659275,0.008179922730056027,-0.045156899140642526,-0.12400234148774578,-0.12043844923906555,0.003927968125034472,0.0606084482528788,0.05961214844312834,-0.01936010773087909,-0.038179624681962704,0.10730362213119932,-0.05170827603636926,-0.01270855220396294
0.013275850090777077,0.030451377724678215,0.04228927154971173,0.056639482246213034,-0.02473000635474874,-0.017179863539605458,0.03132945291589397,-0.026517875116331417,-0.03117274992842687,0.16416978658972184,-0.06594202620900784,-0.0706777959398025,0.03487456680174314,-0.024101983464966625,-0.004390356746192149,-0.12544716712762569,0.09166594952716177,0.10167365608495613,0.008911179241786029,-0.05752038503017425,-0.10767683072158063,-0.07240414394602021,0.015509465477195354,0.04824942021611978,0.06157203197722948,0.08668062969700954,-0.014952281720346195,0.10366343104858217,0.044619948387461965,-0.05728595251113563,-0.07842623179935844,0.07505401171265291,-0.14180328050183938,0.01814962455825313,-0.07671237367597865,0.06912973181775804,0.09856120587071913,0.09265528585510671,-0.020520570877018703,0.02214639686148063,-0.09471785988689994,0.05925383390295991,-0.06207874630656718,-0.12621485852737613,0.08341562667140022,0.0021441016705961644,-0.06870418125564504,-0.032819936708134025,0.010983835953320727,0.12476328832236773,0.00948987113338826,-0.031631952601289405,-0.09197477131653753,-0.08994484969465548,-0.11295842580696931,-0.0038787973611065073,0.001111871816867729,0.005405150894891124,-0.061927691730878635,0.15814026449423424,0.03280027446405849,-0.031891759422238354,-0.1125707044481806,0.0346468452229367,0.009470882097306956,0.08201617920932172,0.05001052428457862,0.10942875770110659,0.06235136931374207,0.016265760963061086,-0.02739821213684963,0.010880587803101447,0.04039229133722104,-0.06779949847656104,-0.03777326773563879,0.15377029825684319,0.07207279518804767,-0.014199098140688877,-0.007722509078444351,0.11394882151932641,-0.08078127495707126,-0.012325766921598197,0.010802749659970358,0.017952593500891883,-0.030228588884348505,-0.04345743797258639,0.06955200490345653,-0.06534267873740056,-0.043604029697385506,0.05023212550114986,0.04282253227985282,-0.010714042872246426,-0.0021692436055570446,-0.15149623298407305,-0.0018408100537739053,-0.003940504709247481,0.03290037680818274,0.09573290059154439,-0.0015897686343404771,-0.05446503909123302,-0.02907609555975184,0.02218445173999156,0.08771554585764114,-0.04552492849025686,0.13899121844178097,0.03314556837438879,-0.053109757128697165,-0.0187867135156425,0.04442453215379496,0.06787047738487213,0.00837123203776957,0.01620455985811998,0.04722056802438583,-0.009365107151939113,0.0744940330631271,0.05216065788688419,-0.09908092721558615,-0.03753665450372204,-0.04575472499379265,-0.11788869269620646
0.020207809559086756,0.030641138353192463,-0.033765415184040824,0.10161258685851136,-0.08939296124798433,0.05820886954659063,0.1184491762729748,0.03445201679000147,0.08502134740719675,0.07532952110815769,-0.1533644668034859,-0.07429616418343458,0.06625384977871958,-0.06345230689032048,-0.02074276188623116,0.029846154835776698,-0.11878199123909834,-0.01747959457550833,-0.0022805069622628005,0.08689099702309505,0.019196944374110035,0.006473118089284544,-0.01421113497629415,0.016707194412159922,-0.08362425095331205,-0.03958406253540387,-0.01572665482728515,-0.020863653563697175,0.054790066939386,-0.04202245762758244,-0.036256542045004156,0.05533344620075765,-0.12494827016339412,-0.08797918271801726,-0.09767067917461525,0.07085256365709966,-0.014015900171776802,0.002842959513915037,-0.015228174594735298,0.010200361041468573,0.025527741270044105,0.11393814754152633,-0.010050145651007536,-0.06115108815818271,-0.032016797235408616,-0.01961269158861152,-0.03655582564189708,0.08689082524871436,0.050563048273179194,0.049088342040128595,0.013553102007832067,0.08328610872005099,-0.06303195756092109,0.07266245484483955,-0.005442988134036946,-0.012179800327559862,0.020542636498159714,0.10570056482803263,0.06687678529139006,0.07721981012566285,0.11711422157451248,-0.02641589859676861,0.028163511235911962,-0.052060182811464434,0.12569740643285215,-0.020175012520731405,0.15699660730784723,0.061923163481320466,0.0933072231813515,-0.10118413089643111,0.0421307473101591,0.09447137290581631,-0.008621128264266986,-0.09313325447649677,0.006969542003623444,0.04771870376823659,0.15266384402877226,0.01800216079694447,-0.029133660448942115,-0.0299763702790522,-0.059579144108600685,-0.08056660444459716,0.15921284596817475,0.02098289521336125,0.05477895992851,-0.048018754861578236,-0.046401178189698855,-0.060876950246507584,-0.05310398535178886,-0.015187402174257876,-0.10219706183563662,-0.03103061656017362,0.014383590164597893,0.008144785402189483,0.12035058041085664,-0.01279788620235372,0.0390323309798396,0.011991711214092543,0.2089722908341451,-0.03099670356440218,-0.005701128850101595,0.08147978036010207,-0.0450347006729178,0.01054595497112597,0.07605215150983446,-0.07309243062036079,-0.13805026953885394,0.07452734778415086,0.1038618716859936,-0.04866103871633161,-0.009117936950778564,0.06285034322972295,0.06496576385898584,-0.027508202848029736,0.0788174084021182,0.005887974940592617,0.021504825133328936,-0.038610608103758055,-0.08092152845888724,-0.07908005669042963
-0.013261760993918657,0.2830138626599286,0.02856938398745376,-0.0967431453385387,-0.07878763720433077,-0.07337349983669025,0.13322753648419947,0.14548083395041247,0.019244513801003296,0.09251215755690123,0.11084348126008584,0.02664589697144857,0.24419463377995893,-0.09147953384943984,-0.0012552092974217393,-0.23150631425513948,0.09982917232442479,0.10883038299555993,-0.10849540387933373,0.07059921636783711,0.0593163856238026,0.04182177635859878,-0.07724803622456874,0.1792145066116734,0.08243010594106018,-0.17838788187308868,-0.14962834421347976,0.14160424969153534,-0.03235236006847081,0.1377552794086888,-0.07363779532303098,-0.14369784872161073,-0.11804270780120653,-0.07991555831332972,0.019892548657295166,0.27734481815210105,0.10166031141871304,-0.03751250266361836,-0.15186289809570877,-0.18837939699171044,0.030320284095684213,-0.1541237029854425,0.029379208286409476,-0.06761803186399061,-0.23874136946228686,0.09973908787817168,-0.01614591894008817,0.25303118231861776,0.1097573251206883,-0.1194283195527165,0.011004462099998127,-0.0025081253376466124,-0.0014909168788263423,0.1033377722157165,0.07716251669795422,-0.2968830834709893,-0.18854746616316898,-0.22055876782440578,-0.09350914800783658,-0.0842312012935257,-0.1851422263048037,-0.26421606580965673,-0.0590949425130993,-0.10641724753069234,0.04872645227003574,-0.1626284326618921,0.2920175105374771,-0.054455121729267746,-0.049412296208924546,-0.003159158192762959,-0.1211070854544634,-0.10358825106986211,0.1318505034927048,0.08074970187683854,-0.04817891757539009,0.12980235329434042,-0.14942079688871399,-0.13529675748748418,0.1561351673805281,-0.10109078515477687,0.10379020999275204,-0.1368398560834249,0.1641190477000113,-0.14259613965972842,0.270978178177134,0.07276374406264435,-0.030604834397477628,-0.23972215724266316,-0.045902481717199524,0.0679974490900772,-0.2476451308492097,-0.17518418807934674,0.026849581371196835,0.060645042012097125,0.059267270151938264,-0.10910396897372635,0.1495637807696504,0.00941654227261865,0.11236127197443084,0.10559415904820764,0.017684652390829475,0.0905646115990834,0.05131281482154523,0.12112118444104827,0.02401621368464063,-0.22689952706467978,0.10126458863285528,0.01722188827103629,0.1005192836490017,-0.1908448358164018,0.034230400119831535,0.07318579726876395,0.02437981661285445,-0.05029704138716274,0.010099351353861068,0.02562925430179946,0.19337533542223131,-0.04184890099680039,-0.1716324003970893,-0.15405415845636086
-0.010512701589696251,-0.06947684256412703,0.13566984615397765,0.07509743360103287,-0.04816761120735479,-0.1686788470609978,-0.013843122350029888,-0.11222842454663119,-0.05883825349781508,0.17633023424594627,-0.11875204317094015,-0.17025861089246905,-0.07249837608347907,0.033825751799373895,-0.08501862394913194,-0.01448349900704755,0.30968412391690625,-0.008631985107400916,-0.17485158009613833,-0.15693616165837282,-0.018772665337892496,0.028284488620892816,0.0018025119407186277,0.08713755569140735,0.11944307948603726,0.08743900666558896,-0.05536650887891301,-0.022183262778764062,0.07331572285198328,0.06321380382012998,0.010539845316349258,0.034426418109365246,-0.1378390909929038,-0.03983387056879307,-0.08476623859066011,0.07764503252996499,0.03890972789193404,0.14803130917322502,0.07680647261562007,0.02366737109839711,-0.09061233060096212,0.0823795573658444,-0.022120104438841326,-0.2685943347347474,0.2208960033926099,-0.029945709522431474,-0.04238045112315558,-0.13682732451712126,0.016196649978096767,0.14726391832280128,0.030506895800291586,-0.12943138146479205,-0.0746996105705046,-0.09032723528289503,-0.010004897191050658,0.09368469079423437,-0.047172325288888685,-0.03444956403281621,-0.03316761902727162,0.006094425400247061,0.028027369781079545,0.03246632926935039,-0.11762737500721789,0.03696472433123938,0.07879997334307931,0.05407048480740406,-0.05127778488235995,0.046366750331362304,-0.043333164134110244,0.02009874701426473,-0.0017813940028831713,-0.03464809532651953,0.07789984471628886,-0.10937884484364717,0.1337935333907758,0.060298241873553336,0.1560096792777478,-0.03982841610217117,0.07316154738676506,0.06526131823771136,-0.011970270511471098,0.0034977404086707184,0.00305500646885276,-0.0057317407260854,-0.07574493524027515,-0.05384656329421625,0.07914609646305694,0.044915859172128904,-0.024977670340118465,0.01903115283802325,0.033499772902639724,0.03015405077588063,-0.08444589463324352,-0.15205684226665456,0.10551648378131115,-0.20234011583261727,0.02177671887024492,0.136006475448121,0.01719276869917773,-0.06855632276127317,-0.1071815939061343,-0.06661876611119338,0.015810537330033018,-0.07766029780031804,0.12880716637396272,0.10791267743826853,0.027775832335313572,0.05286788346571391,-0.0659775701049215,0.1028206722131874,0.09848624670538969,0.04231570606314095,0.16537528077578753,-0.038603067010022474,0.022955569592374152,0.030869233784210012,-0.12933604456347586,-0.05591690890336003,0.07567654479282113,-0.0767530752143157
-0.06166858540752146,0.10995874137085092,0.045762363346092655,-0.027179959668584358,0.09068730616860393,0.029090115891213148,0.0023540293639920796,0.01118659062198406,-0.028955682885302883,-0.03568522745788478,-0.011490214845177454,0.0017009616985844856,0.011265753920482575,0.1838962805667321,0.11099426338497931,-0.10048596890480402,0.024224163239247174,0.11429430786739807,0.03663565331009213,0.10114751181068084,-0.09428796725967416,-0.2586810241102312,0.051923300901083685,0.01617465819970401,-0.0274775061849113,-0.02911754872951221,-0.1226961499322912,0.09373466909370075,0.06354904796001735,0.00018112748175486178,-0.1940965557950264,0.008827269592787299,0.018548659602477445,-0.027130635265783045,0.13387624209143253,-0.110286751967306,0.10718913317644856,0.08223584815245331,-0.09077636679874265,0.059324084103368015,-0.07928004481408343,-0.12321106076031361,-0.08670642644655614,0.07536375855170331,0.17442394831302285,-0.06583040539888085,-0.17093659362971375,0.04776736107026354,-0.008050820235899507,-0.05401365085252023,0.05288758548096071,0.10429588988718229,-0.007328975663637613,-0.18645668044874072,-0.1404431143632226,-0.061471143269424273,-0.06354005121114975,0.02947652181218443,-0.04270555417881193,0.18179346577550068,-0.03763537015817215,0.08220828060099505,-0.2988949854781588,0.14457961640654443,-0.14113464577644694,-0.005867549985541151,-0.18650075677248756,0.012188138739035152,0.023451227701244585,0.13475500160150902,-0.1653891484996834,0.06479390001236728,0.06331966147197418,-0.020687250282268047,0.20066980783916877,0.27110719650854714,-0.0688051534270202,0.0516145478477029,-0.097827405039865,0.08680338601130735,0.0904449459642228,0.015302381464110086,-0.0781820630256224,0.022441076322649325,0.0678584500292846,0.18903444508718778,0.2260346307025828,0.0016133449884093967,0.14718644225725336,0.05206229163514617,-0.02307361919277071,0.1455515663934374,0.06100197266748778,-0.02264973131305741,0.0323608813248961,0.08112554615634184,0.012265153921095057,-0.035781688744763646,-0.06581872741347913,-0.020988174952030134,0.022305561963281807,-0.047279837890034836,0.212128834496857,-0.010301002811336231,-0.029905783708138838,0.02971683744438231,-0.21136720349380397,-0.22118900277828185,0.10762214509685958,-0.20241943609506652,-0.08397809602742067,-0.20410863842366392,-0.10176333064547738,-0.03460225068153726,-0.0060625909335087595,-0.002515093397225139,0.124791288849593,0.14995074372516815,-0.10311205418164156,0.04434254494230291
0.05802179360663083,0.12174415074582819,0.09317335406087508,0.02673290091979363,0.02900183791934381,-0.07389444171768894,-0.06256030485191502,-0.18552154402003485,-0.009418280318730947,-0.23342129996334482,-0.0788162733239199,0.1525053596657366,-0.0433443087103221,0.1311678455013353,-0.07631472502734661,0.08280394857695696,0.15455333114172284,-0.07208909615140545,-0.07491910013754301,0.17730952591589993,-0.036592756528845666,-0.016822511474928414,-0.08615705363015203,0.055635585464121166,-0.12878834132895572,0.14212741427130307,0.007388298082367625,-0.12723388272367284,-0.02622530047627045,0.0019394450175208358,-0.12737914632442957,0.006790155865970712,0.12333313678536205,0.05771712719603485,-0.006870612748446895,-0.020649123578587374,-0.00887637819271625,0.06073837411157346,0.10272515491790689,-0.21722626291796096,0.01348919762746527,-0.15756887403951253,0.007548730589821441,-0.009369502138673824,0.13796005294598915,-0.008383664005531732,0.05540121870667831,-0.027390523421433437,0.07913723865105353,-0.06647464053220589,-0.03501532300678222,0.13160590290194255,-0.019145099468976908,-0.03781254146218471,-0.2099888118868681,0.013757834869807061,0.07589272426155927,-0.011746798027857526,-0.14195746629583733,-0.06770235491641086,0.054370492182978535,0.07321269580151495,-0.20405511905919607,-0.09538314302796169,0.012596350543785188,-0.09697045017355396,-0.11066404561803443,0.030577888315421336,0.0843959070371189,0.07529164731151851,0.2179314753551603,0.045755148903728775,-0.039751011565936197,0.02196815837237241,0.340211128558144,-0.04475897586188475,0.043131242648253854,0.14123262969023034,-0.14841732877798786,-0.002709316591380041,0.011057574892380448,0.1972549292545928,-0.04393097975181166,0.1981130501062527,0.08237577851690725,0.19520409620752463,0.0766568211508777,-0.040544123772523956,0.1383513690051016,-0.06583351043553752,-0.06629713183880456,0.09874573403645107,0.25197068241198173,0.07257197894771474,-0.0771046077182655,0.1766606766821754,-0.03470867238425864,-0.2098155474470496,-0.042063218034047264,0.16606709123680008,0.19566250170077645,0.05209841285266906,0.036138943350800576,0.1869768578064933,0.08634116802463312,0.04284335934039245,0.03840296986910544,-0.155832225027971,-0.03848786900723115,-0.014200596332118186,-0.059590126039180465,-0.18008501579215175,-0.052848164168091086,0.07483735976599727,0.11226153874587508,-0.15030382179933788,0.15914305736501477,0.2862171276645032,-0.017826895920032122,0.14161827791032036
