0.020756407696186186,-0.023999742099024363,0.013050628556267374,0.04611270898865436,-0.015747502719605802,0.027797445996157483,-0.04820889221161285,-0.06084741516605251,-0.028304273273126918,0.00633928715586885,-0.06567484805582693,-0.010807865696544933,-0.05057719176275434,-0.0202683742196397,0.0019058932446223294,0.025569257012867656,-0.0021459121350070947,0.05190822531238752,-0.010547003721350201,-0.021234818297170804,-0.08978073363444658,-0.04628128983539288,-0.03543732627533115,-0.054474794567322,-0.02695868399458259,0.07528449077828063,0.05234137743532389,0.021705294986077883,0.13129276559906358,-0.03962336027803427,0.004999240249673317,0.0027703987312598924,0.041688111727157286,-0.025174899915818897,-0.0804927922075682,-0.11700331983697963,-0.0357915658148679,0.029129017119040007,0.026460092662053777,-0.035691074910511884,-0.10343336682571375,-0.009289972374996163,0.06761542210612795,-0.04955441372864479,0.059122755792426936,-0.07907439735221877,-0.07313778656143113,-0.10125757829167992,-0.05460611883492409,0.09976202761467454,0.09841999343326077,0.058922577494508584,-0.0569862010836757,0.0036407368775769667,-0.09907114580190883,0.04995438754167617,0.017903838680595537,0.060452855287629344,0.006853817512998704,0.07862965721280764,0.06349907315712869,0.04755839895763982,-0.0181064720006049,-0.0275182726077704,0.006655183897375819,0.07079283303236887,-0.02879068188920022,0.11986353470405506,0.013224887507081493,0.0175549542599185,0.10329617658646857,0.10270065103198163,-0.018929857477347763,-0.03950217388052697,0.02700488806616672,0.0135526741004446,0.11607027824453885,0.041669188646322124,-0.01878319805764188,0.04773233983784814,-0.03343539784636733,0.06468545817361226,0.04111827472441882,0.053154477605582215,-0.08006004607719679,-0.05506027167532563,-0.04034547118152326,0.0021512066410638224,0.0233914934272342,-0.03515688550206086,0.1155808084940528,0.04808680679518779,-0.04344230185189151,-0.0367358784456376,-0.006636771307962785,0.037956321212093046,0.004128358643963352,0.030436818076148883,0.014285323656629592,-0.0985580895715956,0.01794195617533276,-0.03814524301924289,0.0029448139661073106,-0.013482300172126104,0.06117087204440563,0.08594128825308564,-0.08197634889828645,0.025984358370033545,-0.08989319132242368,-0.02916993759669425,0.028627725160683338,-0.06256706265106443,0.015589512320562667,-0.03494601704025059,-0.04263554624289284,-0.05733035798921037,-0.06957901346126776,0.016170954697181467,0.049346841400436325,0.04428099504070027
-0.00956100627001645,0.013146931044941801,-0.03903714946287194,-0.04517669920120727,0.012055110049093773,-0.03748633342264054,0.08813145070215814,0.14529012943402178,0.011413174491315577,-0.0028550931429264462,0.11245020553914552,0.008494794508410616,0.029311381497153705,-0.023924207356424646,0.020800431031474942,-0.05897606814516509,-0.01702462295709487,-0.01877717592484129,-0.019708846351333846,0.052405323769646385,0.11602747645199496,0.026958489910599088,0.0063255133290229144,0.0033466391499609493,0.004155991860958527,-0.07790405356505238,-0.08676404971419659,0.002980135756199778,-0.18040647236988994,0.04018194978760686,-0.017343413727316376,0.01850029896177855,-0.022532662512502275,0.00926747178287036,0.04977281405999224,0.08795614189638391,0.018888546683056683,-0.00677990139665103,-0.05993122063474015,0.03160651710508873,0.1031775271351745,0.011302744402150343,-0.05088113533718518,0.06662342219518706,-0.04815501003707069,0.10281639836936207,0.05847402715156182,0.08245131789987965,0.03188451337466731,-0.13857052338973275,-0.11080738151857879,-0.027772765636729087,0.055873103239728855,0.004979258794529262,0.07046847284309002,-0.04179285721993062,0.01281539836547169,-0.078793123622628,0.03368562002671447,-0.08730844194536663,-0.00461117709584019,-0.06149165285335907,-0.022434414140337085,-0.01847248644138213,0.0148784713787789,-0.04877962788572756,0.038116770176041884,-0.10442768555609208,-0.05619655883001356,-0.026627628886642534,-0.09231767195808896,-0.0888693718048411,0.05970625383224331,0.012537611742753332,-0.06813941933128391,0.006090620928787963,-0.1806195760527657,-0.07100124420983808,0.0237809983844782,-0.10534277625842356,0.035977464412220383,-0.07210648247902014,-0.016677266794086047,-0.039627199931250336,0.0664803749294807,0.048729100892999304,0.024385705508243635,-0.032141892045657136,-0.02250696243913419,0.025853462643077363,-0.07409813274843077,-0.05978341385857549,0.03165577552155198,0.06400830380684563,-0.02103155463331982,-0.008601401148997597,-0.015174079259748638,0.016526721566634945,-0.01647947654779147,0.05964596912328843,-0.011004933347763514,0.010652413451912231,-0.018068083086472866,0.01283387091187643,-0.14680046854912654,-0.041049332763947205,0.05299111052889452,-0.01632054445933511,0.11371752756396866,0.025246314900024568,-0.05767751488418511,0.10993232794786956,0.015152544459883852,0.016030994047801773,0.029244073930314435,0.040203592151512695,0.041335040310929654,-0.010467707898168718,-0.056327146762769696,-0.029896370077271136
-0.04625366560034342,-0.01590759431424568,-0.05479963141144579,-0.010410463365230771,-0.03438298436223129,-0.00530966045758068,0.00974102339346161,0.05160661838144377,0.06336868421996464,-0.013229992771796541,0.0638347312958587,-0.04158862911412967,-0.05461535055817083,-0.05101852329157202,0.0386987561775048,0.04861559741290426,-0.0014495152231934524,-0.0468509708335386,-0.017747228113314764,0.04644154249726207,0.053007218215551315,0.0006263944979240952,0.0164545430132503,0.03587101162344842,-0.06348461575572047,-0.008495898724929802,-0.11895222271513872,-0.04952852514716658,-0.0397013527318833,0.06743457620683813,-0.006179790641876803,-0.06541167703397283,-0.006602681668684725,-0.009736209101880439,-0.020044100026493587,0.023561040450495285,0.013891475053795078,-0.048068896784672084,0.09157312184978325,6.742241573526385e-05,0.04946911961936634,-0.06164586289131803,0.02589297266639331,0.06266391520257028,-0.10327245293152135,0.01887174933605776,0.036421321869788484,0.11536967994059276,0.04659070678452548,-0.06804751911430361,-0.050359913510029504,-0.06871990198289075,0.07954342345983628,-0.006599250457526699,-0.010185223724553192,0.036842985431732846,0.015565089656792886,-0.0835884081314348,0.04652921773098646,-0.07007218046543379,-0.03289418341948837,-0.0761989504955948,0.03727582157787651,-0.03354536073753724,0.05566460114241967,-0.023677229433476367,0.06395967248073689,-0.04704057263536498,-0.05841951583567475,0.0381168160182715,0.02449347293632146,-0.1303183414832145,0.0742792935211861,-0.008455969231681095,0.008044583360527172,-0.05501600534875762,-0.0845574220869795,0.026053824950485263,-0.07959530718869648,-0.1403058538059569,-0.04032340387124902,0.02510490043190674,0.04123794206740869,-0.036253540964363055,-0.03806046490217719,0.04348068317633167,-0.023688378055801065,-0.02692553217104084,-0.004046412457514618,0.051458152809842415,-0.06430652749712934,0.05287606697497275,0.02593986226404647,0.1551814591447333,-0.07366526970262575,0.010899066198725552,-0.028971079071395723,-0.03702550565748387,-0.009667308785762694,0.12203652911414943,-0.029528020015382562,0.07357493062026954,0.07162788302355631,0.031573581167348534,-0.067674648087679,-0.09116346390384458,0.017878634436983207,0.040446823095578684,0.028400010695603255,0.10325533620914767,-0.028577254258781673,-0.0006305433814215804,0.02500506953451769,-0.017064270001938733,0.003956235354590492,0.043573308457022494,0.03454022614917786,0.04833061577355423,0.02179215262975875,0.026942126259164763
0.05382820763311934,0.03386329168616486,0.03277377856412364,-0.030128286809833253,0.08245818775414662,0.024884269327773587,0.013722419168695472,0.015730497627222204,-0.07490265201978576,-0.08810801557139261,0.030894287810717718,0.0911432837329697,0.07007796862397876,0.14893606765745646,0.026336593385053807,-0.04518270166920561,0.038846996489846755,-0.00797381360311397,0.04057025162576306,0.10740176426490293,-0.0111307326653616,-0.03569981454986776,-0.1367749921988344,0.001476703787032553,0.04084035276294296,-0.023487650177472518,-0.0074308777178889295,0.02683631252096732,-0.016942667124690308,-0.05275580037518057,-0.07677489646819972,-0.05031065509186636,0.13469187204799782,-0.08075626367620471,0.11000692702249427,-0.03462624219875885,0.01112557991695422,0.0655628249932998,-0.046744000713309315,-0.020878546149222556,-0.0006612201202794546,0.058436736267349076,-0.044319014088834346,0.023029313904112253,0.08483582543129278,0.03478583896551644,0.02059645535957513,0.025441277163081446,0.006280501178270476,-0.024035065960350356,-0.0008447332607640598,0.10419112472254889,0.007275403029227695,-0.04573286083508983,-0.07185411253551081,-0.03679502857696811,-0.030813338919798483,0.09333860749229193,-0.021655998523416525,0.010808611331868756,-0.007419332717787429,-0.009746359471757752,-0.12039874037608844,-0.024511994728862067,-0.11425928542947206,-0.02517988128746747,-0.13053647814059235,-0.05219650490763625,0.06111096441081177,0.013331936713325995,-0.0675906007286582,0.03337846279752635,-0.032506984205179446,0.0255670673937389,0.1045163374302854,0.11869148558535488,-0.02901673270485257,0.003362039511834454,-0.03410800118598046,0.033710505252614244,0.03407009397880056,0.029543620416858138,-0.11643602068512814,0.0011891528077472445,0.016555867020248416,0.12232168515263067,0.09163663972138518,-0.06803079259643396,0.00941011500954482,-0.028001206067891287,-0.03142835552987319,-0.06585953227373363,-0.002170142458054151,-0.05103282200321667,-0.03387368964561019,0.014120941032173444,0.05192483742337518,-0.08789063988724821,-0.031127855869618623,-0.011413586739062597,0.05934102116409944,-0.03567516922122462,-0.013595769043507459,0.05540712095774491,-0.05955977125802951,0.06269603533284188,0.002669260744007032,-0.11272315417238157,0.04960975212529093,-0.059601451134901215,-0.06888736657927609,-0.04078805860840082,0.023803668518866596,-0.00851269823624769,0.00916829181184547,-0.11101188072894773,0.026067073590979362,0.10510215459732031,-0.0391637225329813,0.016247887857756924
0.01259539157934384,-0.0065455594416364594,0.07082197033020693,0.010280281872284521,-0.0031439346950850686,-0.03421521526883912,-0.07761020197925186,-0.16310342585519047,-0.08644030838500388,0.05382964571958673,-0.053654275887827285,0.01676272253513376,-0.002856600777642126,0.06844424661211872,-0.03271097811755582,-0.005660392370245644,0.059965922713679023,-0.029081643405095586,-0.039862517594854034,-0.05705003287254112,-0.03214493576241827,0.0515743469744022,-0.01789554250742621,0.00608031029989295,0.05833954618639945,0.04198648478441357,0.07826291576673877,0.06064501512135139,0.10670319072731711,0.005754461450459214,0.01985459598254831,0.025035039695409718,0.017607700521490424,0.07906015937487632,-0.017429853220341976,-0.0003265673186111959,-0.0167581901548255,0.005776374200777499,-0.011464052844728661,-0.05009247341501211,-0.013709150989478208,0.034305549517683886,0.043619689969179934,-0.10711811426385279,0.03819693902191517,-0.07600462269376085,0.025227431144793942,-0.026027681517082783,-0.02031542745807382,0.08940151273510477,0.06172348103910461,0.02354508453553285,-0.04797924033567789,-0.01846945046644487,-0.013706166407063448,0.036932870775761927,-0.006678503034913599,0.00810984638052204,-0.09120689869813094,0.011055874196485014,-0.011150819275567556,0.029817916570949746,-0.012912744893700666,-0.013357934827453686,-0.032756755784928496,-0.008296227340331265,-0.05143150681116445,0.0222702225007757,0.04134545349247076,0.021553855583946565,0.023870035105692793,-0.0006354568085789565,-0.05787468981744641,-0.0026907223096752524,0.049605347860210966,-0.026156959056523002,0.14705804398630065,0.06267620287706298,0.05159000646196843,0.0959099945440276,0.0012903036390269397,0.10957446844362562,-0.0022799365546989454,0.017727686389921123,-0.02428512003127799,-0.05695837085432064,-0.006730106525384614,0.04917866405402183,-0.007347518833328349,0.018203205342290068,0.009778406730810759,0.0003087827914022354,-0.042815139191046576,-0.04829384907392712,0.02674040861986674,0.02301737114428411,0.07803558718436099,-0.06891642738118318,0.03386692587280633,-0.020940156432970508,-0.01859998030489001,-0.04015221833559604,-0.015823756130551404,-0.0018825247018691945,0.12009912477121688,0.02641636605035392,0.04461653927965619,-0.013437727247570915,-0.1178110211569354,0.025281792869772036,0.0456371480555529,-0.10102897806124617,-0.016595621033438722,-0.032755822728244975,-0.04605428930776661,-0.009575685111877022,-0.011452693761670681,-0.018987820899119656,0.0920398774450205,0.01643597894342075
0.019382736876734006,-0.025057785741828594,0.05306272934421994,0.036328188167783895,0.0006509925436677116,-0.02529962455226641,-0.05251280082623075,-0.09839339055113497,-0.04638849531202574,0.05345642501317162,-0.07495116493196012,-0.051774503336823666,-0.042558827821781546,-0.0088303605559143,-0.0022891897432828555,0.02886787593223336,0.0547652717799603,0.020161261530933686,-0.07193942738666155,-0.06646353111765192,-0.031058390751122242,0.03893173454130819,0.06929328483899658,0.024755321870774928,0.030750098141691495,0.05687285261024256,0.045456018554864024,-0.0006991598844641037,0.09359160449888891,0.0019238901104460288,0.03445106433331566,0.04161820750588516,-0.042965710992975865,0.052860566494881606,-0.022857618259885575,0.019648705799949883,-0.02401968355694682,-0.05465524875281116,0.0038045829630285717,-0.03554970765530765,-0.042988915605236835,-0.051757078682387284,0.06551639147087214,-0.08313237317402776,-0.05756387732832845,-0.05925293627638853,-0.012116048173441566,-0.05344365609018971,-0.03725299120130141,0.09196681961053528,0.04426384654694453,-0.035341233656926,-0.08223506986152726,-0.02725412929405968,-0.00905084353756485,0.02201415561374893,-0.002011514696284736,0.004024978218717277,-0.05027208951709973,0.009223604214238283,-0.010974631720670593,0.08052791069802273,0.0693315003597064,0.032134604625343066,-0.007299454502943162,0.00849079672914496,0.0003539411340389976,0.037647784095567245,-0.016199459681812998,0.030015903826471953,0.045476270086879565,0.037768653484661546,-0.010092541296273152,-0.006351222852146335,0.003600788531270422,-0.04442176790058281,0.09871786689256379,0.0315739913021643,0.043392225700753025,0.037500563841933114,0.007329449173249362,0.06690069515278084,0.013931198482337674,0.02359175710380758,-0.022763473326209007,-0.07002247417967777,-0.009686192612750269,0.0336953248066093,-0.003495319207668808,-0.012295725398108586,0.05768803155651624,0.015449184920738544,-0.015966645199650995,-0.011440112360436771,0.009645139510226178,0.028409255081115532,0.054873184286558775,-0.00044508836321452205,-0.0009284670306724874,-0.029936795946424292,-0.022575828686732306,0.005760405686112061,-0.009401419134659557,-0.03785953358451744,0.0907964592024506,-0.02609305563901538,0.011060885631512528,-0.0010182477709968414,-0.09353807309271572,0.022127564946674252,0.06353394117082613,-0.0347553347454397,-0.008560185317671052,-0.012761968699533511,-0.015268587948321912,0.009073509554164918,-0.015268573127152567,-0.0276080199638471,0.07443946744384712,0.053941241284483354
0.0005905680240636969,0.025348422595898965,-0.058335108196436426,0.015524926846132188,-0.027896156584538173,0.049196108210158705,0.04188965950181718,0.026052598372861127,0.05683624280130295,-0.03129134450045249,0.019971068793700773,0.058703564738174896,-0.002352724550963413,-0.008018523957384147,-0.08693924828794619,0.017768868681224948,-0.09790916087037366,0.01833082985341947,0.09593087936290867,0.06399676312203222,0.006715561735269772,-0.04056364513359222,-0.090202279520658,-0.07644233106644906,-0.05149565882574152,-0.014571943193743582,0.02297686405578217,-0.0030713179252942345,0.003259593297709975,-0.0344599571375058,-0.006722671758510226,-0.010656259319075444,0.05389070280768182,-0.09026365398323334,0.024653277331692258,-0.0742526294113153,-0.02024413577566504,0.06288518798992597,0.035488926162137564,0.029162448129095228,0.013500160878105207,0.07165203856882908,0.028857282931199765,0.06243233498028314,0.07855114019457149,0.014609140289785693,-0.05368775353116546,0.028483281687403647,0.019488933513118856,0.0003386543679558641,-0.01970404472527913,0.046268470049392975,0.01641638115023999,0.052736156386699616,0.04444341158043062,-0.004179110018325178,0.07900279497184107,0.05460780532336308,0.06942636813132858,-0.004525139736245434,0.06177378987269097,0.01011981074323631,-0.08975548084951708,-0.05392309733902338,0.0005931113938662367,-0.011833568715331819,0.011388502805265226,0.006298205303475428,0.025794204472631806,-0.028339017792465965,0.03343233326879966,0.007976084417530838,-0.04593294198972012,-0.04120175448241731,-0.010737474615328469,0.04403183229973141,0.013222746524710713,0.016894595357045093,-0.010719308951658,0.034797142950871766,-0.040288172709136816,-0.01659181861899443,0.006888263961479646,-0.007451453659058519,-0.004208272007566207,0.037433353417516156,-0.04443970927903184,-0.007430271123167896,-0.04055409933534427,-0.029832722160133426,0.02697635752615435,0.03381781979504525,-0.002520688728580139,-0.036627686123787945,0.08255749382627313,-0.018603614538945972,-0.06323919937655065,0.016048859779102247,0.0750700066592789,-0.015604522863765591,0.02326044309807011,-0.04544640832866097,-0.04595552812344657,0.039451259683184026,-0.03003375352561571,0.04781571552868531,-0.04256828531131712,-0.021330343138343047,0.04074340780361445,-0.040606226819674816,-0.017092270268364747,0.015312130062828035,0.03800514793949627,-0.02352646994793962,0.008100128981027821,-0.05965490432541364,0.0045113911993138875,-0.02009436706378671,0.00037942871841938986,-0.06431270617385329
-0.0313730908100336,0.0036138483807177956,-0.04517416268787639,-0.03149431053368279,0.0035106500105350326,-0.008677871596023394,0.036691270236687716,0.11509877231550941,0.016887311220470644,0.015887089702432657,0.061222209553083495,0.012631106464657515,0.054355418228631554,-0.022556169256142945,-0.02234579613382361,-0.029214555828803127,-0.02619652434985562,-0.006773369986684233,-0.0009120710337771414,0.00903722998362922,0.07458621092474904,0.02217730513418454,0.013910690623614221,-0.00592616787677108,0.022977545340420805,-0.08614071054564193,-0.025251953752585765,-0.009989021869300388,-0.1339955266930248,0.03216934217409045,0.005501066775189353,-0.0009053591026515194,-0.01579183608901783,0.017572104545255252,0.019146714566617276,0.07836386700958646,0.017213281189110176,-0.04182903987821885,-0.0008931431578655481,-0.0022788726117621894,0.09127079023353205,0.007661798532908476,-0.013422908655784738,0.051423786062115034,-0.06449819387734618,0.08100564847366606,0.029781885743925037,0.054982936780642075,0.039330560998725686,-0.10310158814709901,-0.08403055115164239,-0.008804734372014504,0.01802248175485816,0.012790401551308788,0.10190795900441399,-0.03585762172694131,0.03238263753892668,-0.053502662361188884,0.032401681110662994,-0.05109381790162207,0.003218751721936959,-0.05887650101468688,0.029431646975413794,-0.03458307081972339,0.017167663770730344,-0.021576729515963997,0.03363620723524477,-0.08069042942083317,-0.03378834677235335,-0.024513117463779075,-0.06428649222546831,-0.0412936532484347,0.03474896888176273,0.00825945832264247,-0.06457022789632118,-0.018831236630950782,-0.11252987463079457,-0.03369789730608337,0.011236533854350726,-0.07019519740726914,-0.003018438088849633,-0.08159170949940461,-0.012241094156010646,-0.026384205034289083,0.06267330478221882,0.03291077553688081,0.018983641446134774,-0.005484077078608946,-0.015598432299020243,-0.00615183590969946,-0.054441350187421265,-0.04875978024781477,0.041213019792723446,0.058647247152221575,0.02401365605372888,-0.01804925592829821,-0.005614842692393371,0.05059744579416801,0.005144816187975474,0.06013218068739302,0.01774162720896398,0.023619444452658192,0.0032169841417706464,0.024551755034001792,-0.09387192273998876,-0.02287347041590537,0.05679881790447714,-0.002716027466253822,0.1005330041003928,0.011044533613646686,-0.018672275545945017,0.056993509526614625,0.004988897401052085,0.027485516906760238,0.023326283424781373,0.030705571205870204,0.030048803631388198,-0.06267956775674215,-0.04646850603028513,-0.02205249285931121
0.0026046733612981043,0.026074174269692458,-0.045735671860319134,-0.05984069139568794,0.02494556955200301,-0.05381509358695947,0.06508579035057861,0.08080138262757418,-0.09936591031788847,-0.031799676464812666,0.07920422316454395,0.028365248340627546,0.05904953863427974,-0.006637319740574494,0.016131117050416182,-0.03799842965879043,-0.003310997939838681,-0.054495965955055,-0.01895841629127405,0.005922815394497598,0.038657569224537724,0.05378995257907033,-0.05470690392009312,-0.03909028708693074,-0.0015552107428153166,-0.040672187648958476,-0.09238922773125009,0.03669517466712633,-0.16937225087240873,-0.0020371174660678807,0.01152895374166624,-0.023935027875101527,0.057705402886580374,0.040593105716286236,0.04369191238670213,0.03185704914696476,0.07178231926601435,0.0923649421527902,-0.01640477713357552,-0.01724498753847708,0.05542407384938948,0.058142247647688154,-0.06572565151610336,0.05479237184452989,0.0839729110458618,0.1262859288728123,0.04918376043914629,0.02217356306238378,0.028770136851613268,-0.07988276451535646,-0.012867551074848568,-0.054019360022143255,0.0840551742576322,-0.054124502982340936,0.038254945969044635,0.026372842178725237,0.023815661924145026,-0.08714168231764832,-0.016137313118835223,-0.09105423381620177,0.03363531639099646,-0.11260470679684399,-0.09235820188063652,-0.038419514966444045,0.019668390836066696,-0.027588621571805493,0.03592801207316044,-0.025091720693292272,-0.06174362702518687,-0.0295071553905672,-0.06042938605271511,-0.1067358640439062,-0.005533251719275083,0.0004693129612172782,-0.03454077728889563,0.006066601739402264,-0.14270421875015124,-0.012855577764431154,0.010443556919811404,-0.05874191940104423,0.016213126568418515,-0.04178405883420728,-0.027909423283690147,-0.0355963152261692,0.01422440847013113,-0.03517689127906579,0.0657736114508703,-0.003674912359110735,-0.049930832203022996,0.022818915463174654,-0.09930014820200002,-0.07452649827975534,-0.007150772495049151,0.0066523975419937155,-0.012946149675318427,0.044059030001491466,0.021741676765429797,-0.038583648883114156,-0.017101741455064958,-0.014968180665174653,0.0006291110337964913,-0.0787746500280309,0.04157003458189896,0.04054561732627283,-0.11105431030303892,0.009561638178761114,0.05294543341938405,-0.01487542526653541,0.02232995214315214,0.08331145996666361,-0.060130220838114014,0.056519376882529886,-0.0060023421788986744,0.021974522494511747,-0.03282739329225399,-0.018434987548831643,0.02509380326750559,-0.03097947428577472,0.03239038816468182,0.024954273050144023
0.007589686318114869,-0.0005836321788810072,-0.020601897910608742,0.0006087590756872925,-0.009178015663503878,0.010785744048264205,0.0326804922378824,0.034252769055472136,-0.0020863091295411466,-0.0547576662888031,0.04764910686270296,0.03619965850351164,0.058478789232296345,0.010484987188572555,-0.01996391450649357,0.01668251766805033,-0.068970464774875,-0.04210242597374956,0.037195593041323534,0.03873734678716414,-0.021381251166192772,0.02997090661877569,-0.09234450618522136,-0.09071923774627437,-0.033352169886632796,-0.014797220324362748,-0.005199075868630559,0.003843150812364539,-0.05850394301561566,-0.026247825407382346,-0.01044832184739562,-0.01961485406460064,0.07611373010506861,-0.034003642738351755,0.042652967536524554,-0.031928438404015144,0.026471006342721533,0.07512950953044199,-0.0019027311597427736,-0.011715497355329771,-0.0036697600988753135,0.06323009909589972,-0.021361455179669354,0.0517915645487293,0.10361610085739012,0.06323972784697313,-0.004283362859709627,0.015219117674937476,0.03508054424560049,-0.0037431812304986665,-0.0017299089426225439,-0.008479188066128594,0.030005685537899195,0.003981767842908054,-0.0012863311617049614,0.01763129122784745,0.05173658016303343,0.0016647405617358515,0.016357725707757034,-0.03484980301317912,0.05950652116390423,-0.05968597086645427,-0.08817378066447067,-0.06990678206486828,-0.011192513841368419,-0.011136590533660454,-0.027050226645224797,-0.04040332930026052,-0.012413359631636856,-0.027915420490726914,-0.0026217858391335063,-0.05726574745471568,-0.07984132443609618,-0.02566331123293357,0.0197141776766251,0.012644785220487611,-0.019977935930365343,0.03822505196103656,0.0018371477443018978,0.01898531560718301,-0.024091640010170546,-0.020149386246599267,-0.004834982017224695,-0.02528975708497326,-0.02533640063446533,0.0020273374828012414,0.03247651793147323,0.002540642133881697,-0.03841076449431965,-0.01638584115417656,-0.02179846207185436,-0.04073157484685277,-0.001701703558797563,-0.05376122624104761,0.041890812103704385,0.023875869187280806,-0.006177576456970256,-0.013409248080627137,0.0389156993081593,-0.03558577632407646,0.026317360715551595,-0.07598957603915943,-0.00881427511197592,0.05830351290928393,-0.044397229487292515,0.06666993337361257,0.005811243958163089,-0.004800830770937815,-0.008757868578454979,0.03539537208905117,-0.01944172998386489,-0.009691208265487925,0.016897659722812184,-0.011535258069352818,-0.031324812308278424,-0.07527268134966394,0.029127263524611088,-0.02751220030692578,0.018870910444678243,-0.03122115249074585
-0.02178521701752362,-0.030189626626427428,-0.013019894240011294,-0.0036044686263995715,-0.008608119664553176,-7.364910541520426e-05,-0.02298490274632943,0.01589976969435089,-0.008237000351512164,-0.02256806029335131,0.030128852988048606,-0.028479077547213957,-0.03371884289783365,-0.027250144333640564,0.033189979878124706,0.025185749455755947,-0.01096246926028366,-0.05705455166278742,-0.015850009505539088,-0.01054540306586643,0.020549426109971645,0.014888306038533501,0.009972357202258239,-3.713424633738233e-05,-0.04298873522487212,0.02636272518883558,-0.07688931846070092,-0.040815607755642344,-0.024935043309414633,0.0404834719841642,-0.00047546536935785485,-0.014215002147513747,-0.017018166344384657,0.029162971248745534,-0.04479106205223563,0.0030305974640566515,0.004292753528451914,0.0017329719751532366,0.05045851405364419,0.03416575331274096,-0.003427647784223849,-0.019811258055434086,-0.03386576235855284,0.04759680307473239,-0.02203704339833423,0.015648187255778604,0.06474448270650449,0.045817446315613256,0.035945845440087894,-0.00708952292355974,0.0031452951643625195,-0.08057557765964914,0.05555017498755047,-0.003254477704196542,-0.025661645469633433,0.011157841733031805,0.0029854740670063207,-0.047205609048236105,0.02450448745268537,-0.0535574974294952,0.011703688323549705,-0.0651170879521457,-0.013205675264061816,0.018183867431307146,0.020742668997105997,-0.017554316867081688,0.03123147586512321,-0.016110465531838557,-0.05223838323564651,0.00962398923810764,0.02777660986101134,-0.10879118939726742,0.02941409465876651,9.952734793563839e-05,-0.01457278073177671,-0.03398673451139296,-0.028403801254988575,0.038172824703209415,-0.043023821570022665,-0.03705921656285264,-0.009018611844666822,-0.009445951225404299,0.01085214544372992,0.007724210448304022,-0.04690253024445189,0.0025676012004994574,-0.016324996869863172,0.0034794071654471325,-0.009720536354198157,0.05492567777545267,-0.0474724522473316,0.019667501186709235,0.010911941851493917,0.06011494423343088,-0.045626662934854886,-0.0055580182213653805,0.008183521155310682,-0.03855727606649675,-0.009728676843926283,0.036586591265828305,-0.02812153274271125,-0.0033770079280197028,0.03664094382925012,0.019447490645984097,-0.0027029401677845857,-0.04269925616397786,0.01637597203123617,0.03271927430065659,-0.015401747443279433,0.07959866754966456,0.00965673147915594,-0.02392647009374331,0.00918549502681433,-0.004822027855540155,-0.012161988382135527,0.010239013423308291,0.016080633271679166,0.005926951743997886,0.031120293788802645,0.014985828304199039
0.029912394261667054,-0.012309819938773057,0.013296941872690125,-0.03925833588411398,0.040931176278639826,-0.015813615122644394,0.0003143792766801534,-0.04908432390775943,-0.11641663919348791,-0.0363473913651354,0.029586230073792588,0.06684825777129978,0.026179362538631096,0.09263509238052721,0.05596641307795993,0.022038607807324327,0.0939854089207165,-0.041340058197994974,-0.018057761356131755,0.0727231049194506,-0.05894631480314392,-0.004535006879778691,-0.14411678756014762,-0.009178951191003724,0.008181782959631675,0.029109177114713825,-0.009855282278652318,0.0457967496102396,-0.020093792754870023,-0.040701180229029195,-0.030506719669271605,-0.0631767910038082,0.12606266020694876,-0.07442418184248048,0.042383981770272076,-0.06681083649944851,0.019130025153847274,0.05490295183276154,0.03119285850564135,-0.02341646052049223,-0.041698304802311334,0.027650611945168733,-0.023774730889469815,0.004670123014186073,0.06026921456337516,0.047725131738977036,0.018354921196192486,-0.024823736740741703,0.005171979725821716,0.024565772325818868,0.07332243533755844,0.03658043306527679,0.04514486943095298,-0.08939854236401512,-0.15881927008623112,0.008266583704734142,-0.0246239968284714,0.012107170432795729,-0.0511394795422029,-0.02402696161918858,0.051421198203764694,-0.024051380185020507,-0.10984217782467123,-0.04673680040370438,-0.07607617461060806,-0.013690385363075975,-0.09683148386889857,0.007937315596740118,-0.008710032418467606,0.05637306452790744,0.011018601399468583,-0.026172155384663436,-0.0393932704465755,-0.030481144756950827,0.09099983787095607,0.10499205058883321,-0.01764923479145725,0.06380773033656316,-0.07961077130927889,0.00694173569106071,-0.025377721411070104,0.07158011880796075,-0.09846720346426831,0.015557657604643945,-0.06146500823756288,0.04718609011644356,0.1106542040615015,-0.04765199279313075,0.016503420047243096,0.0006289326120871062,-0.01192725392968231,-0.0421359781694895,-0.05850429198646614,0.007079931276678819,-0.08631016956424932,0.07385337531674596,0.044672897126717855,-0.10882710460952964,-0.028769387297903397,-0.051625504556620454,0.03130656469800375,-0.01689455139066827,0.04038906780302944,0.06494532737475436,0.0033726025270898103,0.023070249106122338,-0.037967721401667424,-0.09827065810813843,-0.07005011245929278,0.031895761882345594,-0.05103969220657878,-0.13336956322197666,0.0344407836357548,-0.019226775675615582,-0.03467072777946079,-0.10936105342344005,0.02092395496516974,0.05784079915707698,0.05737606737692565,0.07800997846887936
-0.03863370337278264,0.0002476140443538728,0.005339302590070249,0.04005456659458953,-0.03818108987436954,-0.0006991149761770734,0.012749356087423896,-0.004122137622296496,0.06335115318919297,0.02642540314940044,0.009363429543513681,-0.0688357878866945,-0.0774077128661096,-0.05098537349031027,-0.006328830335939408,0.028469416594616916,-0.005982977295475804,-0.010023362961773448,-0.023562280650896564,-0.005644587025486925,0.047363075213456854,0.0015089236880549172,0.0828159462454325,0.040230424998717935,-0.023701357728153637,0.02077860818844407,-0.0352024132842923,-0.030131751776470175,0.0109840783406474,0.04722986514378267,0.03593843193200547,0.008175599283936068,-0.06140592261752843,0.01890898233727729,-0.07290022767122468,0.036976190034549584,-0.02714948156653748,-0.08410901262489462,0.005477631485746115,0.027919605282790673,0.025787621535193615,-0.06219812635555072,0.029791239524549394,-0.0005426623705371047,-0.10425913998402511,-0.046288893280259646,-0.0026795310643348766,0.010074233662754246,0.006273029482298673,-0.01785668730113059,-0.03502400624024061,-0.052658484084386614,0.02062049583308517,0.053931217826622,0.05391068025816852,0.007794278976361459,-0.0225929225409269,-0.0569998234871453,0.023852505040754677,0.011298050632074896,-0.04630847566301309,0.008520398559428348,0.06878393956893927,0.0017194682391325376,0.05743100645276703,-0.006719070835411819,0.0696752460087519,0.0028984616905471405,-0.03140955914025635,-0.0191001402544173,0.023320657951671896,-0.035885362615538575,0.08106700035412728,0.0054878361654213115,-0.05304050803387385,-0.06715432846699057,0.0036759666143595005,-0.02479712873068879,-0.024420689023007144,-0.07021673244933885,-0.010193179254766602,0.015574802760278146,0.06605128659668193,0.024817910705376475,0.017747702046261367,-0.036015493352177574,-0.035624335442542794,0.031319582307195504,0.00852794664129202,0.025307686853593764,0.018874167396954487,0.06423693587605482,-0.0037010269067065124,0.09953856877231441,0.009334019291542884,-0.01654535619060492,-0.030627362681887392,0.048571414496492146,0.014008303981981966,0.07267904043486895,-0.02983617677214038,0.07659060808412407,-0.01244137405352047,-0.048754601892316625,0.025310686089936228,-0.06663324851545331,0.01474370660239225,0.0584848872433259,0.0035333871506298222,0.043929262355295,0.044537648937713094,0.062328491809985884,-0.016252542726519565,-0.007673586906146771,0.010380154215343676,0.08912006839260582,-0.024978098847230724,-0.03873069337996268,0.001884839651382024,-0.03115616887212577
0.019484093787328034,0.0038213229828895474,-0.0318213066341686,-0.0058186429710065345,-0.05611741876700239,-0.0038500837513489694,0.03466521432594357,0.03740501152494258,0.015553498103719235,0.06805981926571192,-0.03037518159827892,-0.03919961423400932,0.0014064572475662044,-0.06940451361958679,-0.07911184608466504,-0.04267621441699538,-0.017880214122104904,0.07582696697502507,-0.003993616459958407,-0.06553877748101347,0.048783586974282894,-0.017692632819974508,0.08584508228151451,-0.010095443530869856,-0.0017618477246701505,-0.04237239503085046,0.06382869064269472,-0.0017484717466996773,-0.04006197360379804,-0.021930214892487285,0.028310688349244748,0.07496577252684025,-0.08265529078610487,0.024000405214196247,-0.055400260564854344,0.07024478346620099,-0.033642042450124754,-0.01170050180648583,-0.0638149878978831,0.024128886211158232,0.03952453134912719,0.008783746883752849,0.019079400500896286,-0.019103719658341862,-0.003504185748621133,0.009348566009589757,-0.05487601553487579,-0.08028838783146583,-0.010261920306914944,0.00025549650536421935,-0.0389666969194744,-0.04322067145179532,-0.05267824102976165,0.03481593844293195,0.14095466910821797,-0.0034952542410961606,0.013061814335184236,-0.02315312284577318,-0.00910409797228876,0.04649128719718858,0.004933415470294155,0.01811445855977338,0.08901371460672927,0.025236543093554224,0.06017656345143898,0.0287304085943304,0.10779723491304954,0.02627372220244007,-0.002037384914496843,-0.03655590992739612,-0.028031679568516925,0.08146384757625728,-0.00570698465809244,0.03418075222085015,-0.1245376280619579,-0.048860422864732855,-0.025272593562920578,-0.06626022465801766,0.10166778684418257,-0.000555050715206282,0.01372826761831791,-0.12222102404796426,0.08194324321921669,-0.02344785631446795,0.08802515935862414,-0.09387977281925514,-0.05833121906679102,0.038573551067191666,-0.049224514940097726,-0.0024868752471379086,0.009880014321994774,-0.024816259157056438,0.017269610772747003,-0.03969173507985748,0.09350282306016798,-0.01845399812739454,-0.01918037200339251,0.1048946293573108,0.027706669255259952,-0.057713295575616184,-0.014235386946269265,-0.0004561898915445643,-0.07290825112088872,-0.05128970105700805,-0.01867385877586929,-0.019141761572582912,0.025228690337170862,0.06268185898640245,0.05711572237385847,-0.02986327405399662,0.026734595746834088,0.10933774434501008,-0.02781333203449679,0.06028538964910256,0.04353376405785263,0.04504065755926093,-0.05182398326016828,-0.10369015443682221,-0.045071532122361084,-0.05594019621868243
0.011401697903809408,0.03813242082079705,-0.013400511895830807,-0.03278737076925842,0.023343813216159096,-0.013834876913695691,0.028456593046720813,0.0006615859655065892,-0.08849253127650754,-0.06629726067110106,0.05001870803137133,0.07142339439023217,0.10291550463498758,0.06743028890878308,-0.0008493961200768546,-0.02965341299961421,-0.036617283654583326,-0.08291815855235259,0.048687528339452626,0.06683642823501726,-0.007365474145254865,0.039575498552575174,-0.13886869808123808,-0.061809942324437324,0.020585512983444937,-0.0425715264489585,-0.016472552418992974,0.03780076998840785,-0.11424732260001479,0.001053087267890913,-0.01375127625627472,-0.04488347510145736,0.11470994658845425,0.007179933755411476,0.07231601206875163,-0.014647095595788988,0.03558293527679281,0.11485803023456101,0.0025315819036013116,-0.04154009299161417,0.01240467530686792,0.09441025036287841,-0.03451306197804625,0.05934000549431205,0.14291589848355246,0.10442365335706627,0.06228313607321831,0.06752075320172841,0.01934120623265308,-0.025508527019074315,-0.006291214445066643,0.010788692724282298,0.010411689315487473,-0.036394062588064144,-0.06268972414736217,-0.012636970707744223,0.04187455721892634,-0.004455862583784972,0.009490593540059298,-0.06866833452881765,0.06482437638296212,-0.06779603322872964,-0.14730996683396302,-0.07072261869378631,-0.05668958933448757,-0.03662975137200448,-0.06884913979065732,-0.08128036741396388,-0.021638171632718792,-0.02363846796216286,-0.06002371901570762,-0.03880119325384878,-0.07489368499309075,0.0033126296620317785,0.06364410013700003,0.040880403338139394,-0.09683231345036575,0.04777156012848811,-0.017041219232987747,0.0007988655417500165,0.004595845399856303,0.028694768510829555,-0.06264205409724918,-0.03020368225078283,-0.029536210830069184,0.05080009780610546,0.04841669216443675,-0.032565512703456416,-0.026899006220331114,-0.0018877529120089772,-0.08420251588840609,-0.07399139343874454,-0.021018107263154263,-0.046391847776727446,-0.008872936614410656,0.04470852596787619,0.0333893514312352,-0.11347163518755328,0.007812606448995087,-0.01851274138197265,0.010047255840057993,-0.10636648447477637,0.010651495907212859,0.0583857779522867,-0.06669908434439127,0.057437036885347854,0.030041309139831964,-0.03822622488880556,0.024741433153411336,0.055704737881305776,-0.04796433477349698,-0.05100491300389028,0.0203370008535177,-0.027458803661538266,-0.05530563212197913,-0.09905827883805876,0.0570430007239509,0.001986194026227668,0.03552795167345731,0.018286560578663166
0.0013455633426664644,0.0007431108890055418,-0.08053573424893186,0.04586316946110704,-0.017334262801588916,0.07566302565737296,0.0019146282532835157,0.023652187220250403,0.15088582783915605,-0.0779047805196787,-0.012747720003316625,0.028218220256616224,-0.036147635612328255,-0.0490487294963896,-0.09075292645091043,0.03867122619201161,-0.14269812301969967,0.03343234472766198,0.08804632036346831,0.0710863022040218,0.010820665981222045,-0.043904177334039694,-0.015732714059912906,-0.05845933347121622,-0.09160663509957714,-0.016453221724155066,0.0075873976490433035,-0.06260853099267634,0.025003571102835236,-0.026985466669804645,0.008944372891004462,0.003669908065104267,0.03788413199128411,-0.07780840583255347,0.01672858264552961,-0.06604213651176573,-0.029898831395757452,0.07102790282649746,0.014289259075952618,0.09444242596646925,0.007862108874568884,0.06319006295531385,-0.001919115692536985,0.09545671957639383,0.048366432194496836,-0.002205963350577917,-0.03763259962720278,0.07772053321268872,0.06470483136562355,0.0018567513865978141,-0.03579552923049701,0.0388810662348464,0.043179335839907435,0.0742646560488605,0.055016723157914886,0.009098869843455414,0.08084636896234754,0.0381670982974995,0.12365702821857888,-0.020966883963324266,0.02293823583175718,0.01970077482087669,-0.04250782187689799,-0.06627313632434952,0.029309536692953605,0.023145543475967062,0.003956008084705273,-0.008896262114302606,0.0219778687277061,-0.007478890293199404,0.040361216196834325,-0.026704973935228977,-0.023413811115693482,-0.018943673782157753,-0.043469353168214916,-0.022345092983484235,0.014824300218086325,-0.010772841915067775,-0.03223885120287939,0.009551786957108685,-0.056922823254778175,-0.05521421798973066,0.042593021227745866,-0.03708746887573461,-0.024427038606137288,0.04943634760159009,-0.0743488870750932,-0.030215209162361912,-0.04459961566410028,0.006552425605058763,0.01567849268898932,0.076939902927113,0.043390120468497925,-0.013294346045301898,0.10034408012285193,-0.05181736508436291,-0.10815863030615434,0.07759785645250536,0.04789352832312937,0.02300039961578341,-0.010809284751767467,-0.05246034430693636,-0.06159413585810686,0.006587699196015063,0.011073475067640335,0.026377513978548272,-0.07089309586409846,-0.011670812875009175,0.06794220598908564,-0.01845985039005178,0.007418515289447933,0.037934264481945805,0.003688257562695531,0.013701499549070755,0.01395727016085672,-0.025811939069122658,-0.02386601489136519,-0.018870443672978215,-0.030592708446789026,-0.08940433814056631
-0.0050447376474433816,0.011760952677372481,-0.09187901517764235,0.03232892551647938,-0.0346691665429593,0.09079494673779394,0.01790998427400098,0.04714999935623098,0.10565987312670794,-0.06541687009525468,0.026605855937372268,0.026534171090485063,-0.008688783744532915,-0.0499786224703724,-0.0895798588735047,0.052672769742114,-0.13326005830667775,0.022249323418129865,0.12243288861092695,0.08437783718985015,-0.018299686859429933,-0.02632974709293476,-0.07277084712618853,-0.09266401244192296,-0.09774471002292866,-0.030291807110294836,-0.015147288042211288,-0.07121352202438923,-0.017921761687304024,-0.028913851163193595,0.021421984550976252,-0.026038704744331925,0.05100951478308675,-0.1007077228124799,0.01281288653378246,-0.08155465526580494,0.025096258684067285,0.08106286986998386,0.05258391857761356,0.07977053442333526,-0.025207310070388806,0.07878576750937634,-0.014836431735505683,0.12894534151019105,0.05658514405173911,0.024766102994201074,-0.0333380909790595,0.024673536236048545,0.04234950797029003,0.03401515358169463,-0.02974102474041163,0.01483647455391473,0.06700913743629199,0.06927326229639079,0.011469416173747488,0.007747541095012484,0.09579699488274203,0.00479283246217841,0.12194551917214175,-0.012863000293983864,0.06379843818512021,0.0018723389224882397,-0.07716422283498184,-0.06640591718732723,0.023059795621664502,-0.0042277160836076124,0.036790039202309534,0.0006990437694219335,0.006600993043716064,-0.047653577445155575,0.038508645091046755,-0.043260134181865424,-0.07205713859699071,-0.04424515594435648,-0.04128551440629219,0.028975645360734485,0.033996564869060504,0.0070949312711815465,-0.04050257652792098,0.00725762448414192,-0.027630635701312106,-0.09051335766270338,0.009101539042593268,-0.05962359613316385,-0.020423888556953637,0.04958648096572127,-0.051088712471476797,-0.019991853391909942,-0.03350937635110277,0.009971187300452801,0.023737973231347742,0.026713200541078966,0.02546243029735035,-0.05920209504835459,0.08664757334267435,-0.031545291816739214,-0.11988332903553973,0.08558780459138504,0.06394408963148285,0.00044269975775029953,0.017154552587237224,-0.056328418379521766,-0.03889996263228437,0.04796314037554327,-0.03997107021915459,0.05528998823634075,-0.07726890052040798,0.002540749076088071,0.0566458371024186,-0.001111365592394751,0.0005543563628534385,0.017809871820187895,0.01884547676420708,1.6741926514863096e-05,0.016302125514313558,-0.04442100985785957,-0.03863988533231605,-0.010307154298405662,-0.030143947010256,-0.08954171478145102
0.012772073554792497,0.006522189113181617,-0.019665916071443523,0.006215992514983842,-0.056864418464489176,-0.02248182385259604,0.025104421209216507,0.03219487922051815,0.06499429270480815,0.05281035855075315,-0.026059461514338383,-0.016222923974959454,-0.023332839080182858,-0.06342542331700102,-0.051803227021642334,-0.03270186831254861,-0.014060331735121896,0.10036285615317016,0.02183575873472762,-0.03536417114139302,0.05033237109006869,-0.03888851535180785,0.1047569119053111,0.032792112130586644,-0.0062928252429145575,-0.04331472796222559,0.011578282484449224,-0.06440490810764994,0.011361136053022728,-0.020255752271281013,0.019928790125234658,0.05486326432959701,-0.11892862586611568,0.002689178234184892,-0.03393433201623253,0.08919396195825702,0.018096939254655664,-0.09792876764413574,-0.05833787083822019,0.04973975681990284,0.041188940070821585,0.006573703704557895,-0.029244115574390266,-0.021844794035150713,-0.08752831587638993,-0.01961485756000302,-0.05311053983731067,-0.03452378080804054,-0.004603145469312974,-0.03805887317127416,-0.018201404867812656,-0.013574121201438026,-0.01998202959164286,0.07117066787671457,0.1339598858385893,-0.046421816567590014,-0.008507971655306494,-0.03449737756748983,0.015413705888962754,0.09363423397032472,-0.06209606970677783,0.04052522446277468,0.10512023009010714,0.03354331357351203,0.060021824226843545,0.03253911746564155,0.07614288782048483,-0.0029350662796973803,0.023656571378815595,-0.03649500664301773,-0.04978532679492683,0.0712504887880373,0.012393330706630642,0.002372604550748676,-0.09173557794329316,-0.031150602164977944,-0.014377747798207281,-0.10896109152609657,0.03924760866809589,-0.0185775131490975,0.013586791484440355,-0.11212484637938216,0.08910290855123584,-0.037338374740033625,0.06381655384465194,-0.03237421196483066,-0.0582241686679863,0.001914666371051571,-0.028546835853833757,0.007700300366310223,0.02826697180203314,0.010777650381623918,0.022616218062184532,0.002600556925590311,0.08412779699769617,-0.042432233279793535,-0.02390820467499012,0.12670150317030834,0.04834420352641851,0.019861981387654853,-0.01495956210231586,0.04905367512463322,-0.03775454285304646,-0.07137665539098531,-0.02238917773108248,-0.040841345821755505,-0.023883059349485945,0.06388292360065383,0.04576518732924823,-0.09029397230956869,0.020227841274617995,0.10257319418364427,-0.019805835177278203,0.03189613821846881,0.043568747861316474,0.06967776520168524,-0.051499814775680136,-0.0409900017229289,-0.08560492656562951,-0.10995669058187581
0.004193371065531416,-0.02449108345314635,0.03250084754543806,0.006619501382614872,0.03842579874763001,-0.013585512619758827,-0.04671710577069764,-0.04594330596519529,-0.04875795559343024,-0.013455707162794388,0.00429735970233787,-0.006219920657334574,-0.040497746264775814,0.0027847722407674507,0.032124786791469136,0.026464488569629796,0.036784490681286974,0.00016804399812952856,-0.022517990219851607,-0.02407678047086179,-0.0544831602423878,0.00837212777837733,0.03300082304699263,0.01849302088343496,0.004092406646891068,0.05300932879942441,0.018794619514668025,0.008605910800335072,0.04800337684802089,0.011717541890440896,0.0006518093848736585,0.0167842953884264,-0.0032881069561428956,0.022076184094264248,-0.03310273199064728,-0.03206952916048449,-0.008210493222282152,0.008688297862334413,-0.01337869424477363,-0.020846998600449813,-0.05611504270707753,-0.047295054248565296,-0.014054462730553151,-0.05474220337764592,0.017020060244063735,-0.01672223931155767,-0.010803029319377416,-0.03884149019914092,-0.054780423732559085,0.048985894510869286,0.053806567236258214,0.014114405894962578,0.006655401703058534,-0.029212830641892003,-0.056256865529877825,-0.009731237045735251,-0.0222243302013357,0.00282713708405309,-0.00712638284687446,0.012361969013536164,0.01127469631783509,0.007274843025753589,0.007232861981720301,0.03497129258201096,-0.0012161903264821337,0.03133509193540645,-0.04153455231318075,0.0433160327191063,0.008647655363061125,0.034602071793917534,0.003969618180726955,0.0359947934542385,-0.0016219973223086772,0.015403173254658972,0.03350103982068549,0.019875597355719997,0.019863932939348974,0.0021700572956421986,-0.0063107702092877575,0.040270311021975085,0.0011860569537959177,0.015274991662904478,-0.03312364071875733,0.02340746099999351,-0.01317633910489232,-0.018568697615017615,0.03914058722773233,0.01811722142358755,0.03173694707730301,-0.018275609403506143,0.03941968678699374,0.018139512871759876,-0.027853198181521082,0.006411625322891188,-0.05989331632996817,0.039116288120814906,0.03521857690351955,-0.04004352352911215,-0.04022427283816465,-0.033791511992326405,0.004071468389873957,0.0035111861033946213,0.012258987931881415,-0.007583403375205677,0.04853989529147716,0.002077213024839192,-0.0013214585334436865,-0.01627538837963078,-0.059941814501180184,-0.003173656453708623,0.020099070522217776,-0.04860833699670944,-0.018693196121307452,0.008478274335735576,-0.0041588665459937335,0.00477617566627866,-0.031849343212111775,0.02454768530531313,0.046507710975646155,0.058610295081815214
-0.0013310883723856384,-0.0026688969868783863,0.05326537696711226,0.023771807830498443,0.011481583150557561,-0.022211317424573697,-0.052178710743459054,-0.0680723812736468,-0.026228104913054603,0.04177301877220339,-0.05734002329770219,-0.01454557848356425,-0.014330414378576921,0.01618658413029057,0.007480247289356476,0.018035372763127763,0.0476876639192038,-0.02308517271768972,-0.03782840321280081,-0.03491841759722219,-0.01958088114725802,0.026437711953121824,0.022656039316314838,0.009614363401729054,0.014550421256750712,0.05223892572499302,0.060959401266965973,0.01245142070075943,0.07398768739124452,0.030363730806398252,0.030693954632490732,0.01880785352391161,0.006940349079318912,0.06493460456776025,-0.029155098512515427,-0.006337317809112619,-0.02764412225639134,-0.011609359524758464,0.0030208702088590947,-0.029672336586451294,-0.03545952266918205,-0.013447676969804059,0.05804289686826947,-0.05175183134404567,-0.02375749464279415,-0.0767802640628336,0.007581637137259241,-0.016801582456285984,-0.013678582582980962,0.07433108493401228,0.049751125377155085,0.016570161646034184,-0.06779375423720455,0.00824459886900088,-0.002296844761059627,0.0252796834191945,-0.0070601575431686325,0.027784367727094438,-0.03832533298775433,-0.0014525530806854458,0.007074609626508169,0.05153614486290885,0.004657577093540326,0.022018289915778238,-0.022027541998468403,-0.011077121314196595,-0.05101469610432954,0.00483259183398351,0.024091795870155055,0.009226654526709817,0.03117253718204502,0.00467060851113018,-0.02106236848066585,-0.014711346786693287,0.03328276363806518,-0.048494580089622916,0.09312850847560993,0.060705914760739416,0.04074599341824685,0.03448369286720409,-0.004829326311139161,0.06999302996569533,-0.017880143609780342,0.015301070122991605,-0.033201230330628946,-0.02857099321698393,-0.008318810708012742,0.05154486030728516,0.00209150613528077,-0.0011999437079671014,-0.009180482403847003,0.004836876077834807,-0.022301523078029878,-0.008281890641951069,-0.006385955400737302,-0.010095182526025323,0.028195759382683278,-0.03932587901136006,0.008773971380446416,-0.01934155365221392,0.004831552712646166,0.016144086487025196,-0.00020932172170915557,0.019737414868487714,0.08957028572700654,0.0038630245970487187,0.04887123951806108,0.02608492999508906,-0.0786991133674756,0.04412744190539991,0.062121011800782916,-0.044537027369630826,-0.018101940205428386,-0.013881002488841067,-0.01050092598529818,-0.012713655140795407,-0.0003416100809144545,-0.017658699605216387,0.07050509005226914,0.038054816291006495
-0.007186062920266755,-0.011242838624810072,0.0027610622740796248,0.004571954616509505,0.046316331049577185,0.049191666354733814,-0.03886470661000068,-0.010906000736046782,-0.00269927757659582,-0.10017609870248007,-0.008188163904255034,-0.004922241957704247,-0.029803366472077614,0.05241418641324368,0.04134238320698322,0.03716992374463169,-0.026374824351276936,-0.03216316790714693,0.02893580149563459,0.035668289011947976,-0.04059880591465102,0.00855216286413483,-0.0500843471668673,-0.019953371905271335,-0.043434391916502293,0.07649019371452462,-0.04454832139049537,0.004899762677499162,0.04923040402693336,0.020606947826433235,-0.03446900716330493,-0.07166533657030305,0.07417566009372278,-0.026150559254251273,0.009797582245580623,-0.10259173537040564,-0.024883327657875043,0.045894060859337456,0.0588917928910751,-0.002649533946169875,-0.05003341880907013,-0.0027590264291979007,0.03147538324145984,0.03828780482776027,0.018829982295025326,-0.02646759388562222,0.03260721973484355,0.03214778429233268,0.009989515706290829,0.03263408235412422,0.03923442262180221,0.05042920763861498,0.05230697443413992,-0.014802741594838133,-0.09057773444374075,0.007152715662932253,0.02413030270020174,-0.000991051247900249,0.00798973276502348,-0.058266004105356185,0.02000989433460698,0.030126199563619584,-0.041678995603591465,-0.02105841740861505,-0.04486235400840358,-0.016852906662653596,-0.09367713294300782,-0.015948491892413753,-0.02980607278161023,0.050352391257820914,0.07634028344688211,-0.05192701647550295,0.001521689095292956,-0.01192822162502802,0.10004053322096222,0.04777102089647204,0.03804642990234428,0.09094418751334732,-0.08594571449609079,-0.008156072916997851,-0.032508275912271796,0.08403554555523435,-0.06326900874592703,0.01589087147563153,-0.07572778319282822,0.031598704458524196,0.042091944622918265,-0.025142063286977368,0.020804436608670502,0.005799417531702261,0.01499203248259846,0.017104541773932277,-0.02902157726591599,0.03787610355237143,-0.053512419680475536,0.02361309897767301,-0.017474974961955738,-0.06351914058901355,-0.015135665675663474,0.055136234794165524,0.0119901810464433,-0.007802087972739189,0.052636385513882625,0.0552414769719433,0.006584808373103584,0.04237092259006595,-0.032398559098666485,-0.02060038580342,-0.024327156817031112,0.07036562404961051,-0.0028733793937348083,-0.09564833646891636,0.004665045898382623,-0.030446568857805934,-0.04474522598836918,-0.04139719153167693,-0.0055039954119344234,0.0562986733622494,0.0782265645401518,0.06109156234833564
-0.047073149639155,0.013749828347824487,-0.050114615467345476,-0.03164732190564652,-0.023415789541533595,-0.021411160495520398,0.006661683524101088,0.010304065537428542,0.05569754246160966,0.015514998645011104,-0.018583121151089708,-0.027078655160690766,0.03999241524638179,0.00677194761925764,-0.026585213387985817,-0.022476560254256765,-0.05825697156065982,-0.037903032815352164,0.021045807418614473,0.08168705341434655,0.06568369182327201,0.05938796608494985,-0.006565466352942634,0.05809538819890727,-0.0234221322526801,-0.022191436464085886,0.03966117448418538,-0.03696509147653197,0.008158864646182923,0.05753129004232505,0.051862690459504694,-0.04151564146940496,-0.017195658489062668,-0.0001828988634737803,0.026811894094106673,0.06178695087564103,-0.013445835038149055,-0.08145519696344909,0.06982548581634399,-0.0034042465304707915,0.09295816102827825,-0.02076377654419971,0.04021297680276252,0.060483511550892176,-0.09039312204725472,-0.0368396014623015,0.035591190741388085,0.09708997163459518,0.10599787692120202,-0.04114650894534779,-0.05602196388579823,0.0039767647517021006,0.010055819688665221,0.04477023399280314,0.04773192979423353,-0.007037430367925135,0.01126975320489329,-0.045153692782678695,0.006245977336755389,-0.05645181617049405,-0.054679089988193805,0.01318824564104732,0.033215115718671084,-0.011730874236181674,0.01793987812789552,-0.06855977315706709,0.018489622763249013,-0.1238722953204315,-0.008879524176429714,0.005062451999011024,0.02585066812979906,-0.070113766843583,0.01673802589088085,-0.016732943573325942,0.05248541536680657,-0.10488823791541803,0.012489403120337859,0.02635916814402966,0.004427302331379536,-0.029034376195189227,0.02206842940936421,-0.001224980570871603,0.004178375554091053,-0.013614984921837672,0.007860406473066836,0.06925579667755073,-0.046726950755940834,0.01425970061958971,0.024029870988047618,0.04206897917186669,-0.07136171596395843,0.013574296632678598,0.06275850639693578,0.04661937916766451,0.047708935911258986,-0.01584531177881172,-0.04195816663920435,-0.05281071925185647,0.019807731705496375,0.08082977069603929,-0.01687385756063198,0.09065561808406519,0.009095459573570027,0.059598372727057994,-0.048404618836963044,-0.10057722490712595,0.06991223819017262,0.052392202102163964,0.03006414970632857,0.014569353133655987,0.0218458735556994,-0.0021057794243603827,-0.0054410562202526535,0.009931554088019658,0.010094425968232531,0.012904852778827148,0.07460586941278162,-0.025101990832046273,-0.0031403368893777664,-0.06104285519604707
-0.0035952788044246414,0.011389385851973435,-0.03285093142155654,0.04703377466615755,0.015343591533809355,0.08198144033083422,0.02619506542824564,0.038015929223396853,0.03009441040013844,-0.07436873360909181,-0.006441376694512179,0.048109409536965644,-0.012767532838809329,0.010176422717723682,-0.07744623102647746,0.034213710069059336,-0.1022208945687785,0.023430648082464367,0.09066224088719198,0.033311162305314,0.009669153720696527,-0.034789121005103875,-0.08337874432692834,-0.10815367162643062,-0.03612728229838208,-0.02471226387836496,0.06833125594404728,0.0024458217372920446,-0.018134871980829192,-0.04673166059726909,0.020282374684485602,0.02802883933235701,0.07283034933374222,-0.03936580523899569,0.0022124867453072114,-0.08083164010406647,-0.03498926628610547,0.11687133224590075,0.0171031371679839,0.03879953365653154,0.01740700514569607,0.0823930548582278,0.02909783089609149,0.06822385960864338,0.09362779824855984,-0.016771848130849625,-0.028331662295502078,0.04234949476184429,0.008052434000854957,-0.0001111647347144355,0.001609800067333874,0.07880862127278043,-0.02761931932384419,0.047544065653509784,0.012300809707204933,-0.006380645157168624,0.06644035338857725,0.06532148487874265,0.0766206578293624,0.0010400797010668935,0.08855569765834694,0.03425805578468597,-0.09314392743864634,-0.05771334232236512,0.007431657164968463,0.015613323415451616,-0.04994197649263023,-0.008986695725754128,0.009410291089256697,-0.03444041727231685,0.015297151746953331,-0.008468477633843539,-0.06127516962034371,-0.04708942673711616,-0.005619952269054873,0.02184133668559241,0.028937736614949888,0.024604459194268076,-0.029676698817420133,0.029598582764896846,-0.015988909267753815,0.012034643177285058,-0.009368649703728554,0.009193700218809886,-0.010290323892316494,0.029481595250683886,-0.048852193598494784,-0.03083214012420327,-0.031231658393774626,-0.00010440984654736717,0.04442990016460602,0.004468389975338088,0.018446600522966934,-0.06598469472609005,0.06138926877604568,-0.007499282245335893,-0.07394210378992669,0.013073031852487586,0.06619949144880831,-0.021492584288935804,0.029515679703995854,-0.08371262980004922,-0.0759973775697754,0.017046218829712422,-0.005931134751441293,0.08692028800998579,-0.04402252070212792,-0.008403565458361887,0.012977016450613067,-0.018600754699428925,0.01733998845071491,0.005015489597669002,0.016960198803966903,0.0017099642486010096,-0.030930398056357254,-0.061673896890458636,-0.020951053566935385,-0.010639437712157697,-0.005310324188952366,-0.03521606738121057
-0.009495707706556531,-0.023388426934668423,0.030561398524156673,-0.027143735913336797,0.07327370986682366,-0.02655714618022242,0.009071658875714903,-0.0017422926167148895,-0.06160667757328649,-0.027560188015517906,0.08110523011143148,-0.018257678802139066,-0.04037526566475074,-0.003804823850778874,0.15422687750928046,0.03386546349375052,0.07412356279401372,-0.07429539010293516,-0.05247538516772165,-0.03194465289167963,-0.012071741478505517,0.02791922368139766,0.033103152503079575,0.03067888086859852,-0.02376203091765775,0.0359195631472506,-0.1539856369856694,0.012513555532859894,-0.035160315190687366,0.07791957664583855,-0.07642639092145508,-0.054345670116723206,-0.0029137002967433026,0.03579103012116119,-0.002412875517462755,-0.013908754231573528,0.061590848976964124,0.015253077322788938,0.03561360622169147,0.003428742141072051,-0.03307558878859511,-0.11450821947569002,-0.06934744859162424,0.021960980109906367,-0.013036705629435985,0.037202848566344864,0.04126646289883012,0.0014847254882905101,-0.01655273959417328,-0.06520377863090485,0.010612902597630234,-0.038706152091199056,0.09451422966146213,-0.08323583722741842,-0.12239800656864648,0.0030334656641075714,-0.0403565348670241,-0.06352395139779116,0.0008543323538826574,-0.059475656076021614,0.01038538999322438,-0.04162909420080028,0.004096734902860133,0.0629349840541846,-0.005145533586763217,-0.010023972721431174,-0.04766686940249413,0.03265743333828054,-0.04641311458890762,0.08628499318396213,0.0006580108936505075,-0.04716753986728595,0.07813778253077343,0.011232780103535837,0.022903561812896996,0.009723862199094943,-0.08248643666247295,0.012305800323106181,-0.06803663729750377,-0.03876082279712456,0.0021010981073089846,0.03107146190967515,-0.03439038570022287,0.026092384147863683,-0.07721258099487589,0.007316099843548533,0.06308257649999917,0.002497001626790129,0.03928231141612533,0.004574645014241402,-0.034039813783371384,0.004879027045814594,0.0014183950730225223,0.09848715957197147,-0.19245033543630574,0.03955661444633366,0.05510221121959121,-0.0609007966562347,-0.1083347443104214,0.05288572148312455,0.03996879891101725,-0.0036772225242240673,0.11650844227362125,0.01314178422051203,-0.018531451392791366,-0.018794120116532326,0.027887581776010528,-0.0073569236891588815,-0.04446233578497228,0.05893351712906204,-0.06542630636541971,-0.0414392273760604,-0.028603153722962422,-0.01641410599495846,-0.021933220542463692,0.05167382292386817,0.014625347479843407,0.10916257693549253,0.025246550391139343,0.10716353430019
0.04905803085892884,0.020323456340495878,-0.018200928705481886,0.06584299961150748,-0.057732663873962045,0.018114917053690442,-0.004966391520064306,-0.04155898536329803,0.04449353571942835,0.0095409132695289,-0.06830849659558742,0.07399920608107693,0.048894988448326335,0.05822275671507873,-0.14472994122558294,-0.04907613119295056,-0.03656568379415973,0.0703436854529094,0.045045044829562675,0.027560911344878595,0.01593020418399308,-0.020155267126695083,-0.054444221726601474,-0.05060178682671833,0.005736198828382342,-0.004554358696570005,0.1904021145935705,0.0017531131864803866,0.04864349156763885,-0.08655653176143832,0.07614932783314447,0.07698511810967928,0.03663598424483304,-0.028614694269190184,0.0015935806089390915,-0.027715789472748577,-0.057709030534303485,0.024734431333595767,-0.03125297970563817,-0.003903369919667022,0.029920014782988506,0.12397702914647106,0.08832553647948431,-0.013793838554796467,0.08006277393880613,-0.0535941474129802,-0.07587646023490671,-0.018580859121282003,0.008173679392244244,0.05715903482980994,-0.0043549938263568915,0.09651467934766154,-0.1326530030873103,0.06673353114907186,0.08739836652266535,0.011426479067567127,0.058204127454616825,0.07602604204920349,0.01666122854061524,0.06721236431647792,0.03681912004269619,0.0843170189144074,-0.029565090300870824,-0.06779751509306887,-0.023170214980142937,0.012458806611665346,-0.02306500634418914,-0.015399348968500735,0.0784272262704387,-0.09340248608969541,0.00019757657340676026,0.08085088131432344,-0.08861565761704729,-0.033932699808676775,-0.001902547340039311,5.842117481722153e-05,0.07809797230555238,-0.012159215099231648,0.054513078057644326,0.06936063915475339,-0.00033602980407029283,0.010630385317119467,0.0473337442848155,-0.011988194104331771,0.05915638729517366,-0.023970679428317973,-0.07299436105861101,0.023177753636541915,-0.03548962245580921,-0.0199097070162354,0.0195404770455647,0.00858715316579895,0.01771598080693602,-0.10839017830421913,0.18743393227786007,-0.026605582921706724,-0.046878625867820385,0.04871700923859325,0.1159808984351153,-0.07326570045789527,-0.03754392113100255,-0.06127395245488147,-0.15583348751907186,-0.015224853289734963,0.04224286365217377,0.06222707883058531,-0.022523510860389465,-0.004121005074214798,0.010971699703493154,-0.06532090283925451,0.05108134758606144,-0.006667851989327157,0.014971726847453161,-0.029330659097433154,0.011952907967688107,-0.07355641666778451,-0.0033526715228276104,-0.07050922767906838,-0.026809014186749507,-0.06581763967246615
0.013803748150309046,-0.0008800759336153269,-0.026643395362576507,0.014500615877583264,-0.01124095004154049,0.09078886172071145,0.03606387624162878,0.043732523946285885,0.0793739366534031,-0.08127719070645868,0.016910892138384013,0.0552016848676976,-0.023239649629172923,-0.00896112195670955,-0.05437812375010716,0.034597059989485306,-0.0681136886049126,0.044586112618270286,0.08881653886705658,0.06485024357779352,0.005398957018009514,-0.06638249302640938,-0.06243746758592609,-0.07741909136305739,-0.019893938575535126,-0.01111522030493749,0.024727661810736604,-0.0256235540882926,0.004683474870716847,-0.023144952009087658,-0.02820082810512573,0.003270171323098877,0.05916618026371949,-0.0655232681149801,0.022869474290359272,-0.08634212933643845,-0.015976357295113063,0.07926599846560742,-0.009461540423955613,0.0551294088689058,-0.009053525972322235,0.03433775365998493,0.013062671347032475,0.031057135007547493,0.07358427004996759,-0.0017464676669715297,-0.052564496927357755,0.04156639931747854,0.025494154747246037,-0.016843230936696284,-2.4136519965561046e-05,0.0791977728734094,0.00032120341928013843,0.06463159031422379,0.03474035471669364,-0.03432265024931695,0.03886455383035266,0.07602842005533768,0.06745419117808313,0.03502703763585089,0.04725377589308862,0.04025382929151024,-0.06083269518373714,-0.021988802615143348,0.0025376342727495014,0.02495621954882053,-0.009412680065489027,-0.020430910179242333,0.048012032856223484,-0.0056421183211104,0.0250960270239833,-0.0014742072329785648,-0.02523711973602297,-0.04199548430730217,0.019818682668831286,0.03518917585376395,0.01890472822519456,-0.012992470417432078,-0.014822089535157278,0.03672060189110859,-0.016462929600277725,-0.010570495820498571,-0.010360235463228418,0.005120263218019156,-0.020736978055779953,0.06234094730045308,-0.031019509052390006,-0.03375354165340484,-0.03006641963828693,-0.03645812635198337,0.04901912328778784,0.046794089234728546,0.015908954690918242,-0.029295812266935388,0.05850346074329426,-0.0339755947965916,-0.052820320084557906,0.041524326992107875,0.04082496936823472,0.0140539506885178,0.006551513141573389,-0.03047107773208473,-0.07090243470207341,0.005299727575230349,-0.026860862260874873,0.08732244815014727,-0.06480027161929555,-0.013920881004596243,0.06323288801764036,-0.07759993856239872,-0.03148532655659866,0.013391215011504058,-0.0010108373689961488,-0.00754726870113812,0.009899854565659215,-0.015857893074244154,-0.025327333899963778,0.01982764321815609,-0.03637945812762665,-0.042052143050766475
0.03532658507830939,-0.013243441478599186,-0.011152576831872625,-0.012248610202293892,0.020131972831895554,0.048513911048221094,0.003066325533479918,-0.018965423397625334,-0.05435373444122848,-0.07826134720269898,-0.00046067936740178464,0.07351743619857483,0.010961209283848788,0.02963706352855414,0.025788625694108475,0.02504705265306373,-0.031396880666025744,-0.011242027274749947,0.054646878506231435,-0.028332325657270813,-0.08786838454678383,-0.0327276464454729,-0.1277139776763376,-0.13640401972901475,-0.02337885610699077,0.0013525786317420013,0.059687508579274275,0.029737416164920465,-0.021192469570632,-0.06957554009587114,0.00021352431532339013,-0.0041250510642666695,0.09731298341233346,-0.04576556184795128,-0.011213334672251666,-0.11680344240737943,0.010611270441772886,0.1549436816497446,0.002835184022621013,-0.01577058096295812,-0.08633092895193911,0.07079330417144115,-0.014407206875048309,0.027907774044605427,0.17884688153564168,0.028009000430182333,-0.035083389164581216,-0.047234435674994454,-0.02641090591856731,0.06704364800193313,0.04224292193419078,0.07315407977133324,-0.013352698795369801,-0.03597693241889651,-0.09295033913698364,0.02775140262252035,0.03240521500642182,0.08883331633407367,0.01927076997732136,0.008500548857489116,0.13051286680612834,-0.00928616500368896,-0.13818588293800615,-0.04045016244791966,-0.04055448736160651,0.021980222007997215,-0.07584369934692696,0.07088555452659821,0.03594502878281879,-0.020293309300911715,0.020923141578980578,0.05487698862131223,-0.11234799080573432,-0.0339046932417688,0.04959583251774349,0.05237331619421122,0.061649948240499575,0.05828043248638416,-0.006707540142444669,0.09357037206297784,-0.01978873617507336,0.014031851461258515,-0.020554587646102008,0.0013714056822742527,-0.06363769485511662,-0.0007365973359918104,0.004528200178598664,-0.018664516878975967,-0.0014987737326523714,-0.014702963751091683,0.044292938771904405,-0.0016633470315281695,-0.05423204366062026,-0.11565438679299316,0.009588425122788029,0.05547271746790569,-5.64040302576267e-05,-0.020182736468365242,-0.01754385984582693,-0.10359653716550431,0.0398898522625146,-0.15285049439790727,-0.02111446447719682,0.02019481049773407,0.032694950311804125,0.1553062551060276,-0.06830600099265025,-0.04561179476813113,-0.06111466983608758,-0.010304842139105135,-0.03546188710171679,-0.05744544040451103,-0.008597709466362723,-0.044940593884897094,-0.025024451453628416,-0.10515909701874486,-0.008548586094177331,0.0077269178498707855,0.03012459684400868,0.020519362565964993
-0.030745384494697905,-0.01577154941375955,-0.006734991162387633,-0.06459941271019301,0.011066478522575498,-0.04314634265417013,-0.017802695258601443,0.025536323691438916,-0.02556767914295331,-0.002769658978226786,0.020508254264812797,-0.03262331261490087,-0.004999477904554021,-0.006105973139249513,0.06925413760753298,-0.001619953672927725,0.013110148569971787,-0.054532864955742805,-0.013449929993090009,0.01404246962521048,-0.005513941699912281,0.052352546262065425,0.03364646638805903,0.05005803594072498,-0.007822019005711478,0.009967461863172145,-0.11704352119738734,-0.023585326001355874,0.0005291423395689049,0.08046533459847935,-0.06357095126117035,-0.05310951085276337,-0.03484019636744057,0.02449124692112725,0.015425092626058724,0.020641608133286797,0.0735154660802079,-0.07637674463564796,0.045961815982641555,0.0026425165959255755,0.01184742776281732,-0.09492725298701093,-0.05816021799683916,0.04674848554629054,-0.07716990728242817,0.01774717578468705,0.0517491519408428,0.013836745186852078,0.0296941310179764,-0.019603127408381885,-0.010618210560823512,-0.07413824662248045,0.06849362849202487,-0.05344682184939543,-0.05724918578025582,-0.01743251468048401,-0.042312112909501896,-0.04928658060945207,-0.012104177574715455,-0.04508537024323309,-0.04466484715187821,-0.04595636134315262,0.05046456040182882,0.07625777117726668,-0.0095555847720523,-0.037033204507765385,-0.007749359840729795,-0.01581422528794946,-0.04775572643436147,0.046473644225838745,0.021337922314178505,-0.04300426553513944,0.03332875255346822,0.02553900310602341,0.010077010810899938,-0.03058171400796901,-0.01677401109650258,0.00810626532580838,-0.02987951306367291,-0.03052500447219384,0.007306413825670171,0.016281209517044624,-0.0515731206586225,-0.02968096232142271,-0.01703519389331534,0.018613697050382037,0.04384526316165671,-0.017073470897947456,0.036430286957247184,0.04537945137974477,-0.047549939795310706,-0.01410673711845194,0.0020831901088207254,0.0651270889528962,-0.09225501189918257,0.01861892210062411,0.010597258191074757,-0.039753774043855813,-0.08901457344008747,0.05590645273561671,0.014283265071934899,0.06971530928593998,0.10801312422412356,-0.005904796489500677,-0.019941274598089545,-0.06768127447494034,0.03935959153418309,0.0055660282168524455,-0.016894168839275428,0.04544892567338347,-0.03140189829144198,-0.02633329669841413,-0.009649755069618925,0.008743648319045791,-0.009792494922943273,0.04515254307239519,0.029245371985700513,0.029952979305127372,-0.014685889379724612,0.04764031862726839
-0.037532168350013426,0.0014026973161068595,-0.03430050705601464,0.015340954622751259,-0.015769606511672755,0.07678147620543575,0.012665640204842638,0.020558659636203753,0.0914870874769135,-0.0843792167340484,0.017468202493580005,-0.021621407654990082,-0.05792122683261661,0.0016450690773781426,-0.011853449925884921,0.048133387838807946,-0.0802010740970173,-0.004929089989249507,0.0733426402923312,0.07497276537076233,-0.0012250263863932145,-0.02640500196917072,-0.03802098333707876,-0.03541936368902268,-0.08016856214931538,0.032214950227759415,-0.0033474124811825627,-0.04132072642944752,0.062290633699631795,0.027843728937837695,0.011861263837317112,-0.03806903887195027,0.008391941915670744,-0.04465749959796273,-0.012214215043244244,-0.07001668980842818,-0.036461956145618236,0.0049762908189276735,0.0819103114898841,0.05395312643238093,-0.0009419059702252677,0.008914312613596964,0.03855178487593621,0.07620464129165466,0.002655583905797474,-0.05182914206437595,-0.01867200221570135,0.06247688717100125,0.04881173229731195,-0.0005851964488149718,-0.027011377249772282,0.008016344025129957,0.04149266432553605,0.03465763013033691,-0.03927005779784038,0.023381930206589168,0.041016370602022484,-0.00992068585141024,0.08153797005742099,-0.037980716511188305,0.011075693713674688,0.01924439535925647,-0.0179925517667443,-0.047590619546311774,0.01641432717770349,0.016484547323668306,-0.019242676720702893,0.0019467465143798727,-0.020764835967836525,0.007224415485797672,0.10546109560807497,-0.03653649961078104,0.009792746501371232,-0.05161792328199016,0.0519646873016216,-0.011632346544583434,0.04198384735508036,0.010421286811719086,-0.05140878534994375,-0.013170733543380903,-0.05934187191623113,0.03271495439446129,0.010419829474491308,0.016982271621993453,-0.04052291563224506,0.07869103601204727,-0.05874171179947414,-0.014754138612562629,0.032833123904081926,-0.0014419972313062413,0.022272265735122948,0.07373650430308407,0.03013964978866498,0.024838402548288535,-0.004654479777663681,-0.026259673426378746,-0.09185881572942493,-0.012411203999930454,0.01766446996953256,0.07291393246213007,-0.01309575526567665,-0.008907810258858576,-0.00576792407705045,0.025066159930293503,0.0037991591986989764,0.015358258756464523,-0.02927113319300491,0.017546140886475988,0.02955488084687977,0.01990062051835055,0.029785206238326055,-0.010634202857036795,-0.01700913703247491,-0.005471559864266243,-0.010606439867131907,0.0039517190653222635,-0.004776159544867057,0.0494337097057351,-0.0066740007068341635,-0.021589450956897533
0.007554194854761946,0.04150725529814477,-0.02480195015368284,-0.0411611800332754,0.01322630679905433,0.004031071861142002,0.07180424785885875,0.0653778562324857,0.025119867804750316,-0.03359536039024318,0.05446694718272666,0.03948903477574146,0.056880300446019265,0.016057725477289616,-0.02539286116247918,0.0030942099019501327,-0.04424255500092637,-0.012396796103281251,0.05901976750750456,0.06427791724405414,0.027693023671226374,-0.009746245020038433,-0.04704064336944483,-0.039012953644197976,-0.020718737558879402,-0.036595404750966926,-0.047855981247847415,-0.010419810841018586,-0.0982583540557677,-0.01940070628859062,-0.05590394538500377,-0.027408948173156294,0.06348702976016041,-0.024064478768249437,0.04125384897486193,0.00182438024384394,0.051135973204307156,0.06514378448622277,-0.03326889196031488,0.036095570527851235,0.0389629045236971,0.05919182579438047,-0.09613226677122554,0.045695344249259334,0.08740520701523342,0.07152919588798991,0.003531341105442341,0.0556923131019614,0.0022020781748310326,-0.04760963110069754,-0.01319349678055533,0.013489232216591138,0.07235699619775221,-0.015113931254191894,0.014754692723052675,-0.0517411239317413,0.020009645621255397,-0.03277591877344668,0.0260824809810919,-0.007819864725257083,0.012552337245214271,-0.078760991610674,-0.1120192251495635,-0.028409548932388902,-0.024479529063795167,-0.010999602745144678,-0.017542976091218878,-0.042049321111685,-0.007112186377063775,-0.015307096236372933,-0.07071506352748838,-0.04328117655092277,-0.03618690756291861,-0.0015540324350789615,0.008506215901330874,0.051320878374481134,-0.09026413000282933,-0.02062329921306878,-0.013890795273622013,-0.024046384093715574,0.002483149911825584,-0.05126501530237948,-0.036642646852116004,-0.017191605023109378,-0.002145004870757995,0.04471776693299221,0.04032838966656744,-0.058277723024266134,-0.04450837390538215,-0.002171532136567914,-0.05474634360929178,-0.021789686433709245,0.019420097766023096,-0.0019932356541439095,0.008396664279563293,-0.001497702724979748,-0.031495943739121755,0.0002693058164511611,0.008929280927292393,0.04369329721898603,0.00463705451651635,-0.052473077372351795,-0.0061807755822569305,0.00881405505969227,-0.05078115822166279,0.010104332225029612,-0.04024375448151934,-0.045391485110564594,0.04062314198470084,-0.022372470421128846,-0.08126112693325652,0.03594424555412065,0.012644093693961779,0.021013177032844253,0.0038454164579809127,-0.02989208809498938,0.024692389713473088,0.010781598544024032,-0.04860580621752964,-0.026808393480632936
-0.02310382614937508,-0.001109096820880831,-0.05679516745644058,0.011749163197165747,-0.05834073389260164,0.000876035960763628,-0.022636989041148917,0.049379981324131614,0.11696808655502655,-0.015736740518280886,-0.03455718598901144,-0.04333646122404699,-0.02413232562713918,-0.06941844880328614,-0.0145643581204835,0.002566661264698888,-0.0557382235817209,-0.024500647474108225,0.041650910852909825,0.02876046346341967,0.06564144289047427,0.06683747907077242,0.035606767224006325,0.018628989419648873,-0.05339311457250876,-0.013165239270182991,-0.0010500532126661185,-0.03762937451499889,-0.013764918315250318,0.060733183383641,0.04596670243810068,-0.010304477210448849,-0.05205571580275819,0.017232961267485317,-0.015373964426450289,0.05806461748413453,-0.04553028161658248,-0.020207128770258924,0.06817516229265737,0.010934869944038864,0.0890177221616572,0.009501148895069688,0.05137611568585956,0.07970935762055235,-0.051965265020095804,-0.038733028492650486,0.027373342332960706,0.0861873722259776,0.07116617261995253,-0.023825902410464863,-0.07563974799742836,-0.03362258925875954,-0.008468569543334196,0.042555702906708334,0.08461058472998562,0.0307797100520673,0.0405205695534925,-0.052789049924804085,0.05109672772343926,-0.07645695776197171,-0.036408476936952115,-0.004812409599085229,0.041999706734968785,0.010111215173881768,0.019182065131589772,-0.058212096440735696,0.03290656082501823,-0.047307971470642536,-0.025831403079699042,-0.011551898963916517,0.04128195383872037,-0.0805115311617067,0.03621986325079621,-0.009720531031193785,-0.021291777053794654,-0.12497461154597508,-0.006100598709566331,-0.014232088475980119,-0.012262797539987949,-0.0443283938348595,-0.017358870376963882,-0.03785004488581548,0.03072441515120736,-0.028646658960083615,-0.004309486193554627,0.00864857624580855,-0.0824621312079213,0.020524995938325536,-0.02134624957797889,0.037378857116644036,-0.038780634149427895,0.03308005845822726,0.06307245150252704,0.004892394144251275,0.04043687034739838,-0.043865357736251505,-0.055241183334263574,0.0279613063433524,0.013250184230074777,0.09466631469393379,-0.05221781253387129,0.031767375594027994,-0.018771827803639805,0.01673032582845004,-0.026578950237289376,-0.0343661008438859,0.07381137401734145,0.07953346301891648,0.05412123186480317,0.06284824989804431,0.022791306096954442,0.0479196966025817,-0.01700323170196698,0.00873031260948048,0.025160999927811938,0.06596209511825443,0.05213681109210101,-0.039566764354384894,-0.017685847853200123,-0.048730702532246394
0.010026958091116304,-0.022336763416276686,0.0021073183182312312,0.03747314516881158,-0.05163744802203713,0.0021867027384135664,-0.0018216389284815115,-0.030633579510797915,-0.005764041451649681,0.07466135593314827,-0.04088276119456654,-0.007536092653219052,-0.04779491846317399,-0.09351146449988004,-0.04101961135727169,-0.005204001989069104,0.02351176383928331,0.06458422127198984,-0.035093292287039834,-0.08059031963823879,-0.0001963704223111755,-0.015492177942236856,0.0382617368338448,-0.042307306725342976,0.006444290480903617,-0.00037327118424653675,0.023581182812008238,-0.008208748915617802,0.0194859050292951,-0.04582437482885226,0.03812648000878882,0.07662125542074241,-0.06722803883564639,0.017919910297911762,-0.06970649314763008,0.0009182330378354274,-0.024342516121061062,-0.019540071593128858,-0.03694313375446424,0.011877772703010811,-0.033975167534927624,0.03464657534183472,-0.009921765581012737,-0.050487335665283274,-0.009806480418207674,-0.003015573342859096,-0.06051123956945796,-0.07708218117988565,-0.04249972524894645,0.0440482136737446,-0.005526375417375815,-0.03675369219536201,-0.01976984895814156,0.0071280101045727625,0.08982619282823914,0.02260614741313181,0.02398974648178701,-0.005575853789314423,-0.02149163893269218,0.07904896535624792,0.024376971605813723,0.017452003607537927,0.023752028654966378,-0.0025444265272865077,0.07851827760096587,0.025983773392802216,0.08685872639457089,0.08946972622016419,-0.009123098240863381,-0.038904230849675946,-0.015385508394504855,0.06184507050389149,0.0001917674919745183,0.0033849185668460334,-0.10107709440663679,-0.015253396058245603,0.01817256472769753,-0.022662716515254196,0.039130333247570696,0.015822853638404927,-0.017251960183348857,-0.051886945797976126,0.08629507254425126,-0.01577492027829804,0.011430711982974101,-0.11544125741333397,-0.05713164254588927,0.022139308488140687,-0.04819189175144539,-0.014728533874327106,0.05177462150277271,0.014571453691071537,-0.020320520598754537,-0.011777110531353824,0.048973935710192394,-0.006863111764260471,-0.018260284918089318,0.1028703054572427,0.014053321117911459,-0.02840121199370503,-0.004159471272116115,0.00787588615820031,-0.009020695228093675,-0.040205445081601524,0.04858087996418812,0.03035632072078588,-0.029649039432892894,0.04748988881508762,-0.017392016934867624,-0.022712245322926518,0.005953800796732966,0.0359728561476422,0.010731980464803602,0.022766331944502463,0.008703063893117329,0.010790176120725489,-0.07939998755699801,-0.06673263873643684,0.017719920125722065,-0.031159055303647685
-0.00850398442676819,0.011244775656389799,0.00827393297280857,-0.02830481933992838,0.004567432814305414,-0.056086735631842986,-0.06012834543073775,-0.045163986918890266,-0.06332240120428333,0.05102278065230134,-0.06777049216295984,-0.04801962423923635,0.04813586853160768,0.05649561242646541,0.031940113745904136,-0.03488905356890426,0.043451125869000566,-0.10367689819360255,-0.06366831511947454,-0.012427078055215335,0.062284743233807754,0.15547997345093106,0.04741034980430367,0.05445532528451164,0.0631715744407498,0.011309632064228643,0.08296086346935025,0.018665479737641044,0.04540482539441968,0.03479687846087189,0.0692291669301694,0.013961743514861217,-0.0551248074135447,0.1138317221436707,0.03693574379691657,0.08266288383318002,-0.05846305437660282,-0.026280063776497564,-0.0014373723848332344,-0.04875011348537518,0.043858469409255176,-0.04259212744494219,0.08969196276575721,-0.02856146207602251,-0.03837355064792121,-0.06080267010863298,0.08670521997783259,0.05198415195095044,0.05041880934835311,0.018009558623174195,-0.019331273292350203,-0.050196838385350384,-0.09316119664170636,-0.00745501379701229,0.004128741132540046,0.04000227078428502,-0.0124933945224806,-0.0013645713149105288,-0.07119886055441067,-0.09460018877305279,-0.0393516951499882,0.03435148512584846,0.046176182305565465,0.007024777068181977,-0.037457789531044734,-0.07094126145230405,-0.06389408175460873,-0.09930975957978636,0.017872466382548868,0.008991149511713013,0.02120801012044472,-0.04830770485004168,0.015760142263911803,0.019213134725136333,0.060177290629900744,-0.14294932794517073,0.029039396107090644,0.048211184063969265,0.07688815285210153,-0.0034272555771437995,0.05546127946741056,0.04711516080829522,-0.0001740576496043054,0.01993016968380693,0.03372841856530283,0.013307877463941596,-0.029641796993988067,0.0681788996804019,0.026637277303593134,0.04937203425039796,-0.11715307984755086,-0.058139350224223355,0.03331228065987653,0.009122113062297836,0.011804619119798365,0.011289043915640229,0.07981139195215749,-0.1332222367043751,-0.00500396463379411,0.01432964672992957,-0.04845933669395645,0.043494735704072834,-0.01598512116582216,0.007924989461042796,0.016203312645615992,-0.05336079228739862,0.1306232048601626,0.06252740547125041,-0.017645359671637818,0.04458967025342089,0.07757739487058116,-0.0499440473440538,-0.04120401165707693,-0.0067175514239808855,-0.0401989636169065,0.014936643003352304,0.09336399129620754,-0.049803076952863505,0.06531135768131038,0.014119335644276736
0.03221403395328417,0.03126520460239863,0.057657875968426614,-0.026741172634483255,0.0648603667878348,-0.010095868097219948,0.039326297394724145,0.004990071965390615,-0.08598388940264022,-0.013256653971358475,0.05821773892819174,0.04585238015731137,0.03385062693236077,0.039797389436144796,0.02303964001535863,-0.023255685154596462,0.0493094496349837,0.02729927654245286,-0.003263025330236623,-0.012517219873573023,-0.055427115711609055,-0.06942223692744331,-0.07537464022988757,-0.05470395980267933,0.03531538075111513,-0.015534022761882368,-0.00836518766215824,0.05229049450642462,-0.03208706930725938,-0.03669677506161065,-0.05770044834839015,0.0037348968530385397,0.056026605744273116,-0.06303694586011076,0.03414250937829615,-0.05494061466155336,0.04498502296686056,0.08912011533543511,-0.07785894943743764,0.010539492178968839,-0.07141785950476108,0.031100384495156966,-0.07301410226643122,-0.055269111656781306,0.11068113165671761,0.0841411677206441,-0.034653951659075,-0.04600336301300339,-0.054136648820661486,0.007287906021431544,0.058232947768270545,0.06262011843086152,0.03286744208300846,-0.07070094531317209,-0.0633428672094536,-0.06128169040758662,-0.04794386653094263,0.04016338177696399,-0.0035722370394147113,0.031027793875689574,0.048835291553482665,-0.005814802644079392,-0.0633369263875872,0.007701878651902334,-0.07103900346502255,0.041209545883195794,-0.08355163093137652,0.0426432736761834,0.032945541641323496,0.023333276370626835,-0.0424476551171651,0.06853095024881674,-0.037476761904467776,-0.0013204688705276467,0.012883968966620722,0.1415743009010046,-0.06665887418062556,0.0038873976534035477,0.005495309526164039,0.05588914278904586,0.031827038935563136,0.021012413063348903,-0.058249401291706505,0.03764357072274773,-0.017898511897407765,0.025305841679320373,0.07937176252818949,-0.04767077937492438,0.014075376467043012,-0.01906708874711738,0.028363099903784297,-0.033874732144676865,-0.04036601478617643,-0.03810544206225328,-0.038033008644858694,0.04073304787999379,0.0575244289326162,-0.04390769290927773,-0.03158814164524962,-0.04108338474239733,0.04633500949511432,-0.06934272263986486,-0.009093596743103297,0.008343098495570453,-0.02119021451417886,0.09626425908534673,-0.06848055174152966,-0.0786465640324703,4.163350648182165e-05,-0.05288863130732162,-0.08508868295834499,-0.019889949472891664,0.0032224698104617085,0.019977607418603428,-0.005321766375063986,-0.06467430159572575,-0.012869059041041936,0.08116351524163871,-0.0026166880643761843,0.047016809418369214
0.039867201124270335,0.005050722274105958,0.037756154704845064,0.01898869534307852,4.128710923741118e-05,0.009888504933588452,-0.018123072472228635,-0.06249867865663482,-0.011587520936256542,-0.0003897645031489029,-0.025494911760543672,0.020207687915992388,-0.05244034512319447,-0.03801245591115083,0.007252991570259027,0.0071408160377266616,0.05538716808110054,0.05497007416610802,-0.028120408177768803,-0.08591343343683022,-0.10374065928898975,-0.09303711614163966,-0.008492980799065542,-0.02897375360938047,0.0064143807802715695,0.057373792778855286,0.0032315560616465564,0.02579469890459453,0.05842682907301431,-0.0787510669072312,-0.013980191623348178,0.02337761747530699,0.001813841874736904,-0.02367951801189321,-0.05424748497093213,-0.053173372781840894,0.032303028299706715,0.013003701550919386,-0.02666372592966222,-0.00560420478831304,-0.09678891453009943,0.006487849182641576,-0.04087836244532232,-0.09056092746275772,0.06989321601649702,-0.002517068230926634,-0.06531803876760395,-0.13517977718059007,-0.08551501319173009,0.08204110235737341,0.07926125809856455,0.03845378561711759,0.00874109659519224,-0.008550111301143868,-0.04993433741365453,-0.010168272794753077,-0.023759024468004975,0.04231157725535745,-0.03340601561525927,0.13104537523521811,0.04292368762034362,0.02283949504181542,-0.00990614434937884,0.007225243813781819,0.01818625270910799,0.06240336724448433,0.025517165621001897,0.1487146847752638,0.03275698013072961,0.0012909929952523657,0.010474544489346793,0.13191880541643713,-0.027831693685738068,0.0010983286262988788,-0.031125711003870044,0.09710114566938113,0.09946921079677806,-0.032415603873184276,0.02083824598878921,0.06604445237196772,-0.02620514378631639,0.0014471578758497464,0.02319056239099448,0.050730387824609896,-0.045718781367271054,-0.08808275774310041,0.006653491543443614,-0.0031496503705589407,-0.023376093324603334,-0.045522016567200896,0.10311797318773896,0.009057590531426084,-0.0706913634836261,-0.07523506874469646,-0.006147919998174877,0.03021226178079905,0.017687442908257734,0.07846939985946479,-0.020159756131114467,-0.10846246197911605,0.035387543706058684,-0.020697723815519976,0.012466020176051586,-0.03950995814803435,0.09924583858467004,0.04384307872791484,-0.08834581220725721,-0.03298851011790566,-0.040295795594329255,-0.06632681812105644,-0.021442947980776846,-0.004909088536561263,0.0056119198237887585,0.008499991562094395,-0.01235448538993835,-0.049297409362728,-0.09551261106737022,0.015548963680236515,-0.0021717337281466965,-0.008996400936470679
0.004306448227362812,-0.00944208940515609,-0.01411518851297517,0.03596967922742197,-0.05152394574687617,0.06903224962193405,0.04571122874644999,0.01766861637354693,0.08321588050418674,0.015475878331092858,-0.016996344644289237,-0.004060308228707395,-0.011337635968887236,-0.057615799565212976,-0.10097522863971953,0.004455370884104562,-0.05987216440650455,0.09580443712815279,0.030481383489647303,0.023599524576885897,0.004097390230210532,-0.08813259454210721,0.0021842119839903212,-0.04138313205841372,-0.04466224934038651,0.0007670323376261783,0.011365868187904022,-0.024042569011300644,-0.005734876803390496,-0.06211865736899026,0.011085706246335224,0.037573479112905775,-0.018797202817003415,-0.05867064036163443,-0.03384003702674381,-0.06334677152145081,0.010846073087076578,0.021424918829106365,-0.05118125965476206,0.06477584457995271,0.00037699244578421584,0.06814561707685848,-0.029612482397460588,-0.00321526160220136,0.024264912611164355,-0.0116963346558955,-0.08720008743349349,0.0069412006157647,-0.022209017860595308,0.037275775760000913,0.019162157845439457,0.03798608761418621,0.016238928360881633,0.053627551659003896,0.07727669586222849,-0.033749308814890924,0.02658050499361918,0.019262730559134713,0.03697457518285657,0.06253029802892407,0.006459651599963572,-0.0005311589924901249,-0.012831434770517592,-0.02417404776418519,0.06486539136746858,0.06058905075672551,0.06904781122995103,0.034645250197152366,0.02339876776677069,-0.062278988567120185,-0.005660132123234626,0.012614168134745491,-0.02464227222874996,-0.013779009627783334,-0.045819134738777106,0.010598341525020698,0.04531130844396241,-0.0385145420083695,-0.007510117975839673,0.014622544537290897,-0.04518989168788138,-0.05747779516159653,0.07839097268746854,0.0025853331769344658,0.022212951388098087,-0.031516352194794935,-0.05359711960452793,0.006813972467746024,-0.050475362325641385,-0.04272758716543845,0.06112587537338176,0.052629066023301516,-0.024144253121136397,-0.018304200548507284,0.08792864551356615,-0.029088824795225763,-0.057800042062621224,0.10767807346949532,0.08899775084016041,-0.008141154738518801,-0.001447948911545199,0.0015536134916730082,-0.0720912168110841,-0.024273729144336172,0.016501396238626273,0.04074145133373592,-0.0809275041520297,0.010265893033872412,0.0355282587832245,-0.06831593897450129,-0.023147284327214777,0.06890860325340367,0.034993424458692086,0.005233629659920021,0.018880999046905163,-0.016423144497050117,-0.07209121790467912,-0.02241461229599142,-0.06757756114118257,-0.05996528654192938
-0.03297551858580646,0.03465943005100026,0.012339581018351147,-0.042201565604052076,-0.04160043324204835,-0.07239768344209592,0.011923278749079697,0.012687780793581523,-0.019038713250596445,0.1253708559022624,-0.014592103723320392,-0.018095886681727104,0.03741702429248534,-0.05076588830185221,-0.017379107250427975,-0.04765555126680227,0.05497524913881756,0.021636961516243915,-0.05295814916532879,-0.01200708019775269,0.054480941010553,0.023694666737424333,0.06971514350419851,0.1197684051724215,0.02632059039817824,-0.070734004487566,-0.04929638823684598,-0.01229684027860675,-0.03293097577327427,0.034803554519319845,0.008064446087647,0.020611094743112575,-0.06590741394691976,0.01522073508676206,-0.020289349804380494,0.13750787571749323,0.055514818740669804,-0.14242725013749077,-0.03839700649709778,-0.019072979570394933,0.05552129794194127,-0.023611007385064078,-0.06164616456826958,-0.05550024553883577,-0.12974030779598608,0.0277681429953304,0.010228443205803956,0.01586435180375173,0.035741467269881255,-0.03802945060470772,-0.04365673795880597,-0.08516763090147143,0.018842751772171682,-0.008581321516118075,0.10552768917148841,-0.02919130371170608,-0.05503124379968027,-0.09139681435120414,-0.04975505829860043,-0.007916583443533265,-0.10453277723289536,-0.07008510640916635,0.08744604195305315,0.04150788424300764,0.04047354432342409,-0.03420919599413235,0.08954865043002451,-0.05077015014094417,-0.0103790974537834,-0.0064784853715831765,-0.04110670769924427,-0.020581491217474518,0.05106899497703092,0.027221164775510738,-0.03449744830478164,-0.058365883031846325,-0.041803827814663984,-0.06526209520194873,0.042126017656367795,-0.04258006552177627,0.026582164403931813,-0.06725330444445453,0.04244868341425992,-0.04308449171971237,0.07251273109162137,-0.005701759843437035,0.0017648915703313472,-0.024359669565393382,-0.03185835776190799,0.029457601761894863,-0.06942897568145524,-0.021805756583420537,0.04253890583136182,0.019582198200736072,0.03044923460826986,-0.04369037033011526,0.02158113756982754,0.030630730894084225,-0.010348354284056178,0.049088714829732635,-0.018187482523866857,0.11338017148531358,0.023952939930161447,-0.013017941157521902,-0.00780847034346849,-0.135711622970026,0.0553758488628587,0.07339156887807848,0.02220031006588594,-0.006444333994441895,0.0076833331053950075,0.05039181489596971,-0.00971109699148102,0.033782363070162226,0.061804019278798444,0.04636842828830086,0.024381760639047345,-0.05732275977593136,-0.05305427364640634,-0.05414228219006493
0.03593934328655199,-0.024092070916753822,0.03792052456348055,-0.0030069569823483154,-0.0330615850354689,-0.005419519720347187,-0.09145451587269902,-0.12687977283891783,-0.039092464788606195,-0.011742571738267137,-0.09452361315601669,-0.0048705882240427665,-0.022111132302626478,0.03328689632476974,-0.021880651387092578,0.01723448347273763,0.03678733008385364,0.02100513084155376,0.007980394441314093,-0.045215525811327976,-0.10298500555328062,-0.0269769850150702,-0.033643932454042666,-0.0009177673125076348,-0.009965105393757041,0.040313689177095116,0.055108074093239354,0.02057275311344758,0.1272177152029873,-0.016686203729788542,0.027609021414645222,-0.006496509103018321,0.02558747765475482,0.0021363602197545027,-0.03425901341118064,-0.039840719152532775,0.006273213446418576,0.011948851801177413,6.612678622122205e-05,-0.017053491319199685,-0.10335913449871233,0.014244581521118052,-0.0008420692399440427,-0.07480459337952314,0.07758611354049247,-0.08594048228135126,-0.03658639911432943,-0.09101598694532995,-0.03599150228596258,0.11341134579819698,0.1065269468090654,0.020755085614961102,-0.037223604687064864,0.0022445936422677663,-0.07182634825135271,0.016772272919824003,-0.020792827857036723,0.06316351574904976,-0.05892164850416556,0.04888777021509886,0.027627244566088033,0.03971455572579195,0.007954564122048934,0.020473042066178438,-0.01158519641322897,0.05228984224280204,-0.036264966952179505,0.09150077905791472,0.014677112547446311,0.034110816309791465,0.0734919367862924,0.06252530362207827,-0.056206133125754426,-0.03775836270748794,0.053301284337137024,0.01670928153811309,0.16167441655844755,0.06235636518947958,0.02227343421767547,0.07703753188646789,0.01135066441466912,0.061453475048810595,-0.00604834457765563,0.018258531855339093,-0.06858753708509091,-0.06036029703912553,-0.022344504982210682,0.04054621254815874,0.01884365659429836,0.002889130958789882,0.055890065792632976,0.045957047467083595,-0.05040643690976298,-0.09350322811203544,0.030981976056111717,-0.010607373294609018,0.03349891640401725,-0.04122429077669774,-0.0005593479378758465,-0.08847198416672604,-0.013062700974486478,-0.052799696233774944,0.0015881691603328468,-0.004206370158990391,0.11640051907375377,0.016513074486566186,-0.03979583528538721,-0.007449281104880502,-0.08981998137600078,-0.01713346477774859,0.053843429165800115,-0.06340760191640103,0.014721820889116112,-0.013690239133946154,-0.016379187731386916,-0.07257884842758039,-0.03276038380553352,0.00808228893205983,0.07482633443605552,0.0019196096542761709
0.018570920694111225,0.03131814375236733,0.029298512577080014,-0.02447637511300338,0.07788047071692926,0.052170827610409774,0.07282236131537147,0.0444666067297066,-0.00032192636873017307,-0.02542193799593002,0.08127012349696791,0.06643996478831093,0.04659265689285094,0.05743913529250585,0.020534378680802774,-0.03488686306317789,0.027613337725718497,0.031025360896754915,0.05056494955671409,0.08778696564933902,-0.01597592421085505,-0.1105179453097831,-0.07236104632794461,-0.02288167389200657,0.0078645785779432,-0.013872640193802637,-0.061915210375704084,0.035032930586725866,-0.042519925124896475,-0.02306792532063182,-0.1109692745620526,-0.04599783353094576,0.07288920444496058,-0.09281370969403092,0.07111886575241404,-0.042243661739733034,0.08340809073515221,0.042246706913945324,-0.06013303749985335,0.028623661406152544,-0.05193697578553593,-0.00841285860581937,-0.09067908825710765,0.015159946340717602,0.03822836638816083,0.06481154796486972,-0.056047161851651935,-0.013033241481082482,-0.023942965505926526,-0.03214008237751055,0.029859753669595205,0.0651123232762116,0.07798781615393348,-0.020069797594852015,-0.07051206098651752,-0.11537372118810167,-0.016963558932176118,0.04495320198120584,0.00849591749725094,0.07451866398998687,0.009914252348203215,0.00752676136752568,-0.07605735333765162,0.021920748659079083,-0.05425488833276163,0.03390795784193674,-0.08221525215242163,0.008981693412493325,0.01879367889753637,0.010014972685906587,-0.0710985945041689,0.057196918662722245,0.001982266516800637,0.019937981696191577,0.008865943793573064,0.15393216286842645,-0.07589857004114464,-0.058392937648197814,-0.06637871846586547,0.025195469916063702,0.02067253561980446,-0.006199025729393961,-0.09121180843450363,-0.001871584068896737,0.0028533472772314513,0.06777200983520996,0.09367839135030029,-0.06535582260296441,0.010885128988430554,-0.061576310363207154,0.03683774527355607,-0.013835934740223486,-0.014697113028460402,-0.020479553504300165,-0.04029350661948817,0.02447536217373949,-0.01626299363849252,0.0023809644842244784,-0.052090047646453926,-0.019927498754062602,0.0819367453269205,-0.03644688098819796,0.0354648860448685,0.015000377084620722,-0.06692026641244722,0.06849305026255542,-0.07771644170815677,-0.11399643689959182,0.03180050271772504,-0.12632608366639814,-0.08122763488100693,0.0036922199204363943,-0.005752122145705601,0.008793786391843385,0.03868047055784037,-0.05404363912244814,-0.007812422878639709,0.11954171352479857,-0.0811828393783922,0.0204581226134263
