-0.0022115924032094134
0.045895772553349735
0.20862359866368516
-0.09354762099240325
0.19887867396980824
-0.0034621187768276635
0.2986984543718865
0.32319596453217025
0.07362760941926873
-0.050320184835805734
0.1684294964506457
0.0020580526046609536
-0.022007219762412007
0.006845988878569867
-0.10143724104065424
-0.054511580055633856
0.03389457651082157
-0.11459068939410931
0.031327290335551254
0.01786309676443897
-0.03248372381330766
0.044001398488069825
0.1667346144731968
-0.08927528803798246
0.11715860473381308
0.15723700901985516
0.07945843196029058
-0.11948426329005805
-0.0013178672365239097
0.3683354712108735
-0.011879032918001239
0.14407899953198214
0.13823132587192977
0.32107016979689806
-0.0896300540249305
-0.05109407284128174
0.09459351447862212
0.2685811136871187
-0.03051320105692067
0.09401540128951986
0.03899065630757908
-0.06312588447526432
0.1372856762005511
0.11237495219243483
0.17511560500307718
0.04086747992197322
-0.2368888179868952
0.047461334029268276
0.1396892779740691
0.17362287938756144
0.030328639435741305
0.2508860307982191
-0.08396109164738207
0.2088852949520099
-0.039311722481428744
-0.21576262624337336
-0.1831705089492068
-0.0846003050717546
-0.1025581351327373
0.01947333882968519
-0.06119229404404985
-0.010309940017797094
-0.17858966699764692
-0.15134085256531182
