1.141108040706768
-0.47617470486234104
2.094659462682842
1.7089639233766645
0.5200501944443349
-1.3738179543357543
0.08157376651858206
-0.8901575680254462
-0.9938983256093333
0.4527696200038059
-0.9531392244960306
0.8723232255746785
0.07301865262891843
-0.409659140878226
-0.013736480123168018
-0.39329675212509324
0.7242184984160148
-1.5642871657066235
-0.3158663944930662
-1.4761247457078832
-4.055844237714764
0.16973877443631472
0.314202858948926
-1.504450066710539
0.6096070500066626
-1.8931041689651347
-1.0430682861472593
-1.0520810112144667
0.8900689855736397
0.9245874140017478
-0.286243805201972
-0.16886410240756292
-1.8384213099039617
-2.436308547774947
-0.9370879605765718
-0.15880762843303872
0.3101143984063013
-0.00503456874108386
-1.02246322810217
-1.0217922078597228
-1.3764724778813844
-1.0121984906788561
-2.2074409373329043
1.6986741563842647
-0.9229054359790267
0.7775154147100372
-1.6705249004805203
0.5563283715454024
-2.3862217680529803
-0.7084173515560849
-1.4242201945866082
-0.013489617853583664
-0.39935571759804883
-2.055277901218252
-0.9161115304214686
0.05678342105609119
-0.8592921683522877
-0.22401040893039445
-1.5204009663880953
-0.8949290393100854
-1.503875952610465
-1.0058211627122071
-0.9161172319938846
-2.168208900602943
