0.402341641177549,-0.6848100909403132,-0.8707971491818818,-0.5788496647644155,-0.3115525321273726,0.0561653422297454,-1.1651498407833565,0.9008264869541872,0.4656624397304598,-1.5362436862772235,1.4882521937955997,1.8958891760305832,1.1787795711596507,-0.1799248358123509,-1.0707526215105423,1.0544517269311366,-0.4031769469731796,1.2224450703824274,0.2082749780768603,0.9766390364837128,0.3563663971744019,0.7065731681919482,0.0105000207208204,1.7858704939058352,0.1269120927036199,0.4019893634447016,1.8831506970562544,-1.3477590611424464,-1.2704849984857336,0.9693967081580112,-1.17312340511416,1.9436211856492929,-0.4136189807597473,-0.7474548114407578,1.9229420264803847,1.4805147914344243,1.8675589604265697,0.9060446582753852,-0.8612256850547025,1.9100649530990337,-0.2680033709513804,0.8024563957963952,0.947251967773748,-0.1550100930908342,0.6140793703460803,0.9222066715665268,0.3764255311556294,-1.0994007905841945,0.298238174206056,1.3263858966870303,-0.6945678597313655,-0.1496345403276707,-0.4351535517216374,1.8492637284793416,0.6722947570124355,0.4074618362411104,-0.7699160744453164,0.5392491912918173,-0.6743326606573761,0.0318305582743511,-0.635846078378881,0.6764332949464997,0.5765908166149409,-0.2082987555779948,0.3960067126616453,-1.0930615087305058,-1.4921761758194978,0.4375754551019979,0.1539888470280349,0.612978442183786,2.345750539190166,0.9269381328543245,-0.9128222254441586,1.117016288095853,-1.3159074105115212,-0.461584604814709,-0.0682416053246312,1.7133427216493666,-0.7447548220484399,-0.8264385386590144,-0.0984525244254323,-0.6634782863621074,1.126635922106507,-1.079931508363423,-1.1474686524111024,-0.437820044744434,-0.4980324506923049,1.9295320538169856,0.9494208069257608,0.0875512413851909,-1.225435518830168,0.8443629764015471,-1.000234325727602,-1.5533946737642932,1.1614500348368058,0.2499744858396277,0.8172746167220792,0.17447366038049208,0.7006180797368353,-0.7957261385162131,-1.116101006597693,0.62579411350731,-0.8271259045727913,-0.6960013413683451,-0.4555325035173431,0.0174791590250567,-0.3539939112534839,-1.3749512934180188,-0.6436184028328905,-2.223403152224426,0.6252314510271875,-1.6020576556067476,-1.1043833394284506,0.0521650792609744,-0.7395629963913133,1.5430145954067358,-1.2928569097234486,0.2670508693491829,-0.0392828182274956,-1.1680934977411974,0.5145122378415412,-0.20191240438420283,0.739269085849217,0.7551344830359449,2.028578822898732,1.1633745069011574,-0.5585727937438709,-0.39462787651997183,1.0182833479630888,0.5892123747125081,0.576662819741464,-1.6458617476292303,-0.0243261243989356,-0.7380309092056887,0.2799245990432382,-0.0981503896429579,0.910178908092592,0.317218215191302,0.7863279621089762,-0.466419096735943,-0.9444462559182504,-0.4100496932025484,-0.0170204138614405,0.3781886960753643,2.25796468851561,-0.0446327009065816,-0.9585171224474748,-0.3519942840629473,-0.48371298436759025,0.43970180582607593,-1.6384270427646948,-0.07943177258353824,0.02853433748094732,0.03440774740197407,-0.7023835768502025,-0.30396765917442725,-1.4649187841671878,-0.5285521509947554,-0.6016265472044736,0.3849858928406585,-1.1562127845105126,0.7811981021290246,1.4944845444913688,-2.0699850250135325,0.4262587307781009,0.6769080350302455,-0.637437025552229,-0.3972718143287976,-0.1328805775869556,-0.2977908794017283,-0.3090129690471222,-1.6815122645668126,1.1464678004669782,1.07257393536389,-0.8203371996753767,-1.4878061252430488,0.4964335555720786,-0.6861181717876712,-0.05081894662631777,-0.5073148248797326,0.5155613904259367,0.532776555410261,-0.8365608284119203,-1.4367666940983117,-1.59578423089345,0.6205440578362923,-1.2097992568495148,-0.5336260966210661,-0.6080524557765462,-0.0525672961298692,-1.936279805846507,0.193458648264906,0.5238910238342056,0.0884220870446614,-0.3108861716984717,0.0974001662687834,0.3990463456401302,-2.77259275642665,1.9559123082506944,0.3879146908866721,-0.6571825781901903,-0.3948690088840076,0.4856825712319352,-0.14314422996448906,-2.0573123244516567,1.8701744201579082,-0.40784728765603057,0.7378573880821234,-0.9787134090074001,1.2336966945578454,-0.02768848927121284,0.3166112971672229,-1.3010459383815018,1.0454970327051059,0.5776371884531426,1.212984761740348,-0.6840934311740781,-0.5197705265140264,2.282363786098012,-1.0614629641361255,-0.1359497006783208,1.1368913626026953,0.0977249677148556,0.5829536797532936,-0.3994490292628752,0.3700558878475187,-1.3065268517353166,1.6589935558919024,-0.1167462328751926,-0.684675258454325,0.6420104408246565,-0.4955749822796757,-1.4236601987074289,-1.6057920508498225,0.32741011778060397,-0.490966894707597,-0.4430149885641601,0.7981980988852784,-1.4201181172651267,-1.0449718714896734,-0.6628677332871249,-0.1347381549543363,-0.23268195658378105,-0.38806435863346617,-0.1233723125715271,-0.15122027720284426,-0.7419946859947439,-0.815388578303751,0.2745163577239395,-0.8909150829955279,-1.1573552591908536,-0.3122922511256933,-0.1576670161638159,2.2567234972982093,-0.7047002758562337,0.9463943468437406,0.7509958925266168,-1.1929203278781069,0.747765495551996,-1.2613702508424272,-2.8069176867505354,0.25419283533695824,-2.1231816502685117,0.1487533573849764,-0.9737534799837331,1.4880586307323709,0.917467611570024,-0.6373795994634356,-0.8537712474410164,-1.4072742708416164,-0.5800146352730612,-0.3959902441306813,-0.4303073156671546,0.11839890072264843,0.5613155020809035,0.34463894409174,-0.764143923906443,-1.4377914738015785,1.3645318481024713,-0.6894491845499376,-0.6522935999350191,-0.5211893123011109,-1.8448717427223165,-0.4819059060250028,-0.4762361875578987,0.6212435697008846,0.6454112193135593,-0.1168884969246251,0.7388718053080734,0.004428733375223062,-0.300003632389939,-0.08982471507080478,-0.3548178309460632,-0.49136738333805396,-0.30510306950434324,-1.2854044866297942,0.052473045398615796,-1.2203342667871035,0.6622924919425138,-0.39254177301906945,-0.0335305440087589,0.4748373351954622,0.6359305155135946,-1.5839981097039433,-0.2069036761639717,0.8801789120807822,-1.7007351661468275,0.3872804753950634,-2.2555642294021894,-1.0225068436356035,0.0185489775370322,-1.678427231803571,-1.007913269799226,-1.5045161222141872,1.518101303647523,-0.049949579197611484,0.24004501195607245,-0.5705692175751422,-0.5854720281682435,-1.797148648883515,-0.4050339559709648,-0.8868142082229432,0.7763669933987293,0.9029266265045124,1.1591410901630552,0.5281969287795766,-0.8261028185991831,-1.2595669954278852,0.6396413222813203,0.28067166829319123,-1.803061424405426,0.33450022899904097,0.8145198224878664,0.0589255891816299,-0.190949781823839,-0.8076484876163557,-1.446534699563388,0.8002979493400275,-0.3134911981454735,-0.2533765984596421,1.667266208918124,0.5691557949175088,0.19068163219970793,-0.10931792981940493,1.1700356637477813,1.38078493282176,0.7459963676899437,0.49004233520678525,-2.1253432176757885,0.08156148810056275,-0.1240957794799721,-0.12051859665227418,0.6054016988224129,-3.040768320534597,-0.7319242216847696,0.2001406551234413,-0.4852943388488406,-1.460314446756463,0.8229839669352608,0.20988699115263465,-0.9711045704444846,0.3148172045158238,0.8215857120497958,0.0052926462993608,0.8005648034309968,0.0782601751616613,-0.3952289826543543,-1.159420516399913,-0.16620602622129527,0.08669906278003245,0.7693650146419596,-0.3158124821172149,0.0977107579917067,-1.3429281433749694,-0.9960175845374503,-0.17493630806356214,-1.0921122833923627,0.7331978690932781,0.2977150987796788,-0.07156235476138707,-0.15357624560623445,1.5969770659910199,-0.7139937220832476,-2.328687311611737,0.13880563535607862,-0.10286731507574981,-0.5532163315512414,-1.0526111475210673,-0.4391895218021479,0.1813384292178212,-0.5028167006425383,2.412453679543749,-0.960504381633148,-0.7931173627076716,-2.2886200400145285,0.251484415021537,-2.045011008370081,-0.6232566525126544,-0.40345182766993504,-0.8798885286431504,1.415122910179663,0.5773489890801446,0.9991555337065663,-1.1105907656977014,0.9190494373088675,0.2814347644716012,0.5535572838969465,0.6947601056612827,-1.368945350565228,-0.8512301060055657,0.6173960837939002,-2.8273536729456374,1.3456206230012853,0.41285601928748167,-0.17029929544858524,0.16188036590014684,-1.0299434772948954,-0.3499433645891047,1.1002843382203735,1.2980219723262212,2.69622405256358,-0.0739246662804151,-0.6585529668050037,-0.5142339659399888,-1.022213504472362,-0.10132017302240694,0.2916639887664435,-0.15444661452264113,0.8933085349171666,-0.5855395235879177,-0.674786038497963,-0.8244443622850308,-1.8032751071590623,-1.6764998870959609,-1.2269325350365348,1.1287272801540715,0.5065031292385204,1.0532856177556327,-1.4866286942638305,-2.0706798127263606,-0.8164662582594497,-0.04987940476508862,0.29910046038078647,1.0261287672897998,0.2832150305334819,1.7426687806556311,-0.2226056809483204,-0.9130792180417964,-1.6812182154944335,-0.8889713580954499,0.242117960985123,-0.8887202573536308,0.9367424635352573,1.412327706037443,-2.410483998799402,0.7935905116970132,-2.3329742865934886,0.1489244136397692,0.9217459172165494,-0.14537310889039762,-1.401948294346207,-0.6398182218162893,-0.3600684509853424,-0.345351375412052,-0.523811646791626,-0.3867222834162589,0.10836877316367118,-1.2385407010032377,-0.3542869376133493,1.3142118544008434,-0.5573415606457249,-0.5227520646511791,1.074903967049128,-2.5591846663440965,1.181378601288286,-0.6319037580051673,0.1639285724525866,0.0963213559211968,0.9424681192203938,-0.2675947462353477,-0.6780257815644504,1.2978469565120427,-2.370429206086049,0.009892453173456524,-1.3839272479436666,-0.8858359277054597,1.7771802867506514,-0.2640858242707378,0.040785478173197796,-1.8703457315025387,-0.8716396914122125,-0.009187910768867122,0.10538005082204495,0.38924746313382497,-0.1147159889897241,0.4348913219446323,0.3646002427715484,-1.9584848964400006,-0.0956740273705707,0.6727256211172837,0.5858587611404528,-0.3666676040003093,-0.8080557348081414,-1.118368859335744,-0.1310540115414123,1.133079879559722,-1.951804101481602,-0.659891729729498,-1.139802455426774,0.7849575212405001,-0.55376617403785,-0.47897893803005454,-0.24061702967848272,0.3760324925417212,-0.5322707358991395,-3.1934638588912887,0.39838204311508246,0.3511718535388432,-0.37744393485508626,-1.3081047382530844,0.1378926041639774,0.10607092798295516,-0.6475072387479263,-0.27425137891847184,-0.9962703154262531,-0.31790448587715436,-1.679912969284846,0.3242255195174185,-0.9520239756544512,0.2351804837745689,-1.406000872943974,-0.5900576458695397,-0.1104894050659278,-1.6606998118692633,0.1151478731400921,-0.3791475628799227,-1.7423561978092306,-1.3033181968758911,0.6064994554325233,0.8980091421776063,-0.16840867736871598,0.3255172967369793,0.08671942397781417,0.15769014211934787,1.1373807901975819,-1.6612850742857765,0.49211493183940636,-0.6023270326871502,-0.46405811498410815,-0.4817940593347645,-0.49389917593755306,-1.3059541955386993,0.027195778825535488,1.5148436529448164,-0.1908841855005282,-0.0728657728699711,-0.6929429000535822,-0.1190497484752068,0.4661664260340307,-0.3702424407043429,-0.453804041052001,0.4032645401632468,-0.9180047698190454,0.2524966270768724,0.8203217972614217,1.3590701723607126,-0.0902073550820805,1.3724804978482779,1.0184063054672923,-1.0414530862600209,-1.311523481828719,-0.49705840101735566,0.8156459067591734,-0.29605049949624274,-0.8789902161912267,1.179595883663938,-0.04979746363948649,-2.5072706472387867,0.0948345452430973,0.2951080230150533,0.013572672471771127,0.2814466887124117,-0.1836331098305007,-1.334275368596188,-0.370741959896528,-0.9456157955562914,-0.9327409107943778,-1.2630683491022754,0.4524890926396464,0.0978961454126271,-0.448165362680708,-0.6493379277303881,-0.0231114131280953,1.0798400025438637,-2.004870814536148,0.3794984880096882,-0.5487863043222678,-1.898297354905476,-1.9855318080305255,-1.033051014264537,-0.023782332249568647,0.13335610642692902,-1.2718997270814993,0.6039301119443988,0.966614961334039,0.052137749905528,-0.90792597207125,0.8774919676765894,0.5882196714214801,0.7620729676159127,-0.6803161278126856,-2.835886637187234,2.116791021483676,-1.6108784034499335,-0.0357680718602211,2.3807453512197503,0.330576756274374,0.9492464735582355,-1.5023965693817127,-1.7776669547337065,-0.5320126170728358,1.093519455224329,-0.3402256197033255,-0.7960893062386717,0.199083904545808,1.077529556476915,-1.4586869567540564,-1.2479613119061885,-0.9007731985106167,0.9045507995255495,0.005243234895431125,1.7419402755227196,0.5168264873995604,-0.28439707485281895,1.0997931904874076,0.10275400763548395,-0.7566577195069113,0.6692659672065192,-0.6963266538610828,-0.2903971008038667,1.327782695957983,-0.1012814862173993,-0.8031413873416283,-0.4643376914354916,1.021790585588673,-0.5525406734167292,-0.3868708468506465,-0.5102927396336285,0.1843596366203426,-0.383152071175432,-1.5884575686841094,-0.8831857516498336,-0.932543527419714,1.2335849349991617,0.7756252687711819,0.5473729034911555,-0.55644503574934,-0.8676658298021774,-0.607798313952703,-1.3078802370343787,2.2927060823279373,-2.2799472733678843,0.5358154501581259,-1.2953417033697494,-0.1113408008517849,-0.9904767689957772,-1.1780770689573057,-1.1401963009349616,1.7549861537420586,-0.1329884223095919,-0.7657021944780863,0.555786964082873,0.0103493145662993,0.7200337593416528,-1.82425665593783,0.3036039044620014,0.7726948371023817,-1.660908116207845,0.45677299333761484,1.7199457442634283,0.00933298185703227,0.8427366334949352,0.6629656157608889,-0.7385322499055024,-0.001595475986032622,-1.5975307235398561,-0.6027517062044044,-0.022991506274492486,0.5753553761589394,4.1801563665080914e-05,0.6931283122145906,-1.1029062129553695,-0.10201220421727511,0.018114671355648305,1.8488848200019143,-0.2141666562000842,-0.4990166379941829,0.0213512238435486,-0.9191134448699436,0.1927538490652161,-0.3650552165462576,-1.7913275480411837,-0.0585865511338608,-0.3175430939301992,-1.6324233020679833,-0.0671341546145217,1.5001813772989192,0.5407947410494357,0.6346358839847448,-1.3142567409930037,0.47667828261031,0.10739038892121883,0.4757676138083674,0.3390206760730283,-1.5123322697046,-0.3021759404280059,-0.8757154857475055,-0.06694720063865812,-0.9092791522394316,1.3124703671409963,-0.8589723884443423,-0.898942156465536,0.0745864065435535,-1.0770990694039948,-0.4246633024328657,-0.8299645975379619,1.4111720638896117,0.7858038268311726,-0.0574695184653946,-0.3912170521740162,0.9409176145751134,0.405204080322888,0.4980524046828567,-0.0261922373442504,-1.6882300277714322,-0.1124659825595527,-0.5324899192090677,0.6450552734598769,1.0044448084294426,-0.6843376974787673,0.4139752020175447,1.6378055184972524,-0.7679318839684334,1.5644420644765733,-0.9361573908652624,0.014663527383499676,-0.0111457751387955,0.0114988998700623,-0.8376780419079453,-0.5911831037644297,-0.6677202863593994,0.3269625954044574,0.3300351145103116,2.225944331738259,1.3709890062911214,-0.5098432421384791,0.324869615796186,0.9971179807917596,0.0306018243385178,-0.0696415784469355,0.051574942769889,0.8672766288084278,-0.8483205228052325,-0.3256694688201741,0.4704331448464818,0.3114470715541555,0.2395827598563913,-0.3698011663038032,0.9725357891425368,2.1338682472045374,0.4064154936762062,-0.1931767015498399,0.7557402888945426,-0.53913263675299,-0.7496903447028966,0.0328087476137118,-2.582796632969945,-1.1539503636520094,-0.3479618559208458,-1.3533888581477134,-1.0326431018921296,-0.4367483374580074,-1.6429652935306092,-0.4060717962598319
-0.5352701645328445,0.025405208385016,1.1541840304940192,0.1725044164928659,0.0210620213420636,0.0994544570307117,0.2273927751211284,-1.016738648609769,-0.1147753247707981,0.3087512418366131,-1.3707599825430603,0.8656529228158533,1.0817959975519666,-0.630456414088878,-0.2413377914531045,-0.8781903428100731,0.6993804835878171,-1.0612222874459092,-0.2224770102429203,-0.8589199078076716,0.0509542770112894,-1.794229271489721,1.3264616423656934,-0.964606424206264,0.059894683116276,-0.2125230447703092,-0.7621145119224981,-0.8877801366359354,0.9363985435524596,-0.5256405931019397,0.2711701846373109,-0.8014968853943748,-0.6471814318477607,0.4722046755340307,0.9099482694371862,-0.20463352297995602,-1.4315017145696873,1.9955200596843217,-0.8632995013278683,-1.5466360655021987,2.593558568759863,-0.40672148118598467,-1.4670173826345798,-0.6921345633146473,0.3659360334866055,0.1898771713775844,-0.8520018955816803,1.8227236001279596,-0.5215796779933731,-1.184686590411552,0.9606933984606596,1.3290628465396823,-0.8174930976162265,-1.4013472930393105,1.0304382674156047,-2.0473236130579617,-1.2266216593966155,0.967446150050235,-0.0553525480223895,-0.2639373485926878,0.3528166064943783,-0.15293166002273065,-1.3118114950905857,1.2224146018582,1.278220285347372,0.19522013692360052,0.02416217852973774,2.2962774099007133,-0.28124219292125546,-0.3079322412624,0.2942356941795662,1.3951134329557977,1.5334643499485245,-0.2999185047404935,0.29425249475636095,-1.3801012530171681,-0.312032377970437,-0.8402903068980301,-1.0068317522989838,1.6815767162673276,-0.7922866618061449,-0.5316059080114549,0.3658487879168582,1.2978252669735857,0.4811151263888354,2.759355114021582,-0.0746679782511495,0.258716440229746,0.2756009144422181,1.434458745921358,0.4876114787858347,-0.17886296002385021,-0.9903502181669285,0.21965785157466305,1.3797284282510103,-0.41509754197007576,0.5633425788128824,0.14370454991334933,0.6483023362525562,-1.0111138170521152,2.188493376789005,-1.388114265064277,-0.43037143960528834,0.9045526929461407,0.2930707396745942,0.8246302551074761,-0.509080381601916,-0.0732451938811096,0.0126053875307816,1.5692596145359043,0.690429024383049,0.7966721083646714,-0.6579260925367952,0.9688826385630508,0.2255816635688035,1.3893730118105923,2.020377880446638,-0.29452706179964544,-0.41247125464280937,-0.9145016606145328,-0.1800376787348582,-0.4063065020977588,0.3282573552938402,-0.20999727810740598,-0.4400573163412493,0.7209278156649035,-1.5308605349790452,-0.0814499144411883,-0.843410799655633,0.45697418968726555,1.1923998731257772,-0.41199314067579995,0.38216733464431263,0.12298933549855505,-0.8240637677652758,0.23901932917825547,0.29178104691029805,0.4128708537126251,-0.1983988968200457,0.0941923003101465,-1.1476109448431353,-0.3581140754798567,0.555962679709798,0.894412830784208,-0.4180924638753712,0.06155656726686698,0.20542310945700928,0.20706513951193029,0.5372600971790401,-1.8473053561549755,-0.33149882409580766,-0.13412607144585373,-1.2843280652851041,1.3060459930149289,-0.5964655251716685,1.0345274276216228,-1.3181199232135419,-1.3773788304074766,-0.07413617868479276,-1.813768645372558,0.07918228642120842,-0.05756041072097162,0.8727151122448898,0.6823053472042894,-0.4187489717239708,-1.096477817172553,1.712268336288508,-0.79211502056515,-1.0455245570694658,-1.0848560594614451,1.1371302324650918,-0.40839611930351016,-0.6408840881380092,0.15157992455229996,-0.1797521764274626,-0.7302401285283654,0.8283410823939896,0.8669196016094468,0.5699916210898691,0.4384570571642748,0.35303813398333234,-1.6350695047530683,1.352575205671095,-0.003549646449434138,0.5519623648927948,0.9732905199744993,1.054855026647446,0.1965056728366744,0.33479279558919994,-0.8028058129114836,-0.21465459200051973,-0.9034992433997557,-0.7209895690738016,-0.8902671822141446,-0.1560347708436588,1.0490931879200105,3.1709865686664758,0.1926051508622028,-1.2936463959312716,1.4426482833076657,-0.1171968476463065,-0.6726712487286745,0.07536822065423011,-1.5350035940114013,0.14088117417404245,-0.11949403340808054,0.23029498409171653,0.4856049405514092,0.17016439864445418,0.08272590335006266,0.11889524771035882,0.018631422012471525,-0.9656912884388229,-1.3324205667311748,-0.17628312799146809,-1.7141262070909593,-0.1952266371426324,0.685905493152878,0.30106836321796226,-1.0996359892471057,-0.8338482785889607,0.32927692825197413,-0.4015836745376729,-0.3166552950521069,0.5969544156494938,-0.9618888014438916,-0.31030478362881925,-0.5716507842812144,-0.7980744302240464,-0.9608646054888526,0.346044657047302,-0.2919378208865456,-0.8674090613485506,0.10433837233862908,-1.3408228860488476,-0.5782683871960405,2.0400631890922027,-0.2531665038695317,0.529807172551297,-0.30053753325517,0.1585131803584594,0.5765300471977549,-1.0695484183294026,-0.22003642543547317,1.2315750731272488,-1.0016098553632,-0.7536307122678031,-0.3173507899504595,0.30692632797535024,0.5176063127595715,1.265261474959291,0.4994982334686594,-0.062045330887668164,1.2891494265637504,0.7869001978713644,-1.3029218074749576,2.6885586581175853,1.5595705591093936,-0.4396368404033428,0.36661040534177214,1.429403020023044,-0.12190560817840809,0.7658699150697488,1.1916354201659323,-0.9935660757822075,-0.6088066521454242,0.9188846177067332,0.1397141600724181,0.6804313230764004,-0.035998718382960225,-0.05722854342613635,-2.1312918978190893,-1.4397126631936652,-0.024040484570700363,0.7311342690274658,0.5619378346547521,-0.14814533626635412,-0.29738533067693057,0.22159626255180584,0.0782111810921521,1.4045455519616241,0.17283366457819954,-1.4258657781238153,-1.1543953699892742,1.6145562650247942,-1.1836119665132212,0.7155506420099556,-0.16679466136940724,-0.2281151999698325,-0.3321483705774461,1.2951655287725456,-0.02662301172037654,0.015623004437181447,-1.551309423382409,-0.002333937341136206,0.38095596266040627,0.18904685616817743,1.5615209217818966,0.322554027058719,0.3864915479361492,1.5304713274591282,-1.573626767538926,-0.39008055231376093,1.4030366301273416,0.8771954183438049,0.6799269878246877,0.8398304271079488,0.3270662091210221,1.6316030903870007,0.4019391599552794,0.3352873367246279,0.33135791719595764,0.4099625786743521,-0.835664271671084,1.1518494458327604,0.05320372282593958,1.5685487758751175,-0.18085741177340894,0.45805551131274286,0.19601750708807023,-0.719092992412539,0.8182224974615888,1.5956353953739533,-0.0068684253663648534,0.10395564978786818,0.05921622379634328,-1.657717058579185,-0.09810312918068011,0.0935895521364324,0.8643941096928891,0.9281943045398077,-0.46882311102863994,-0.2663199714705563,1.1231113833096247,-0.17729329124437715,-0.5100295513335655,1.392576805538169,1.046581247458569,0.06975011775565114,-0.5354161380499597,-1.891894440708346,0.9786291797404949,-0.4456434976964031,-1.6520639576758764,1.2933281930067588,0.3304391360341885,-1.2613062605703431,-1.5063916297951192,0.4645921029970968,-1.2194109130669826,0.909365655183857,0.26337312415031033,0.6424362001121078,0.6091042967168833,0.13127598120258074,0.7525276061085024,-0.3829085960537536,0.08230259591823864,0.8086097932894545,0.48946106876960244,-1.1291288975214642,-0.4913474022962922,0.2558900949475463,-0.40801472247385223,1.7746585609733332,-0.3923684473396893,-0.1562932043610773,0.6898887601521794,0.28545282781615555,0.2057263898066935,-0.2258758315627508,0.6013120341413813,0.7588936242210271,0.11720393039502625,-0.7789946447006031,1.5329121572568751,-1.5641742874081461,-1.8326380788943586,0.5670587213458868,-0.42043356708453444,-0.609394671049702,-1.1976566540444502,1.9296687622341593,-0.2652404538925306,0.6608392864989224,0.6035496706950415,0.40666369775262706,0.3224995667529544,0.6910340465943093,-0.38341911687673563,-0.2889504137505173,-1.7410228119825335,-0.7803044065015394,0.27037745529698,1.045255928734849,0.5106531681426415,-0.49033419657735067,-1.1081978467315696,-2.2776872064462323,1.3782736988599602,-0.5274589708604053,-0.5006065104078438,0.24826928212186886,-1.5757483335674174,-0.641743241664415,1.4029882573193275,-0.3464772117031138,-0.508531149068997,-2.0650792249762535,1.8086434367170965,-1.8255982548338507,1.7200064871576948,-1.7499513912800173,1.8226867779261107,1.4927207511037166,-1.00060855732301,0.3989515159370852,0.5142582874366476,-0.8135469036450595,-1.4491176107369304,-1.317717328870455,0.5393284063815664,-0.08620339412959653,-0.5872235692089908,0.8271503172471539,0.6618686512878234,-0.2636936503315412,-0.8891695316329764,0.5981095787337326,-0.4976942653392383,-0.04510829206384753,1.1399225044700083,-0.03903260083042956,-1.6669065309591784,-0.7536805241810576,-1.7711114283597673,0.9227214719805994,-0.9663839298076485,-0.03218119566746093,0.42245200603301003,0.41877061931426807,-1.6771915807066615,-1.5545079287195653,-0.579656534445385,0.2660437016157009,-0.21039822078310771,-0.9643570399993816,-1.3549115029078191,-0.4015574629547118,-0.4692713546481825,0.5111560740204159,-0.34790336774879504,0.5906310098819911,-0.41572016666934514,0.051479230746740705,0.01112472139660815,-0.7410026503992023,0.4254975272244531,-1.1197983808543845,-0.8453552106994427,-0.47755059100175185,-1.8544940256494156,-0.8790532524125785,-1.244655778657962,-0.9337700555099023,-0.49521498994065943,-0.8525302748683586,-0.10576413311807474,1.2094424410609341,-0.0704957544405045,1.0534604668727015,0.3446922013545698,0.7492457001428315,-0.8085107813137625,0.11095358760617349,0.13520540428771835,-0.6126257388749357,-0.8231048534538632,-1.492027214630071,1.4736170444029772,-1.0233940672415596,1.3765241031540316,-0.2962034348530927,-0.8052162897022465,0.5252664395610716,-0.6837560528750466,0.4500386851965606,-0.6038725091463143,0.21866137668721058,-1.5573872512692086,0.2656532422905,0.30135085347515506,-1.1482802268622703,2.2296398521857936,0.22901549183730324,2.017348981721024,1.3315646215176424,-0.39845554651181275,-0.3611042616609242,-0.37828557030481674,-1.746027949282505,-0.6684090680675818,0.2476575765421605,1.5371590687109093,-0.7727718829782021,0.8820543439425074,-1.2539046725363048,-0.5638293557468269,-0.4728080532059804,0.35273318401522047,0.4415972136468004,0.7801519177727776,0.416580427639349,0.1279224121814104,0.4187570425381455,1.437680179719847,-0.8196547670488264,0.18341395803640448,-2.154497189877355,0.2449293792485364,-0.695107089073892,-0.37239353104958073,0.566728296524895,0.10630574044454826,0.8318573742333457,1.4620759748551873,0.5909755495854374,1.224778222774521,-0.2797462751767266,0.006820904671503068,-0.5226051098479058,1.042977594646376,0.4140913537935951,-0.5072363394299428,0.15409914924879978,1.0489067157662284,-0.06496058635362732,-0.951942353399032,0.14992083199025616,-2.1830147402300484,0.252704790062622,-0.8777401800271362,-0.7334920583285724,0.6845780500532743,-1.5425131933169725,1.5336669409744088,-0.7361873738265914,-0.6832259371990446,0.7633657598746986,0.3868675016273277,2.0112852342491214,0.17774924648380072,-0.1374910947803032,-1.5207764566195918,-0.22140945652432562,-0.7097093077832412,-0.45215329904495033,-1.7412081526131022,1.6601956159921945,-1.4166034824256406,-2.802202798391713,-1.188424769386895,-0.6043409850063878,-1.1434070857452483,1.0566467128847892,-0.13327869549209334,-0.05821085096116958,0.4127874748373867,-0.12163155658616727,0.3543905270987156,-1.5514904919586292,-0.956385719637433,0.3455767260820951,-3.018011285866624,-1.9249586192849342,0.2946162595163518,-0.6197912267600142,0.5511919471210422,0.7450298744537448,-0.848530182599392,0.36163071134639346,1.1188879934084204,0.21895634612588766,-0.9947111974625542,0.8931349227768409,0.6370443993603196,0.5423516317203789,0.7159388934369917,-2.994612860227619,0.8809375616009576,1.8077562167717873,0.4430988847120266,0.1651407197420857,0.7026053009716063,0.2393057870471665,0.4747961265663624,-0.27112240831511003,-1.3842802229475244,-1.5777829528146834,-1.597475332319689,-1.7655025801987156,-1.8059543875658142,0.8334360754544041,0.4940277513253198,-0.5148301945602286,-0.3428051345144956,0.2673894331876934,-0.48982148863877595,-0.046426643454914394,0.6200642024297808,-0.05753967634735186,0.35485166104365184,0.9295705963094194,-0.26860271640022876,0.2822308976031931,-0.3093775928833613,-0.0285288698344164,-0.3247302649457415,-0.5287573645666437,0.17893906310213717,0.5829692067835771,0.13025549204346396,0.40376340989090265,-0.967273387057136,-1.4379234379022567,0.02410328665915381,0.21725526598844014,-0.7305626526159982,0.5619247997570392,0.04087380300705228,1.806985831863096,-0.31626977998900924,-0.32449243281553625,-0.0443780458590111,-0.24585597961944233,0.4499550648819509,-2.319948415339824,1.1857807374495968,-0.1870547095565045,-0.15725813718115414,-1.0159678245423804,-0.06961702102186834,0.0132397676675335,-0.1219449276002772,0.3390592559424304,-0.5896320419510298,-0.8958428155877727,0.5482822404205515,0.11513089217818706,0.23424404961323675,1.0245584187629753,-1.1753333132406967,-1.1204871285886537,0.9169157069877388,-1.9108987871100263,-1.8095958630409288,0.3128337918782904,-0.45978694362610917,-0.28235717441617275,0.22463721396426145,0.6684633356274999,0.456645373583894,1.6722233611233355,-0.39743302778782463,-0.40285125285403833,1.7537690720284336,0.04402700772556494,2.310554644029782,-0.03221867471847401,1.3867841763502693,-1.6553440383096778,0.1536444608156663,-1.5844735631509357,0.8444543066045863,-1.2128678162090247,0.2832206385441596,-0.2750307211696185,-1.1542808150704815,-1.625493504208976,-0.5966242976932817,1.5618076683610613,-0.6032606311817772,0.6194898119082711,-0.342865071413155,0.8103398541337934,-1.773394550667115,-0.3497306239411194,1.2826141071513102,0.2773813524066956,0.29819464075421803,-0.32861672229995104,1.210778296706928,0.26080631928688774,0.15280848968818855,0.697803115385249,0.6253424708024418,0.265529916847229,1.5485777872289546,-0.060343406857025376,0.278081047967944,-0.6429525533528905,0.1501152270061292,1.5877615237453675,-0.6432576017887388,-1.1329082177357042,1.0007856011935548,-0.17319499121305834,-0.015077352905594173,-0.14641239897965186,-0.12950669533702075,0.4950901205545476,-1.0764117615152407,-0.9706481603008196,0.20848345314943142,-1.3064769165423777,-1.1796095442759682,2.0243449793527963,0.9791194282446923,0.24917098731818507,1.3957817108989752,-1.0014634379721579,-0.30083920632037275,0.5554605471493885,0.8439246822954232,0.5132077886524903,-2.5412884094224886,-0.9681414116917438,0.4770680923568652,-0.3559514930468063,2.5402316207591715,0.9265583009670963,0.5580818806186658,-1.1169495537467236,-0.03529293483194322,0.241225034132306,1.1278517397274401,0.8933873890690532,1.0454836187699585,-0.9344747695676204,1.4157002483849703,-1.3336325416963364,-0.506148041277159,0.5157196939484423,-0.17238486790496424,-0.9494805277816036,-0.5540293888298949,-1.2307304014713856,0.6778528169542695,1.3221784274484927,-0.016500157702946674,-0.3549265225046277,-1.4601405319456755,0.9129499672342828,2.211304333239493,-1.7974558043668976,-1.0634329381546068,-0.6795930425441441,-0.564317909682489,0.227345950143481,1.6142495472802274,1.0085972868601036,0.5275973827743159,-0.7239283937988163,-1.1196194730069415,-0.7967553191275821,1.5480777288069731,-0.05956457878049644,-0.4416309099952462,-0.1731939386811787,0.8287904108966031,-1.3113857002103657,1.416829571855113,0.16493375501602076,-0.1782706798537691,0.46882879400540356,0.21428166178651714,-0.37064789954374655,-0.24724770544051394,-0.8357451588171311,0.6618035414324251,-0.5319938094111618,-0.9562584224322828,0.1658635226535373,1.329141282745553
-0.0483446237798196,-0.6081012569516899,0.4038960208359738,1.936712462402552,-1.451905529431747,0.3822027877852936,0.2050866252318538,1.1615338035591172,0.9909091736848452,-0.1867091118097792,-1.6845172554248828,0.8065637678962596,-0.835193144287026,-0.9467414052698435,1.1483505806911265,-0.9108503776386524,1.4028447401002433,0.335844721405313,0.3191184000862824,0.307264780505591,-1.638423625741792,-1.776388616346576,0.2155530537886848,0.5680073592264201,0.082611032156201,-0.8215345170195275,0.0189221038821947,-0.0820341531454841,-0.9571580982754104,1.0139721541121614,-1.7302760615500858,0.5887424068075064,0.3843234052112453,1.0094527668715756,-1.077336394481685,-0.08039825816739604,2.1097356079183953,0.655525361152834,0.09499368915853475,0.4568316736756187,-0.1132623492036113,2.077389886249649,0.9133310763078701,-0.21156461722697945,0.09993955741522598,-0.4461815199598339,1.2092919219990261,-1.408843750869624,-1.6101736373045374,1.4091930876239807,2.088582709939046,0.45968620496989215,0.1127379412357372,0.6572676903047773,-0.6470535263827593,0.1712435451522125,0.038908705856215,0.6265642507453606,-1.5579985281833963,-0.5070347697653375,0.8435465426980765,-0.6786508787786385,-1.0644458105583228,1.8461687098127813,-0.10518610194715167,-0.6291527583766275,-1.744475915754878,0.6263351786993606,0.3814984561594611,-0.6065253616011095,-1.2777144714683,-0.16541212506798797,-0.990387531966319,-0.9647771917938498,-0.10518711058229327,-1.077549173352972,0.230654013476977,0.5910759247287302,-0.9202893235975013,-1.4037306075919571,1.5584668847486163,-0.9402702359572048,-0.6599427051023377,0.2130171674298873,0.599369372522297,-0.2563168936896428,0.4607943277012555,-0.40184610032313894,-0.9721181273300422,1.4203150534781577,2.390760993776642,1.4864854202578897,-0.12107587578254962,1.5573876689866597,0.21826945222512545,-0.690682585026299,-0.08081086097589342,-0.8816710259126095,-1.5542295058309412,-1.49034667070006,0.3754824078772971,-1.9357519966606045,0.6637232194278946,-1.6716352063645146,-2.117228533568396,-1.8783619872853987,1.9165341362371406,-0.22381419493868696,0.07061220298755913,1.41925486295473,0.9341797484997248,-1.3915052694042196,0.8690063428187611,0.1841812647035463,-0.3416780975958806,0.0233199888808977,1.2799400158478318,-0.8840635344973559,0.29669521697479245,-0.21106457070231432,-2.097754419422162,-1.0759374607538554,-0.021931052180549852,0.8128175605288405,0.1706723207079278,-0.4137941386048623,-1.9713893317417446,0.9617478438753548,-0.2230210757527085,-1.2051681052356111,-0.22647164036828338,0.6206671916881752,-0.49793929377658674,0.5000152273642139,0.8446486948964732,0.49862429934090297,-0.7762340279348476,0.1689592292808922,0.04989773816377824,1.8593463338516285,-1.62632193782683,-0.134822451094354,-0.5909089011900922,0.3314514922697399,-2.4305006280373584,1.1303008011410467,-0.013535123152680142,-1.9037105232152653,-0.29509324769462236,0.9066624162631646,-1.2184266428201513,0.07932683037724661,-1.3087659496368538,-0.8923746498267919,-0.08140157435645688,-0.009085696432107349,-1.3769340218223827,-0.6067340268029198,-0.44475919073706677,-1.3900292325646513,0.4148760544625916,0.8209574298539877,-0.4721183904261876,-0.3307572712954264,-1.426231625631033,-0.07436996840522138,-0.363069364747354,0.7790512201329916,-1.5096616060682988,-0.27801934767526343,0.9678281343967812,-0.7120647682471309,-0.7424863770036078,-1.4478284693186045,2.6936768255355323,-0.4424363208795716,-0.7216343141074237,-0.10921998434308493,-0.30224948850931316,-0.39475249556433595,0.627294533223599,0.014714062077769695,0.05720946436017639,-0.4570540912170017,0.5890265962922123,0.4361911800556521,0.9919606997237246,-0.42099089257105027,-0.3910780403611679,-0.9808873082889221,-0.06674123764488707,-0.2781761763111964,-0.24075983384614308,-0.8905585586846109,0.5231467891536531,-0.1423315593764931,-0.20035122619040574,-1.7262536781578104,0.4935218314297109,0.5080974026649429,-0.9132954388798729,0.895503943409499,-1.0856813565376249,0.2911631456927018,-0.058079646470353366,-0.33053895388324045,0.4119717387123421,0.9561509432230445,-0.18540759371193946,0.026566655757601372,0.4407082643957947,0.250545759698732,0.6344171025685055,0.004471502558792642,0.6015093072739143,-0.1601969288787857,0.24155579909914016,-0.03429151950759066,-0.4647919165771987,-0.3145501676343478,-0.5419466467035539,-1.1146089842311082,0.7557984232197424,-0.2902822217771622,0.5293628853222557,-0.6695538916552707,-0.035367679941829606,-0.6610777247606352,0.7356389126739248,-0.2697890696395873,-0.40364494871595136,-1.4165409704370786,0.6628080436679957,0.17829305546553884,0.39209095810471223,-0.4776319466605041,0.5627674062987782,-0.11687223892295541,0.23920170303505123,-0.693994055041532,-0.1310889918675805,0.9932841355918945,-0.5058670375957609,0.060458727335699576,-1.2395555752076248,0.7270360834813443,-0.5439067639139394,0.8322241562846453,-1.6635977450957375,1.6874986042660018,-0.5577914239504966,0.5431957040918964,0.1503202679121564,-0.2514475374927623,1.6663567337907983,-1.6447361374922913,0.2287056744590935,0.659777489796653,-0.07478452931400413,-0.36450629436779025,-0.07119890236357852,-0.7761307123881847,0.1943037614156574,0.28835562084370103,0.1799116742430744,0.07096172272419694,-0.39756959490616367,0.19120714227209082,0.727946219166591,-0.7804293819314123,0.8370576381988309,-0.5648777861174611,0.609015372891965,-0.8824474070307999,1.043034381675735,-2.410058323039425,0.0719317720236156,-0.22081089724942893,1.2009741581821078,-1.6116207739665231,-0.15561664528947355,0.07449827989307418,-0.5208459840009564,1.1384369730599038,-0.45012571635238513,1.497308714825711,0.40710028365692547,-0.019625177814827782,0.25695592098642933,-1.0014539160454836,-0.4275870830344554,0.252470302443299,0.10083742391670016,0.00834442089298096,-0.4947415115145874,0.24987612268090587,0.8612657998720447,-0.1859493487551643,0.687251290161571,0.16624051201341467,-0.4418750321380093,-0.6527317794802668,-0.1606802362446107,0.16268621448235956,-0.5388251990407501,1.8475434696863622,-1.0612139021240898,-0.9941093304424125,-0.976956763990801,-0.5968635245560742,-2.127315117238989,-0.5455061311913443,-0.6652054627705556,-0.17263559665901518,0.41824780397176586,-0.8584055044042163,0.4804105450320197,0.9215629386796923,-0.2032645690727986,1.3701895578456222,-0.7594807912382598,0.09995215288585367,0.5041069379672432,-0.3683407757058052,0.18006810897282155,1.3480006357777707,-0.3169119893267346,-0.38032880132649904,1.243411027155929,-0.08431232252793432,-0.021305153510217327,0.03988322985401727,-0.48122364075701507,-0.14369430813149356,0.7424644018385429,0.43950679756557187,-0.8086759456441434,-1.1016066596638623,-0.7321611674181195,0.10614085100719148,-0.06593032927563178,-0.7965044306013844,-0.09042891517065663,-0.5637152196091829,0.3818887113038886,-0.01337350523341163,-0.8820019058604804,0.34568409401933453,0.6309961155675345,-1.466030431299625,0.981233921522438,0.4191772219931497,0.527716386453865,0.0718220924165289,1.262549827444975,0.5056008846432649,-0.40723107488950844,-0.5106472348577529,-1.3033333611454587,-1.4741478081192816,0.19860674664910702,-0.8945721144965689,-0.05388860123963038,-0.6750449517911801,-0.7707910842627528,-0.47938676931575763,0.7180544699906435,0.9441783524250698,0.6215719942615905,-0.866823254986056,0.9009834846939727,1.2668405517342796,0.4978615212465795,-0.05244684757596259,0.7380526477979048,0.4863089489279465,-1.8061474487871458,0.9202246662323104,-0.6863597248314735,1.3387357447580892,0.6586928361052878,1.5761724853974746,0.08662208955330188,-0.5268029272998893,0.16099640859955275,1.2454962596085328,0.0391515224030139,-0.3819367666147945,0.5400404108953997,0.1436267412134463,-0.03279977978567534,1.3756679450441394,1.5550574353137123,0.6140696747824669,-0.28830291689292503,1.4935728827957775,1.2626853511155984,0.43493276432064026,-1.0759934350966753,0.6756511216160098,-0.5748390194290433,0.3047773602017922,0.13060278952201562,0.03542730620987867,-0.5478422912415986,0.8046394009898141,-0.8067021239590393,1.1447149396259526,-0.5674128740551125,0.8604130374964526,-0.0070687578052700045,1.0954937408482253,0.4270930571891221,0.3450829481183521,-1.0551913706699607,-1.0014595532893773,-0.2596705088015092,0.4163668438738673,2.8635265739368996,0.22396191920478326,0.976018999099958,-1.5568954943361308,-1.3483602126709944,-0.38956376896986483,-1.241765967492209,1.1538650012575722,-0.5602079583039907,1.2003006433972205,0.9075978663912008,0.004182514286140394,0.7809731282959349,-0.02629346418761899,-0.24728418387629722,-0.14647005824360226,-0.344779305926289,0.29284310040745304,1.4524070239159892,1.5790327400369508,0.9491162964373064,0.41259885551202985,-0.6290652184589436,-0.6820634534701852,0.5782626444752883,-1.418530536881467,-0.991993836385934,1.1010588483143946,1.8861352327343233,-1.6767640815106628,1.6266495932085252,-0.2114382908455566,-0.040047490035885,-0.21413680882679914,0.9376531071889289,-1.5284774928338651,0.4208809336747351,-0.8420496609729761,0.8283169297195259,0.9884953997588075,0.08578237183557184,0.24004600510300683,0.11401894380735482,-0.6513699436916708,0.2784031975302857,0.8725376460441678,0.9261256335943528,0.5921028506733115,-0.025646508750433908,-0.6215674916044565,1.133758735626324,1.2962728038317173,-0.00944691553234384,-1.4452005548352291,-2.799576493028599,-1.1647511720117263,-0.1781401830316071,1.3981063538642917,-0.6516562090577808,0.504815463556202,1.2681567094287562,0.04194011418644885,-0.2903122489636356,-1.185353183710167,-1.0940500661205392,0.5922365436215246,0.2433790968458929,0.2674434960144851,-0.17347267968443736,0.35268793465639964,-0.5838530132022973,-0.1989782743807009,0.7723270599083822,0.052997119246139715,0.7367359255976871,-0.7202131462289202,0.31956085391068756,0.9395639385312166,-0.7673868173027921,-0.6150783838215724,-0.47935357436144466,0.389604359871704,-0.9039493953820478,-0.3684057019317284,-2.3891678480576974,-1.4045419073322818,-0.11284435015670413,0.8978641806925701,0.2850684670899371,-1.124512927870909,-1.514138950878905,-0.04603516139674994,-1.8019102665767226,0.7576116539873016,0.12830075927682452,-0.8990502648433,-0.12877725114340238,-0.6324237776134326,-0.622013423733554,-0.7257762740621388,-0.3275584997630021,0.4940664463072099,-0.18503758769397366,0.25855974617096017,-0.6715869399117876,-0.4328313361154496,-0.5699965511686464,-1.569099007123321,-1.0678375945197118,0.024859134079543724,-0.2504461959148686,2.178014401893837,0.3765680507022038,-0.9135752227189903,0.8097407308144474,1.080109661348899,1.0943031664688252,-1.1123512147485382,-0.1476123155182332,0.9331601177743528,-2.1699192392895372,-1.1165766608758325,-1.8572592049207506,-1.284022950356519,-0.8774548045773299,0.4852472275738912,-0.4254445830054649,-0.16736553848897873,-0.5274966647178184,-0.10551803984362779,-0.32637026470155106,0.1603780236425192,-0.8222442295162313,-1.1938672110106399,-1.005760550256898,0.46016138653988636,-1.3164182825412258,0.8032821923413943,-1.5315046048809,0.517061771062913,-0.8830455596181707,-0.5095964845383302,1.0985816482311466,-0.12711920380195457,0.803211184056794,0.40761669410557205,0.658568164104378,-1.0657493150733595,-0.8299628328195919,-0.4258227723267994,-1.6897533462777041,0.9124562291867272,-1.314331507655014,-0.8379267989946569,-1.2130538703228781,-1.5268064839360704,1.0300359770822252,-0.8634858276088967,-0.2938532610891218,-1.4714980021835162,0.1391251487773999,-1.0678715049120329,-0.0072654009764706,-0.9985009550295835,-0.8815450710120974,0.03951968558241424,0.7074515728986097,-0.5223968263002844,-0.7903287533239872,-1.1691010497213048,1.1035037667283756,-0.5752559949947287,-1.854184284794048,1.3401107049945895,-1.4526276046796907,0.5251539770279924,-0.3333611708711855,-0.4026949874236252,-0.9759197761596521,0.3396342918202338,-1.3977724088972596,0.010417485187450658,0.5958909638557714,-0.04379155266551324,-2.0114696382678754,-1.14077985580886,-0.09974927143507044,-0.6194764542223604,-1.1915114842567847,-1.2812012213931476,-0.38119463346812277,0.7797918386342423,-0.3783044439683582,0.4882062261779168,-2.5910198355989396,-0.9108524387941376,-0.37980046529464667,-0.4885662207546257,0.3327982174044547,1.0137505474982609,0.4976620233728335,-0.6264076841492768,-1.6204418397855738,0.3798501399824881,-1.9178001045142157,0.14551246845494115,-0.6454265513711327,-1.224008088426318,0.3803889942433471,-0.6637926813845574,-0.6467910382333224,-0.5450921452313234,0.3448231758419517,-0.1967458061215857,-0.3384271441944289,-0.014571804530459042,-1.1540594387556777,0.2389584016839669,-0.30656250133670837,-0.8838896059224071,-1.1257148102171382,0.25412125109324124,-1.2547754347420461,-0.9104251416701976,0.2325316173130727,-0.6078874462819541,-0.9333162402269224,-0.0344750460883982,0.06038735988146356,-0.19108815383150624,-0.5321730740562571,0.747457398282312,0.32669761817338,-0.39932307820281543,2.0426562179665524,-0.4297824959298044,0.6257822876270774,-1.0771026718965413,-1.2956570111336594,-0.5654107169629238,-0.48994463456889414,-1.246924582883568,0.38296971287569004,-0.9289815302039317,-0.7222984770904803,-0.899181479960349,-0.7121569085293382,0.09419051733421333,1.9389290034160576,-0.6530795356401129,0.854465610229794,-0.9999495348374664,-0.4601420981501471,0.0035832059545836,0.3263750897269907,1.483128627973814,-0.05305706846169546,-0.8579816070497399,0.5672668003179765,-0.2731320837095449,0.335963986522858,0.2726800788544816,-1.3749807325135295,0.002560695582770799,-0.2839950158868445,-0.007063878860876962,1.071101470675532,-1.2957297348840189,-0.24743122856628438,-0.808277705612827,-1.2039405672918704,0.23520201695891046,0.22173554047976812,-1.535665552375422,0.4829081843777081,-0.5053414635039294,-0.38239951016792567,-1.6577192249309296,-0.46320110421791943,-0.21632040194191718,0.5439357853308758,0.0008999266711071,-1.5422881507996786,0.8621480568842673,-0.11784406352839419,0.4954915826764808,0.9724065349272377,1.4345101261006576,1.7559684733300647,0.0943083832559458,0.8493350975231768,-0.9719804868785513,0.5435281783926946,-0.616335036813498,-1.155318826850862,0.7631949731834137,-0.6892133862689834,0.09416723305108764,0.2048266658982685,-0.759160813618386,-1.6524329920909389,-0.6453824231352816,0.4523649872729418,-0.8495161061193806,-0.5125869568417842,-1.4417932231077952,0.16110940073250557,0.08608060810496576,-0.4876762212355267,1.3970653013137426,1.4977150273195634,0.565267202536451,-1.7997711814667443,-1.1044557187217936,0.42189336988769666,-0.4987065693736251,-0.2015654426461902,1.161658698703021,0.7009767932816446,1.5118898966539256,-0.18597435567517678,1.5621457467436233,0.022029216200623286,1.8656485673735468,0.6063300691865587,-0.33308404763873783,-1.0553713737344146,0.4629212975659006,0.387893468627534,1.0561134723408636,0.10630419122762544,-0.26873053486409887,1.1387570493299715,-0.21491872325685282,-0.5754364832878569,0.5746075701602907,-0.4898282188472668,0.658802141691513,-0.5969171117831944,-0.2229591829703794,0.1521769755882663,-0.3741263202643058,-0.013434746585187738,0.8155123862464227,0.417659395458996,0.517611431817238,-0.6015857317929632,0.8580540863332995,0.704452683340165,1.032497691512777,-0.6383226673362519,-0.15986554284929846,0.6737888189332595,-0.5190042408040323,-0.16723071260108316,1.9569581128127915,2.005758914999039,1.282160987897058,0.9601221490012029,-1.000074703362327,0.5428710843445714,-0.3560620745308838,-1.0585718976053675,-0.50900583859132,0.1156650740463465,-0.5473555742986664
-0.5507994257068402,0.7920414984229742,0.1441064851232318,0.233458079662318,0.1118723968962983,-0.6757031433716509,-1.3705719179606883,0.3105647104204784,-0.5070366321254438,-2.010782268585878,-0.3925672579651524,-1.0922179413406234,0.6986502343077553,0.52162522724034,0.4968931448384696,-0.665041618158691,0.731551581862154,0.319649783134073,-0.4098545384398195,-0.4533374321385169,0.8927081528737002,-0.4736040569636581,0.3036564735262783,1.0339569868127836,1.9093426255571089,1.6638731244377296,0.9008227642090298,-1.5059113515713871,-0.6890484294179713,-0.5480871874725356,1.6531498325653209,-0.6993179409720909,0.3861663770983691,0.10080695974190773,-0.9546712501696951,0.33486172291933586,0.37882485412496036,-1.2618690386808016,1.2224636479046755,-2.0871773469883563,-0.6163783365337897,0.9402160236834308,-1.2125926985099886,0.33827260646351404,-1.2982903879490115,-0.0934705709408544,-2.3139213466702557,-0.8425717017130081,-1.5429214471542902,-0.4017637421265006,-0.4152313958216571,-0.6736641713091397,0.7979131965667455,-0.8868796038714377,0.6343866731890512,1.6292757699588616,0.1390641503046825,-0.8576702045753997,-1.2493385148615423,-0.7097851001194992,0.7033182954926364,0.15344159988216477,0.9201900985263478,0.710579499081593,0.0820914123471867,0.4465838544524572,1.8276842956719557,1.39079894774141,-0.39291974592340334,0.8839167613135289,0.5077009803625397,1.0871578766346255,0.6557484140442217,-0.9552064378975039,-1.6198564971866103,0.5616246783460616,1.8846487331879447,-0.7807695510135482,-0.18803451610531555,-1.0357477261952128,1.17782950470566,-2.3051668550435207,-2.2636603010358085,0.3750199198201532,-0.0823436467913521,-0.4796230150738065,-0.3010947865234137,0.5369879144563616,-0.4146699594101777,-1.1011619862788296,-0.9612497113587226,0.8107316994803692,-0.6154859494035972,-1.4513406380875358,0.055527542870635084,0.449900348492488,1.1842583288268602,0.06997331982634947,-0.787192222751291,0.29557849826263327,0.5775624169914007,-0.05750984389271384,-0.08653869568986433,0.16906501766070195,-0.162042121515241,0.20601960003916045,-1.0125766845853794,-1.152296068264743,-0.836041315946718,0.6422109433294259,0.2587975673406087,1.0402389642495586,-0.1866909221146099,-1.1436413958418497,1.144553535284558,-0.01824731861080928,1.284055354906699,0.5997274373045542,2.151192355023386,-0.3022228786732802,0.8149067238676413,0.8637816047643183,-0.5628850945123077,-0.24114728306638622,-1.5998531645486334,-1.6469250572501577,-0.07380659764598746,0.3951544490024825,0.23510807253522079,-0.0848581045957317,0.5447017556731363,-0.713864342103009,-0.36717375198910274,0.6341790172248,0.3876501595940916,-0.22039022223209945,1.2933941602032808,-1.2972589381252422,-0.5186786872885925,-0.2833977744562524,0.8165348797737704,0.0023851979152351,-1.2612111608825698,0.5123177437734394,1.059704165868815,0.7309806687768244,0.5904301808795616,-1.9201504214392744,-0.9180250182846001,0.5220765085784038,-0.06859689523407295,0.44003904394851834,-1.261480120620487,-0.05663982873007277,-1.5567528318289363,-2.166613339282555,-0.06463280232854894,0.3298420512356544,-0.31459245272303504,-0.39013218305804614,-1.7149586434101196,0.9585445571677756,0.005044036716990005,1.9918260332182114,0.9199767162791745,-2.007238746060755,0.7550494785932069,-1.3965352375731572,-0.7594954904290641,-0.2507566767601495,-0.09604336645188707,0.4151987358326311,-0.9485710966420645,-0.8846596283230587,0.8142811595526549,0.04976651108012028,0.38293915400230794,-1.9020485317339346,-0.10703566979446945,-0.9279666025172066,-0.8717815606141344,0.8110845644798929,-1.4395449594100913,-1.4024787863816126,-0.49905676556651596,0.46062679529792894,-1.05993374052791,0.8767981854841331,1.4245423734307954,-0.7185320817278177,-0.07609471956727122,-0.6693208482814403,-1.6852183897541606,0.3066104598679819,0.7357791174575073,2.011864263126561,-0.8973729544090593,1.3409327288675625,1.4192514826574505,0.33281579495571434,0.809214930868279,1.20311396863191,2.4098905552816112,0.7130960200677423,0.30458416524641635,-0.37591713947529454,0.6132020967970782,0.786379054299833,-0.05790474399896562,-1.3634279481517275,-0.9802202052908894,-1.2220741822306225,0.3024083950724602,-0.8990644866697695,0.9853894663595922,0.6683976356927732,0.5153183556654136,0.2650328974032357,-1.5144877580595935,0.10976489183079255,1.0183952982090705,-0.8890200803975251,-1.987154604734902,-1.5405579718706937,0.3116704020850192,0.3880782057021314,0.9851597503421503,0.12657785768501875,-1.2300396098118787,-0.4576696575858214,1.2957078578769388,0.5053328358609592,1.3072522681299215,1.169226149834619,0.30859328914540957,0.0809408837056148,1.521532085901864,-0.19115564329204077,-0.9233183652227712,-0.06374802401308878,0.3899301997559333,-1.1959248326842535,0.9505243093520859,1.2716808688330654,-1.084929536112075,1.6001500601508376,0.020775413392618097,0.37259327101155393,1.0117476831690977,-0.7758459634308783,1.2239479696463744,-1.2142172823686936,-0.8719752003056435,-0.5830869447721808,0.6977134002891553,-0.26915133508177747,-1.3949105019554087,-0.33389131693229734,-0.9381200371467441,0.6766598271308821,-0.17790892317043966,0.2534413620487507,-0.08470614107460613,0.4969490072487532,-0.34895161407232383,0.199973045469537,-2.5400232918654737,0.010351582964326523,0.44799742304561185,0.3233210091955912,0.6726168138373486,0.1781526651734194,0.7469292139817157,0.2426752938513318,-1.6783503601260328,-2.314350614028466,-1.6395937913816745,-0.06234098327642152,-0.1689135259157697,0.27623985159176295,-0.6215760033872276,-0.7328732906304576,0.5940902549546773,0.6704459790338955,-0.21781500402560816,-0.37485204647686937,-0.2801424481247676,0.03131835005970299,-1.2959553384844642,-0.6456921924642838,-1.0092862458260254,-0.7040488042192264,0.578762387161651,0.4265287375823995,-1.1930242127263533,1.0015457657027973,0.8793957190069145,0.3517011445802457,-0.8163552949915681,-0.3083444287970252,0.17338932799884343,-2.0316265463656555,-0.22368280671873877,1.9456764709843728,0.4572920335230337,0.21790415687320216,-0.7494793323750146,-0.6783298378739697,-0.08288862283119679,1.5944921323706647,0.5403970034781851,-0.8280214315385567,1.228503223448558,-0.4013576712863597,1.3021779582080646,-0.7466536747024523,-1.1167056899183927,0.36116688133436387,0.9939855855172295,0.8103012513166008,0.1335268342645126,-1.1754417490006412,-0.5686106799773398,-1.266246235884963,-0.04478828213900973,0.39515266294939977,0.7859860044101443,-0.41041185414860726,-0.3286930575946712,-0.31451304258422136,0.7705679728890201,-1.2076508483196415,0.5555739623554447,1.8995297884675675,0.428303759051063,-0.5270916098410604,-0.5362645489570227,1.2167305899352063,-1.0931904948613218,-0.9413268568840735,-1.165402361240162,-1.3043891425285137,-1.0955686379670218,1.01952340601737,1.1437780809823068,-0.6318865396654949,0.020889051552022184,0.6020247132904998,0.08948368189121836,-1.3330565511760635,-1.7867392843191208,1.2869010603644095,1.2843607331344051,0.8227579977314994,-1.0439495728476444,-0.015993503366643652,0.27490975938362755,0.20240696669913885,-0.840851815972947,0.7003989730640533,-1.7513198822943514,0.8872650374344072,1.0796074789962335,1.5723303179796002,-0.3424921902504429,-0.9967788478528731,0.8114339027049818,-0.7700185072240168,-0.07650740207802853,-0.19401198206754108,-0.638633760280691,0.8496186298742234,-1.1119608063179187,0.6846793865753794,-0.9107446595729014,-1.5066768033820999,-0.171327698312136,-0.45625362075472076,-0.23691887558282562,0.6235072941306558,-1.953435823484492,-0.8584909302956131,-0.20877612912782803,1.0609806001061006,0.41417917907169366,1.6731529034077761,-0.6912608625354278,0.011739160827086306,-1.332544995776804,-0.45257423018772713,-0.7353020088617231,-0.633988659196857,-0.3934312822566755,0.004047045378608167,0.029769672475124995,0.5147858234943502,0.16284888063679007,-0.10646476966025915,-0.13123124988941468,0.13205922505835588,-0.3776539839866934,-0.005364158487342149,0.3261538931125282,1.1674807093434876,-0.8517492765912074,-0.03421211141157137,-1.6728449339720042,-0.15575147346509,0.816194755623092,-0.23142421327135673,0.8881215048230977,-1.0395464922424325,-1.065998920998402,-0.22760810163188863,0.8819390317626624,-0.49903643583234675,-0.6508305627711592,-1.049186487002004,0.19910205029824857,1.2466951408944356,0.7006859925029788,0.6966954158476134,-0.20318738352867685,-0.5230495994320224,0.7856564110006821,0.1633443192310323,0.28947363474048166,1.3537438039805463,-0.2767052102143585,-1.5819558742878417,0.06925853317270578,-0.46146729907962564,-1.33443365433744,-1.4473192188679471,-0.28711272608496935,1.6763488380871772,-0.8614869652392159,-0.47504191399405965,1.6290856981604933,0.3212203698356374,-1.2508533268302628,-1.3916937226163895,1.2927798949910771,0.6629094754127269,0.6512785198857665,-0.18056519511151106,-0.7341022963627432,-0.2171631157241669,0.13603145934033473,-0.8383111556987011,0.5602585111727759,-1.234362159364904,-0.2503727295882007,-0.006804183675905648,-0.20608643037778435,-1.5666744668810768,0.6318236408042475,-1.0009031890001387,0.7393762072724788,-0.9510237671605489,-1.0608432805158754,-0.48072897315934615,0.5839201590415768,-0.4042096798991024,1.0691828440116544,1.5230450127770556,0.955720135413578,1.8547148926652217,1.4953623659762714,1.6593345053276825,1.537145030839825,0.2885537331132278,-0.39679498735418417,-2.339441969262824,-1.3338149397077397,-0.4482827991587956,-0.381735087240566,-0.1527944486027673,-0.99360311307095,-1.5866060651553235,-0.06087265987741515,-0.06329502295137997,-0.6408628339749342,-0.5206025615007,-0.8302766347444483,-0.49611597074327907,-1.1385301102173375,0.7205531256490321,-0.56434552130937,-1.2958347021212726,0.26860451891143117,-0.08009228859481891,1.5777754887826054,1.2463959533573674,1.135968818396688,-1.0980244142323035,0.22765267682896487,-0.29494853707878516,0.6358394175167946,-0.8600455792410557,-0.5479872219245795,-0.4106319127301832,0.15824081568326023,0.6941202150693722,-0.3287276927366078,0.6639650852382751,0.8313287129887595,-0.1898167056277793,-1.22631044842411,-1.240844273648039,0.41936177553722437,-0.48774473279230907,-1.8369577069183582,0.5005990414515983,0.13611951609817366,-1.700943629583391,0.42763175920906354,0.8572367661517178,1.0210196870770298,-0.3222343804233318,-0.9639513387105201,-0.4466157053103425,-2.111566256978256,0.28652526327613626,-1.1236133456721464,0.26901969199079556,-0.35446255070480875,0.5959464415778436,-1.0039725144621066,0.2649230628274147,-1.3948432967432065,0.7955460814833475,-0.1149617662774946,0.49740843530523837,-1.312744095349704,0.510205294999425,0.30363375996916653,0.2395718643992973,0.07652765142449443,-0.436095688533159,0.7230326935337078,-0.7951905143815732,-1.1946277597523556,-0.42018754358924854,-1.2849998444088904,-0.2712182444933186,0.5721902413179946,-0.02186518429366701,0.32804692653320455,1.8045050226308579,0.2547687160924889,0.9238433236948573,-0.5225394424034698,-0.7161242646179442,-0.6667967780068794,0.6336626484554575,-2.2413449992686663,-1.0306111084467666,0.1023358468342198,-0.2240923670629287,1.9677296821430457,0.44768936000200227,-0.661039631323665,-1.5845006705329097,-0.3576854129130645,-1.3618264589001898,0.26379058651941284,-0.16892993719215094,-0.1022277654940859,1.289894348849968,-1.3700592217847698,-0.47480615497770784,-1.112461482577168,0.08244292614782164,1.556241248392137,0.26777089366821744,-0.1545399258962931,0.32709163834499544,-1.5402153622008294,-0.692808355043903,-0.2621766899102359,-0.15982955110432873,-1.805088848590113,0.1726709888370003,0.23858586526204434,-0.37890155909993267,0.0041749990825003,-1.483491553368001,-1.4797956153243483,0.13461680450300972,-0.6683942193365386,-0.028327283439229557,0.8124425617756855,-0.2721485362072492,-3.0350377496467784,-0.5340287563933664,-0.876541166709342,-0.8547518509740729,0.18903754951235874,-2.1748749999159807,0.11772224821457535,1.8141152435284005,-0.6250037413698144,-0.018049360521347427,0.9515317662466971,0.5133124610561093,-0.7224921164150442,-0.8326019585139435,0.4612804960237244,0.4140587453802088,-0.8754940130338612,-1.1964046264853874,-1.2789806148718097,1.659089587076008,-0.0679451203904986,2.3602285856534144,0.5555456030705429,0.4395223228330355,0.2959423183892225,0.9728999354174096,-1.0232995306729658,2.0166671842891986,-0.37188578793903015,-0.9698896981932436,-0.013480568526099008,0.574120965511052,-1.7043023143328477,0.0009531190280543875,-0.9752403296784192,-0.21447138031046742,-0.28272823449296675,0.8376511830597285,-0.7962717588448691,0.47379747493188484,-0.334623202773117,-1.0155988541175498,-1.503348396300011,-1.4439919747574694,-1.6883219334293895,0.8759672647744697,-0.23600637159502638,0.15883188895214442,1.1781893644815975,-1.2201171569315528,-0.9415456753157148,0.2547155366937834,-1.8321147166230374,-0.5953028509868603,-0.964024474271076,0.2160787567948001,-0.5357936108317682,1.9133276053723938,0.6923134763824904,-1.265863555607875,-0.9382817177499464,-0.9093057337042544,3.0166560018557838,-1.2481424618888974,0.5039829611885928,-1.7166623846005822,0.15208139504441326,1.9802380638447428,-0.4058005279721236,0.776193433044676,-0.5432380603487214,-0.677380722841043,-0.3716971811277295,-0.6508434537366198,-0.625259887821821,-1.3300169183408603,1.5068007289494436,-0.3930763957934435,0.293774310765753,-0.876531851439786,1.1269993788449435,-0.2589864359249274,-0.0606338593046295,-1.761564560659316,0.5249744302345244,1.9065084949195814,-0.9436652480865299,-0.6303627187004992,-1.2451726416035271,0.1568892267013116,-0.009151391140610884,0.9056867670918126,0.6796573968092974,-0.8176922691568721,0.16398105499127635,0.03875333952053811,-1.1071556684349895,-0.5081716497490115,3.3952899106818224,2.087650286246984,0.03298967689911409,1.6659831004007057,-0.06626058064666894,-0.06680465098226226,-1.9495717876297631,-0.9601055659442864,-0.7834992639864761,0.10751903166543,0.012993401271663377,-0.579576435041455,-0.5889460475200174,-0.17468356526694725,-1.3194379394345146,-0.5493069867472972,-0.4040232720213068,-1.1832691217129538,-0.3167026388182294,-0.803103648692091,1.0320152793290938,-0.2718122239863533,-0.0931171305037155,0.5553355685076038,0.847357782236384,-1.301185007263017,-0.14057694120746253,-1.0517497756671321,-0.31299882486957226,-0.6002565359344308,0.14017180286230582,-1.0059439564430148,-0.5713845303523365,-0.591067743555745,1.0825913704708934,0.3680036592805429,0.3688887075856658,-0.2863182808100257,-0.3847178520935539,0.5610028884976374,0.7721569634275521,-0.028340922500668327,1.1522889438598665,1.3345061093528932,-1.6256411684379073,0.5179206981461136,-0.020056877335565184,0.16640613707322294,0.6829865176552147,-0.85690027801577,-1.3527240077864535,1.3262094957867778,-0.7731015641197879,-0.530759313573839,0.3585402034245597,-0.5488500813407403,-1.5810537628796377,-0.023075172719113867,-0.8014602420522894,0.5930912193347357,-0.5060765395466353,-0.6884453189015659,-0.2100005391102094,1.0521534768386704,0.9079040816376844,-1.0932261824597196,2.799707649086917,-0.3257763245850283,-1.152415704670121,0.8882321343524341,-0.3708525207799205,2.101456944656624,0.8000037604737033,-0.20571137274380225,1.5642042880181908,0.8079501874838177,-1.278206035305143,0.9010415893112723,-0.4895244829426666,-0.09950404281281489,0.1239246280149884,-0.8368708574105279,-1.3183754589410461,0.3657736681471183,-1.3829684120175607,-2.573606450799734,-0.8383585957501194,0.3310924214883984,-0.2698811335699642,1.2671309406200717,0.1837534954316889,-0.766309651947081
-0.4395835504794938,-1.4365413592691785,1.0857972247059309,-1.3811000860829576,-0.920407632119269,-0.1602862204286279,0.0023532644908221,-1.5026503635097892,-0.9055357952194952,0.2650406022393187,1.129723358996994,0.349003562090175,-0.0258097615908541,-1.562408733870131,-0.6173423465520904,0.5214942413110542,1.0809466698548873,0.8893759081552546,0.1380716444456067,1.204600466649178,2.881460713163964,-0.5938619153826878,-0.7631157953450364,1.5184829257797212,0.2354645253854199,0.1123076884272699,0.3923743276591255,-0.6544865051849597,-1.0347952847505888,-0.7771475095483107,1.245946256831015,-1.4366406646845815,0.4986546456485496,-0.5576874600255095,-0.3533668887153445,0.742950976258419,0.8439888963287386,0.3429751892437182,-1.8745439321825317,1.5349041417964437,1.2333850737933052,0.0574224557799016,0.01606878471773644,1.8076866506176452,0.9574373554481842,-0.024626731271616843,-0.29233916867297255,-0.1951289841913265,1.176203677147585,1.0399917850089422,-1.6134230114988033,0.4646423988660639,0.8641213313776074,-1.5064631659717185,-0.0029647514383226,-1.777043606376519,0.1294928359413868,-2.083234501912948,-0.6817455237079176,-0.6110659144951346,-0.7078255760446609,1.4530249891177174,0.5355105697391037,-0.39956852737298687,-0.9332131273603034,-0.234998661735118,-1.0290275844211918,0.9099943847525443,1.8988467660038422,1.1013426918155131,0.338915790023444,-0.14550847233421316,-0.3947101510004404,1.7296597121845498,-0.606380161472801,1.5498144823553548,-1.1316089732413712,-0.2962280142274156,-1.7140565927207858,0.15923420122828,-1.2637276218762068,1.6650494067904418,0.4122722716610699,0.537396746876818,0.28267844916477,-1.0925408143911377,0.1326272834427048,1.8391066392270006,0.0092246240703518,-1.0160313515306347,-1.8525964344098522,-0.7147252204452816,-1.7674496276165186,0.8281974882583722,0.8115700002066443,-0.9722961709413899,0.5440177761833066,-0.46356678122526584,-0.04161537381027584,0.23609327905067765,-0.5707410618495792,0.5417809463343071,-1.5728790798904297,0.10862637743500643,-0.022135391174446857,-2.0494839297939116,-1.8100441866189148,-1.8598775995143548,0.4141895867109907,0.1239596268716607,0.2739575771740403,-1.3263784925081614,1.1389738106662652,0.98284121981739,-0.7377893354500328,1.1831511062111943,-0.25091729472648033,-1.7764489643725319,-1.6385239893899535,0.7231004332867046,-0.1087528233962711,0.7724482597402142,0.02455327092679288,0.39508181426078104,1.7986858406167254,1.213618513990476,-0.18250072936764425,0.542801116807083,0.1206592210013254,0.5506383245824571,0.03699751190359762,-0.5660549912166156,-0.08328717745925644,-0.5307675845015983,1.591050780688961,1.2085313001290656,-0.21758337882101914,0.42572136655387055,-0.1654592642356894,1.193241135968212,1.0488805164179926,0.568610832710887,0.8774130924529708,0.6629633613110218,1.1746534557031967,0.5305112881960035,0.1298306036963196,-0.6577995596745588,-1.800441503189751,-0.4047875652035629,-0.881982621755277,0.13016596804933261,1.019675469778189,-0.015338397972312295,0.1174094966350157,-0.2349697434934256,-1.1804336110121592,0.9056807049325424,-1.9910964709472594,-1.191755686167282,-2.707155879954946,-0.5084461077773288,-0.44328993396527655,-0.46042724332299917,-0.09177961835980311,-0.8322504093039443,-0.9180092269732182,1.817826413261076,-0.3340629483633708,0.9076586249467652,-0.8656959220498415,1.578324522027604,1.4479709925506883,0.171171799625323,-1.2228566071428895,-0.16087862289327529,-0.35515436438437614,-0.12318399167076645,-0.9922114302717899,-1.1530817117236964,0.14986626692424598,0.12516044588377914,0.7701654277591599,1.2696887768891654,-0.6990554452726025,0.941446583566603,-1.2412651850754377,-0.9160482306583887,-1.347792708208854,-0.1562350449017698,-2.0193784566488735,-0.637441423598369,-0.5742558799516553,1.222314835399343,0.13607953021623043,0.6955097737897554,0.0059388143865025,-1.0489003714627143,0.8877601953192008,-0.85806582660513,-0.5844772633027707,0.10727426781603326,0.745922806013581,-0.46232819892445703,1.1034320091570318,-0.9254739981271994,0.5199188706417557,-0.0935549784874737,0.973546408619721,0.2495856839661322,-1.1162788950478637,0.7163039628880521,0.24009766092751086,-0.609793290729227,0.500693884217726,-1.037910729814577,0.14522934238679427,-1.0397579405019524,-1.0790965957172607,1.6481833566179607,-0.8695787657469608,-0.5913107259375371,-1.7154046032446815,1.629034902850306,0.3979983232950984,0.23777963386430934,0.9716996868258804,-1.3232812623786707,-0.5355814962227756,-0.06765899981739881,-1.6961551171588667,1.1255258813982327,-0.4210593030685718,-0.8342476749670755,-0.08440536231223994,-1.0003722731123588,-0.5759355389497364,3.000585770175399,1.2835778249751635,1.572682386591031,-0.3572876438430534,-0.6706487480236109,-0.022906994373924315,-1.7054660197841638,-2.6176140482619146,0.3692820492726862,0.28414340250754705,0.5141779135920257,-0.19524391679793496,1.8309898084652145,-0.1331784356725501,-0.5546579260170685,-3.0064987150073263,-0.047165665999990364,0.828530209990904,0.0134747447367783,1.1052891065390869,2.257136812384289,-0.3364238741311195,0.9822160987829,-2.004470009830922,0.44684044837638986,-0.5008370312422336,-0.5862938997147604,-0.5133383074338354,-0.09534963463221165,0.7968412713414061,0.9294635831449491,-0.09819471952826042,-1.434366831040853,0.08543491644897555,-1.1390190743623252,0.4674496903276711,-0.43258487758444225,-0.17700661101968895,-2.2645727482576823,-1.4317912446303678,0.8377457898199947,-0.7616301545149857,-0.5324376589989497,-0.2779399672682793,1.3637427183169772,0.38232884666289274,1.3224025039864582,-0.2988756001030175,0.09863116036625327,-1.4291970844705828,0.8433222974547925,-0.33120493670764045,-0.5555856644153614,-0.18276997820376478,0.6749599310549916,-0.5355155285440935,1.9238378477154756,0.8294450334511975,1.4036341961702217,1.7327166562729532,-0.9038617782359555,-0.2781463476494753,0.1696059454120481,-0.7716848609206816,-1.7793232348980932,-1.3220264000047246,0.3299191302651966,0.652090282111889,0.5734514544719667,1.040226011067286,0.07234588975011975,0.2082331707110066,-1.518868659166294,0.3236903609605108,0.6362472517352623,-0.5719307589057187,0.4737281713540236,-2.088073307981514,0.4509127561220088,-0.000485159339186704,1.5562716842370201,0.7398170162916781,0.6913887127891538,0.5262808391300987,0.9290564307339841,0.14890418532687827,0.10785578303147171,1.495069316785742,-1.8074364995204937,-0.912272612586044,-1.8866270056232668,1.0030823473529968,-0.7878992945424779,1.3555384591518251,-0.6479899213615333,-0.7193744674055097,1.095152528486662,0.8663214078628567,-2.712378241277347,0.4511407898571997,0.6001668782522922,0.2183016741679333,-0.6312200891985381,-0.026459293444538484,-0.5839057056615966,-0.0614415188428548,-0.43672003722736746,-0.8161836402395652,-0.1263756589377687,0.15890642062308227,-0.3336130079837135,-0.4656953880499027,0.6834797741811847,1.6238358235452162,1.4564187567469264,1.09700457310351,0.251204200938476,-1.2577416025568573,-1.4988908789039792,-0.3591275739670287,-1.4224948222260285,-0.7911667562320823,-0.1439082264538239,-0.48211998295313585,-0.3440007706364514,-1.3357591449925366,0.24524683582342127,0.9965143161550443,-0.5481374677891694,0.7494943152959173,2.670203206393524,-0.15515330262080987,0.4763152621897005,0.007482067373528867,0.8164430225459609,-1.7265986797516526,-1.0423010145149108,-0.2398254922064548,0.525972680775348,0.5240461644146475,-1.3763412742095449,-0.4296240632900422,-0.7451680349332016,0.5481171126918613,-0.941427923283942,-0.9129564461429682,0.9340813911399143,1.1146566508069715,-0.39042874588941634,0.41013605330071096,-1.8666689507945438,0.14447892791150546,1.1393713333174422,0.4966584223545912,0.1010608443574718,-0.3886429734726365,-0.6467920155914019,-0.17489178982369988,-1.5516717117162016,1.5483883830916512,0.41026159158508413,-0.19980158494533615,-0.7613257840794385,-0.193621049813925,0.5422741868182009,0.48206428181547734,-0.9173643223002405,-0.7448199732530002,1.8081293997205101,1.1595631052150115,0.7859199163256717,-0.01912718729334541,0.3428515057886027,-1.6037645544508088,1.3006573886339658,-0.21400765802427102,0.8151684265524805,0.551094807315667,-0.17139746647407106,-0.22044268239452425,1.1646119526408225,1.009589815533712,-1.7722311751063868,-1.6924057370564578,-0.9462206203561588,-0.8935453982997023,-1.1194020182697495,0.1943597506811593,-0.5898040264628862,1.0826076379736742,1.258528081942989,-0.23636136551504547,1.3195862822580882,-0.25307728243760325,-0.22222950438231398,0.135194715827342,1.018671123515131,-1.094944542306047,-0.20062636945762777,0.044491110014000086,-0.40319835546587357,-0.7346383023848843,0.3050553797192008,0.271391871058253,-0.4639147090384504,2.032436864540459,0.33177725346130993,-0.36222945363149195,-0.5847090466389312,1.0622593829340585,0.09888640451092823,2.5481126978151902,-0.4358699896954399,-1.2421160391306552,-0.028942772531598028,0.08231778412198512,-2.20238668188434,-0.40678909561960547,-0.507428607822755,-0.4438602434312889,-0.6122136605504344,-1.1871428428133384,1.0218845200374764,-0.4877880033666522,-0.48923809535436247,-0.21104721303882165,-0.8635926333395952,-0.1752394674152459,0.0002650276732027669,-1.0542387171174643,-0.43318174629818834,-1.1174893338771932,-3.1221310187907614,0.12101370744199262,1.455927740463339,0.5755906902364062,-0.4634806337501566,0.12232749084163767,-1.1691699189986808,-0.1222923580325805,-0.4276737281079004,-0.8527152270592145,0.4009914939620558,2.495833851660941,1.563545157924715,-0.13294241125217393,0.6206368310996626,0.6390388528242816,-0.6523546403692995,0.819133468611575,-1.4195244950203925,-0.7517146203947518,0.7199086056815215,-0.10283996516905856,1.15469764055497,-0.10520720539504225,-1.083625136979308,-0.7061837755386386,0.26635074497389694,-0.7003529355209174,0.9151036126016698,-1.2822364544974827,0.6255364125065986,-0.06493503589152018,0.48240536719422644,-0.980967213075312,0.24574613071205334,2.412357920494509,-0.45718454350878124,0.319690881988052,1.4984903822923616,0.7050882404221737,0.3098362016629185,-1.1697238015743374,-1.6066090687010408,-0.28385193782393126,-0.33121160791596344,0.04216666628025123,0.00011371295021389482,-0.9593979144991498,0.9820019874109854,2.2007997611697383,-1.4945499781513614,-1.6206343986887142,-0.6367209740392276,1.026825383773801,-1.1011662774356978,-0.7136979611124913,-1.9397022021539934,-0.43547920554494696,0.5791068502836283,1.087849202984518,0.40323504951713407,-0.5814670190239786,0.7323669643552805,0.20435885161788264,-1.9196862460625024,-1.2365719984149524,1.4806762121775878,0.28156632801898746,-1.5138663769716878,0.7095743344442229,0.7300761859926449,-0.5816752870883428,1.0177052318764566,-3.5994206188907403,0.15110610827260865,0.4411524995825417,-0.6275258451989254,0.6859101538982618,-0.19937022426858228,-0.5843134793149634,-0.6070223410534566,-1.1673458120747755,1.7424610182236329,-0.17549470174939194,0.21356241665249884,-1.0980709324984292,-1.142921834566079,0.40498339957005985,0.5992446152224753,0.8916031415488944,1.1149435734785798,-0.2102075405007619,-0.4442025855221959,0.7331295242130935,-0.6703232817484358,0.8286717151340741,0.29717031626113566,0.9885987193822203,0.23989847605845116,-1.221195059575578,-0.7992927725640352,0.23576201210677605,0.5689100483327864,-1.6098857897446426,0.4466394344828559,0.7921465376829447,-1.0115797024908186,0.7980488274192203,0.24846449164508103,-1.6946930856276532,1.498364796222893,-0.875863938469558,-1.304768545268472,0.2146486815006993,0.37296828369479007,0.6935066134162424,-0.36549971500534595,-0.0010386353454301047,-0.7308067631738654,-1.310159616372082,1.0791424269480252,-0.10297760424401387,-0.18894840326436338,-2.019292627630143,-0.27674524408428003,-1.0382659893016546,-0.511917703271121,-0.1290099946882627,-0.5174697508725633,0.46718013852574075,-0.567666688944819,0.9196374676221797,-0.9393229646863072,-0.48712741280853405,0.13128009972733518,-0.043108506833666245,0.2345772745928459,-0.8542161038253455,-0.7218135240929403,-1.5811531656941362,-0.9410419823345183,0.4600329067700002,-0.3782865768286066,1.4761907201174707,-0.6056699170329747,0.1186676029636655,-1.2132523301524183,2.600708381888151,-0.17860882080666746,0.829629840299415,0.41344357212484767,-0.5815191105484416,-1.331064409829484,0.020326240004380318,-0.8125355528665139,-0.06608363233454369,0.6939244224415516,-0.2909386917631301,-0.3253146174616005,-0.21940927844425429,-1.5634122011759908,0.40424355225382763,0.41760124745655286,-1.0852208296301933,0.6450206767125666,-0.35553001815458285,-0.5873546093774645,-0.008621609190469212,1.6863395725693473,0.941022555150016,0.5878992419524361,-1.160160121753082,2.5246183876545065,0.8802298461297815,-2.348837419915112,0.3994743352084918,-0.4886947159180835,0.4099823559489672,0.4007222012707245,-0.919312023076247,1.8143225003380061,0.08334956799623544,0.5955758163646107,1.0851063547499824,-0.857731517085617,-1.118872891182338,0.6696892835666884,0.8298351768109201,-1.977022928996716,0.9929152239918608,-0.8114954289014185,0.3295416931793999,0.6910519786510814,-0.9907968101304029,-0.881650150978337,-2.0813799009641727,-1.132179779155319,-1.4835137023008513,0.03166899938211096,1.3254323602474158,-0.06269254576531372,0.3750943392427579,0.7780035433679287,0.6797094410202996,-0.3858315001115014,-1.4633450608335004,-0.4298209201892252,0.0625446272213272,-0.8719405398881734,0.335334938705318,-0.4553909376487352,0.4589463941577932,-1.0386513205720853,-1.0651920845111063,1.5729545280045147,-0.487600081828771,0.1459251547603952,-1.4532912839523593,-0.7674996388523787,-0.037936563495123594,1.2994808897383667,-0.77173942031788,-0.8599164929991638,-0.07367210529570994,-1.5345698822819958,-0.03519763322053464,-0.0703775989880375,0.6769018886053254,1.3788320538465437,0.5695922484646502,0.7415510509596893,0.0522789511343012,-0.3597445764761596,-1.9959768691567643,-0.8862208191746166,0.2172666846933302,-1.6458559782385143,0.23975576781997837,-0.43232354284576535,-1.0253248412059055,-0.5759606643385329,0.6160131991543316,0.8941649751000403,-1.8882711942669195,-0.22143390828281317,0.6455355957269957,-0.5392656525536308,-0.040346472300644684,-1.4647675438583259,-0.45897999093127184,1.7834678525526853,-0.8063380982281657,-1.4430203218628654,0.15988055613106905,0.7948363869494169,1.1937611019222227,-0.5179487903970555,0.2222052384647467,0.5443548782853931,0.6492105278342116,-0.5472027440095443,1.712724930895694,-0.6872970225507311,0.7075460399085199,-0.0230641845055619,-0.5897577185847598,-0.6530295885303163,-0.5937171644041582,-0.45999650617227883,-1.0449268549208646,0.6243781764484964,-0.7466731310498755,-0.6556157133653091,0.5105880949154941,-0.11274535525693091,-1.41862269276945,-0.8927800569341092,-0.16135633719769732,-0.5684060035480771,0.7599973982813424,-0.757103324770084,-0.965952611447694,-1.010546208778625,0.4066572469576391,0.4834717260857332,-1.6724445875708809,0.6220751965181025,0.8609732704959465,-1.690997761809049,-0.6904314293609605,1.428892424357976,1.0061017060252493,0.024792659251042,0.501249461717174,2.1120200024122666,0.502762762468292,-1.2212826055107013,1.3679028352716653,-0.8701253732299955,0.9988014525178514,0.6563511733864015,0.8819803737962256,1.5349388547080183,-1.4741972003447013,-0.06537163659118755,1.9438215870748152,0.9765176015639021,0.17720897850700754,-1.0231731300289502,0.1067204929519576,-0.9118812985440116,-1.468366956464426,0.5764787030585525,0.065305605338348,-0.7735128027607114
0.3949481889622477,-0.5038898877881488,1.779559084207381,-0.030572444369958,1.577088212470096,-0.8128021008388903,0.6133491654036357,1.843699976477568,0.2710909822158606,1.1364476270515151,-1.738331868174651,0.7071347443209272,0.0303861314648824,0.7650019773845077,0.867665218013112,-2.256250117810419,-0.4436027396060996,-0.6700232805994619,0.1521641900056982,-1.9405333971697167,-1.0905086674816995,1.0019207035276676,0.1768924460523686,-1.088014541416647,-0.2532173670554681,1.0982730577258455,-1.839566785967981,-0.2114286135422598,-0.2296632432908108,0.1869794144690471,0.5037794661678846,1.9103425015880429,0.5537811961351478,-0.5874814623087322,1.2579499429910836,-0.8586676960832721,0.43628472395228834,1.5723188067662395,1.07817976081192,0.8113723033918769,-2.2315309067415448,-0.10959867381175112,-0.6019362597340642,1.3277213897641293,0.8309340774966796,0.2643884764449738,0.7976770489287422,-0.64664041054415,0.6377541295162931,0.09544519021057377,-1.6832068070148176,0.3440461379949239,0.7071580306332684,1.193414585140634,0.5273885275650071,1.0067039239223363,-1.7323273320832746,-0.3734121628503217,-0.14251010436430214,-0.3297423647625178,-0.08904184435674417,-0.5773938350037998,0.7377974221825832,-0.9896107732878332,0.13333676237874853,0.1004104085162539,0.16007171942291124,-0.9424533473309711,1.437943716089248,-0.2274808719609348,-1.4963647278971883,0.7944555509408758,0.06328139428559826,0.006885420631542074,0.05625789075729087,0.49238883629113883,-0.03604079001994595,-0.7735802315064031,-1.419366341787547,0.3027082720863993,-1.5199483307144048,1.118580786226168,-0.9538609617541668,-0.849614021965846,-0.9818996930473792,-1.363077668155705,-0.7733323761175928,-0.28372667663786894,-2.3276039099833565,-2.445165307590436,-0.7169590019865827,0.8691093727997331,-1.2910322398068466,-0.0401439831489003,1.4708384248353956,-1.2757054280150109,-0.447401973505522,-0.8038002747807366,0.7717800988519752,0.45995738785742185,0.6297540343895603,2.5550789797830338,1.7512574192950339,-0.0053606647754699316,-0.20861909613847676,-1.449720827152249,-1.713542053230074,-0.04335360270907053,-1.2972438474956696,0.6242353322553789,-0.7917192877228303,-0.5829433945049773,-1.552680541059164,2.1101535242189025,0.7563113958411245,-0.7104628192748151,0.15144267393104277,1.3261977200536879,-0.9356801213923299,1.9021577056388812,-1.0150725211500071,-0.14239619020378527,-1.5830644186492198,-2.4906012577884344,0.9348418212418219,0.018023566116416086,-1.5840624725900228,-1.2211063473100772,1.526777074067989,0.19158460400779487,1.663037029768201,0.653872661152208,-0.21352628133988122,-0.07590514381949812,-0.6244569560114797,0.08750461710770542,-0.05085416608053125,0.8299966207684066,-0.16795306491084372,0.8235554918687381,0.9206322907748944,0.1807626069823803,-1.3133179534567987,-0.16576534094870585,-1.914411721838438,-1.2387497708630564,0.6914862273663905,0.4486404939535318,-0.07088344363928638,-0.36412128584019915,-0.8017424495086946,-0.7087678913992764,0.6257212500679076,0.1856568592079342,-1.1767383517209686,0.8174019482036391,0.7077919229800758,2.030307231397908,-1.5065932657557575,-0.8649463325822143,0.7013403197832722,-1.3849133400044036,2.1557286885918,-1.3567905673262943,-0.0895345826864427,0.5140657168373651,0.8816781377878113,0.7152084847550455,-0.4620775362855746,0.9132070056428282,-0.7546523456295134,-0.5617798742370108,0.3935521087279059,1.4054623726256585,-0.3565098095139369,-1.0901461182492609,1.0107038751664381,-1.3986480442737836,1.5555399959635778,-1.311622464567763,0.3206778864457776,0.4944271461593756,0.7038989856139335,0.13289208646635783,-0.0050113010093373106,-1.7295108301861222,-0.8211183240529478,0.33588051876684316,0.07227194801678583,-1.4532287120716467,0.032523675209598736,-0.05394365995002312,1.5092133814862976,-0.4737921539709797,-0.5124094118184251,-0.9238896210171699,-0.9992784708194048,0.3749483615610897,-0.7050348535233779,1.029996083356592,-0.6938751547241487,1.4610331930910196,0.26970124983264787,0.013847929444159817,-1.3809732306515974,0.1133457733397116,-0.15349624380945956,0.25073661375048234,-0.8546275194034012,-1.6343165883315591,0.11722016003393036,-0.36877665234029444,-0.1453026818814908,0.6912230162716516,-1.1528473895764475,-2.639101278619178,-0.027488915433802174,-0.11245848089190115,-0.906373224552243,-0.2163217602027658,-1.2813160056258577,-2.1792582132598635,-1.6935447146639955,0.04008768720258391,1.3827104147937164,-0.3895121413412659,0.8104981187700081,-0.6077902035985634,-0.051463957073628795,0.7560897962339391,-0.04039829927191252,-0.7402089243681522,-1.0502796071812566,-0.29871361927534423,0.8812341767086832,-1.9240288226324953,0.5862103425968858,0.04671306373922898,-0.9574371649759057,-0.16844378309653854,-0.49207245791777193,-1.1819696889521014,-0.8726399096265992,-1.531033065204918,-2.5078085094959097,-0.37094194097298894,0.552732887990016,1.2967933449864968,-1.258049506608946,2.0529868945626815,1.52084450910237,1.4213713771065133,-0.7856668361622929,-0.5596397787521233,-1.938317786986632,0.19581911005340608,-0.3955717572665351,0.06350708891227387,-0.9718840869592927,0.6352811907908134,0.2754848458151049,-1.2312917523076763,-0.262029568377875,0.00941339057920328,1.6193674665172588,-0.012242827727784556,-0.7286531764803382,-0.2069248636112703,-0.09545391248836738,-0.371771428209819,-2.1475983109620995,-0.5981924050907075,-1.1284495338344898,-0.6510349074131504,1.8065488145404314,-0.8740527948857302,1.4644928181862409,1.2139532874627916,0.7065150874723028,-0.009120575446625276,0.6543929049702183,-0.44946947037332924,-0.5431685536129408,-0.7719903569223282,0.15635706968250163,-0.43556274228129915,-0.4003580601786587,1.3632914163736325,-0.7306392019492206,0.8352524627683697,-0.6705869175001186,-1.8674735999757552,-1.5145714649340556,-0.011764139798437944,1.1767967129008605,0.8576220505923623,-0.12251758019158845,0.6441406102605696,0.11045514305019734,-0.44796401499137917,0.6052260467514564,1.0026359815829495,0.9925347338068943,-0.11898182775033044,0.7454997739840373,-2.0264073172206545,0.21387845238332326,0.3527942143453241,0.15197514350637398,-0.21638757345419313,1.3100025416537497,-0.10234485248210143,-0.2862458997205109,-0.4952202003283415,0.8543065746552131,-0.28848775936230947,-0.5985856841981533,0.1778203521418267,1.7050492808893825,-0.31805110037953427,0.9059949283689493,0.4610776855951117,0.33655003770495145,-0.39819931694021365,-1.1935914141863755,0.005019785596305549,0.8868093154009272,1.5801900745592954,0.47479642800927585,-0.5364902510237318,0.9482587484328678,0.6383957003005972,1.5257766049301478,2.1094125495006484,1.2049167727624142,-0.3968601780562392,-0.1592295437005033,1.1588840765811197,-0.5013130413360144,-0.12260400856348388,0.5014189074762011,0.8326625419274577,0.07070240981286711,-2.831718424161929,0.517550661392174,-0.1966922759153985,-0.8828547674225502,0.006680287367571457,1.1585922952067162,-0.8928449812397469,1.7222034483880448,0.7752441789513245,0.5773754982218919,-0.9061404813949354,-0.23924435930088025,-0.3160150889752566,0.13328053152182076,0.19079792466185055,-0.18130574906908642,-0.08019365805554045,-0.19524138999552607,0.22465757563814837,-1.68193062340195,0.4797850226452948,1.6972749657999713,1.0725007004282925,-0.9441673736343517,1.0573992972465962,2.158033430759294,-0.4963107629357207,0.5048928863481337,2.0203167158558033,0.8319251717652316,1.5489556978074515,-0.942531728393168,0.08831386078420332,0.11451731539301663,0.4419413472903962,0.6855192111219661,0.21262264625699276,-1.4982898391189197,0.5815332484844742,0.08936012226121666,-1.3108420401139853,0.6764519003395061,0.4659722487316925,0.49125302646720237,-0.21661184440537867,1.703664208365334,0.5653182408046145,-0.7948836288472519,-1.5385983139692745,-0.7673321827911168,-2.36962340096339,-0.26212565521279435,0.09297272933275741,-1.2941993563313798,-0.7523695043055778,1.1213522308809944,-0.4192790624807672,1.115899641415113,-0.5316535558250887,-0.2299365229639014,-2.2699888597390356,0.6630637819989816,0.9296518566797225,-0.2622313436739143,-0.15641410035113665,0.5481635887668024,-1.1042989941278192,-1.053927304942464,0.08099058862735746,-0.8930929101008661,0.2549106863577828,-0.9860157316921633,1.4388904269796954,0.6783264798168039,0.12292465954136408,-0.8753864795601449,-1.0546638916388142,-0.8972370306825797,-1.4322032991369755,1.3175764421360856,0.2602208371144029,0.9858791990181388,1.5660696980849866,0.9138650474860898,0.09849294411623916,-0.7202815226064686,0.40788062684728005,-0.15564180419335574,-0.3713184290421784,-0.5106694978223714,0.986681415858452,1.529001101349337,-0.26849260721116464,-0.5326879548079179,0.4955783130278528,-0.8313349892433057,0.21270615272533858,1.217117650288858,-0.5832937744810827,-0.05869785313603817,1.9057882133850206,-0.36734787840835403,0.20740859757796457,-0.9680647833675757,-0.7070700464673194,-1.3788369718806728,2.9252511768463867,0.5334888365929665,-0.11792245497261247,-1.1097350340644856,-1.9745130403232904,-0.15539748163004177,-0.4914949454714611,0.25454997490104575,0.24181653198056982,0.6069943911013407,-0.19285390093327745,0.7408629558812618,-0.24724800923649182,-0.5694526595480195,-0.2694861415718948,0.9372080666789336,0.6777519736694968,-0.23151940252767336,-0.2853980454983008,1.2245486787188178,-1.8115021111038931,-1.2296258865502563,-0.011694498724665818,0.6562460979230823,-0.15916096505825975,0.8909972405649601,-3.0161446178139593,-2.330467257653145,-0.5678020307794892,2.6137547247469026,-0.0689186313977967,-2.3170708960897874,-0.5853248805847842,0.281891130738294,0.6003114183504827,0.3171565266817941,-0.3511364500083985,0.6333605137516608,1.2155474027168172,-0.3965864360961626,0.12125994261268197,0.1568104258853758,-1.5022447335551954,-0.9683422365024895,-2.1910799405697228,-0.09832083211847226,-0.8086190890943198,-0.47740096583087344,0.06276322379229594,0.5249180089068909,-0.6598636535240909,1.0903127585770886,-1.635180163407157,-0.019761812064439215,-0.09896968534742658,0.8498727188377619,-0.4949793866285007,1.0105552584913733,-0.3028686171692476,-0.22803818770093795,-0.358810593083487,0.1725721502646697,0.4062033853878332,-0.7839826131193364,-1.4050402206950923,-0.8029732992720413,0.25463778016431016,-0.016501248803306598,0.23865082689938721,-0.706457009777514,0.7792899266004852,-0.1750976861761139,-1.6619374188651346,0.04166938473431719,0.154719063954778,-0.16098684681743478,-0.11281091081379307,0.01672404270980853,-1.1832509993833695,1.4189416160050305,-0.35942156087931776,1.4627005003471845,-0.553782270134066,0.9666832456305872,0.24194205137251326,0.06947699765434444,-0.9708021128061732,1.1198131799289919,0.21562554656097283,-0.5087377879366467,0.5754103188891891,-0.3404653716719948,2.0176402340368194,0.8849931171562972,-0.48164484618741904,1.040257516262545,-0.24273231343019083,1.7034955210140834,0.1379958050534219,0.09897720962010242,0.09484115830856997,0.31115352895722737,1.2571157016934367,0.007577213739341661,-0.37618466489236,-0.6788180615138175,0.7154765936350431,-0.674709503387345,-1.1727650999914023,-0.9404149940839681,-0.4645692475638008,-0.1244343714088363,1.0531720698562863,-0.5736408746970831,1.1913215384569351,-1.6836070372495626,2.582426963933005,-1.683204103847241,-0.22112719371791106,-0.6242722514466784,-0.8332874857087157,0.6764065023684682,0.9662061104556752,-0.18725549766920022,1.2657483317378613,0.2920061103512774,-0.6700289661843686,0.21576305847171978,-0.3940327310397403,0.4375700946312426,-0.5873906241221881,-0.33356470260826016,-1.1984089223526437,0.9765566502883932,-0.42658993313787275,-1.1548976825585988,2.632230582598174,-1.4094062956924889,0.5074364246674448,-2.163660396827715,0.30852436344584655,0.18811352693003677,-0.2586572839004567,-1.3836753792369678,-0.8892477935937338,-0.8440342795213449,-1.2464405626995103,-1.060286572626569,1.6021326449136648,0.6203723225079979,1.7207033180576319,-0.39447924279217006,0.03228904207907682,-1.3857459129507759,-0.7771724427396245,-0.01668816704657595,-0.33417693801671183,1.651581752125326,-0.13977691111682175,-0.41107428551829067,0.3171757119635563,-0.11094860422471735,-1.1862963074018922,-0.7189095286698569,1.4006229823024,1.3042276800328614,0.2572353183361757,1.0194902344348793,1.642810848197334,-0.4417257122177495,0.18426380381230215,0.21673752345469482,-0.8472589062354112,0.40613547390925014,-1.172267730462995,-0.013342520655033224,-0.24359909359402077,0.4759467493654605,-0.9739491097930953,0.03806376390500783,2.1800544687051757,0.09539504453914632,0.27001167108914287,-0.5600930129304236,-0.04650541852528528,0.14281975396375604,-0.7731767656358465,-0.47078574088267716,-0.3531202147654796,0.18633706381980897,1.0300407524491797,-0.7593579590980207,0.8115095763823097,0.8055835085687386,0.2548323453429383,1.0816517526446845,0.0990683630820022,0.1078162870374709,-0.1735524490419048,-0.2715096908441322,-0.2166132769947973,-1.8976879675950373,0.5325180009571137,-0.36327359908573764,-1.4949724521401613,0.8557576090455058,-0.9253081097668306,1.061182844343489,-0.6314209206548478,0.9819598039461289,1.8413847299516786,-1.6058101477912679,-0.2245078595794077,0.8166249340582381,0.05693399759941189,0.11100960761146139,0.7899579570256555,-0.8568850763793174,-1.3743585896095698,-0.8278721354006926,1.3373018205967817,-0.7587814768740417,-1.534958100371853,1.1567810014742463,-0.5121814114444011,-0.4490087586100963,-1.3938723556292718,0.5267616039317363,0.5626422644555981,-0.5790941388963226,-1.2328721037184442,-1.9090378864017024,0.5000341866904521,2.3279745379373584,0.0708166553167016,0.3771010554483465,-0.23296266648641228,0.0556563385725643,-0.3172636015347089,0.3797259314901109,-0.7677083277236584,-1.3696835765655124,-0.034935358766929804,-0.009094046837126498,-1.2588697319728497,-0.5864220002234029,-0.37012336807836993,0.6854554360137307,0.1592848364335571,-0.16760948161709144,-1.5922158847855856,0.2704105592062632,0.5291992449175446,2.1981124961853724,0.4463334359795243,0.9206640177361164,0.9294547745107884,-1.8150276823540268,-0.1307739232352136,-0.1957624646157321,-0.5831082869350622,0.6468098568824987,1.3941299895627997,-1.0087348192614682,-0.27549439026653877,0.34143789130294155,-0.7562265416585896,-2.0641412465821003,-0.21784595081351737,-1.1380616527528133,-1.9829067409610825,0.8583942498044858,1.5963234615083983,0.5126922727488631,0.40935572683532184,0.4298798724794856,-0.0776079651829494,0.4491689917803277,-0.1313019074824083,-0.7509349820524425,1.27765178536808,0.748761552370252,2.6572730491141754,-0.8186072750797138,-1.445153648092354,1.3417551500853273,-0.10529816469769475,1.3304564247186328,1.945812055028097,-1.4295597108312665,-0.8713403629898024,-1.662581157793346,-0.11102530869304054,-0.6920187956192074,-1.9350343114281776,0.10290831416027588,1.2804841772849178,-0.9835922583181315,1.2320425505480004,0.681238842969878,-0.08001677369685281,-1.0682588204727486,-0.4715925380408852,2.128395482538144,-0.389240794804235,0.5696129372942311,-0.2742994634216303,-1.098416857661531,0.6897208619605294,1.6492482418776502,1.0651326411898605,1.609044975886479,0.1430166742945605,-0.0025623418048579282,0.5278272740248774,-0.22014529560719168,-0.48618717697713426,-1.5897303361490773,1.0190710155555522,0.04968522497668586,-1.6018487535878922,-1.818410753263187,1.7716565981836798,1.0755983369712283,0.3833982826582953,-1.467051855681248,-0.26648335358570785,-1.037836546357811,-0.3713274820248237,-0.2191437669848959,-0.7252820469086563,-1.3937694505355664,0.7387053177945938,0.2493469356130846,0.5485517784032251
