0.06300186949884513,0.014291328870257974,0.0349549280037764,0.08003189997148064,0.06669849964821312,-0.034902781424157536,0.033931729197342476,-0.005405614582060639,-0.003686387564055637,0.014664232212084726,0.005144413255745642,0.05193833953439196,0.02718654425392794,0.0046057326434610305,0.016125662919691915,0.011928332122006474,0.05335996689848593,-0.007327080848778603,0.011180989344675048,-0.030503419260775884,-0.09117820770835995,0.02334352126572716,0.03087272138783949,-0.026505893585944355,0.08106266514241456,-0.051941631235670166,0.001634232760765931,-0.006685137500922628,0.05474211479851634,0.05247709892501018,0.005533836632032725,0.013505804271506197,-0.03170666542769134,-0.07074288742928689,-0.012449128578293027,0.005541377115444489,0.04390264368193036,0.04292299667931815,-0.013898810670783,-0.010837041833688409,-0.037551155745345136,-0.050597134864514,-0.06118172792837776,0.06838394232505916,-0.018297453689791545,-0.01573497321727796,-0.04507791614988182,0.02728736947103754,-0.05786864159267649,-0.007734992969464334,-0.0320446856328912,0.0138099930071487,-0.01824304062745975,-0.042165435147229,-0.0010065081549519596,0.015297566804657773,0.0023756150851131385,0.010802567776420764,-0.02265436544673625,-0.012952563846114073,-0.024018524276915657,-0.012844119807714325,-0.029108267482932076,-0.0617691246225055,0.006267230331317708,-0.014245734673388114,-0.058170984365556136,0.017710563946058418,-0.029302283650962786,0.00539832696209503,0.029308197646697252,0.004485986473944628,0.03901067138779929,-0.046549569087651524,0.013245112929147315,-0.02484490879552525,-0.03062893914513538,-0.020370498914045118,-0.011317025226138427,0.0019462544800421724,-0.04148408315718755,0.03224261703522474,0.016630801418944994,-0.054865845938472275,0.05315186406412856,0.06771032771537797,0.04209974099838588,-0.006425004781037128,-0.03833187653490131,0.0375939035926151,-0.014540446594113982,0.043794971910351914,0.008197375879791484,0.03660937104245895,0.016239536017899226,0.03149852278014382,0.004075882924171373,0.0687734893264828,0.01029823600637039,0.017640094334949268,0.07161893792324922,-0.04732175154867023,-0.044171938291949264,0.03560200564751067,-0.0414544347599603,0.06858324215325055,-0.01673770553139361,-0.0269539303082205,0.0689081569076198,0.052853880501971526,0.06668249237296511,0.03235873779554947,-0.030758060180525088,0.06821652544407504,-0.009569834205036916,0.028649798423419866,0.03383426215533055,-0.005258951061198248,0.02269650192080098,0.0344912844758347,0.016007194987331864,-0.03595242065540531,0.015211568147160603,0.049775115217111435,-0.019349029988245326,0.0037880004912227124,-0.009475523352174747,0.07081395264065157,0.027727623818459207,0.014521990924519937,-0.02787238435295156,0.019695331026780182,-0.023186512655778757,-0.0014161244692403995,-0.023750427419940275,0.022417711846669745,0.019428374561011336,-0.0073217219754239705,0.014337819155200928,-0.038996509908511647,-0.05325919973948591,0.015692560759447746,0.005962021005055174,0.022745217354200573,0.08550576874635815,0.03368881537533158,-0.03213533516491514,0.04138855481009245,-0.0492622346260032,-0.023486021607830622,-0.00641877873090474,0.06007793122993492,-0.01975229344926927,-0.02547590505138892,-0.0036616866334063733,-0.01934816698895331,0.04699425196396847,-0.04019596255170748,-0.04165984996546085,-0.0157125664228474,-0.01913286759236223,0.06987426911898018,0.03740760354150615,0.007246518426040536,-0.04434769162178748,0.030434560375207375,-0.03587837061500039,-0.05519062352847373,0.042429635441153635,0.011319460362500087,0.032824524448015556,0.011736878973408367,0.031225226432237,-0.0239354970641727,-0.03636619121068164,0.02383098685351459,-0.03510658924283574,-0.03133121490100162,-0.020915811931155243,-0.003870231021946178,-0.020358604834595263,-0.05604978139303544,-0.029904983713585624,-0.08039905261203516,0.02466382598028153,-0.06192103961559517,-0.04545393346598764,-0.008216301197923314,-0.03912431381543799,0.049584516421964785,-0.04778403477363848,0.003627252060720705,-0.005996627044512508,-0.04273201892713795,0.017770816266613712,-0.006186094965904475,0.02756394496399787,0.02942842280527961,0.07721455743348239,0.047890227726710484,-0.011629419535355467,-0.008735626618306866,0.0393534817057478,0.019730355618099944,0.01856343090963356,-0.061742686401222435,-0.007283433502451776,-0.034872537801600635,0.00010842862638314513,-0.005802982882762966,0.03259667446184454,0.02012569307347329,0.03755622743684015,-0.02050059883403658,-0.04034331899748572,-0.02238854017012368,-0.008813846317894695,0.006315373299776463,0.07553846833458232,-0.008393936367496578,-0.03904967665085175,-0.014311649436325048,-0.017543210388387166,0.01713388068483114,-0.055032795947560054,0.0022354003269670977,0.005427677023352458,0.008197040909294438,-0.019628731420785844,-0.007871139600971609,-0.05070404993266951,-0.019961452611017925,-0.02340568424529821,0.012890319607762525,-0.039293306778418614,0.020921340789854522,0.04657708828036599,-0.06591363380178066,0.024629591995044057,0.03653443000053479,-0.00995283776578123,-0.011530287203791645,-0.005059239882998345,-0.008945111357746022,-0.014848772250569547,-0.06311094918057347,0.04651964715836411,0.0359452239562988,-0.03796071867656556,-0.05589241382887219,0.017890764058242133,-0.02062721718946384,0.005066889298416926,-0.011455536168682424,0.02447636014655835,0.025179822202859144,-0.024693077035503674,-0.04737545947933974,-0.054966345168914424,0.02135131516984256,-0.04803017292650679,-0.01953946000071523,-0.01820210024501514,-0.009382376707828967,-0.07623208136645983,0.009763494001325009,0.0191681532851912,0.009540199455163052,-0.0024985303676463705,0.003932905463667384,0.014908065939052362,-0.09971386430572593,0.06996945073786716,0.015421411350614358,-0.01817635909875985,-0.016346229413405165,0.0087087683560836,-0.008335516421619756,-0.0732889637895006,0.0735150140393276,-0.003952778013298779,0.036385443714345565,-0.024954829705234896,0.054892271306758014,0.010646214082492134,0.025032977596882083,-0.03337189883476301,0.046943742798023776,0.021897143265957864,0.04506529287024396,-0.016594180532911788,-0.014216094744682287,0.08395672266031311,-0.03907644496475246,-0.002571434607267084,0.04941937329280863,0.016406689543814947,0.02711752324906315,-0.01574989262188095,0.0021844422766303345,-0.05681062241544866,0.05888688336638735,-0.0008673549619171435,-0.025089938817746894,0.015316301706849183,-0.023482631016693522,-0.048802788775806606,-0.048118693122826274,0.024771670473964197,-0.005751386639137275,-0.0049962406974189385,0.03795425832551987,-0.03992978084921342,-0.022310924434903942,-0.00785101932829585,0.009603963774097531,-0.0033775590730866904,-0.009531234982049056,0.009130170210995985,0.006944514547388387,-0.025821227731927927,-0.029577407594998415,0.016513145454750317,-0.02058269183089793,-0.02941571776123213,-0.016448548053138733,-0.017269098946652673,0.06496557627572618,-0.02884255554704745,0.03838526632104865,0.03637068295707507,-0.04060908853435866,0.02272641237296872,-0.04665848059021439,-0.09541559454143149,0.021676281034956453,-0.0627145658871376,0.01606385693147688,-0.02457804708967947,0.05914564013750379,0.03969961227117387,-0.011583390497893184,-0.021048966180019883,-0.047153790693286984,-0.020549296881079118,-0.007474580746840128,-0.007735572758957372,0.010567499889365756,0.018818272554481277,0.0107586081520988,-0.026399155765978618,-0.05190511537550313,0.059294662255030814,-0.028088790139067118,-0.03907373860870411,-0.024745390185524147,-0.05809818596943847,0.0024108445077565856,-0.0013821134723829745,0.02873744716328015,0.02697500144238041,-0.003451478643876477,0.032000291419509636,0.012171936967578298,-0.0005600358732407161,0.005727183725931943,-0.006893930727389413,-0.01344226819742664,-0.007147198306845756,-0.037017316775311206,0.012770392175229094,-0.0361683781586721,0.03467763430135473,0.004563911847060804,0.012664614933642097,0.02327255111760655,0.02081144369954143,-0.05683960830213112,-0.016699943025593116,0.02397169028586757,-0.05746664358447008,0.009879425199975906,-0.0893923436825283,-0.03484897380178453,0.015241665996623468,-0.040704009598778165,-0.021092443991327935,-0.04292495759007187,0.06552978599814628,0.008709254546325911,0.02269247986507365,-0.0076264455645933,-0.012633316246655701,-0.057756097084807924,-0.010497333714230405,-0.026189385317657146,0.03269823501375476,0.043113669364787575,0.06213772587694041,0.040743495565210106,-0.01306470227343118,-0.024620271631788718,0.03815691084069072,0.018035659600400954,-0.06080244054292603,0.012445606493226279,0.01826853475702398,-0.005884908281308157,-0.00931152448025238,-0.02713866524400044,-0.04216353816388814,0.044372079163087566,0.007298013018224277,0.006332585601788407,0.07297689078019029,0.033682118495805755,0.020590902289521214,0.008942179297523207,0.05650274548342122,0.06144389008416755,0.03319310203883726,0.020755750122303344,-0.07488014941043385,0.005938498257657402,-0.0021911605726983347,0.011722821852338004,0.043146244572073514,-0.08928088179735683,-0.01284308879770279,0.017068729154970316,-0.005054687760866461,-0.03995155506131715,0.03953434721851067,0.01860668364531848,-0.03037352346223977,0.01377211718453301,0.02821464217377312,0.0141278214678493,0.05425730482567424,0.0276773115657,-0.00047614711849967124,-0.03387581204802662,0.005126509400404059,0.013280875763637541,0.03738206709120124,-0.0009820454826200147,0.017667386181672212,-0.03428034787682392,-0.027950972323055687,-0.003961028549523109,-0.03768731704560591,0.030726887336983793,0.019720860863249957,0.015739074986270037,0.017214091932556044,0.08350760845814797,-0.0042754086660352466,-0.06597906619192752,0.01840953136400368,0.015679891230886502,-0.002192853342277685,-0.02263811542065243,-0.0002847792961162176,0.014034920292109194,-0.012732882295865482,0.1040527429887106,-0.013123126513201026,-0.016560051866808343,-0.07439384888871738,0.015949172244099804,-0.06441685642286628,-0.014241288249969375,-0.0075540508176180675,-0.023476394860917342,0.06365391740355217,0.035745354184793875,0.04711203129648484,-0.03152123284110073,0.04034348180424573,0.019623032701693247,0.03191040772255217,0.04033066002570717,-0.028092807501385122,-0.011830581091274002,0.03971032448484095,-0.0854796404994637,0.06020309968103754,0.029633416541243785,0.016436038973713218,0.02061456925747133,-0.028998083946487528,-0.009428792573448584,0.045121492755369634,0.05528706425528893,0.10686414616844146,0.013538816408011127,-0.011048327565118215,-0.009123387587565378,-0.032364424235306895,-0.0015813140336242075,0.014364756754062596,4.579147268197124e-05,0.03957540648216697,-0.008252498679988948,-0.012411927931231869,-0.020758862434617668,-0.05835534653710737,-0.05379820358245567,-0.03803170928273673,0.05460348376562379,0.036303608424912294,0.04977435713605994,-0.04578865505762643,-0.0684173872776758,-0.02094026688894761,0.005000931439171309,0.01753996337292533,0.038284040857098196,0.013209810830106009,0.06677269206962504,-0.0035744515399302322,-0.030661073439765162,-0.05198871396888361,-0.019132738413578793,0.019280721474162977,-0.02498213916193239,0.04119601130861817,0.0553941818775019,-0.08191594950346054,0.033708360658012304,-0.07955792238397735,0.014467103317921223,0.04374531896397629,0.0023072540516514083,-0.0459207993653107,-0.021307729296752034,-0.005822541439553917,0.0034605859994009855,-0.0004936318052877952,-0.0009834961064034422,0.005020095186906904,-0.046160519151343574,-0.007751948045610805,0.05552834854918075,-0.01769739778805224,-0.021729249971866964,0.038748189064083186,-0.08809047009334531,0.04255419330041621,-0.014464311416207354,0.009460301771023421,0.00636901331419076,0.035475955364968406,-0.008028146451976845,-0.02036280347972178,0.0494141727256905,-0.08378120179782961,0.0019943900537469856,-0.04748685514084787,-0.027158239163842243,0.0718305957665406,-0.001588569850224499,0.006970872311988544,-0.06334502800952115,-0.021625867678817107,0.011767581806775524,0.014597474460808047,0.030347063297641707,0.0003894334894342178,0.020033105670731532,0.023172716709067002,-0.05447163270153088,0.002864516870597731,0.014333303324171588,0.008665732705048163,-0.013918833791664656,-0.026658080310446978,-0.03580374866503429,-0.0033577003177984364,0.03801789221126467,-0.07151589581425336,-0.02366557587845012,-0.041846590245820464,0.028258952441133803,-0.019047182898708184,-0.016614462294263246,-0.007514531190890992,0.015906594124309267,-0.014013950787910926,-0.10878076478908992,0.019755684449682443,0.016497996329967117,-0.00579085519251802,-0.03661250722056678,0.012133004834586276,0.013096416425903132,-0.022708232551888325,-0.01062839788872113,-0.03356336827408646,-0.0072975544671038065,-0.05461038182286553,0.011128087119821281,-0.036779998918353644,0.010905940584215113,-0.047319380972475525,-0.01934078246564441,-0.007259952561099835,-0.060835587789817756,0.0009518141919255611,-0.01565176927096264,-0.060875234375677746,-0.04441632561799001,0.021852655643380268,0.03141366338272172,-0.004698806534851983,0.014455774676601276,0.007994356791010264,0.011772558408774988,0.04612204775068983,-0.05359108321570942,0.023989769454850745,-0.014418234441754342,-0.008864067916225144,-0.013987704522522277,-0.01694707788115414,-0.04552302882100419,0.006076025575038339,0.056342187562868545,-0.0068976770306915965,-0.002959839634701158,-0.018902023155549154,-0.004419948653037151,0.01282150615649476,-0.015346577934915149,-0.018011005786838362,0.011616215228749312,-0.03218600743684354,0.010897043622264615,0.03121974595117721,0.05002141032812379,-0.0023199718999328675,0.049171948760269465,0.03673845400154676,-0.035579030854724567,-0.04349780398546967,-0.010891558494800729,0.03675649117087451,-0.0028959795095294207,-0.02350610014708002,0.05200511639687791,0.006753420829826145,-0.08380564148351341,0.012425156360584961,0.015384010602278734,0.00041296227144211104,0.009548467041490706,-0.006289052731531921,-0.04681313915663321,-0.012932546711192637,-0.03547375162954278,-0.034993507259306264,-0.045170223747871864,0.016851842010086614,0.0028308447712006423,-0.014555382681671171,-0.02030280716108331,0.0011790636073664672,0.03898373894222337,-0.07173529607695028,0.013226121647174896,-0.019621527470479745,-0.06730663732069456,-0.06948939582728424,-0.032599410504831845,0.00782976821549454,0.013804259773425464,-0.03530634336347429,0.03281078302996877,0.048859838039728556,0.011873458753142127,-0.02436592718048052,0.03441703670680545,0.019765490757882462,0.02582451665580241,-0.027015725309584487,-0.10563410272647944,0.07421919828821083,-0.0597544107969924,-0.004222848236292903,0.08180980775775118,0.01035928124743131,0.03444325228160628,-0.052294271015932536,-0.062208220924177625,-0.018802337722400912,0.0389517370706542,-0.012356715156132129,-0.028189277684722968,0.0070769983228021385,0.038640543517045184,-0.05160500710976327,-0.04323367836154827,-0.028164459586247574,0.039029254360194665,0.007202663107734375,0.0761763222384218,0.03530381199621736,-0.0007915539305504459,0.0442483820094558,0.005579223692944761,-0.02593012220885024,0.02277001438421408,-0.02870639978953985,-0.013762589811605275,0.04719855837198143,-0.005580117470976303,-0.03189726952874288,-0.017780844346195777,0.036292558915365744,-0.020676223377397215,-0.013757553786698953,-0.018736986494854006,0.005501371384520131,-0.014494858889868872,-0.0576063495370151,-0.031677459681894865,-0.0333051269488006,0.044404263730541245,0.029024072932465797,0.0209735492642795,-0.01804851133087178,-0.029134504720157658,-0.01787804712906916,-0.035279082276234656,0.09177319004470141,-0.07930754751380942,0.0209093941369733,-0.044991731139113596,-0.002583883381655722,-0.033449295761503815,-0.04180893423447452,-0.041594227772453155,0.06344848192915775,-0.004834644501507618,-0.02813541605099375,0.020667666010937974,0.00210121637778531,0.025630632095667,-0.06522182180132899,0.010917210463541084,0.027517660925755347,-0.05931902474661335,0.016015233958927635,0.06057787576364445,-0.0005306322626679542,0.029335926322314687,0.023948944653961066,-0.025268060625377745,0.0014202405209462559,-0.0559640968164858,-0.016119535764844123,0.009481391733393223,0.025853168813729652,0.0011179612767688494,0.025905613503219984,-0.039397324894248915,-0.0037467623769974396,0.0005873299817841834,0.06596697117373848,-0.007780391284131268,-0.017788935002063022,0.0007909477546169005,-0.032877553174219185,0.006804102171139626,-0.012768532274781403,-0.06381268396069026,-0.002051836410490435,-0.011261849118282,-0.05828049566697303,-0.0024095243948443713,0.053191284359802866,0.018617991009846915,0.02185454259754135,-0.04791059734225152
0.017032084604365085,0.005301770763574217,0.01889447279765827,0.015093879346743772,-0.048563597339421914,-0.001478600412784551,-0.02706681644375593,-0.0017887176530293604,-0.0320500331036368,0.04687394168360701,-0.030677585301583654,-0.032105077016626286,0.002898362133403334,-0.037827615623279354,-0.015025666487983749,-0.0296357227680681,0.05039900228177184,0.02806442238682759,-0.0020524828023355227,-0.013972037577643436,0.03360420052053976,0.014471574297246001,0.017787585881530597,-0.0009354370480089458,-0.06029392956326543,-0.00401664223426974,-0.019017497114609563,0.023037688337852746,0.036137229749792464,-0.023498251598613164,0.016728044081323272,0.06199567848877547,-0.023846768379080997,0.060069566277145436,-0.028805497889022032,0.003536006461008377,0.004320539692435227,0.0016325101224432543,-0.02969397348621053,-0.020871640360986977,-0.02311870663194182,0.012416617872395924,0.011129107617910881,0.07897738632902213,0.05018373314513058,-0.017370305760488654,0.012581212476964972,0.0381561682398897,0.0025098081951298295,-0.0023513107224098165,0.002116724617055362,0.03129001224104865,-0.030297161528758304,-0.011631052457863363,0.01680118374451721,0.011123109698362697,0.00855652713772826,-0.013207184510850114,0.03473378314805413,0.07621915200407052,0.014538698825240661,-0.006891342531218498,0.02783934348013891,-0.01493424715575636,-0.018579645906556835,0.009531804672700152,-0.08852993511230567,-0.040399193000791186,-0.019329882789738486,-0.0659351946803739,-0.04356229208593261,-0.023426007388941607,-0.056394592856344294,0.0019796014815180733,0.003338865956039093,0.009566061767167717,0.041397393620139125,0.0024343578729860253,-0.0024321605699051136,0.002682235556244989,0.008132940952522354,-0.03561629236118681,-0.00409911874181422,0.011026830065593326,-0.04895571366225216,0.030916175814851902,0.03864249143426917,-0.022314482775766427,-0.00582438074064644,-0.03144531762354347,0.02637326182325467,-0.035646830678334025,0.0024363256211185334,-0.0068130211653517,0.022859860990943046,-0.06486611934234161,0.041141059987784195,-0.060978840859019307,-0.04576196934718321,-0.03643961440743721,-0.07289140350170671,-0.04354019398262486,0.08483219573725688,0.0389760000404653,0.057562944395802444,0.010687696553856542,-0.004519642036387625,0.007618449514631227,0.03255992475864266,-0.0011512005846559484,-0.050390547417282903,0.07135557427678588,-0.03059104672265034,-0.05505573910887943,0.09272175647802705,-0.014517811355451653,-0.054979813507238316,-0.0392836082866697,-0.0075747649281499045,-0.01889434344766081,-0.07356929359959186,0.04089229756943852,-0.02934251328447563,-0.04204346184792726,-0.011321712145943016,-0.024458234800689642,-0.06151976287539188,-0.08249949637244106,0.011659514728273987,-0.06466735053289385,0.025926011944019296,0.08264114477804636,0.04083852365020701,0.0731840048913147,0.0596442988471207,0.0268204136070505,-0.01947359574527003,0.05369370948520573,0.049791142614130916,0.007240211259878923,0.0016119291225717954,0.08355802878643064,-0.009933885960900739,-0.010980449027862264,-0.0035454705611326,0.020219423197559313,-0.004094490084905372,-0.09570507222235247,-0.06812402987824992,-0.07259297316141669,-0.03356429601452754,-0.08955719028650908,-0.13983464383214952,-0.034150641998821084,-0.09448161912970511,-0.06409284368040276,0.046088495104201765,0.07166828041469897,0.014311215140827841,0.03793857077576612,0.03299682298966874,0.06677309828112786,0.08947144273479264,0.11214237722058285,0.07655980635103855,0.04261820772124883,-0.022494137146129863,0.0089755565091347,0.050048029688998553,-0.014647464055229195,0.019714299340018972,0.0011080330470264743,0.007083852491207495,-0.05715124590820117,0.02883180625472479,-0.10679113665021897,-0.025519420476348028,0.034113524275312904,0.03581811144984627,0.008619828092606882,-0.022092179265039782,-0.05206534501238008,0.027249972885726313,0.07988835206295807,0.05650836613052521,0.10736769812812165,0.09336320498544082,0.1559712426852585,0.10326454433502423,0.12500685770196776,0.16623099893187196,0.08068310172278562,0.13436584881297597,0.07499175779766142,0.023609246869959435,-0.011906652368132192,0.012839502615022104,-0.005547761466700262,-0.011129341337110563,0.032498642122029645,-0.07023680828390502,-0.012469784917476662,-0.044775503000212435,0.03347526684830599,0.1327745959696751,0.05240316817589993,0.11220366131984844,0.0792209695301849,0.08881022319751836,0.07368103363955145,0.1838858398581021,0.14842483083127792,0.20275950726695263,0.24486492176063002,0.2728138736791685,0.20130047492392558,0.20446611414441673,0.15114853493684322,0.11687911564973426,0.12536941434351925,0.12045163675817439,0.09363474748996385,0.0430267664931468,-0.06298507279696952,-0.001961390635583137,0.009556177031876325,-0.03130348168815236,0.06404696029040621,-0.02056130967570464,0.048772735072753266,-0.005988226080544078,0.03638077676430328,0.10471496574779868,0.025195661101154843,0.07464259623710683,0.1405433082139062,0.16878678084828272,0.145278193496866,0.18760710229692892,0.14621422116583385,0.2344776384921022,0.1559557823023118,0.1221671830694928,0.13804491772848715,0.20682577197007576,0.08281619503380049,0.10021034965550994,0.12201591293815109,0.07567172337907165,0.03206792992573725,0.04480883707930688,0.04102682116545513,0.03525072610750311,0.028518290719103886,0.022965989076194165,-0.05246808831035528,0.07899875683939386,0.03785357178240009,0.06902621341390254,0.13922600373288566,0.1883072362279772,0.12440587503933757,0.10666099508967267,0.14431381571728738,0.16099705168161096,0.12105260795749549,0.14225301501676257,0.030337762312532934,-0.07584382533199784,-0.083357619908978,0.013864913813791143,-0.055281469030678536,-0.08514189574580297,0.011955767035047863,0.0015909551165301282,-0.04337554755635028,0.03226720717734117,0.007113609409907001,0.016639861827150833,-0.0017056203208081543,0.0036489330563891434,0.015322351964877665,0.011107030298727085,0.013520629354223693,0.04871122099072096,0.054925627843793484,0.04308674926333037,0.04795684627855237,0.17238044465759317,0.10047793502732445,0.08988329005600652,0.1056851719791108,0.08361412832726982,0.05192800588303151,-0.08206862069426521,-0.15602945632193305,-0.2300369022612223,-0.36823774137014736,-0.3039283618690596,-0.2708818859531316,-0.20059019230438915,-0.17567196597189524,-0.18760584508372122,-0.20063836331406723,-0.025817386874201577,0.0340614286674213,-0.011306684820261948,-0.00675932536991727,-0.05829924807215262,-0.024513115784777884,0.0826850074063629,0.0034805736083412223,0.045618949716371815,-0.003532022199410222,0.034122237196777684,0.012129621539915113,0.0021290717207143824,0.02592361698059071,-0.03001717955327296,-0.08542624560782693,-0.09739728194069285,-0.09807235322673243,-0.1835599946632581,-0.21845703055435464,-0.18448524694423668,-0.24104859876694007,-0.21981445675161615,-0.21869786637473962,-0.23451310315899768,-0.2674107563250949,-0.15805030149635443,-0.15007018058249139,-0.12038932824164204,0.011920454607363361,0.058360909977235566,-0.0056962981110468686,0.026241023609173058,0.041430629508914144,-0.03173561852733457,-0.02286894011264259,0.0023582681323254585,-0.053962948177889956,-0.017740002877502558,-0.0790579515654846,-0.008686550910782735,-0.14410505691648753,-0.1346421146374262,-0.12436517833611987,-0.15710316332040702,-0.19790881023039214,-0.17459318059138676,-0.13587858957543753,-0.15491504245485474,-0.09786290339411868,0.02551586639930014,-0.11703693889098166,-0.21444093927633812,-0.2544385381528796,-0.21243582266875738,-0.2595331500417613,-0.10337469577357515,-0.03525362205615447,-0.004328281259661288,-0.004410756206719057,0.043620376583518465,-0.006904650737504875,0.002539496182280087,-0.06015564822728093,-0.07775373039269419,-0.09546057836150088,-0.08349972928190813,-0.042440459028936776,-0.12095910916718113,-0.0935362011133447,-0.0330979364734405,-0.14962560277677794,-0.12198389658881531,-0.0046201113300258076,0.04207444641163923,-0.029632206117999618,-0.013327525517477675,0.07974927002151684,0.11954454893240309,0.03399262006478775,-0.0012590983373130613,-0.12915373764345656,-0.21664496145694698,-0.24197231875783937,-0.06237014284060607,-0.030471209817486345,0.06630821922872412,-0.0022084489125733836,0.015396544164935284,0.008416350044380778,-0.0199530264803764,0.025450223015210764,-0.020391260347436657,-0.18084965105203746,-0.1450115442512612,-0.11380470326530137,-0.15143225787188336,-0.11363712619474227,-0.044920588100414584,-0.060178262667474995,-0.033998454087512425,-0.01566004438156976,0.07178041099611918,0.11478340481320076,0.07437904443671385,0.0808681595331869,0.14218626967596285,0.09197972119044988,0.04824916982118972,-0.06987341322851633,-0.21239420187431451,-0.10647732430775465,-0.08664964225758215,-0.09080252292925382,0.06061821667786394,0.02332964266089724,-0.04056001232410624,-0.04398580102113925,0.030354017285047497,-0.046391042768594175,-0.05069034701368022,-0.12412881970014945,-0.0922720547575023,-0.07137095533199776,-0.0824611094571539,-0.034306640899719576,-0.0590345576435507,-0.029285725641837367,0.00024885239044819486,0.02556517758242777,-0.037911048209067474,-0.0019156416539202281,0.03811632465438483,0.036429898494974085,0.12939390592289562,-0.017169988142465058,0.023671653290863123,0.0016302147416938366,-0.1358656010484085,-0.12209674146946824,-0.06494142433798783,0.0026267607897466965,0.03234212319609539,0.018191838212825603,-0.027793706968437016,0.06167590203904338,-0.051571823640193526,-0.060883549250926094,-0.05815771340011381,-0.13090331177564657,-0.13812721397309244,-0.1372709402886113,0.028124408052844295,-0.02942755683857328,-0.004886562469775298,-0.04321665469966101,0.004527642231943112,0.0903857149247084,0.03206539405345342,-0.02771110780485365,-0.004735212155844642,-0.020451056773380803,-0.04930552862269778,0.017891055657779858,0.028750889987265243,0.004627673812774522,-0.08433531778713463,-0.12168203765495308,-0.09421691082457623,0.058184422138625756,-0.010280403901867467,-0.013788356342490848,0.004699070282431025,-0.05031817653924045,-0.016111924221059837,0.07191811585199435,-0.028436468924987753,-0.07254924369335675,-0.13739893599081726,0.03472825902761121,-0.010164896012984181,0.08766456182324388,-0.081278943805484,0.019972019478841592,0.06405469169890406,0.04329623315731639,0.04093829697785395,0.01511000000731883,-0.04390581951064104,-0.0024804374815082715,0.003453064143035288,0.0388022014651946,0.0204504030189278,-0.0390562467600556,0.0030031861578037247,-0.023671896569545683,0.009140865345856309,-0.009633311551160043,0.02958354347722412,-0.018065939365589114,0.0035663706979980293,0.056278583461051815,0.015666798405211922,-0.02491552570895236,0.048866433522488886,-0.04684661598902362,0.018074051719588938,0.009797541959557357,0.06566670559596238,0.011952765343852062,-0.03682450643651333,-0.14596199468859222,-0.09426819585307146,-0.028203960408005248,0.02296151480147386,0.039425293181068445,0.022468280368710007,-0.024727411998178735,-0.029500357473337374,0.01722845025908172,0.08228238525063067,-0.025491413957114465,-0.006200974571879152,-0.008318296109237792,0.0669291420896145,0.00808116192102745,-0.022223938326444603,0.024770359882470498,-0.029057041702460658,-0.01858664587570296,0.005222083857682385,-0.027570628400761982,0.05942263185515273,0.010204885032216698,0.003802771989520555,-0.01758807432961765,0.009333267352290132,-0.04448570430085028,-0.06193547298980963,-0.05759990046135206,0.013217575414693532,0.007397516434186851,0.03475366734136413,0.07477248878887555,0.024111136699741964,-0.0183275331920537,-0.006372988489263701,0.030182448088608847,0.029814628464463575,0.05131753354458167,-0.057635891317027635,0.09094838802637442,0.06402440878885589,0.003798540730200572,0.026078234237602936,-0.021983676385873244,0.020302104247295602,-0.012253782824592592,0.025064920319210305,0.0006665071406034243,0.11107294024167924,0.10886220538886507,0.015880720230542378,0.0796721041933035,0.04585216002232687,0.054984599462882984,-0.03329164985523467,-0.038685134455900945,-0.04568648028935568,-0.0023535273385983544,-0.02133587265340281,0.11801282580393492,0.06483798064485294,0.10592325388279052,0.03855886477321057,0.1143546694403551,-0.01381002342004435,-0.02341032070788636,0.025493395224202308,0.0966840288233216,0.08442240179399277,0.0729896398110307,0.029498022170949687,0.008689315011484306,0.013941654583677575,0.05652272027421689,-0.013725439841046003,0.056317941429761674,0.010817854421864177,0.09688438309146064,0.021002817180934153,-0.016840800452956658,-0.005907233013115944,-0.016249029516893075,0.01762290445104065,0.03302067109779643,0.009473481241214422,0.04250062165988412,0.0627150518786696,0.09828573147867489,0.06995561245211711,0.08867669469465972,0.10474791128065454,0.029525264457381805,0.04073843818121897,0.07909189044289215,0.07224203892881564,0.0521931994880356,0.07796128357676728,-0.029048314217887103,0.029007635386270002,-0.015047649812482371,-0.01676104981145823,0.03126330951780631,-0.04495348466212423,0.09070808565317233,0.05135283184678866,0.04727071730124027,0.05574973848896143,0.007635842532135771,0.058171219072486305,-0.01057279514054454,-0.021131675083030075,-0.0675920645351918,-0.07013697209552218,-0.13668793923789205,-0.07598719014144752,-0.03779061624586102,0.10586120966623926,0.002805411044594354,-0.04856491478203047,-0.013847091613572476,-0.016681077264402155,-0.056177537414930714,0.06901666147813725,0.06192275061602044,0.051109509120084724,0.04889084437499651,0.013415470506378936,0.034948396397260266,-0.03962419834414804,-0.019554217881408275,0.024531933201534118,-0.08447805831689145,0.0004602196307568446,0.09029558858178326,0.05910183140025153,0.04647049364336467,-0.01281968360308784,-0.018291782497694673,0.058963167095425074,0.07827173015233137,-0.05014687228124459,-0.09635724346189312,-0.01320228496241695,-0.005880454563761188,-0.024986015159471606,-0.013289361016982028,-0.12833632799747924,0.033446773122121735,0.048628900775279336,-0.028132107222615443,0.019997700262560224,0.0627773188132387,0.04174630123478242,0.03657181794626634,0.0020288421168160576,-0.027382316233460723,-0.03586866829337905,-0.03564970457970943,-0.04887276750845142,-0.037859035729213265,0.07378270710657049,0.04620234619040312,0.00868009849228805,0.02673691758275491,0.031021889102420905,0.04020171168682954,0.041578984150876006,0.09463985643193122,0.08690327099441815,0.08067929300560904,0.040334516882587865,0.008304636089872594,0.029329764166283415,0.07133652913470954,0.09777408067756424,0.053092665437854014,-0.009807008803317105,-0.0005635528429305725,0.02325208029534359,0.009399676189901176,0.03378079643009265,-0.02527349873963649,-0.042735387057517615,0.014894410820271556,0.024567192541955517,0.0017806166642793803,0.048035835611994517,0.033566626762138244,0.09620038068181626,-0.02487278864790197,-0.03548606797022208,0.009502885245730583,0.05367898740646186,0.12751379899028306,-0.009051053632139332,0.15870112391902325,0.1719330783344235,0.12157556349192603,0.03135952115934891,0.1367047347532269,0.14792035042371385,0.12667940207009099,0.09427260113863992,0.052564510514677844,-0.010492306714368446,0.044868369352525465,0.03929663986179566,0.03307699073585916,0.05183914023167669,-0.03634141768271969,-0.030322653827448115,0.044900701815321215,-0.05296011991335866,-0.046764719511821935,0.029209351113749848,0.00850676352602223,-0.0021721093194110304,-0.0295958597335509,-0.023666133020406994,-0.007600335045831035,0.051043720814326794,-0.009054511701179548,0.013822975508524344,0.09569582576280562,0.021752543187842484,0.1116230140855598,0.028844755157978828,0.1131298258938143,-0.002101559825407809,0.026339263997862444,-0.040643145001308216,0.05992357858235735,-0.03185613360975643,0.017516491791042716,-0.005748987526601763,-0.041408035932937064,-0.057818180358820484,-0.018249785035511355,0.06216533735340467,-0.010481609103192053,0.032757912218423425,-0.0020372452736495766,0.031311670488944725,-0.06524683493944705,-0.01436626733657775,0.03401242129158343,-0.0056597754149917264,-0.0025300817890106944,-0.01420290671486293,0.042848905496466305,0.015149305603780201,0.005971905809914159,0.02893199860286063,0.028597441785854376,0.014953657025772516,0.05942341752770651,0.001606179276034015,0.01674654524185352,-0.022748330760901676,0.0038613988402579243,0.05403037556544856,-0.025375925799366483,-0.04321404060964508,0.03584981809220211,-0.0053130768654885445,0.0034287216060632144,-0.0016111894176191004,0.0028257758546262526
0.03037609584012279,-0.0299687210928312,-0.03613478871805316,0.0030345763227752737,-0.05737284605177974,-0.04903762628721173,0.06666725529755811,0.027052440359335853,-0.0003591597096076621,0.04421453342708714,-0.03716425821732661,-0.011271540120923507,0.022343476929595266,0.031972148113896426,0.018310931904343904,-0.09075884246729692,-0.0345743613451635,0.01703814615560233,-0.012712553323100225,0.09072255788425612,0.033091367891682016,0.019931495736380922,-0.03989105549095441,-0.0012605978429612698,0.008614427293534017,0.04027798679027866,0.03146896775355829,0.036892471232855197,-0.03299685770750007,0.0504339892249511,-0.04930109829668818,-0.019139805773791492,0.015384714120954395,-0.005352997016034802,-0.03585647834954926,-0.029193347680010136,-0.055137150802397214,0.01891530954475362,0.044962829131419205,-0.0030378489283379062,-0.013058939023128576,-0.051976909575758866,0.03227845812038558,0.07868718535488786,-0.06394334565562756,-0.037686547274811306,-0.02381489710967471,-0.01959368995031551,0.008530799431834624,0.05798953310212771,0.03614499381224524,0.018853964254653497,-0.0258545965735215,-0.039986722631444795,-0.028456260939510744,0.05528810004924066,-0.0022051179092107526,-0.015958437630807898,-0.006562700570295134,0.029633266809982843,-0.04681099921386758,0.05053064596130637,0.00567786395754448,-0.007806027102159351,0.015649310687113116,0.007110393248217557,-0.0138878997396624,-0.012793421779847589,-0.035627750359710615,0.0127479357192551,-0.03126655287078875,-0.042196579737903285,0.0029880332601940197,0.04860767184100667,0.0031134426417804735,-0.018544712322616876,0.013822764792997948,0.06873136306481208,-0.051079874733727694,0.012857966363924417,0.005438006258405786,0.040644196340874565,0.035389613345887326,-0.006668182564634972,-0.06016133055088867,0.028805848853437843,-0.029844961389764522,-0.033281409390407746,0.041666018902505826,-0.036035208394626046,0.04641355140426804,0.005756671893836665,0.005922435799218695,-0.001594358606336458,-0.07799020655158544,-0.09328926963739714,-0.03153809412727059,-0.03419405679841449,-0.053712681740651545,-0.08332902929364797,-0.047231036325448804,-0.021625282102910304,-0.021253878684897972,0.04673171399006404,-0.038138119911696605,0.051911670956066906,0.037780089062561605,0.04865589287172727,-0.03102548529045684,0.006914139144807789,0.07959016469986155,0.02364551032141808,0.0035921860260343993,0.019253048899980297,0.002991818547811443,0.07786290942669433,0.03188094146364455,-0.018130400879134475,-0.013304157345196499,-0.04601897943890108,-0.026415380107242207,-0.12814294064825485,-0.14312399140703522,-0.007921731630282997,-0.0073756126159691595,-0.0716058314279601,-0.036214608339743146,0.0031243577944332947,-0.05297735629013124,-0.01469543957213106,-0.028048212595467626,0.007232119981276583,-0.027609299341838738,0.05390384694781434,0.08869925930889164,0.03638526926067921,0.014054652317785408,0.09040261515573882,0.0051620466869292,-0.01979276067614027,-0.06044180133836101,0.026048083795729503,0.02449292153197954,-0.013375177443248223,-0.04974424942575609,-0.03134916464050127,-0.08631103336745237,-0.10905941584293684,-0.08700143178369417,-0.09503916283636688,-0.05654122453288417,-0.027659786569248487,-0.12657255058448647,-0.10577207769203688,0.030848498857012286,-0.0897358518847408,-0.06800108169456448,0.018789800046145638,-0.04169238176191029,-0.04357910636302901,0.07101492804808333,0.0524181446354364,0.030595912617673544,0.08352938731288483,0.12894635934362297,0.09260874763120756,0.015003357545591968,0.06669966199455578,0.012703696990142302,-0.017054722339734776,0.017370216911511097,-0.010996731521640612,-0.05582836857122889,-0.06837748572420813,-0.0503609712915451,-0.14501360662467241,-0.025975747801374606,-0.11069204825826512,-0.11059114253782323,-0.0635584661815242,0.07729431283123292,-0.0034032936857633558,0.013263772548161301,0.04392548773213912,-0.024154310381475943,-0.11604387569478786,-0.003590655930926069,0.07217685340061297,0.0299993210572953,0.08318036506041149,0.15699807928229048,0.06368833095861928,0.09267969394869793,0.05467222808664984,-0.047503726459933775,-0.027204183750228296,0.0069004878876520424,0.045146727560695744,0.03578183978551033,0.008222402504293982,-0.07528867995773625,0.005435833576851515,-0.07664341876129768,-0.09730409910430407,-0.03191869119370048,0.024912416014920644,0.0685246193523833,0.13898715347050947,0.07909085444375584,0.041351717271164073,-0.0550387879536405,0.05333291436685409,0.0672249795513532,0.1388930656934342,0.07350339486651157,0.07780408776313599,-0.0007029283652435523,0.08614905580591488,0.026822566708191213,0.17923953212141638,0.12052964557138572,0.015883411547162846,0.008186196779036092,0.02347928408520481,-0.055950520143867984,9.747688902085945e-05,-0.038032696993151274,-0.035607204733773844,-0.05884542266150856,-0.05742653806148377,-0.08634445106667978,-0.05950956157885783,-0.02007445964934303,0.01065290026401584,0.08543561295208954,0.17841996697499765,0.10896145558283615,0.02970748403510353,-0.05899555206498178,0.046649822985933856,0.10899630702932674,0.10796421683783,0.037539333697004636,0.051145833626587214,0.10539397068695881,0.03394275077954539,0.021622625109738336,0.09647783005659256,0.2680961899029139,0.07010706506433714,-0.023079852798971935,-0.024911630322004302,-0.02760412777000694,-0.00960696942481072,0.02688606451744849,-0.02654294122479513,-0.06433301052837358,-0.09449456606767258,-0.06027586293670814,-0.07766769128819248,0.01514776534424003,0.02215075315362173,0.06624141913381246,0.11952768065609896,0.07410034862173907,0.001079619480068048,-0.05700963296883131,-0.07898317999569208,0.04137987351336479,0.05319381023296238,0.01900804521193156,-0.07399669360531261,0.004567348368626475,0.05292083504236952,-0.00553051116201283,0.1766455937395233,0.15265854438481408,0.11986016184969837,0.019657834051231362,-0.0488520866859485,0.006845421118530364,0.06106361294536289,0.0016650910380065706,-0.02926742172763125,0.014166678124917726,-0.01008391062049687,-0.019905548413084773,-0.03865876721355076,0.046125264950622,0.09040619331770854,0.10518247420139859,0.14964459524368626,0.12396773880967871,0.03855792952588963,-0.07718321753376164,-0.12363280155625715,-6.52945130545038e-05,-0.011269154621219423,0.02734219335873811,-0.09492704287556072,-0.05497507930839594,-0.004465591355917367,0.06970736155147159,0.11439607026056872,0.14882966768754283,0.04183025139733514,0.04195686775918757,-0.025179544158719126,-0.0005002214459074848,-0.017216790637765746,0.033862935290089026,0.009317405020796312,0.00653673097995892,-0.037328304626810575,0.02596771954181677,0.0854723069824295,-0.04319145702095759,0.017075557608373627,0.00019689512398260073,0.21518652840427085,0.19598257677016506,0.15933783696577844,-0.06788646949352725,0.004264259583366743,-0.012088397130960176,0.013245177489986822,-0.010921730878673982,-0.06292974676107047,-0.042429502059419845,-0.0893851070276707,-0.009137843520638221,0.09902947430654155,0.1132309338962775,0.06012806009966258,0.016359423504358293,-0.04406631478649079,0.001407461613921487,0.01864115805287347,0.002039437168032316,-0.013893009093650497,-0.033761857916073515,-0.032446939433873695,0.042255033045897145,-0.08365434639259137,-0.02560405205072521,-0.013910390806821325,0.07219329470941982,0.09165241286919115,0.2082747882537426,0.07103213391034852,-0.016236999724678278,-0.013530941881269225,-0.04677773200776554,-0.13131827713185448,-0.008454768778223388,-0.024315386001667223,-0.08249738308815752,-0.0007665241468959267,-0.047058877108467484,0.08626446379255194,0.06570623601326646,0.05475013166062351,0.031687859448516896,-0.039151417102116046,-0.015397107672782014,0.02048933013684005,0.02525816455147589,0.044341618325797694,-0.03540102768484362,-0.05351789755827745,0.0047842566113501855,-0.06812734430006638,-0.015495985196758868,0.02065624172961763,0.040505982490049754,0.1034103979539118,0.15968002069895612,0.07266408415704402,-0.03698339166551973,0.022472950693154695,-0.16234654118936895,-0.15641720740516074,-0.09430120634905155,-0.057109013664861256,-0.10820165907789066,-0.06149971927232202,-0.05093262309394798,0.017409664144619353,0.023863117033512373,-0.04656792583650619,0.029377834951306997,0.060702913550301045,-0.007055113930639377,0.05607320683201571,0.007474293890327045,0.0628163261122224,0.026351692600853807,-0.06794424698738023,-0.0370642596264361,-0.009063786388772444,-0.037108234344711666,-0.050657442266941966,0.10659713629769237,0.03839469554918044,0.005984423235743448,-0.010288615762916682,-0.007249758455907988,-0.06425506140263769,-0.13045510871910412,-0.08259780926897715,-0.09882608456115795,-0.11010285407302008,-0.08411062386814265,-0.03439830628739511,-0.03650064220733767,-0.021854797691616072,-0.017552126633066812,-0.07141686750033716,0.008655820362712856,-0.0016201483908054586,-0.04486732490523141,0.0007872137982263673,0.04778243117481641,-0.032569567632497506,0.04198978383486452,-0.020237335773094844,-0.020565386577306336,-0.025069607253722287,-0.012352093645234527,-0.008471031867416354,-0.03645384403285175,-0.05220139083751407,-0.07001423508513878,-0.142072099728762,-0.010599633642842938,-0.07722570357131336,-0.15937419807315745,-0.1143705952067041,-0.062463079862298425,-0.10434969827938154,-0.0646925994282968,-0.011136291897421683,-0.06675965147822217,-0.04612249708091086,0.03091094893797511,0.009738440612702152,-0.0016917427921345743,-0.024098194721183356,0.02531334860963716,0.01491416116719087,-0.11322715258718531,0.02240214663762676,-0.07385669215018768,0.028405494190023146,-7.749747692722495e-05,0.004886742790795351,-0.03461008896339702,-0.08650008218098454,-0.04964022388162384,-0.029197212815337794,-0.03731694360481753,-0.07144500169201011,0.048521780263924494,0.015590413695201222,-0.13484133353904257,-0.04250854968812747,-0.01672978381620868,-0.03929916319278072,-0.08946318810720387,0.01776488018552544,-0.018697841245495096,-0.003917805730929691,-0.06626582494429051,-0.020496768519323416,-0.04198689736795799,-0.008898616204579355,0.008573461760597097,0.0034706645217062277,-0.020589735723783843,0.04180056895015152,-0.06064054077377096,0.08968707607743866,0.041985068962484266,0.014361320919226485,-0.07054881658415185,0.008471871100261518,-0.026955854105262488,-0.048786987076424676,-0.1225194746063256,-0.04684063473027385,0.056352778192380555,0.023188627037738326,0.027109899936636542,-0.04458578611365047,0.004889383399550635,-0.08358063799591037,-0.06101783245069324,-0.04101691139366588,-0.10622367930592547,0.00957380753001267,-0.031059466252908854,0.01527167608085375,0.04500512451351312,0.0012936225354119786,0.017950173077915382,-0.0020480802724868936,0.016954972009928657,-0.001230862913797356,0.006464917411104988,0.10433859115172495,0.20917493038760596,0.09156940782377218,0.019813115909002674,-0.015901377870810408,-0.10200402987603985,-0.10688685974044974,-0.021114732037338286,-0.06320753404324644,-0.009884282328941046,0.05546032736051485,0.018191534781240318,-0.09149622969754774,0.02815449483802717,-0.013315313329667499,-0.0180652008865856,-0.07497835673517936,-0.03739603695007815,-0.09742183490305285,0.0025327474370903194,-0.06512985228057849,0.0158773850050368,0.05364025190429693,-1.509416874023855e-05,0.013521307565267447,0.012884576359891795,-0.056595528951156195,0.05766660089027868,0.141831944633301,0.12982836037094728,0.046543708115468124,0.05140011373713211,-0.055870683651480596,-0.024842292742905513,0.008767341167588651,0.03398450338713116,-0.08237405151954122,-0.11462931560330616,-0.0976153224560104,-0.07024643204712433,0.06414141148658989,0.008789683981231772,0.03230643234181795,0.013172583388510689,-0.06954624874699981,-0.05927919327965473,-0.07836138939622826,-0.0660111531554871,-0.010789791501872084,-0.013169358346873513,0.003781927390479679,-0.0016884898462945406,0.023589668520842703,-0.0303421711753839,-0.03744641092474338,0.04393175444268498,0.04046078389148723,0.04711528597101618,0.018003519207542402,0.12348281028377778,0.08172838021176344,0.015247730451755521,0.03876839335399019,0.030467558790528138,-0.012075496914958435,-0.11801253367334331,-0.06678571966392562,-0.15648183098788293,-0.021570815578560682,-0.021101934943023714,-0.02216350978440731,-0.08126618250099367,-0.12315668209091682,-0.06910361568676851,-0.024494175493677727,-0.08998822346210757,0.02703591629546692,-0.00040773691202600714,-0.057417833895230745,-0.03449934772988583,-0.025992445224269495,-0.028753349147513586,-0.06621980063108715,-0.05172285880632874,-0.03145202844914437,0.006993636445772169,0.0899530221486546,0.06856920983918056,0.05794005734184804,0.04403620115257053,0.022226397615193617,-0.06603469638850167,-0.06005629761793526,-0.10458210617016032,-0.01544803810090084,-0.07302658667374326,-0.06482458290126807,-0.0365632761951629,-0.06054250276932339,-0.06728184661585047,-0.1275911135439359,-0.02779362563114579,0.017661704139596147,-0.07910433911775215,-0.014778819096338392,-0.05102943622096856,-0.03330585767021284,-0.03616014854156779,0.04465741781379557,-0.008749551695759335,-0.032404880173836914,-0.047287047319119306,-0.029785512565743587,-0.023726614072727782,0.06993662595220208,0.02208688729638962,0.014818571365709382,0.08077328896369519,0.1313258845050296,-0.005255955885085996,0.07883255803364939,-0.045221278281505885,0.010031229793749633,-0.05820599915722954,-0.03982329266223281,-0.003650641410432303,-0.09526091920911252,-0.1101634653082877,-0.08016414263166702,-0.0013842871803297731,-0.03729826700538874,-0.010242064906004485,0.020821441395055908,-0.028920171567086345,0.058196839904300975,-0.02775814436268337,-0.010714413462064115,-0.03641489078593531,-0.07348238222840935,0.06083486075176761,-0.03218036509432867,-0.0357584638336572,-0.047332666056678095,0.053878766113329236,0.005896136052360157,0.11577698402255732,0.11346486281513887,0.1239205143821218,0.15934794021012413,0.18196440079192083,0.05416795497007349,0.01807341768996388,-0.06984507678921742,-0.056467269701670625,-0.12239505365769805,-0.16530275466835806,-0.006310724456505816,-0.06480623730826723,0.0331759277471636,0.00981932976753376,0.014749801910781098,-0.021482049062685894,0.013056837865165573,-0.059563567603008474,0.021001348169279028,0.055437033641155965,0.03189537647037652,-0.08328695755718796,-0.05744757973903863,-0.036371778968281476,-0.013195902983409561,-0.0055322081379175,0.028456223954270138,0.09726961726333243,0.15380793176718704,0.170069393707703,0.20774365599864936,0.057582812035726266,0.0987353806947678,0.08150479547760506,-0.020048447663731404,-0.0010072586843466525,0.012608720599905315,-0.003568589232183957,-0.04927074681848765,-0.060071578939509235,0.021366782679323643,-0.06255354463733541,0.020372460695135815,-0.007114529948724514,-0.0419941067120796,0.010259189730956884,-0.00010271795210717823,-0.001377205150456094,-0.001958720364743711,0.007668564178633258,0.004969339349677812,-0.012165361690945613,0.005069516772093416,-0.045962878600518044,0.050339580243874756,0.053205294708769765,0.03950555666873519,0.006001307375806206,0.07060921955915563,0.008260397892670518,0.08424215031424608,0.113974671884357,0.04618263404827752,0.007041480154740325,0.030331139624862374,0.0065524625244857354,0.0014127666616439041,0.003823281971258473,0.03705596930785146,0.016535242992847858,-0.008104520706462877,0.08786808143542714,0.00692256203315761,0.04042875477419035,-0.020035035826134157,-0.04867646240028606,-0.02830272049223854,-0.012134651815438349,-0.029504747009092825,0.029399806801318297,-0.021684745399305254,-0.0007043763895238255,-0.02742593662169786,-0.03727292508252111,0.006141691780147044,0.07609677644503195,-0.027518497549924054,0.001902418397622463,-0.03816231677508182,-0.013237750766553227,-0.008239420207968681,0.001373273191664422,0.056268621606379896,-0.0004104692379317727,-0.02732706924993271,0.025778351372137638,-0.013011186684502043,0.008483935366482055,-0.00415003437973771,-0.06940917326024366,0.018153542342641896,0.02083457167218924,0.03309302743959305,0.0643022415164367,-0.04268227762369556,0.01845972628804978,0.014677012276352,-0.014945028597613656,0.013849725733970203,0.017778897655671283,-0.042883288547335655,0.010446116272826992,-0.031449300490834387,-0.022214544883482717,-0.06234071890565979,-0.018305491851355143,-0.009429653745677613,0.019960541864319562,0.0009467041396082996,-0.05523194825439193,0.030555394584727363,-0.0053071891053411285,0.015651951803573524,0.03365764708609973,0.05078881342461764,0.07004382104875055,-0.002579955666845284,0.011111587360487625,-0.03851289610059928
0.03791429178697361,-0.042317408734706054,-0.0644732745939436,0.029656643047871134,-0.01863201874813626,0.027771688619365728,0.014574094619506026,-0.05821438039370388,-0.0971314058686648,-0.03916434811045425,0.0005889816778880192,-0.04363486909624185,-0.023312265829927438,-0.052089995788929935,0.006082228884422273,0.003244414728926643,-0.0171925937159869,0.04989518933263366,0.05348982240427012,0.02018811437630182,-0.06427754219524087,-0.03945321954305748,0.014540368967258861,-0.022448485008735346,-0.017396122561136554,0.032105978378144995,0.018245529353300625,0.04693408692192674,-0.015328903451659904,0.04911519358738918,-0.019790401681588774,0.05355326750495582,0.0037796804104157215,-0.03073281253243498,-0.058019824744466666,-0.010414744834902106,-0.008616976161615733,0.03078225695518592,-0.004244675233122033,-0.015969029822163187,0.03832452360550894,-0.008133443172403323,-0.023329073864870375,0.01738102191076069,-0.016059130985065014,0.023594694147491088,-0.022149672701139544,-0.008456337059011037,0.004989995653077017,-0.013718458194096074,-0.0006098896989756769,0.029128536315915207,0.014664349690001702,0.017177494644093697,-0.0226939442364024,0.030458206009798854,0.023912940732467233,0.03587211400934374,-0.02594163458142663,-0.0061484583107056946,0.02262683291937601,-0.02175415017022897,-0.008043393531599158,0.06960087807723281,0.0708705519883051,0.04512904128416947,0.033169617879020036,-0.03669221435915363,0.01913313132401982,-0.01612300668055557,-0.04246357946288391,-0.02653112112624915,-0.00384167350082831,-0.028926414562053533,-0.028795463892798603,0.02053748534561578,0.0032129507834173262,0.008017202722335576,0.003497556149025015,-0.024201635276786954,-0.04884548217832512,0.011160107497020903,-0.01810845114733728,-0.07181365244949563,-0.014020259213041158,-0.03900778361930798,0.024911798853443853,0.018649719831872868,0.01769335699982671,-0.023545425772101496,0.026366939351407975,0.013392425936340144,-0.008227358538797844,-0.013612718230442515,0.03493848716710642,-0.006543044243387155,0.021989210143617426,0.0481529090781704,0.08918009828265844,0.08304528991557496,0.049653428313404406,-0.055490768378858024,-0.032390208383894135,-0.02823901226192434,0.057820655767138955,-0.026457841673571496,0.01014002364278939,0.0003224905533657194,-0.03480459618029485,0.013723138475513203,0.014318440416425882,-0.044849102919339336,0.04367419453762178,-0.07451771390678572,-0.02122948148412713,0.03483379806824104,-0.04283854605862087,0.012048033838341495,-0.047346942470371176,-0.0023320133562341246,-0.081926254192171,-0.031217079429373948,-0.058513008564468574,0.0036521082248613776,0.0028216053095292005,-0.020512985209669602,0.027637776992094232,-0.0028326377363702016,0.043481334900326817,0.04850795148498088,-0.014125019602418142,-0.04376763902891406,-0.05678768813881613,-0.04198117015307823,0.01863595607372298,-0.007530257273804259,0.028660624444333725,0.027630653733462684,0.005227060740346675,0.016955302892908728,0.06625879319358853,0.050559150934810004,-0.010851799342252015,0.03663353017926737,0.024554694519409725,0.039962530643491576,0.024947909297856872,-0.022772469241003502,-0.05706514447129923,0.00480609177487642,0.04720526831182381,-0.06370191787972954,-0.04567951048077323,-0.04344258964036074,0.04488919348275675,-0.04853289942756739,-0.03546724058367047,0.020736311806373132,-0.02181465914125978,-0.009883717314099262,-0.025137424288604784,-0.007484624550915094,-0.030558063384943174,-0.05049715888415111,-0.042585941425933777,0.03231232130440495,-0.018259838255582663,-0.04944226911705322,0.003649225962284669,0.018045924893023542,0.049395196761477564,0.010163499616950504,-0.020106184571295375,0.01867774917574889,0.0380783384729756,-0.0035933913833887383,-0.008979618867590985,0.010591028934293522,-0.005290119542400517,-0.01608713151483132,-0.06280772482754951,-0.043668644354703724,-0.031293531137267634,0.07762126271376668,0.06119984035526348,0.04585602615447506,-0.012424243217072962,-0.058763291638657685,0.0221986612519822,-0.01472493548486329,0.02757173670199477,-0.006153667216749898,0.06373377804090508,-0.01192411897923648,0.031513869351257856,0.03208761009991024,-0.01982596983861641,-0.005763013719285312,-0.049422589545723254,-0.051156072804425926,0.012830029939131146,0.02394412731067062,0.029141391256198843,0.02152629507900497,0.020438773049911544,-0.0428230192805112,-0.02869690418724524,0.01976611985704269,0.03091985344666406,0.029797841090536282,0.10104013438544707,0.013310650275968484,-0.0013373334669727086,-0.0001653620683527664,0.01555319682447819,-0.039019546280141836,-0.08185321377645327,-0.02109310844733145,0.026134618518530883,0.013073345504740486,0.011677197955361561,-0.07245372499976821,-0.03343333103806595,0.017285561972750642,-0.0019075119462489782,0.018749643474058348,-0.04058486509224643,0.0029087833063720183,-0.047410281546197544,-0.0741679160055918,-0.004155593529343641,0.030528859893650215,-0.015179346307724509,-0.015663845115465445,-0.0015049856992144816,0.0965944206389276,0.09085408153857538,0.19420417566755332,0.13086166772617724,0.005836660711995777,0.053532897950525966,-0.03843643943318309,-0.02605292430755992,-0.03762796758351717,-0.028202273386572205,0.0006238867290453215,0.017903649256741764,-0.024545433564652885,-0.0025351077215161684,-0.010026795410638388,0.005769431264844746,-0.07839155547898287,-0.006319912339681006,-0.031095637581988776,-0.02965339399901634,0.040474312404273,-0.021438772770147562,-0.024725282830934784,-0.0062381074396841395,0.04144858083176225,0.008321198527193626,0.11538391699612982,0.1679179148302068,0.10204442871264353,0.14128876532277182,0.043372840376496066,-0.03258751859421767,-0.004869414368192452,-0.0005846363242702062,0.061675681187828874,-0.06777799739938536,0.028193406164049948,0.06061298006848176,0.03283816692358858,0.11463148827619904,0.07834960298865289,0.045777720509947495,0.010105911661575994,0.0013868748275481459,-0.02736412457270587,0.010914714448481846,0.03680234104388081,0.01005937566093545,-0.01280141537225738,0.02684409017996126,0.011413071050355238,0.02360549053905448,0.00035309328139680117,0.11578914359548204,0.13304610707456455,0.10367952885145784,0.06806822177077071,-0.04784885734645993,-0.02835118185818898,-0.061820546002942685,-0.13261753265696613,-0.14186125221895304,-0.043256546852561854,0.030902745937844586,0.02107789318116557,0.08456827886624048,0.04144467222168161,0.023614995792507663,0.003511827494627221,0.023635563165424724,0.0013254327555982596,0.023730553903224323,0.016558079288362875,-0.007306757811951863,-0.005824073289582738,0.06723691609917501,0.0239417299412693,0.018721347669189915,0.022081301175530334,0.027441570281797282,-0.023353528713968754,0.09717322553156735,0.13978226277516895,-0.03804524046995465,-0.008746188504941757,-0.14709400813691179,-0.13573992112200065,-0.10116604238480462,-0.12537411838968288,0.02426605962852559,0.026962491941437624,0.03155413202985153,0.02216268491757756,0.08490532023072865,0.038895058131974164,-0.010640044610145078,-0.005912227517295807,-0.032588759447759644,0.023128072960508603,-0.014989176170511433,0.002786401606349289,-0.014472494143787698,0.015814445260079236,-0.00578142850172171,0.010862175076880294,-0.0890207800188596,7.774890872004762e-05,0.022125175561240416,0.008779826379418541,0.012924683630296073,-0.03551033125301322,-0.07283280808804424,-0.18718746768477648,-0.24225111797368018,-0.20995048507764894,-0.085862380835568,0.03098726628460927,0.07520271513784907,0.1051052310225363,0.05108894618105493,0.03292669253892296,0.06368074590564689,0.027126706807053824,-0.007507870185720411,-0.01989136999906761,0.015594015294531907,0.02486801475146046,-0.03787290784483676,-0.02436748142934599,-0.043955936397635606,-0.017992860681931493,0.03006647240319246,0.013613963294175968,-0.05507010876302031,0.0019670459494717948,-0.0053916793245910415,-0.056671989090106414,-0.10821971235908191,-0.12285238691881704,-0.12874089681773196,-0.19156317549521934,-0.11358101513199109,0.05799936668043495,0.05497415438792028,0.03418721105667486,0.0366848518160263,0.053865555988493796,0.040904926813781044,0.07378596218933883,0.017475188798629106,-0.06395795059706941,0.013949900431819326,-0.03152392019019492,0.0641352760358799,-0.014318816794857796,-0.03298001111910634,0.007241439023221197,0.0348957921154893,0.037532228804603704,0.006919089556137458,-0.044287167119381486,-0.03854162759260308,-0.10053301918972718,-0.06645515001355276,-0.061616269914644965,-0.07337302500997607,-0.12499680512664535,-0.09114214253551767,-0.0629932137226904,0.043053932310570406,0.0070230112954493395,0.05135449280139414,0.11000171353046094,0.05164739744709298,0.04529641886474579,-0.023665268427739906,0.013664006716719242,-0.08790694416278434,-0.0829498121946933,-0.08059622614010513,-0.06297760490870669,-0.033521487698996086,0.03014661347473619,0.04026064610791214,-0.02487858659833772,0.007343542648284056,0.0279489214402785,0.004751327853020963,-0.042467276030434875,-0.06790991410401422,0.03649090464237516,0.00454192344823822,-0.011235621854122432,-0.11455291131921636,-0.10492429417651812,-0.059432809965989625,0.002840870927688157,0.012713295213751872,0.08630047615189462,-0.015515751998443721,0.07645487774594474,0.02594956038531249,0.07624889644951632,-0.005043071400101965,-0.06992821174827155,-0.0015882134034072928,-0.06406685342272159,-0.025397288063736406,-0.026131691968998595,-0.02916456755760729,0.00742596040895203,-0.05217601800423094,0.02176864396213862,-0.034532748364204474,-0.06129923472077327,0.0010315852165035146,0.019981979550465042,0.03444244074937065,0.04683771958987307,-0.09006008077284451,-0.04163703707620195,-0.036542017311941316,0.013180037535835238,0.0027807454262928975,0.07238627784856426,0.024387125076770693,0.0736598019324642,0.008782944913980286,0.00969293504553714,-0.05557098564886426,-0.016880185441137157,1.5951224643617493e-05,0.007824232289744125,-0.028215540947341446,-0.03121304048138457,-0.03749364349728135,-0.034771204948054586,-0.02315147391412851,-0.01508854157494944,-0.015588435700254307,0.017826877393299193,0.030911613952545085,0.04566337582542417,-0.02509662138651763,0.03267104948128409,-0.01575438570134347,0.03618299163924815,0.01768690310788736,-0.018733709796152583,0.01106899525685654,-0.053855050748621965,-0.02307383419234575,0.04524996361698362,0.10713809546500702,0.0662227982815833,0.018567952024068458,-0.03498851953560877,-0.011966281511816498,0.04228057767059316,0.004665063040247081,0.0537407307388041,-0.025327722519154907,-0.0599938686371439,-0.03129538095988082,-0.04177122933189824,-0.015315679594622492,0.03420272046597424,-0.005690598427464162,-0.029907002539267986,0.03248431013792663,0.002888523998258772,-0.03371283705092202,-0.01759082161058866,0.0422016844705811,0.11445850084642442,-0.015715914458368223,-0.040049752137030305,0.010763702735949036,-0.03585731154821768,-0.04681193240697401,-0.031122574205750243,0.06890344927618268,0.0489310276310803,0.017320760250129765,0.01054481295416578,-0.01459127888237054,-0.018258737149776053,0.004982032387192252,-0.005124685749435104,0.007131992031002868,-0.06749081825916722,-0.05037537180823002,-0.044888780933057607,-0.044003826938505936,-0.08317926980588743,0.016493579947147313,-0.027077791198049875,0.047345102787576435,-0.01218988787392538,-0.01729686793721634,0.01847402826496105,0.08171986418421533,0.03563013566918618,0.055682983691587425,0.06598094414414409,0.041020110078305506,0.04472048615058445,0.022907890949771085,0.01593593349947397,0.025449102696800605,-0.018193378731000066,-0.017601130462202984,-0.039776226121418796,-0.03018451793273517,-0.00927288673324433,-0.01347354295646033,0.006105569858457424,-0.040668165545142895,-0.055247491474130946,-0.013611861180587074,-0.035659100828172564,-0.05014945552596818,-0.034513772227836165,-0.033304988557802305,-0.014220420151218525,-0.030582243821258973,0.04500779333155379,0.009234761218869889,-0.02655925696855634,0.024297643783161398,-0.01418857694969781,0.07036309570009097,0.10885977094994866,0.06251379837635682,-0.05238930119637375,-0.045588214570221434,-0.05935540997718581,-0.042662716351124036,-0.06835476067557396,0.02038470795605497,0.03296242298272994,0.024880008918391948,0.00960119967573082,-0.04719027488104538,0.015570517541308624,0.0339169797493135,-0.008236515110550091,-0.05473495036474965,-0.04098151934678153,0.009567446139653574,-0.02417527611770485,-0.06114716254214269,0.02188737965515292,0.004623815333458716,-0.050336657946491926,0.041064566388345554,0.02574339674965091,-0.005173664916567714,-0.07858917761494896,-0.04613113165187342,0.03688081589212166,-0.04504217838018112,-0.007336250975406825,-0.06543691489328142,-0.031031433770059222,-0.03956991249072607,0.012385978696332055,0.012804609019054398,0.058303396984732546,-0.019563072958226593,0.003874068400667101,-0.024841071964789976,0.018234374308904375,-0.03312734233866336,0.02773892052853047,0.02865847085831488,0.023445622896329264,-0.00019106390789843278,-0.01497857335371491,0.04455308052287215,-0.005567783029101475,-0.026401933973211094,-0.002097455226936639,-0.033381596430393706,-0.026720239269572153,-0.036303735339470455,-0.045781024642893964,-0.01975430326070991,0.0709636946817668,-0.005918089477908663,0.0005523970252309128,-0.036043921562568824,-0.041210162359090544,-0.024973338999849947,0.03621595932473872,-0.060790074735390075,-0.002683874165163967,0.03601486643936577,0.010361274287325296,0.0819633931534565,0.06249001432254364,0.00594099895655725,-0.03382250310687273,0.008105614190266815,-0.04527450418176979,0.007160504366819098,-0.0009729370519436491,0.01034459819377557,0.0742563134757038,-0.0324094993364392,-0.006871578849853812,-0.042102309248080345,0.002742386636708727,0.05992113069207444,0.01379588456253855,0.0014468870606239247,0.01640349292778582,-0.08009560200480575,-0.06189028288337682,-0.03506094882420225,-0.0016934252640526722,-0.0863778623121589,0.002854451053266498,0.002726068310873594,0.005225594266276576,0.014003009928731542,-0.006018978821018242,0.0028409063195725154,0.03448108535769391,0.0012068575197431203,0.009295243724944157,0.036151445454995795,-0.008590772179496754,-0.10549345500738976,-0.009490863573283367,-0.017951729803749785,-0.008381941225818574,0.032133243306126894,-0.0563760780693255,0.009286063496250255,0.0671546659906496,0.0020771989462415653,0.04260165565915148,0.07323327115600566,0.019921622597586095,-0.04236708189617455,-0.06155774773711056,0.005277947183419995,0.012790939856080324,-0.039753201856095925,-0.05025666033138201,-0.041291638896977026,0.060619037612427276,0.019128498339819597,0.12230814976505625,0.02110227874180417,0.023937831672409638,0.01704405277057783,0.030590069768797867,-0.04299094160695162,0.07463663108087981,-0.004851628099496316,-0.02441659018972509,0.010963199820910251,0.03901210271538564,-0.03598410270653485,0.02024533473003826,-0.025540518621951443,-0.01822420839714603,-0.008835925445043961,0.043128965453135035,-0.01750026097239472,0.03133040958340341,0.01895463517649529,-0.0035179789713571494,-0.024032756122070485,-0.03667089754276429,-0.029400817737934865,0.023054768174806447,-0.027053891293601414,0.002549876816531778,0.056152561101351486,-0.03741808364633768,-0.027345094516774828,0.02193920109670903,-0.06535893938126754,-0.03286477579521832,-0.04174984749644369,0.009734748801472869,-0.015790200115985403,0.07185517775202828,0.03366502320330371,-0.030472803009832537,-0.01383262276631608,-0.012413732604123004,0.11809194103966292,-0.0539521744286619,0.005034165920674427,-0.08321822085263018,-0.006603154317872656,0.06981159933379162,-0.010907839012096214,0.03969041233926278,0.006834880413287583,-0.0075861035488224374,-0.016283095204462923,-0.020498932805759193,-0.018743108653585496,-0.039833169420981515,0.05889055425829144,-0.006676641373611575,0.022360220161650683,-0.023656055987593225,0.03830498168236666,-0.01393875310925325,-0.004848876008125544,-0.06557072369205347,0.014139963809487269,0.06469665099948163,-0.03103848521428256,-0.016365326917945806,-0.04065442707910772,0.004612934794299149,0.0022865784966724285,0.025181467910516748,0.019698325758609487,-0.02900576413559569,0.008097977128838411,-0.0114855554719095,-0.03845960097555397,-0.004030508204801307,0.13794531392459866,0.08295879909807026,0.0044805695247869815,0.06309095953538575,-0.0012300301527843301,-0.0023127850674897325,-0.07002381411331492,-0.033211320142230445,-0.02689365047413337,0.003294681273274941,-0.0008521358249604621,-0.02143739307488387,-0.022664603735227325,-0.005904812019970748,-0.04933613038151009,-0.021879948584591396,-0.01361749535029625,-0.044605319038316944
-0.011794210473733724,-0.029814541554803863,0.044120799714624175,-0.008707278469254355,-0.006769488152020558,0.015286718107905977,0.01989172560145104,-0.06200863586786254,-0.013456575325269103,-0.03246544022328897,-0.005184651578329217,-0.019154732899961214,0.005923384282756271,-0.03432932252592687,-0.0202773441060924,-0.02111284292795666,0.03866397751681762,0.013142987831447963,0.013174596699488063,-0.010225652886072346,-0.013739923289055498,0.02003581744634419,0.027765497635492315,0.0005409566296014579,0.04077314090986076,0.045505536696970855,-0.05945350140674695,0.015370674456537496,-0.0015214974461084507,0.013867457641722952,0.039856304572383656,-0.032876362967551434,-0.05786562127462777,0.03951145456739503,-0.035492639853334645,-0.024186863283643216,0.0074264360808846755,-0.02438134315502757,-0.05526945152470214,0.0045626355002277704,-0.024340116799172095,0.022735340372344797,-0.014649197880974343,-0.01570614348943767,-0.0019332771080982458,0.040604238329792854,0.03478820391642291,-0.03706128806057266,0.10263575367681331,-0.008652729163524749,-0.03982247425601086,0.03183923983569571,-0.012916873476941136,0.07691855385141605,0.030264584124340493,-0.007097137368170289,0.05626095991900729,0.030325543266801598,-0.04388839136957449,0.03178470595591855,-0.018031492757092333,-0.0028713453221482998,0.005692769535764873,-0.027801791014218955,-0.044492651862586934,0.017397933688994647,-0.03806562392023674,-0.07697938739196274,-0.010835207747187743,0.0434608263847608,0.021631670292388532,0.08844246879241137,0.043983922279407284,0.0008898965788483676,0.01577307599448928,-0.02663040086313673,0.05675577736726535,-0.03184112283179781,-0.020513990238913305,-0.0009982933316217983,0.0003724714323293308,-0.05444573292576565,-0.032340564114981964,0.009465735794261382,0.04034726282132121,0.012464412931791964,-0.0008884127008824898,-0.055510727105113275,-0.020063935242266136,0.02025512847673716,0.041472026257548804,0.03670631574908947,0.01617560874225364,0.05450531282232734,0.11190488059872537,-0.013464090455463045,-0.01113784067834902,0.09162515371551705,0.02480873040808841,0.04719014960024353,0.06757136384081537,0.022674781350501546,0.029108904298891788,0.012002024024469314,0.05889856700317889,-0.020386238577147435,0.04333191385040798,-0.0003811188081981475,-0.004339140221646396,0.0258731683632727,0.02991964175298146,0.012249162066676287,-0.06689713079878594,0.05610258902989669,0.046902319681946254,0.0030443633179349544,0.0006275548387468212,0.06638745794323839,0.02755958752582049,-0.00510827924137105,4.3499382029182396e-05,0.012094815070852213,0.06234695434992803,0.06271292108567987,-0.012704994396484514,0.0596624597627351,0.12121806611497596,0.06236406023061966,0.13698030549452053,0.012999445811523569,0.0519594623842501,0.012839491811430324,0.038329923020715244,0.0025712565677449587,-0.02876105750603356,0.04647675749305817,0.0005529107897237194,-0.012823085515821618,-0.025398105534194984,-0.0070996249935040895,-0.0367540345821184,0.03475285729105946,0.07127339536914208,0.03773411489057298,0.010550926549923977,-0.0290089906323398,-0.03361848251717484,0.046520678629799646,-0.08469338861826067,-0.02116205060205519,-0.07447956186298081,-0.030793374292195076,-0.07247554636122891,0.008641669684144577,-0.03865039978405751,0.07995518920381726,0.04278600675819723,0.10520340035639908,0.08253181964517743,0.133440455183554,0.16539196667482278,0.1588537417475392,0.0109959446973816,-0.055459829736190694,-0.06213065575872576,-0.010555395165996791,-0.05360965058912851,0.030133468626092716,0.027898830935080197,-0.03127123293024491,0.018894146605529936,-0.02856873137534813,-0.02762873280380314,-0.04315703561478706,-0.05993744110035536,-0.02027986327008986,-0.10393003560123602,-0.04171716456716986,-0.009396558383589087,-0.04352051308445452,-0.0695489675152515,-0.13588908524739474,-0.056440239366826316,-0.02252463251952522,-0.0671870735912012,-0.08413422931660902,0.06116954555307699,0.10944721893901664,0.021223299891625226,0.019652469536370596,-0.0022600827378386635,-0.03511727207774383,-0.040188988476872946,0.0536545743461626,0.0005235274694492335,0.034135128818733367,-0.003156460528937318,0.009358173084456932,0.06514940605487435,0.021037417952698548,-0.057111199728609986,-0.03693182239191223,-0.05586324685805935,-0.0062746569348356065,0.0038400145639657965,-0.05443641226971207,0.011404791384808788,-0.024600867769132104,0.06198564266120746,0.033269831771623834,0.031749413075353235,0.1171847210588904,0.03981761565891793,0.022385499495230183,0.09524813656865651,0.014657983351689158,-0.01036671092802896,0.05822479111361783,0.08881823260287804,0.057963267576776986,0.00914140278814113,-0.00685884515365524,-0.051928029051569735,0.0007943027934501975,-0.025982574601802505,0.0013324424879691266,0.030072291699889456,-0.017966985001411796,-0.0507513068981478,-0.07979144049097824,-0.08379494265937068,0.009117463469403416,-0.1075012087429144,-0.0821153954538171,-0.09172537610848455,-0.0007126579963106677,0.07786978028054502,0.13124980760833804,0.06057295699740455,0.01460566773968437,0.10896800359831242,0.1534092513814026,0.026058499059519857,0.07106775837534848,-0.06107000702416326,0.07884738901397975,0.0924922436625886,0.06193229486475396,-0.0034858026931423674,0.021329480998743815,0.01880621218981841,0.012702052614689216,-0.03504277666884443,-0.05703202241789702,-0.0009668428938961781,-0.015349650060164732,-0.03836733851900383,-0.017152677059370416,-0.08908262612135917,-0.023099306224449143,-0.05874505453568523,-0.05983255512575935,-0.027197042224726572,0.014538122378974885,-0.035127299171837004,0.03764155660766135,-0.020341862919607472,0.013727133694091188,0.052574719183650684,0.04061055859977467,-0.034658001581691196,0.00396803311430549,0.02441553503898535,-0.005310348870676605,0.02846494703704237,0.11661206186990405,0.11130142358415325,0.04187822166902533,0.06831397762398218,-0.036225296491724505,0.023615030109028757,-0.001276419783877517,0.0480606082799056,-0.017847420010280623,-0.09621359963385485,-0.01753208679191789,-0.057025489233717,-0.09399411981751699,-0.005007653485634505,-0.0734215381437882,0.07262226860035793,0.057745047614371076,0.04321988828004121,0.07823921637438915,0.05008356718938794,-0.03881392202539452,-0.06977699733463698,0.039163584503280204,0.07628907187127093,0.07679353186121878,0.05844385870026215,-0.038201499224747866,0.02427644811494185,0.13077484323896857,0.025409784454433666,0.06332770412760516,0.00695237080525441,-0.013313556393520843,0.008314201318639634,-0.029526470727885418,-0.008697092322833343,0.09204211340577455,0.00048128226267921717,0.06335379264316031,-0.018827356849265793,-0.023070805927676928,-0.03240991225845838,-0.08749066125175955,-0.0992123355917812,0.016544561615858454,-0.011543190374988991,0.09153502200430372,0.11925588583614496,0.08157641157434482,-0.0004968384573726643,-0.0159098306981624,-0.06209920842108278,0.005373468707116274,0.029492456686044992,0.03699331380415252,0.09122006177533225,0.2053367510007985,0.1155090164496186,0.09063863529025712,-0.03479523098182751,0.038449938191775807,0.0022042250923859103,-0.010711548007829802,-0.014612379345707414,-0.017046963492992073,-0.023943134511299924,0.027378273129286024,0.01762410810882634,-0.004277735762885794,-0.031235615442311255,0.004200123659868913,-0.0423368775695258,-0.10098735630896438,-0.10547262892184464,-0.00264852628039103,0.0905553275145512,0.005001597632077943,-0.06364930010798825,0.05841046834152643,-0.01845459883481042,0.02461751023235197,-0.00551029369973088,0.10999039480212595,0.03664434422058587,0.11186585069776064,0.02660529451234909,0.05971001877218636,0.010761155900021305,0.0005341349747925005,0.012104390460899325,0.05066815004735747,-0.013811140900218809,0.05888435135420081,-0.05707305965672698,-0.005368023808680202,0.04626243193235457,-0.04177201611123218,0.011194739293822066,0.03725795273496589,-0.14357411991552757,-0.14831231432232195,-0.05619220379802394,0.11837192167493157,0.1141549108420862,0.018157674619486662,-0.03505766741718028,-0.058586886326627,-0.06683093680676913,-0.10013763576015418,-0.015930504146933193,0.0026173077304328034,-0.016631185654242472,0.03414787351617557,-0.07078840626655358,0.017790525631240638,0.007961739540238,0.07618078454038017,0.050573321443601105,0.05333999312878548,0.02548349897453561,0.02058672226071382,-0.08093230158328449,-0.0611459774649376,0.03357656806334029,-0.10473502048807425,-0.012087854146308597,-0.09466382913695517,-0.02357227492698074,-0.04827425218622353,0.05208871527876948,0.1278339251645716,0.06687536034730712,-0.01602256575477733,-0.066911275645056,-0.17960170148459523,-0.06654149303996051,-0.10083740775505022,-0.08809314971185653,-0.10513666674892751,-0.09549508083896238,-0.09661615176547964,-0.027827569575203166,-0.015459587613670802,-0.02383360696524136,0.00586155161345927,0.02869230766315877,0.01009276697558838,-0.02111587360471583,0.003552495685887005,0.007619712979964137,0.021012890041688347,0.0012335458208660108,-0.014768992571536514,-0.02547223557420797,-0.07023308747733274,-0.05397915454848666,-0.03526947753864767,0.08027760134739317,0.19041742542554477,0.1275186694236561,-0.171700604318512,-0.09706621034371563,-0.11853593963532158,-0.05204731634662307,-0.12524854345623895,-0.08447678183900945,-0.06969000534422501,-0.1712089794553483,-0.07966906785322143,-0.018756162416666812,0.0303294435907974,-0.07053511274404504,-0.039695757122113776,0.005118417232171904,0.03161928794703224,0.0053184458588997315,-0.05817272993298064,-0.06010738304803944,-0.0614280548937494,-0.02926772045113352,-0.06993868921723495,-0.047595613103398486,0.01570865827143,0.09790589416616975,0.09934076753347798,0.08365134768500675,0.04653307963972196,0.028593590747506212,-0.10533922794602296,-0.03482346499315395,-0.13744940376586856,-0.10697016289227529,-0.14720662623999003,-0.16765825085752883,-0.21592414927337042,-0.06251104549368433,-0.019815916432676443,-0.011522902084036932,-0.029713475493341742,-0.010549204840109615,0.024927700687417228,0.036123138972105236,-0.03232630316411398,-0.038080098617814716,0.07674324010146319,0.012942709621681711,-0.005951627240253411,-0.03938192385920182,-0.020644468098171335,-0.0708064246744203,0.008955638300561026,0.047220920610751935,0.09451250065669739,0.08416753035366137,0.029941946059528535,-0.007479858498495003,-0.06073453775753452,-0.03427013177224376,-0.14228819494335773,-0.17012881185369072,-0.09162972868730553,-0.12478014971599276,-0.1386972956798273,-0.06998406408352224,-0.0584713091306849,0.02932736026105411,0.018864566812727773,-0.011738718522444664,0.05978988716820543,0.0008754282740310134,-0.015554161119349626,-0.0006232665266238858,0.024319715939834754,-0.08131458930752802,-0.02408409292933889,0.013648201478814594,0.0038362358243463506,0.00591240520296347,0.0646211016297485,0.07783276616133761,-0.05007174528161001,0.02942770792436053,-0.04681001332468387,-0.07680613738123765,-0.044974351299897165,-0.0731483065235838,-0.06081247760888918,0.00787889646039932,-0.07473465985026648,-0.07555267175919479,-0.06365204436593662,-0.060618667213591444,-0.10709845913637313,-0.03081726276638911,-0.03327872715312014,-0.02009959656758985,-0.023223770424818102,-0.04796887151470579,0.026850597610668124,-0.0226605028026474,-0.06843358181207068,-0.06061826114254682,-0.03494744772801165,0.036654726494793496,0.0608969354018601,0.008118238166509088,0.025585720646387696,-0.036088322180611664,-0.24622381204802188,-0.08387983853218366,-0.023528344617562345,-0.057953012907491976,-0.01604834596370818,0.02051147827887732,0.00956757029141918,0.05714008689242301,0.056434000682806594,0.012236874614833361,0.012036643980456174,0.11623290689306025,0.09048360267028348,-0.007081356042910673,0.02450612335452489,0.028057626861123865,-0.02354950366211971,0.0229965740535934,-0.05151228246939783,-0.029355980809583043,-0.0058174922225658916,-0.02722669481898329,0.07595489661840779,0.11010226194543617,0.10574270963488397,0.06292834754212429,0.08326870713795066,0.07846049139048072,0.039892971242125895,0.0022066611360192926,0.08204737348762686,0.052048199251569054,0.1302636558183664,0.041142900109013954,0.12271666105963146,0.26391919517169465,0.10651329458498708,0.11208658168749737,0.12144023859644361,0.09187501517006255,0.04385153840532654,-0.04743972990705987,-0.04928851996099296,0.0007742663816057179,-0.016536546525428172,-0.0006757898952128107,0.0073424843420930724,-0.02454570919142087,0.02620280039062091,0.09186132191162352,0.008779869487870724,0.13792813297915388,0.19162044969202155,0.1592139728241851,0.11468366473626786,0.07915187004240401,0.059222614114736616,0.07655779096902406,0.1983996410872613,0.2378255555711718,0.19130096199024055,0.07980800143894554,0.18984973252494428,0.17928083923666346,0.06278555370843365,0.05318740034902294,0.1002503162296418,0.045423467812723814,-0.05024023831481004,0.014296801908964988,0.03610099983272437,-0.016068468612400758,0.023488515056396986,-0.13357031408087902,0.03477215249551187,0.041185600552235024,-0.029960336511604332,0.05019386261300332,0.06367050272095504,0.0955890223630248,0.09336603339813065,0.07493445533000977,0.2058260940708393,0.08181996706934808,0.13952543129200057,0.05840655535964166,0.09491051069030021,0.12994305906682596,0.14245939106599817,0.1094425060450109,0.13269853072810012,0.08390611958867793,0.027625127207809994,0.04790361670858819,-0.02345552159544038,0.03256764993401974,0.018900622869916804,0.03739638754377627,0.026019435871353632,-0.03766547769710661,-0.03091572949451215,0.026160189178835287,0.0681091372292062,-0.04562718392767756,0.003567113232810728,0.020753894120845093,-0.04050463926411973,-0.0066350568753209375,-0.029996760359403345,0.019846378466050283,0.1408481472596887,-0.01574125226406019,-0.027478935616146068,0.10793665156864034,0.10884978389601487,0.037572106893151595,0.09463659415118184,0.12566705844861364,0.06747001720256711,0.012398994577660746,0.06751885718078399,0.00030494409715960775,-0.005620786994776469,-0.05265534448963585,0.014228790455170249,-0.030081803512634366,-0.005284424255589113,-0.007970701854179158,-0.015945171119034388,0.03352995153254068,0.015966219725862735,0.04162158784754903,-0.04905904365373541,-0.05113614486596473,-0.06815647568505609,-0.07907475085169925,-0.07168093584601665,-0.04032781010212365,0.010278344448978812,-0.009346070876180328,0.006460667960255048,0.09500235000346624,0.01614379455867052,0.0860990817813873,0.06904224182796777,0.1076041130484898,0.015831228446168303,0.1547813869994083,0.033895371435458635,0.038563239598922223,0.01140430053870353,-0.02746645568504906,-0.043202396905679466,0.00906606968078623,-0.02037080871221313,-0.0057454763986043616,0.023260787814192222,0.002794326994299265,0.013468439191735553,0.005591811360243059,-0.05497984602033233,0.013482683054860285,-0.002128911524699603,-0.05364253795933304,0.009480190208211513,-0.03288100403134453,-0.0375376522704836,-0.011027066476725206,0.02396304666406457,0.05123942408074339,0.06003237297944687,-8.99377898566197e-05,0.13793563130480524,0.10579193671275477,0.024826129636559603,0.07794797347278705,0.03847757233270437,0.035310066149888776,0.009346488243945876,-0.04087897000536032,0.06043800750059422,0.008363183242776184,0.033460637608412884,0.04809872626758478,-0.026362771355428083,-0.032563160171661554,0.040068119601705934,0.0497441940270306,-0.04920156868010346,0.07263017213483398,-0.0007779524968386855,0.031499737181110946,0.016999999296574277,-0.03568590848972187,-0.03523291283765501,-0.06323003489178598,-0.0026991777369496416,-0.014693560839719762,0.007630633704366806,0.0510019209506834,0.004165919462235117,0.041161703688628315,0.07181706529073162,0.052862193700395535,-0.013673022016795867,-0.052511930498004275,-0.018707783504460895,-0.0015842636945183608,-0.030943711041035785,0.013031846670050468,-0.010456331705258276,0.022207911696817587,-0.028687124149458038,-0.03292741640390656,0.06335915491799775,0.0010270084897745092,0.019748708906983437,-0.039313307151819694,-0.013754278712801415,0.024008498062553455,0.055500625232945744,-0.02666074897981584,-0.028796540183453453,-0.0049987975717252,-0.054473380262835124,0.000585319156121864,-0.00732474469237334,0.02702622078323712,0.05332232209733598,0.019683943367855762,0.02260401193191391,-0.0016771003936717896,-0.012789638330150163,-0.07095885664424935,-0.031745157279402594,0.00660405339506954,-0.058957916748862985,0.008674636527973935,-0.014315525366712538,-0.036484280449346075,-0.016786582737678676
0.026027911473628554,0.03162503962926705,-0.06917933598032998,-0.0053387147195953725,0.032638737795839534,-0.00921053070033419,0.0038862596755076203,-0.053407531259295336,-0.017144059172081977,0.06531340819243663,-0.028145286946976752,-0.05145115511414347,0.005081499085095146,0.02748250223564626,0.042501911156985,-0.018495685103030013,0.007945556308168553,0.019441245653049753,0.02318609027979327,-0.01954295514319801,0.061168747531989066,-0.02454632223395468,0.02528114852475482,-0.0007825441480544844,-0.02097209157230432,-0.022958974962948846,-0.02094096110429407,-0.015959680894760603,-0.036388771405568184,0.024907489400420358,-0.0251255469864365,-0.02196503031073194,0.017451869370375944,-0.003868565145839518,-0.05258902792833702,-0.03664875015076474,-0.010768891092418619,-0.022346566216076228,0.023495395206343046,-0.0325010969841999,-0.0435059986699461,-0.03962781837330777,0.01355338755371582,0.012170361496424994,-0.06586675720334557,0.018282922168738447,0.02756590577994341,-0.06374850583692114,-0.027750420167489437,0.04753248006581538,0.03344538605039944,0.0004187601399865439,0.01790176415319399,0.0754292722721455,0.017957034766165066,-0.04360031647924614,0.04874782141431523,-0.031104960379450656,0.03549610357048169,0.023407637577151,0.0314448137448995,0.054858160188704985,-0.055150548317334985,-0.011438978715647623,0.06036149317895743,0.026469747211503955,-0.00921407316866113,-0.0583928903663838,-0.023611462241816362,-0.06925675892765998,-0.07731242939065659,-0.001165329695594128,-0.014114687920651132,-0.038613551190205174,0.00026506724845795534,-0.030092691646903116,0.055196809273045266,-0.009550925392920288,0.04930929943617948,-0.03180430198461203,0.021527650979618333,0.06596730293878171,0.009681820793423593,0.04058741525183982,-0.06208328100623753,0.02525481229717597,0.0010744598035080952,0.027102310626404568,0.030627128429037916,-0.08177120651190985,-0.023448202634819698,-0.03574186372917869,-0.017940409205213177,-0.10545889745257969,-0.07308360303364303,0.003013696907820305,-0.04600039034147613,-0.11404349886009714,-0.07460473698825427,-0.009518618320195077,-0.10390275794234423,-0.03527019753786735,-0.026658698491922816,-0.015790204106351343,-0.008681139761603791,0.047236224743825383,0.010693212396836725,-0.02570270825321402,0.04407403639590303,-0.030490833348293184,0.015631281416749764,0.056123680403918665,0.038475531477416745,0.028968362447797064,-0.07973452680337441,-0.0029277977413524623,-0.020893279560701708,0.04058989251210974,0.02471340561571871,-0.00916878950753962,-0.0032972806588226996,-0.07741945677807023,-0.03575961313694472,-0.06575549298660958,-0.17332907875902126,-0.1478522861565546,-0.16594940956060064,-0.10825870495470544,-0.10786995984588527,-0.02593399753589251,-0.08348484512196785,-0.06382263087382599,-0.045124823451273534,-0.034105169170504365,-0.008910531686394609,-0.017087070252643145,0.032695954005331686,-0.036751114551683894,0.0027878840189616487,0.002331843859189618,0.005140615513554876,-0.033847297061609494,0.0499348915251191,-0.005214448741602025,-0.04997377660037761,0.03330995189724633,0.007535483662295622,-0.00019000115638930553,-0.0013752311945492079,0.014317085395405032,-0.03774899296238373,-0.08037614177772481,-0.15946929606761143,-0.12744430976212343,-0.20961858830426305,-0.10789267352422048,-0.2262378680565179,-0.1784921284018718,-0.1401523603915043,-0.14834366157930204,-0.09899521043501915,-0.062097479728105164,-0.11653845517010203,-0.09540062435301977,-0.030600009796457217,0.028577337663636355,-0.0479733566276969,-0.002736251216205528,0.05109131484214155,-0.047266487914362464,-0.011292140732007155,-0.01342944552247301,0.0486580065575163,0.02534956963753315,0.03145581255742925,0.08904552371821998,0.08090360348578875,0.06548574212534893,0.026592049361419276,-0.03800247767334838,-0.03014813450744265,-0.00409201090531172,-0.061299122831029354,0.004873606469335641,-0.02768328732551151,-0.014780583188285646,-0.0850813624902762,-0.035489375171189406,-0.02987680939871152,-0.03613140200959915,-0.04733344985754051,-0.0068963948591312715,-0.063995838569621,0.0546966308753052,-0.041260537799926805,-0.007072570571274403,-0.05894201116692136,-0.09034386094518773,0.04738505543349931,0.030451792590550225,-0.033317397441136314,-0.059288667832292134,0.06080090340989204,-0.029586344644834388,0.083979577982196,0.0840808101102218,0.0378958403053748,0.12266570293592705,0.1866256166082322,0.22343761413346794,0.11099910228655872,0.09978990510764663,0.035593264404692494,0.07234455815289041,-0.014462712550155889,-0.0737729397461373,-0.1027152228040182,-0.08578453236847368,-0.1464891739940321,-0.10882562180759464,-0.009091545241306185,-0.007895326811292973,-0.010476879361527164,-0.011818002292676339,-0.027495822062577866,-0.017299499291287684,0.04644273925296627,0.040489458532214334,-0.030452339101523656,-0.004037135658779241,-0.011885573161266283,0.04704502241871808,0.013968894619163385,0.04280511812985232,0.10385734933767561,0.10561037474988601,0.22273345601021385,0.08374534920354033,0.14045137857605566,0.11754450499686829,0.10646679727180042,0.0567386413415587,0.024122243829147582,-0.008716135616211549,-0.08316754071056291,-0.08354128967546869,-0.02543076148959777,-0.01812923678476157,-0.06843706160871948,-0.07074603940343506,0.029268731108244687,-0.04745682904476073,0.06565734041150131,-0.032860695436314744,0.03222605148756822,0.05170137851767027,0.04001476181198476,0.011932151324631036,0.026203985779587165,-0.006088766307583685,0.057346472488164824,0.12248216086436162,0.16995517095351564,0.1059549351716688,0.1951274726640813,0.14101862054800351,0.21962903563435734,0.11627205171155318,0.10482055311173476,0.08667686154273063,0.0557102332492441,0.0696010764632118,-0.033723907861478865,-0.029402216181385787,-0.05803410663827055,-0.03527285718947617,-0.07186090775466766,-0.04019414878774381,-0.05263099184072784,0.020176758017629335,0.0016222623563617658,0.023607577453293043,-0.010448309151438542,-0.01788676291452454,0.011175943396679601,0.025654771309948095,0.06525502919800272,0.09602677465012252,0.02293183811944025,0.024967585144225587,0.09726283487006203,0.08882996257719573,0.06302678789252826,0.05722231317130158,-0.007671858876427174,-0.03957269373715847,0.06641664094488588,0.049300881599725795,0.08353595508343932,0.014637908705649698,0.017560787804512288,-0.08805416853229123,-0.04094405876649199,-0.05336784828717714,-0.08561261503629487,-0.04951149318515786,-0.041696169484322025,-0.0016763020981014954,0.04224142420762671,-0.05548887182031686,0.04006290204500781,0.04127211941035831,-0.0090589956802519,0.014631775633947392,0.02751468576258161,-0.012742883790790194,0.07152876170352528,0.06891391119723597,-0.0037203277313390196,0.03394294541601315,0.019767667865776124,0.010093253400715962,-0.07089293434568372,0.11861069282863293,0.1250412518395841,0.16093789055595348,0.04939741540145369,-0.0043223657347276736,-0.032408187658648245,-0.01042135891104479,-0.01330495906856465,-0.07244294059463034,-0.11796276119988709,-0.007251869504322603,0.0014480916336089588,-0.04092875672504347,-0.0015936882080183888,0.011371100963405687,0.07936495704827151,0.027335270112409903,0.022579692275271724,0.008265925739534736,0.012147482133022315,-0.009806097284318391,-0.020400605667549945,0.024613783903173,0.008969946397977508,-0.07470629282904055,-0.07822579572700927,-0.15440609042790054,0.02644442705997476,0.1346005866742296,0.13983522731813147,0.1141866600307109,0.10242490304232,-0.018225995042130964,-0.018688129814048986,-0.05430544398583457,-0.0005626207485535577,-0.06898501124688565,-0.09750061037683064,0.032850018484598,-0.030352685032713683,0.027482941115203868,-0.018669324471351563,-0.05617405408762141,-0.0477805900590301,-0.0021966885873398066,0.09664043332974459,0.01876278919628051,-0.01751168323191359,0.011549495662636305,0.007634246601471507,-0.021495635102709194,0.0403864731003915,-0.03902277445163754,-0.07023001288791372,-0.03698722855260514,0.11719524173353457,0.0015146500305884315,0.07122843482879943,0.0774242072332938,0.035181059401426996,-0.03435964828469768,0.056490806540337314,-0.00743047197885798,-0.038669990924012604,-0.0986035187057129,-0.024982453542408474,-0.024101517303781465,-0.03427486184613142,-0.005107993746349021,0.060761253128187906,-0.010246848842161,0.02287043673364614,0.0015567741370626793,0.03927775514723205,-0.05166620562026018,-0.09509407891398707,-0.015334920866109549,-0.004178661054188751,0.04415837847059976,0.0074338709886327325,-0.05783697046777962,0.015820412149067452,0.02226598015033761,0.05724565653584848,0.11782956874565385,0.03753123930192884,0.030456046612786093,0.06027145547194102,0.138090597601113,0.0939636349706858,0.0019602572688708336,-0.022612668737084726,-0.025236739903985443,-0.03247242948657587,-0.1186428284077408,0.010084910431862076,-0.011203307267983667,-0.034928463836441916,0.0011413271254166553,0.03576657727432047,-0.034540644665691726,0.07917514258578734,0.033060167005195956,0.02181353066267771,-0.037575152218349506,0.02618784046991279,-0.005540975312563029,0.056284538654744455,0.022169080912505308,-0.028182853985993832,-0.04484931362916794,-0.04583054995167529,0.07007595816873634,-0.12173815688014879,0.10218864837028058,0.14010996469598094,0.14406458409077605,0.09787238725167134,0.09395082455754847,0.11422555436014176,-0.04758661362998702,-0.012073059428218952,0.050529734334024995,0.034729291937080416,0.05526710376385428,-0.03911129034244634,0.008577173612296202,0.010883499394010817,0.008765130126885587,0.02828164215207569,0.004035176025915432,-0.03862177884012101,0.10345275248386564,0.16384428071013835,0.049578699991282185,0.10279976172018414,0.10042112751061108,0.1297497583639532,0.018702548026143396,0.03623321693204775,-0.002282353345662458,-0.106961779296368,0.025582544736283134,0.06731329147787164,-0.0020330075750854258,0.07801435779384214,0.0334146661021536,-0.01567943985327948,-0.06830891487429269,-0.00463284338758739,-0.03831964631891057,0.04823435923169648,-0.006224864887642583,-0.006313668333089107,-0.07849080311893437,0.02144293455549237,0.023993319303293903,-0.048225953839162825,-0.045690654766976625,0.0007979455678435529,0.05274125668983297,0.1095349556260083,0.11657796301791312,0.06356203210147587,0.12485515663095319,0.08221634976592905,0.13134513525066757,-0.006022278584777687,-0.017783721749835113,-0.08205145279529748,0.018804394814456442,-0.008733951849338964,-0.04809212092011793,0.05281724074802626,0.023081205611217993,0.05255770897033737,0.016157977803548638,-0.01570416459476093,-0.004745582353569936,-0.015023320585433791,0.027723139832565667,0.007808725318848004,-0.00930790166093277,-0.019186065606255426,0.02134968294672539,0.014459915752450375,-0.07309852322842483,-0.0927485305273142,-0.006519227184601386,-0.009791241015409598,0.025863835189370927,0.12099796373596179,0.1261553452018126,0.035493581529011324,0.04716331141568868,-0.09443594426582373,-0.10918577692295856,-0.06871649022765292,0.0021606874852102254,-0.06013347905544415,0.10754969784142995,0.030639816129340233,0.043387227146360924,-0.029257723470210446,-0.13101219060320896,-0.0697808644426852,-0.030360220253366398,0.018382167801263328,0.02295271572324496,0.03614946271419943,-0.0011911587904948075,0.0240424668768293,-0.02826171867613816,-0.05405510117294264,-0.07972056826121135,-0.08739948297564004,-0.11021253108969097,-0.10505233341767017,-0.10329209327057698,-0.055761199241459725,-0.1315991890975074,-0.09554650520472455,-0.1051665266901163,-0.07050372228518811,-0.14721810430873877,-0.05371956975082595,-0.09394530524312443,-0.06752678807881958,0.031284551834095245,0.12623621661229728,0.04658140130113956,-0.10711460092224064,-0.11560493188431446,-0.04119696484683512,0.014138753034558147,0.015147741199114691,-0.008887477910637195,0.02424247479327819,0.04162293532072647,-0.020885093688112127,-0.013577926453575018,-0.025306294310450318,-0.11671103909628155,-0.16135130828549846,-0.23913153647923344,-0.15984946612800868,-0.17041812810354032,-0.2365715279880639,-0.21073777112157047,-0.15792252952105795,-0.13376877568021062,-0.012826474815742565,-0.1438826722829663,-0.04290481316070012,-0.029396961569924964,-0.01202423800770968,0.014640458576502341,0.05428171633321208,-0.014384123361947578,-0.06360964350625486,-0.06972314448801312,-0.004561940175189601,0.02189644213514513,-0.022919828906912642,-0.05031920628673105,-0.035039884391175724,0.00599627966175169,-0.0031597589323043426,-0.008771726849575844,-0.0516061919058083,-0.02584313860792973,-0.09959576765256259,-0.1891692176865082,-0.13925433919726235,-0.1474801267048188,-0.15957954955451395,-0.12679475045925256,-0.05354929703765433,-0.1556357136263324,-0.042283501546489244,-0.08703565007288329,0.05925815246112305,-0.07748773859915363,-7.108738680424381e-06,-0.00182402430287752,-0.009855655235398634,-0.06537855469783078,-0.025104949863692192,-0.031144074426337483,-0.018774584721155823,0.030059310137197138,0.0007378818876472732,0.07892170777581005,0.0363093730904585,-0.011805754600683846,0.04645843243530212,-0.00694318464802929,0.05362243729429898,-0.04078262014771178,-0.05794654317837581,-0.06189330326684729,-0.07692995376207076,-0.10393678331302864,-0.10563466800568201,-0.07482563175979615,-0.030673876685557766,-0.07968640756492962,-0.0913434222432028,-0.1446590133156887,-0.054435826244930555,-0.060837481452829356,-0.031102060251431314,0.0037514931906378803,-0.03668581862824527,0.012334381667447254,-0.0819158058538132,0.07758668575113689,-0.061813811628516034,0.003362918292458275,-0.008426717395815568,-0.028046807421947054,0.024157453019463926,0.037757648721230136,-0.00687851913514713,0.044462054619480565,0.009664825873836928,-0.028178007726762787,0.019119382325847454,0.0013901218445389891,-0.023954926414784847,-0.16063916493465424,-0.08475520115897138,-0.08502618691797774,-0.054645651920451836,-0.08773182895529301,-0.10019910333529813,0.00252058174245978,-0.09340564947384354,-0.0014221000839583703,-0.08494766237050905,-0.036561059728388266,-0.01799979973097557,-0.010622344948145956,-0.04652003504974454,-0.025725203879292675,-0.018869019943811204,-0.042995345579030064,-0.03456896292269512,0.05125449611800806,0.013971750434759459,0.04752955894067163,-0.035222777715319925,-0.008903013957291336,-0.02567290225102045,0.03238553498149572,0.06595279396442069,0.06090166134619624,0.11180510089173328,-0.007207254811383563,-0.007425846791037074,0.007328035907599197,-0.06372296180668824,-0.09476083681077423,-0.08136722398022837,-0.0008932090795742809,0.06650503140891148,0.0491715436203401,0.006334307200772616,0.03699924063923067,0.030129232534916943,0.055865052928846484,0.04216325074236391,-0.01085271962053101,0.014184905811931374,-0.04357013871199433,0.003272159953052972,-0.009604067565700184,0.015340968461168789,-0.04838790048153668,-0.018584994620239343,0.06822805690785237,0.02126184864172566,0.059446569746939674,0.03054734406385522,0.07708032885299015,0.09783088492337484,0.05444005398979869,0.07985738071227211,0.07852970409849928,0.05298860964352032,0.06928945905120701,0.01717344363594347,0.029559580273866896,0.06772391801655747,0.029484809700398216,0.07498098966907361,0.06178743997248474,0.0641805652086948,0.031059678892037135,-0.005507550259570028,-0.007856000434937952,-0.06771034998863054,0.02119750725150473,-0.011885670749256597,-0.05245949559595195,0.03465435668661649,-0.03484079421206265,0.0306961477088815,-0.026346223613362717,0.037444607157495056,0.07835193587434543,-0.034452816724709054,0.020488856176623847,0.07545621291858397,0.07119866068175498,0.07106263042713458,0.08222513197160926,0.041710126915630766,0.05995830588437424,0.11458829297566309,0.1368612339905824,0.0526816930797251,0.021985768702551197,0.10765947256598118,0.023037573828483586,0.019538146357677023,-0.02348512235004957,0.027605127158244702,0.021693270102704863,-0.019084260180127786,-0.042633584786497834,-0.06757500063931245,0.020287796175125147,0.09273197432691267,0.014440103969987569,0.02172578330926261,0.005234329207841865,0.012492539623272405,-0.008312900239784263,0.011192777432787841,-0.02478887023997183,-0.04079277983851097,0.005382490759062461,0.009414083032891847,-0.039240787205623365,-0.01564316653561409,-0.008937720363524675,0.03603405293262403,0.012769774549416517,-0.0012066830033032512,-0.05259768378111022,0.019955469622104316,0.024168192993109672,0.08175274165021187,0.021579750610734628,0.03815996945561288,0.03362491801315146,-0.0647393633982113,-0.004450643473507895,-0.0060587622086599405,-0.016427483035893982
