-1.17960455999622,0.0014151347661927943,0.2085461514900614,-0.664314495023144,1.3723888617498676,2.8547008187444445,0.9807457404416441,-0.7738285698414666,-1.1849346776962646,-0.38771163916262996
-0.18954973617039547,-0.4031301812640247,-1.1911628840823665,0.5315956462965347,-0.504435666399037,0.3075644624188799,2.463673452435753,-1.9248562539891052,0.02483678340195716,0.09893686991920678
-0.04365361715637809,-0.13590375439063476,0.21288113975994902,-1.226645510307256,-0.01279929876216048,-0.5722231039088357,-1.0711624100618784,-0.3210801917978428,-1.9461578992048374,-2.673909091079326
0.31516339033990826,-0.40810569714459466,0.07081944948823285,0.6026012492520394,1.427590202141164,0.6819563809211849,0.6338242088596381,-0.05024975828722478,1.3906809090810728,-0.8314362212564261
-0.4689938135409649,-1.3091202524822951,0.37787969074496947,-0.5334291236642646,0.35574631277596175,0.24449629643004772,2.112228963975159,-0.9383916430204734,0.1595412887300018,-0.0934634503406294
1.4682341421545337,-0.20499896082017846,-1.2887680621884123,-1.6672492561627663,0.016163108404300335,1.2738128298817624,-0.06666980046596298,0.7868333082511503,-0.12231291384128991,-0.7347977644148392
1.1772206561462393,-2.13607526186689,-0.40028038255068543,0.28498489788936004,-0.9635570323896478,0.35359095101153154,0.9121639610829266,-0.15570582349416676,-0.36379615270213994,-0.5596881778398168
-0.5825811501955969,-0.12275929299838136,-0.3482039160663142,-0.16544750915106188,2.645281212500135,-0.8697186729369798,0.15076129862492513,0.0583092273909925,2.088818972093808,-1.1394711120465557
-0.012061350498609014,-0.7551063117959099,0.3126596879558186,1.0436454795196808,-0.7299283726936227,-0.327560173070686,0.8269458838303871,0.08937868315934727,0.04362566341185955,-1.0011431317515072
1.5818394789400987,-0.3965625043767738,-0.4276501622561682,-0.269809306855931,0.9411926230598799,1.1303381057913096,-0.20301510301651954,0.03386912012504619,0.4696397486362474,0.07802415916401083
