1.133744316879205,0.04289223602710889,2.865192178308045,-1.7694850694098363,-0.8544065768139114,-1.170126009974021,1.123799122033932,0.28812057202507785,-0.7033162941598117,0.8265347863493056
-0.2569900294729918,2.6207248953336415,-0.5090436517743081,1.099002456456904,-0.9785797134698218,0.5483648385452895,-0.44869110970801496,-1.2848252834249563,-2.050381119454734,-0.24263433341549215
0.9778961102845293,-0.013657293556500234,-1.3625001902774445,1.4076589274578284,0.42535028998410485,0.7903899908380083,0.4622790352562217,2.593549281081192,0.1881391549445898,-0.790726531954668
1.112338936995829,-2.191701424322219,0.3217249708578932,-0.3856925625331586,1.2982353850817114,0.03451847936365323,-0.7252736431270254,0.17695803509349736,-1.3011456857789425,1.7925004699047482
-0.31538010920912485,0.74261264732741,-0.5676169688353498,0.4662364578620191,-0.0962074062196761,1.9429412084359583,-1.483250969944902,-0.3978954130558077,-0.5198978274739368,-1.254329454548195
-0.017507042235562473,0.8471507123084653,-0.7097924379053622,-0.007942806619826367,0.4386266425362172,0.5601232634471731,-0.5327972089998477,-2.409538434620969,-0.43251244161040003,2.0963456450247278
-0.9550823061405355,-1.0523666140999295,0.2100454676038432,-0.016699313402890624,-0.6977219118363289,-0.008836556314267389,-0.1724582918432436,0.3769166521990102,0.526021406082576,-1.0493459707510566
0.599251500935402,-0.22422662945950622,-0.6136190230284372,1.0554574853891177,-0.009690490210078064,-0.3606184528220583,-0.2658460413467556,0.5218989586302579,0.1962202232817643,0.7265952282387949
-1.8316511667228565,1.0835840632370852,-0.1343758481546154,0.5242514044678432,1.3956415390847474,1.3907623444101807,-1.3662600010182118,0.9822677308111021,0.2849372797367214,1.0367621003200904
-1.536151973011416,-1.0015796427295098,0.213883562740244,-0.9659990411109429,-0.3907531723998494,1.4273178630373924,2.2230529867372124,-0.18763576411054672,0.9789704374940146,0.17020139328599462
