0.4189745155778897,-0.8041099514993839,-0.7969081785444685,-0.605612361699079,0.25427572279195126,0.9251046556776084,0.6136212460502427,-0.6493050374881296,0.2246858263061331,-0.450661087667161
1.6029530762955986,-0.3746330427473116,-0.02353163280911328,-0.3187912757090982,-1.2482655376795426,-0.0892662624402427,0.8576193659234177,-0.0811958211902603,-1.6368120701786206,-0.09452975180079981
-0.7740168965275366,0.01261146248741468,0.8977190226026376,-0.709369358749649,-0.10340834171505248,0.09837216497763633,-1.456653182019659,0.39491440602246686,-0.3928795245405307,-0.8449712397325564
-1.3734800933696707,-0.04748552057026467,0.8144725034575818,0.4278344819916124,-1.1466277692116214,-0.36398925225356804,0.43241568039301653,1.134466458947214,1.4410159809280543,0.18148702721417825
1.0405542048710679,-1.463031135322777,0.4709612473433714,1.5493817542729669,-0.0502942581547086,1.3551067851574732,1.3405187262976663,0.549874919478413,1.6660509858728143,-0.2634155787846968
-0.23182064036794514,1.4750754094008287,0.41269646469025395,-1.2828467027231976,0.09865798658500301,2.9841289286906485,-2.3467670006647405,1.2851252795000472,-0.5828081496336113,0.5683062522278253
0.8242070321613966,-1.3611935218482842,-1.599510819373886,-0.8875490531297294,-0.10273230202063413,-1.6722391740247562,0.7223553316699467,0.5800706411375697,0.2980265355814889,0.16509633005847052
-1.3165473132305385,-0.37249500944196956,-0.01389458301198,0.7088976367200012,0.13295666790987515,1.6936415488582803,0.5791662597532182,-0.010348227110825491,0.4792080807959583,1.5963653359378869
-1.2619518894884496,-0.3737213229796676,-0.3666945102825368,-0.6660580494029784,-0.9860999875564093,0.5917639372148594,-0.4872310119473655,0.5401673937827275,-0.43800649157898236,-1.3457592898157253
1.0720424618285485,1.6041389026095485,0.28542866284913654,0.5831659510666707,1.7068546819533341,0.5147438486280754,1.1529133401546432,0.6226518119116456,1.6622246147912938,0.329233187053869
