-0.7594044940168037,-1.2972791611707863,-1.035680949655246,-0.07211240912204674,0.30860533538186896,-1.136149038088605,-1.322181797014858,-1.902371234457063,2.2485654659729595,-0.004810395175922601
-2.3550710471764553,-0.2960294157664515,-0.14666694419885334,-1.443148643573804,1.235578755093214,-0.36776472376715236,0.1489302519927165,-0.38703494272827915,-0.007957086709173312,1.1262023508852663
0.7162847498436657,-0.40542652296560516,1.5831727607591304,1.5471289604073621,-1.5272299762142534,-1.073355087706997,-0.6361214918150532,1.4940953963076293,-0.279864786992387,-0.48540913561917226
0.16893338811772873,-0.20347455128796169,-0.12229240496647605,-1.0605451323312498,-0.8021282982699991,-0.2635119667600013,1.3751969038603296,1.224614626399039,0.7987905633540292,0.35213107849186837
-2.5377663305214604,1.746362558527105,1.086395966116033,-0.3747766508772418,-0.5852610946531052,0.19254793930308772,0.03031533543422172,-0.7562610642379659,1.4361488416162467,-0.7713194869942761
0.22648306986597508,-1.1846858629953612,-0.2258392854253987,1.1014568156533948,0.06093165876861447,-0.5903451286932905,-2.0173631979828235,-0.34462437516508604,-0.11939115968056224,0.6502171429574599
1.376499549014959,-1.2421015565899547,0.894975764115729,-0.960930398752663,1.2130694851466053,-0.35175799972105887,0.5800655750820856,1.5071716498275451,-1.665544202784107,0.11364322666443541
1.594799836051525,0.8075369525324735,2.1683445171084776,-0.45220085368767504,1.133445361691765,0.7424704502052831,0.12025076007525848,-0.972849390837627,0.20040873897542621,1.9183496300331946
1.1257864429961784,0.5835952942415419,-0.5325600213638998,-1.3354306366043873,-0.21254580558936356,-0.8977653542482625,-0.30930559982241485,1.1165428550991554,1.0945910956744414,1.1422414860938472
0.5712657839201052,-0.41588789333309145,0.42908261944502324,-1.6945383602244795,1.10587686411274,-1.105691930114455,1.37850837926453,-0.6294365689739139,2.16704730862481,-0.2757373552230962
