0.9886618881207772,0.298417816852919,1.1924611942850767,1.0087357182811547,-0.6065385687812505,-1.0663136194727534,-0.9535363852136723,0.27695795176121235,-0.9897225205923336,-0.9402338640501715
-0.5443397945965778,0.40419818090695,-0.8155783243562472,1.0703184758980462,-0.7908047492518785,1.3836966709692726,-1.0209308353388178,-0.1214791363573262,0.12831885694302594,-0.9552603827398505
-0.6475546196005809,0.2588649611436631,-0.48935017015339644,-0.5249208164533158,-0.41743133030574137,0.17161036067972105,-0.8539746478682504,1.6658598846494435,-1.862593929656228,0.040933045529645024
-0.1570599737469972,-0.35480986034097534,-1.3905868382817068,0.6460185946576418,-1.6734010694264956,0.547077669052966,-0.10069198906232833,-0.5621577171930524,-1.281566870813135,-0.7135559710419268
-2.3465221635833102,0.6019331832209136,0.14605438985205538,0.5574507480558342,-1.1990158007425253,-0.5999786305641079,0.5832668444672913,0.20833714740485884,1.1160865991024116,0.4221532693025349
0.34353357318840055,0.13588874468764392,1.4233410174431953,-0.49317820707465376,-0.6397988968917168,0.004984109220872137,-0.04916945620705633,-0.24140263869661807,0.8518875740688574,0.38460898658457054
-0.5016067633364886,2.192175274218068,-0.5510818684582885,0.6012173405288705,-0.8488732774132182,-0.5321797298729555,-0.33151121149608287,1.8490095369039743,0.13335650647480843,0.052857725967453265
-1.348424864352803,0.2620875645767611,-1.0694253981698671,-0.6683054237964484,0.4519524667470374,-0.463368900625373,1.5275298505973758,1.3011697141384195,0.18616658910820727,0.02902906168602686
-0.18641912345535858,0.3936084337856604,0.49261726818664464,-0.2568172446369365,-1.1734200710393607,0.22846550450856543,0.1680840987524306,-0.6676592086345965,-0.0565427633726284,-0.8735805234010007
0.5646313137703997,0.15006086270109686,0.1615693234577071,0.7725465900675687,2.1917399057466116,0.060558038011684405,0.6046898515886502,1.0963092752482655,-0.08647097020288753,0.8973922876819442
