1.0021248740718975,0.545048687662654,-1.2458199541269448,1.289504557327364,-0.8730142866553948,-1.3137143040152799,1.2235239019166837,-0.32699122465266406,0.8465127014975053,0.593982111057279
-0.935845297431675,-1.5789371788603306,1.7490971550617564,0.6652416469150636,1.454394074213675,-0.191394420188259,1.2421098936320167,1.7147453308481095,-0.2633665566485048,-0.2894065036438301
0.09475170396076801,0.06798697150890216,-2.6193303387910274,-0.9489979142633381,0.29565199196032144,0.2814725708836537,0.27009950497603,-0.32364445468237424,-2.077404772315473,0.08797434698515606
0.21508361862481115,-0.8868630415887797,0.3532464282679302,0.247063895910268,-0.5477975107935473,-0.12195458812522342,0.8449270100511503,0.3263510428304492,-0.932115540149052,1.571037073447644
1.1609922625167368,-0.8462658995538311,-0.6938489160881847,-0.6226325695943126,0.5629155157494352,0.649678085097144,0.6170022426019257,0.7293319391204882,-1.2176973442894008,-0.510777825548002
-1.9266098122462245,0.7768243248913301,1.052673189817644,1.118093790188322,-0.40926988016592253,0.3199968985717329,0.40593600233911903,1.5145613187840243,-1.8798978773801804,0.7629976727384131
-0.35291071917435574,-0.4630203250389672,0.6373662441063715,0.4373506205355916,-0.8420993571802764,0.5235759234517033,0.4191808561193583,1.6408176447781433,0.3089968374602034,0.8000129384257711
-1.5034355788205334,-0.4930419447851446,-0.9324332486935323,-0.03878548380861345,1.7189349210159424,-1.7367424063254706,-0.31615694441246095,-0.03568788105729214,-0.510599700513538,1.3564221859613033
1.1614390496741576,1.018846169588585,-0.28355308193059314,-0.14080355023762844,0.5123361802416324,0.12571226362910246,-0.7875283749648629,0.7578894804244601,-2.0517695325306637,1.0830374888305325
1.7658178695723545,0.33231880720861817,0.8827817852338282,-0.019644947639202843,-0.9649472512501753,1.3719230921391383,-0.8276352011851728,2.2421573712347613,-0.35662235037103807,0.1408015199755643
