0.8404136419551286,0.12204909950756336,1.1962579885039204,0.9489113554026667,-0.5751313296598339,-0.9114302048683538,-1.0320634797148425,0.23309914027932538,-0.9778843196118844,-0.9584340268077793
-0.6710856252588796,0.4063584137933077,-0.7076327364338028,1.003372799243343,-0.7807686313935117,1.3760438501335082,-1.084637858696525,-0.18784447710455598,-0.09627032373263142,-1.1277010502809859
-0.759438410584363,0.21314945381522707,-0.46824620234262504,-0.58704953750173,-0.4038339168091307,0.21987431710356373,-0.8219527813299127,1.5600367299270648,-1.8142420725455253,-0.008585324885486979
-0.13384226572118144,-0.3592198237845899,-1.3998330052918628,0.6254792872374239,-1.6402413686932251,0.4505953208507,-0.12265420572539158,-0.5584185091265258,-1.3481957708304255,-0.5549432932015222
-2.399532317245104,0.6480495754901854,0.0970145957929872,0.5039546154104986,-1.2168792681614353,-0.6200421438717444,0.5103128276455055,0.13612965569351024,1.0297260439684481,0.38255045012553907
0.2856566487832847,0.056322076757930745,1.3453259344335156,-0.5030678986265749,-0.6048883195084791,0.024129951139574102,-0.03561632798545068,-0.3498934638127801,0.9517719444393481,0.4326197059476356
-0.46135186470785294,2.223342420719983,-0.6948054332264457,0.4867080687525893,-0.94053322250819,-0.5149432599098733,-0.3711055686633346,1.9537047765201145,0.07472631556694027,0.06568784459872161
-1.3702809624720187,0.28935868907758205,-1.0476259905696856,-0.6082139948000116,0.5088296537215362,-0.35915529245496464,1.548760356732651,1.3880439766304358,0.05206553001757913,-0.058948789318525346
-0.2842217901864675,0.4926998305312613,0.5559039146586565,-0.13164004703467075,-1.2160118416530206,0.22615124439923895,0.12392802745634832,-0.7317056021484178,-0.1809239920175615,-0.7605372657038696
0.5505566627456562,0.07119589406365164,0.25829265597504575,0.7858014983920013,2.2213459769886272,0.017861945101912958,0.6747049808417293,1.0025942167649093,-0.27441213124261066,0.8899314258754729
