0.04215949319421407,0.38166227690039123,-0.6233508882890604,-0.3054314945403425,1.2369733031405403,-1.3561407781706958,-0.6905477377930292,-0.8646739113983397,-0.06983295958995182,0.15159897129210412
-0.162194725775503,0.24539172422031524,0.9422795763850368,0.7963094201061321,-0.23366606363621675,0.30337645848197653,-0.9500915253502219,1.237736477460611,0.25742071757193286,-2.4522270970829085
-0.31379252900886156,-0.8905741656471172,0.986131092834632,-0.614848940391845,-0.6762935502382467,-0.4888665983843504,-1.8038115334105307,-1.5025463913332064,0.4513309008768308,-0.789312727278554
0.983354471445433,-1.004130722407735,0.09702904095513759,-0.3986016873159589,-1.0369983655708324,0.09463169905273724,-0.688353064455117,-0.01504601030754527,0.42797619868743986,-1.0009250515972437
2.462266673069503,-0.6089982291638258,0.7915418439351926,-0.023296788234638488,0.06687815771210388,0.22155300235300396,-0.7230890465589739,-0.0340890865212114,-0.04412391055185793,0.10222009795584064
-0.3791149014484987,-0.04415983189906111,-1.273632698002304,-0.2570754439878091,-0.6155003667712987,0.02827908106807454,0.4328633318092514,0.005115731210378118,1.8486444431301787,-1.3875982498458033
1.3014509089131163,0.4681100515967809,-0.0229103787021784,-1.8853681211795899,0.585230231482279,-0.24772979990586058,0.2267501670939262,-1.3966703457958323,-0.5898691790014912,-0.13400421984353358
1.3516737512954589,-0.4465128706391718,-1.8458760002322212,0.2996631345534893,1.6427731664901084,-0.24713761368022763,-0.7900520787748605,0.27813893705249554,-1.427221823873497,0.1595805283666154
-0.2587828402017695,-0.26138914038707944,-0.22515686630137768,-0.6994417236398675,-0.5719369689829704,-0.7421832358699882,0.2839464863526015,0.07449448268884225,-0.491707167907218,0.5212720369408744
0.4845724814701732,1.755350644396781,0.9631930102381017,-0.030334915201621147,-1.1365003571141497,0.1729940617017819,-1.1790757382499966,0.6211921978732966,-0.37665608680321216,1.2313473091272609
