1.125605102750345,0.5671420184375862,-1.2116109788330032,1.4097512421526315,-0.8421196726933524,-1.3667332446229967,1.2157949152522234,-0.312756599846716,0.8382604180880379,0.5985993763991356
-0.8944816571046161,-1.502112573634804,1.8764709232526304,0.7157352204404623,1.478530405170811,-0.1897707212545833,1.1505630061494725,1.6505336418118477,-0.2323298330730969,-0.24451023430400137
0.0430340150645968,-0.055380756174557816,-2.6697916034942937,-0.9584837461790185,0.2863190846673939,0.28926389246493567,0.2649491280561493,-0.30547831997537606,-2.0646037862327353,-0.06507509557997833
0.16728983384116441,-0.939557144469315,0.28973948476216244,0.2342882151896908,-0.5192692122541555,-0.1237558647931242,0.8279370797409149,0.283118367657734,-0.9755997085891488,1.5361568945233512
1.1227996051134028,-0.7969890308448772,-0.7135926484049431,-0.6306628845135681,0.5472123416521578,0.6769919670761393,0.6183257286039031,0.7006997238066478,-1.2702072614931532,-0.4879670492060337
-1.8624405360599312,0.8742227600926243,1.0411880689616588,1.0850968845705513,-0.40079559261023523,0.3325100892735036,0.38939436289270096,1.498299660543979,-1.885970675880841,0.8033297053210893
-0.37576665031219114,-0.42409852590666086,0.6065120939279779,0.4331456993207502,-0.8583129860242177,0.49636949232878985,0.4061312564457427,1.6564032951002436,0.24898952436600708,0.7543155082216854
-1.5126139667951497,-0.5395848237665886,-0.9764815586157644,-0.055943526090545946,1.7069615430716831,-1.725749398742703,-0.3069746989596187,-0.0575489694357074,-0.5063466022851939,1.3753670400585036
1.1547821585483558,1.0614744499681286,-0.31036248411851985,-0.1210882207319351,0.5242122262872282,0.14430297561550745,-0.8221394348625978,0.6095082701504524,-2.110371059393562,1.1171111601706445
1.7276020258468159,0.3423477907993949,0.9349848189132722,-0.027844664253012807,-1.0138481533243662,1.322061335464868,-0.8753131468247991,2.1633357331452827,-0.5153454806929454,-0.050648141707759047
