1.108556885564518,0.9283895301761507,-0.4201889140597531,0.6892971590741976,-0.042924806802652475,0.12446565550126919,1.0639527287688773,2.419156094187399,-1.3895684586206227,-0.28894155228327484
1.1871936216071195,-0.20872172174483997,-0.4319053390191604,1.6074272567054528,-0.03186289560448428,0.8442794081331324,-0.21929054894345115,-1.6477210842640824,-0.5168599961021075,0.6746592004561651
0.17660030381781425,-0.801650671866618,2.0301349605761763,0.09716107467607141,-0.9517763606577607,1.3189821730735307,0.8992188791585066,-0.5330699591462115,0.7196959024343768,0.8690156482208115
0.5191495181863972,0.1572320527845621,-1.8510334158624215,-0.411881232141428,-0.08826783438793032,-0.6552717584747986,-0.32731715953477575,0.6744817853733195,-0.424663223450791,-1.6204803326994082
-0.6109087489017104,-0.5453771423632734,-0.14326700637717898,-1.2892083121105757,-0.3765500435530312,-0.8676356355767247,0.8291314993689652,-0.08976189446260358,0.537488609154852,0.231335771879032
-1.3005781570876809,-0.028961291793260426,1.6502234909817495,-1.6414095398965578,0.9385413029196267,0.16757033318467957,-1.63447884725861,0.6389910994523655,0.9874582160097315,-0.10845287213656644
0.34653655895099167,1.8677765719408999,-0.6335300381095457,1.8535677951688168,1.6540121914808958,-1.2785515584146894,0.07878193808844884,0.028681747325401342,1.2197290049535208,1.1854879575052621
1.5594276904755495,-1.6145784523182911,1.387888132123529,0.6202187948563851,-1.8442610575392009,1.333954346514105,-1.1223130103709742,0.6883892586227105,-0.5770704478570527,-0.24914285265720698
0.3755109201825238,-0.1952271092144957,-1.436404490436693,0.25119020423945126,-1.1671234480968817,0.6134149625000932,-1.3115247811508104,0.15756816095917417,0.4599091146700943,2.0471206954222003
-1.9403030817842448,0.3505092384105183,-1.2316876684777815,0.5456891421638443,-0.0877210966788588,0.7439582346227631,1.4498702546176456,-0.2822745851061178,-0.08038423856934583,0.8834430149848059
