0.7642080227641533,1.0044835892405815,-0.8080046174459584,-0.17839794107609366,-0.18547364058648058,-0.5830039350254851,-2.3685574383013415,-0.7396466091818709,-0.8402753823191528,0.2504781750247091
0.5098916316127848,0.3230403308285078,0.2766492360541243,-0.9166269217121763,-1.3650893212556003,0.7629662692314809,-1.4081734317588535,1.9371504880002874,0.2538930643669913,0.002742659021317915
0.41387441022293037,-0.3782892513183928,0.6822997540068937,-0.1309807128311918,-0.8709398283804172,0.39680360776298357,2.7359292690765553,-1.0945602760986095,-0.22066864078073212,1.4007156318827052
-0.5053533729271548,1.3451840042162875,1.1296185058639427,0.0058154371784587405,-0.1703598477733067,1.0137247144291492,-0.774849230739561,0.8194783204413821,1.3906568170018618,1.2445503224632466
1.0281931429826996,-0.9430888386256112,0.7334231433340425,-0.15129526788100833,-1.0473827921268062,-0.16515948289292628,-1.4186638566935912,-0.2574707571155314,-0.1725667833178198,0.549053193860364
1.1492891326254733,-1.4006670840699038,-1.2545007713983352,-2.0866288816246312,0.8448631916793756,-0.6292296486873168,-0.5898331287482552,-0.06393518612801491,-0.005009710501231661,0.6916358219427813
-2.1498877084659695,-0.14151985650105162,-1.2490847424502944,1.646566500601692,0.5422129259468279,0.35587545824172095,2.178826448429198,-0.01577202705675147,0.8654401384580377,-1.5108145920865568
0.24950191345846418,2.280823958388059,0.5388429158655644,-0.6867943975895424,-0.9367664478174189,-1.5009948761377208,0.4470151411514541,0.8457589882249955,0.11492722091976516,-0.7698781121136878
0.28272256372959587,-0.6366994789208617,1.2844795536000422,-0.4007160551380457,-0.9101240151576557,-0.4753354563318062,0.48520180091230386,-1.1420111448584216,0.6930801921168137,-0.2684576925987735
0.07153058888429484,-0.2127800795745853,2.2280245827513343,-0.1117260012204948,0.8987105374360502,2.485835752660991,0.37818726531120633,1.919902339339417,-0.06538960945848483,0.6230337211894164
