0.969482388645906,-2.22680165264348,-1.3299084886420884,-0.3359467397647791,0.7953755052494651,0.866220369752393,-0.5664688273043075,2.096844951650607,-1.8727950652577683,-0.35553176361138333
0.6369657822612975,-0.4457869184191719,-0.947302300228592,1.307976285451894,-0.056646927565155165,0.26999243954315016,1.133870945776932,-0.8513760744424809,0.16514017097189257,-0.5034474763437697
-1.1919171907925474,1.0494809366618998,0.43966698292878004,0.22595065608755283,0.00813584586938164,1.3854325827133305,-2.5567358803545206,-0.322958816718781,-1.531384475924742,0.18732654658494666
1.2260507504580385,-0.8685294557980451,1.498484387340049,0.3577792964724215,0.6921856029077411,0.830719802324569,0.3384883305718537,-0.9592552626114278,-0.6240714481745794,-0.08004119892444926
-0.4775945438431396,0.580296451912951,-2.2734386861357265,0.42006023220010813,-0.10995584483128192,-0.24891579882955603,-0.12755998185309497,-2.1323718796993125,0.701671905863454,-0.006606988855295195
2.5290331427816652,0.717582763408814,0.26810434997479365,-1.0531175714522116,-0.86426597653855,-0.9417164035058737,1.9083412078563442,-0.8399670719992016,-1.557210447918024,0.9169263078078804
0.8125017543856181,-0.14851278705542673,0.9586822406527671,0.3244056267290936,-1.325759597447133,2.066740539407833,-2.2167142402713624,-0.3574241942315252,1.4870844853492646,1.9766918544782435
-0.9136166524323797,-0.04898138660193333,-0.9984094747163539,1.4449310503906447,0.2899537979963397,-0.3626944300340554,0.5919060392590966,-1.541205862356091,-1.2493059202056531,0.26977000211841884
1.2834665992687482,-0.2906593824025518,0.31350732223164546,-1.0473289754864727,1.8214101319333555,0.8578699168938968,1.2776080381675232,1.629309939563106,-0.23005920593142162,-0.2954712525448002
-2.075999480218897,-0.3223082215857238,0.6244013901259514,1.0464708106619858,0.2710955938954424,-0.03589975609081448,0.9462902811047806,0.4076149198273073,-0.5724540824732468,-0.1702531496369927
