-0.14396369070248916,0.5868182065354569,-1.123408808217235,0.27367376405044314,-0.9889981063085734,0.7434782043998721,0.4213851861873991,0.28499542692302726,1.2804086685810576,0.15999055028532289
-2.290108577870836,-0.8728578439859672,-0.818759064450304,0.7195399121426785,-0.20516143587189176,-0.6295071591463008,-0.895817261850944,-0.30926145832636937,0.4577658951383443,0.9632355638760475
0.11282210600846904,-0.403540969637925,-0.09239187244829561,-1.4363099099748153,-0.4927088582681154,1.3151537958948025,1.07591354568955,2.2653590738704423,-0.6186982359883979,2.7265044854777054
-0.5391891371803038,-0.6548134541112844,0.11140866040065976,0.4487720373937315,0.2009638395569559,-0.10154334913742648,2.0288692804205644,-1.0968870206165893,-1.0507669925207073,0.1707919911967042
-0.1067015385760762,0.1325641965600629,2.2524141125558277,1.6681161126980255,0.6537310677474303,-0.7284593280431635,0.24290630095231133,-1.7644910846297395,-0.8310000269488449,0.6997393184585347
-0.9512091659855109,-0.5802825770862702,0.1032870587023141,-3.053117234184497,0.2826089180556335,0.3183444318298709,0.6208541259825912,1.75997891979376,-0.4941910527959568,-0.3671934475303237
-0.7918544476136165,-0.5859906226262935,-0.7273880376040704,-0.6166017829324145,-1.9579705846302293,-1.2940212583324113,0.8072904816783428,-0.3765053273977109,-0.47732307400035895,-0.5210931068714804
0.29937523596197974,-1.3935034580798191,0.8257384337658168,-1.9992968447722164,0.9205898471563222,0.3062318413301265,-2.0882475925912813,0.08158286383686428,0.3035450569859159,-1.3032514464445122
-0.06523721146602184,-1.5122515243518888,0.8761121478996357,0.6354545413411978,0.02797766751177515,-2.46660624781753,-0.08239804020753502,-0.16623733977269006,-0.6842833986877063,-1.5737956202090801
-0.8051675726827625,-0.41318420178704207,-0.0760003026507542,0.7581090955875238,0.6520620471840111,0.23795834066073443,-0.9364463966865771,0.10163163456794294,0.6165100570012764,0.8186410532053076
